svm_type c_svc
kernel_type rbf
gamma 0.5
nr_class 7
total_sv 1518
rho 1.89794 0.532924 -13.7489 1.24326 -0.661173 9.3653 -0.348449 -2.48597 -0.277016 -2.22515 -1.00662 -0.61481 0.292433 -0.931892 -0.208453 1.53492 3.06331 11.3324 -1.75306 -0.631635 7.22669
label 1 2 3 4 5 6 7
nr_sv 274 245 91 163 180 84 481
SV
0.3264406974246596 0 0 0 11.0742513619066 27.37208298386281 1:0.971174 4:-1 9:-1 11:-1 13:-1 14:-1 15:-1 16:-1 17:-1 18:-1 19:-1 20:-1 21:-1 22:-1 23:-1 24:-1 25:-1 26:-1 27:-1 28:-1 29:-1 30:-1 31:-1 32:-1 33:-1 34:-1 35:-1 36:-1 37:-1 38:-1 39:-1 41:-1 42:-1 46:0.971174 47:-1 48:-1 51:-1 52:-1 53:-1 54:-1 55:-1 56:-1 57:-1 58:-1 59:-1 60:-1 61:-1 62:-1 63:-1 64:-1 65:-1 66:-1 67:-1 68:-1 69:-1 70:-1 71:-1 72:-1 73:-1 74:-1 75:-1 76:-1 77:-1 78:-1 79:-1 80:-1 81:-1 82:-1 83:-1 84:-1 85:-1 86:-1 87:-1 88:-1 90:-1 91:0.971174 92:-1 93:-1 94:-1 95:-1 96:-1 97:-1 98:-1 99:-1 100:-1 101:-1 102:-1 103:-1 104:-1 105:-1 106:-1 107:-1 108:-1 109:-1 110:-1 111:-1 112:-1 115:-1 116:-1 117:-1 118:-1 119:-1 120:-1 121:-1 122:-1 123:-1 124:-1 125:-1 126:-1 127:-1 128:-1 129:-1 130:-1 131:-1 132:-1 133:-1 134:-1 135:-1 181:-0.836152 220:-1 221:-1 222:-1 223:-1 224:-1 225:-1 226:-1 227:-1 228:-1 229:-1 230:-1 231:-1 232:-1 233:-1 234:-1 235:-1 236:-1 237:-1 238:-1 239:-1 240:-1 241:-1 242:-1 243:-1 244:-0.924585 245:-0.777347 246:-0.878872 247:-1 248:-0.663763 249:-0.733763 250:-0.910385 251:-0.23982 252:-0.692872 253:-0.859313 254:-0.85893 255:-1 256:-0.801933 257:-0.901345 258:-0.902079 259:-0.785555 260:-0.849237 261:-0.725157 262:-0.359709 263:-0.769489 264:-0.7681 265:-0.845282 266:-0.972083 267:-0.941442 268:-0.927036 269:-0.71711 270:-0.808789 271:-0.965328 272:-0.729784 273:-0.918258 274:-0.745475 275:-0.926675 276:-0.978834 277:-0.952371 278:-0.942888 279:-0.756183 280:-0.85897 281:-0.832921 282:-0.901842 283:-0.876689 284:-0.873484 285:-0.741435 286:-0.819914 287:-0.898456 288:-0.95871 289:-1 290:-1 
2.401878912274258 1.046629782929588 0 1.763181332533801 1.874567302265934 10.32043879992614 1:0.971351 4:-1 9:-1 11:-1 13:-1 14:-1 15:-1 16:-1 17:-1 18:-1 19:-1 20:-1 21:-1 22:-1 23:-1 24:-1 25:-1 26:-1 27:-1 28:-1 29:-1 30:-1 31:-1 32:-1 33:-1 34:-1 35:-1 36:-1 37:-1 38:-1 39:-1 41:-1 42:-1 46:0.971351 47:-1 48:-1 51:-1 52:-1 53:-1 54:-1 55:-1 56:-1 57:-1 58:-1 59:-1 60:-1 61:-1 62:-1 63:-1 64:-1 65:-1 66:-1 67:-1 68:-1 69:-1 70:-1 71:-1 72:-1 73:-1 74:-1 75:-1 76:-1 77:-1 78:-1 79:-1 80:-1 81:-1 82:-1 83:-1 84:-1 85:-1 86:-1 87:-1 88:-1 90:-1 91:0.971351 92:-1 93:-1 94:-1 95:-1 96:-1 97:-1 98:-1 99:-1 100:-1 101:-1 102:-1 103:-1 104:-1 105:-1 106:-1 107:-1 108:-1 109:-1 110:-1 111:-1 112:-1 115:-1 116:-1 117:-1 118:-1 119:-1 120:-1 121:-1 122:-1 123:-1 124:-1 125:-1 126:-1 127:-1 128:-1 129:-1 130:-1 131:-1 132:-1 133:-1 134:-1 135:-1 181:-0.733011 220:-1 221:-1 222:-1 223:-1 224:-1 225:-1 226:-1 227:-1 228:-1 229:-1 230:-1 231:-1 232:-1 233:-1 234:-1 235:-1 236:-1 237:-1 238:-1 239:-1 240:-1 241:-1 242:0.0406398 243:-1 244:-0.923195 245:-0.924415 246:-0.93832 247:-0.719643 248:-0.931513 249:-0.783084 250:-0.726199 251:-0.741936 252:-0.895737 253:-0.785079 254:-0.784494 255:-0.928325 256:-0.932761 257:-0.949763 258:-1 259:-0.890801 260:-1 261:-0.760077 262:-0.648872 263:-0.624383 264:-0.858295 265:-0.842429 266:-0.886273 267:-0.970182 268:-0.950461 269:-0.942379 270:-0.740352 271:-0.929378 272:-0.828002 273:-0.979188 274:-0.902794 275:-0.87554 276:-0.784441 277:-0.757467 278:-0.854589 279:-0.91723 280:-0.979482 281:-0.878458 282:-0.780071 283:-0.979069 284:-0.957051 285:-0.901251 286:-0.915351 287:-0.645432 288:-0.789747 289:-0.984182 290:-1 
2.712966258419193 0 0 0 0 49.73850991803821 1:0.970174 4:-1 9:-1 11:-1 13:-1 14:-1 15:-1 16:-1 17:-1 18:-1 19:-1 20:-1 21:-1 22:-1 23:-1 24:-1 25:-1 26:-1 27:-1 28:-1 29:-1 30:-1 31:-1 32:-1 33:-1 34:-1 35:-1 36:-1 37:-1 38:-1 39:-1 41:-1 42:-1 46:0.970174 47:-1 48:-1 51:-1 52:-1 53:-1 54:-1 55:-1 56:-1 57:-1 58:-1 59:-1 60:-1 61:-1 62:-1 63:-1 64:-1 65:-1 66:-1 67:-1 68:-1 69:-1 70:-1 71:-1 72:-1 73:-1 74:-1 75:-1 76:-1 77:-1 78:-1 79:-1 80:-1 81:-1 82:-1 83:-1 84:-1 85:-1 86:-1 87:-1 88:-1 90:-1 91:0.970174 92:-1 93:-1 94:-1 95:-1 96:-1 97:-1 98:-1 99:-1 100:-1 101:-1 102:-1 103:-1 104:-1 105:-1 106:-1 107:-1 108:-1 109:-1 110:-1 111:-1 112:-1 115:-1 116:-1 117:-1 118:-1 119:-1 120:-1 121:-1 122:-1 123:-1 124:-1 125:-1 126:-1 127:-1 128:-1 129:-1 130:-1 131:-1 132:-1 133:-1 134:-1 135:-1 181:-0.903051 220:-1 221:-1 222:-1 223:-1 224:-1 225:-1 226:-1 227:-1 228:-1 229:-1 230:-1 231:-1 232:-1 233:-1 234:-1 235:-1 236:-1 237:-1 238:-1 239:-1 240:-1 241:-1 242:-1 243:-1 244:-1 245:-1 246:-0.946246 247:-1 248:-0.880629 249:-1 250:-1 251:-1 252:-1 253:-1 254:-0.874793 255:-0.875072 256:-0.648413 257:-0.868658 258:-0.855151 259:-0.746225 260:-0.899643 261:-0.860607 262:-0.868856 263:-0.918164 264:-0.588353 265:-0.794019 266:-0.801777 267:-0.818095 268:-0.805723 269:-0.849353 270:-0.71715 271:-0.907681 272:-0.880085 273:-0.836761 274:-0.661144 275:-0.913228 276:-0.8685 277:-0.725227 278:-0.721208 279:-0.855734 280:-0.892711 281:-0.788156 282:-0.808335 283:-0.799352 284:-0.737992 285:-0.799196 286:-0.97541 287:-0.97425 288:-0.951138 289:-0.958645 290:-1 
0.9047618299709136 0 0 0 0 10.97483186642622 1:0.968643 4:-1 9:-1 11:-1 13:-1 14:-1 15:-1 16:-1 17:-1 18:-1 19:-1 20:-1 21:-1 22:-1 23:-1 24:-1 25:-1 26:-1 27:-1 28:-1 29:-1 30:-1 31:-1 32:-1 33:-1 34:-1 35:-1 36:-1 37:-1 38:-1 39:-1 41:-1 42:-1 46:0.968643 47:-1 48:-1 51:-1 52:-1 53:-1 54:-1 55:-1 56:-1 57:-1 58:-1 59:-1 60:-1 61:-1 62:-1 63:-1 64:-1 65:-1 66:-1 67:-1 68:-1 69:-1 70:-1 71:-1 72:-1 73:-1 74:-1 75:-1 76:-1 77:-1 78:-1 79:-1 80:-1 81:-1 82:-1 83:-1 84:-1 85:-1 86:-1 87:-1 88:-1 90:-1 91:0.968643 92:-1 93:-1 94:-1 95:-1 96:-1 97:-1 98:-1 99:-1 100:-1 101:-1 102:-1 103:-1 104:-1 105:-1 106:-1 107:-1 108:-1 109:-1 110:-1 111:-1 112:-1 115:-1 116:-1 117:-1 118:-1 119:-1 120:-1 121:-1 122:-1 123:-1 124:-1 125:-1 126:-1 127:-1 128:-1 129:-1 130:-1 131:-1 132:-1 133:-1 134:-1 135:-1 181:-0.898439 220:-1 221:-1 222:-1 223:-1 224:-1 225:-1 226:-1 227:-1 228:-1 229:-1 230:-1 231:-1 232:-1 233:-1 234:-1 235:-1 236:-1 237:-1 238:-1 239:-1 240:-1 241:-1 242:-1 243:-1 244:-1 245:-1 246:-0.956684 247:-0.901558 248:-0.855712 249:-1 250:-0.935906 251:-0.81877 252:-0.707119 253:-0.647827 254:-0.79821 255:-0.748325 256:-0.669463 257:-0.611925 258:-0.673176 259:-0.744377 260:-0.649561 261:-0.887674 262:-0.577283 263:-0.538381 264:-0.436084 265:-0.778687 266:-0.5208 267:-0.581191 268:-0.756473 269:-0.656047 270:-0.794866 271:-0.90081 272:-0.855054 273:-1 274:-0.886226 275:-0.947558 276:-0.939448 277:-0.965936 278:-1 279:-0.941873 280:-0.827087 281:-0.965858 282:-0.943837 283:-0.911807 284:-0.894434 285:-0.907536 286:-0.970277 287:-1 288:-0.990156 289:-0.977784 290:-0.987635 
0 0 5.105474761617511 0 18.27955127370679 16.37680355083364 1:0.971469 4:-1 9:-1 11:-1 13:-1 14:-1 15:-1 16:-1 17:-1 18:-1 19:-1 20:-1 21:-1 22:-1 23:-1 24:-1 25:-1 26:-1 27:-1 28:-1 29:-1 30:-1 31:-1 32:-1 33:-1 34:-1 35:-1 36:-1 37:-1 38:-1 39:-1 41:-1 42:-1 46:0.971469 47:-1 48:-1 51:-1 52:-1 53:-1 54:-1 55:-1 56:-1 57:-1 58:-1 59:-1 60:-1 61:-1 62:-1 63:-1 64:-1 65:-1 66:-1 67:-1 68:-1 69:-1 70:-1 71:-1 72:-1 73:-1 74:-1 75:-1 76:-1 77:-1 78:-1 79:-1 80:-1 81:-1 82:-1 83:-1 84:-1 85:-1 86:-1 87:-1 88:-1 90:-1 91:0.971469 92:-1 93:-1 94:-1 95:-1 96:-1 97:-1 98:-1 99:-1 100:-1 101:-1 102:-1 103:-1 104:-1 105:-1 106:-1 107:-1 108:-1 109:-1 110:-1 111:-1 112:-1 115:-1 116:-1 117:-1 118:-1 119:-1 120:-1 121:-1 122:-1 123:-1 124:-1 125:-1 126:-1 127:-1 128:-1 129:-1 130:-1 131:-1 132:-1 133:-1 134:-1 135:-1 181:-0.830792 220:-1 221:-1 222:-1 223:-1 224:-1 225:-1 226:-1 227:-1 228:-1 229:-1 230:-1 231:-1 232:-1 233:-1 234:-1 235:-1 236:-1 237:-1 238:-1 239:-1 240:-1 241:-1 242:-0.648257 243:-1 244:-0.922118 245:-0.84671 246:-0.74982 247:-0.715713 248:-0.791658 249:-0.890022 250:-0.907454 251:-1 252:-0.577103 253:-0.782066 254:-0.854316 255:-0.781959 256:-0.795455 257:-0.643413 258:-0.865169 259:-0.77854 260:-0.766458 261:-0.716166 262:-0.694814 263:-0.714338 264:-0.808411 265:-0.86685 266:-0.913509 267:-0.939527 268:-0.924649 269:-0.941571 270:-0.835445 271:-0.820971 272:-0.965118 273:-0.957792 274:-0.770005 275:-0.899036 276:-0.846994 277:-0.950813 278:-0.97051 279:-0.748208 280:-0.854357 281:-0.802807 282:-0.979726 283:-0.978776 284:-0.978224 285:-0.866489 286:-0.814024 287:-0.835212 288:-0.786799 289:-0.983961 290:-1 
0.4035995664284119 0 0 0.6869836071722777 0 33.29406422296785 1:0.969173 4:-1 9:-1 11:-1 13:-1 14:-1 15:-1 16:-1 17:-1 18:-1 19:-1 20:-1 21:-1 22:-1 23:-1 24:-1 25:-1 26:-1 27:-1 28:-1 29:-1 30:-1 31:-1 32:-1 33:-1 34:-1 35:-1 36:-1 37:-1 38:-1 39:-1 41:-1 42:-1 46:0.969173 47:-1 48:-1 51:-1 52:-1 53:-1 54:-1 55:-1 56:-1 57:-1 58:-1 59:-1 60:-1 61:-1 62:-1 63:-1 64:-1 65:-1 66:-1 67:-1 68:-1 69:-1 70:-1 71:-1 72:-1 73:-1 74:-1 75:-1 76:-1 77:-1 78:-1 79:-1 80:-1 81:-1 82:-1 83:-1 84:-1 85:-1 86:-1 87:-1 88:-1 90:-1 91:0.969173 92:-1 93:-1 94:-1 95:-1 96:-1 97:-1 98:-1 99:-1 100:-1 101:-1 102:-1 103:-1 104:-1 105:-1 106:-1 107:-1 108:-1 109:-1 110:-1 111:-1 112:-1 115:-1 116:-1 117:-1 118:-1 119:-1 120:-1 121:-1 122:-1 123:-1 124:-1 125:-1 126:-1 127:-1 128:-1 129:-1 130:-1 131:-1 132:-1 133:-1 134:-1 135:-1 181:-0.906827 220:-1 221:-1 222:-1 223:-1 224:-1 225:-1 226:-1 227:-1 228:-1 229:-1 230:-1 231:-1 232:-1 233:-1 234:-1 235:-1 236:-1 237:-1 238:-1 239:-1 240:-1 241:-1 242:-1 243:-0.645615 244:-0.94152 245:-1 246:-0.953036 247:-0.946634 248:-0.947854 249:-0.95871 250:-0.930509 251:-1 252:-0.920614 253:-0.890906 254:-0.890609 255:-1 256:-0.897608 257:-0.770498 258:-0.924069 259:-0.778281 260:-0.707732 261:-0.786876 262:-0.847229 263:-0.785504 264:-0.748246 265:-0.820038 266:-0.675279 267:-0.750257 268:-0.943421 269:-0.649018 270:-0.851728 271:-0.838685 272:-0.685696 273:-0.793995 274:-0.851974 275:-0.848377 276:-0.901524 277:-0.815335 278:-0.73428 279:-0.894964 280:-0.859394 281:-0.648339 282:-0.802099 283:-0.80876 284:-1 285:-0.899749 286:-0.957032 287:-0.977503 288:-0.978655 289:-0.951825 290:-1 
0 0 15.17380675739747 0 0 37.16274025865661 1:0.96984 4:-1 9:-1 11:-1 13:-1 14:-1 15:-1 16:-1 17:-1 18:-1 19:-1 20:-1 21:-1 22:-1 23:-1 24:-1 25:-1 26:-1 27:-1 28:-1 29:-1 30:-1 31:-1 32:-1 33:-1 34:-1 35:-1 36:-1 37:-1 38:-1 39:-1 41:-1 42:-1 46:0.96984 47:-1 48:-1 51:-1 52:-1 53:-1 54:-1 55:-1 56:-1 57:-1 58:-1 59:-1 60:-1 61:-1 62:-1 63:-1 64:-1 65:-1 66:-1 67:-1 68:-1 69:-1 70:-1 71:-1 72:-1 73:-1 74:-1 75:-1 76:-1 77:-1 78:-1 79:-1 80:-1 81:-1 82:-1 83:-1 84:-1 85:-1 86:-1 87:-1 88:-1 90:-1 91:0.96984 92:-1 93:-1 94:-1 95:-1 96:-1 97:-1 98:-1 99:-1 100:-1 101:-1 102:-1 103:-1 104:-1 105:-1 106:-1 107:-1 108:-1 109:-1 110:-1 111:-1 112:-1 115:-1 116:-1 117:-1 118:-1 119:-1 120:-1 121:-1 122:-1 123:-1 124:-1 125:-1 126:-1 127:-1 128:-1 129:-1 130:-1 131:-1 132:-1 133:-1 134:-1 135:-1 181:-0.888583 220:-1 221:-1 222:-1 223:-1 224:-1 225:-1 226:-1 227:-1 228:-1 229:-1 230:-1 231:-1 232:-1 233:-1 234:-1 235:-1 236:-1 237:-1 238:-1 239:-1 240:-1 241:-1 242:-1 243:-1 244:-1 245:-1 246:-1 247:-1 248:-0.94284 249:-0.909479 250:-1 251:-0.892308 252:-1 253:-1 254:-0.760181 255:-0.880357 256:-0.943881 257:-0.832287 258:-0.861279 259:-0.848101 260:-0.839814 261:-0.733009 262:-0.874404 263:-0.960813 264:-0.645192 265:-0.912326 266:-0.762704 267:-0.67647 268:-0.855288 269:-0.711453 270:-0.891647 271:-0.823174 272:-0.827737 273:-0.739446 274:-0.702524 275:-0.709146 276:-0.892055 277:-0.838063 278:-0.733003 279:-0.815783 280:-0.7945 281:-0.857983 282:-0.766383 283:-0.82531 284:-0.892462 285:-0.752747 286:-0.97645 287:-1 288:-1 289:-0.973597 290:-1 
0 0 0 0 0 6.729547617674222 1:0.969899 4:-1 9:-1 11:-1 13:-1 14:-1 15:-1 16:-1 17:-1 18:-1 19:-1 20:-1 21:-1 22:-1 23:-1 24:-1 25:-1 26:-1 27:-1 28:-1 29:-1 30:-1 31:-1 32:-1 33:-1 34:-1 35:-1 36:-1 37:-1 38:-1 39:-1 41:-1 42:-1 46:0.969899 47:-1 48:-1 51:-1 52:-1 53:-1 54:-1 55:-1 56:-1 57:-1 58:-1 59:-1 60:-1 61:-1 62:-1 63:-1 64:-1 65:-1 66:-1 67:-1 68:-1 69:-1 70:-1 71:-1 72:-1 73:-1 74:-1 75:-1 76:-1 77:-1 78:-1 79:-1 80:-1 81:-1 82:-1 83:-1 84:-1 85:-1 86:-1 87:-1 88:-1 90:-1 91:0.969899 92:-1 93:-1 94:-1 95:-1 96:-1 97:-1 98:-1 99:-1 100:-1 101:-1 102:-1 103:-1 104:-1 105:-1 106:-1 107:-1 108:-1 109:-1 110:-1 111:-1 112:-1 115:-1 116:-1 117:-1 118:-1 119:-1 120:-1 121:-1 122:-1 123:-1 124:-1 125:-1 126:-1 127:-1 128:-1 129:-1 130:-1 131:-1 132:-1 133:-1 134:-1 135:-1 181:-0.850293 220:-1 221:-1 222:-1 223:-1 224:-1 225:-1 226:-1 227:-1 228:-1 229:-1 230:-1 231:-1 232:-1 233:-1 234:-1 235:-1 236:-1 237:-1 238:-1 239:-1 240:-1 241:-1 242:-1 243:-1 244:-1 245:-1 246:-0.948122 247:-1 248:-0.942396 249:-0.954389 250:-0.923237 251:-0.782946 252:-0.736919 253:-1 254:-0.758322 255:-0.939715 256:-0.604123 257:-0.661972 258:-0.860204 259:-0.724463 260:-0.838573 261:-0.899102 262:-0.746862 263:-0.881528 264:-0.801357 265:-0.889558 266:-0.736951 267:-0.799361 268:-0.875 269:-0.87884 270:-0.781614 271:-0.732705 272:-0.855335 273:-0.894971 274:-0.836482 275:-0.685956 276:-0.691785 277:-0.918404 278:-0.730933 279:-0.814355 280:-0.861938 281:-0.815991 282:-0.848654 283:-0.665516 284:-0.963876 285:-0.916944 286:-1 287:-1 288:-0.964632 289:-1 290:-1 
0 0 6.260842573018275 0 0 0 1:0.971528 4:-1 9:-1 11:-1 13:-1 14:-1 15:-1 16:-1 17:-1 18:-1 19:-1 20:-1 21:-1 22:-1 23:-1 24:-1 25:-1 26:-1 27:-1 28:-1 29:-1 30:-1 31:-1 32:-1 33:-1 34:-1 35:-1 36:-1 37:-1 38:-1 39:-1 41:-1 42:-1 46:0.971528 47:-1 48:-1 51:-1 52:-1 53:-1 54:-1 55:-1 56:-1 57:-1 58:-1 59:-1 60:-1 61:-1 62:-1 63:-1 64:-1 65:-1 66:-1 67:-1 68:-1 69:-1 70:-1 71:-1 72:-1 73:-1 74:-1 75:-1 76:-1 77:-1 78:-1 79:-1 80:-1 81:-1 82:-1 83:-1 84:-1 85:-1 86:-1 87:-1 88:-1 90:-1 91:0.971528 92:-1 93:-1 94:-1 95:-1 96:-1 97:-1 98:-1 99:-1 100:-1 101:-1 102:-1 103:-1 104:-1 105:-1 106:-1 107:-1 108:-1 109:-1 110:-1 111:-1 112:-1 115:-1 116:-1 117:-1 118:-1 119:-1 120:-1 121:-1 122:-1 123:-1 124:-1 125:-1 126:-1 127:-1 128:-1 129:-1 130:-1 131:-1 132:-1 133:-1 134:-1 135:-1 181:-0.727997 220:-1 221:-1 222:-1 223:-1 224:-1 225:-1 226:-1 227:-1 228:-1 229:-1 230:-1 231:-1 232:-1 233:-1 234:-1 235:-1 236:-1 237:-1 238:-1 239:-1 240:-1 241:-1 242:-1 243:-0.683881 244:-1 245:-0.922995 246:-0.937161 247:-0.928595 248:-0.930227 249:-0.779011 250:-0.907019 251:-0.605634 252:-0.575118 253:-0.927014 254:-1 255:-1 256:-0.794495 257:-0.94882 258:-0.966134 259:-0.740417 260:-0.843575 261:-0.755572 262:-0.795588 263:-0.856499 264:-0.75939 265:-0.866225 266:-0.884137 267:-0.939243 268:-0.924296 269:-0.941297 270:-0.867738 271:-0.856104 272:-0.824772 273:-1 274:-0.735915 275:-0.923922 276:-0.846275 277:-0.876456 278:-0.792601 279:-0.887567 280:-0.83277 281:-0.653292 282:-0.959262 283:-0.893381 284:-0.934366 285:-0.698189 286:-0.81315 287:-0.804336 288:-0.914319 289:-1 290:-1 
0 0 1.940792256712127 0 28.41921660677738 64.1504889243827 1:0.969212 4:-1 9:-1 11:-1 13:-1 14:-1 15:-1 16:-1 17:-1 18:-1 19:-1 20:-1 21:-1 22:-1 23:-1 24:-1 25:-1 26:-1 27:-1 28:-1 29:-1 30:-1 31:-1 32:-1 33:-1 34:-1 35:-1 36:-1 37:-1 38:-1 39:-1 41:-1 42:-1 46:0.969212 47:-1 48:-1 51:-1 52:-1 53:-1 54:-1 55:-1 56:-1 57:-1 58:-1 59:-1 60:-1 61:-1 62:-1 63:-1 64:-1 65:-1 66:-1 67:-1 68:-1 69:-1 70:-1 71:-1 72:-1 73:-1 74:-1 75:-1 76:-1 77:-1 78:-1 79:-1 80:-1 81:-1 82:-1 83:-1 84:-1 85:-1 86:-1 87:-1 88:-1 90:-1 91:0.969212 92:-1 93:-1 94:-1 95:-1 96:-1 97:-1 98:-1 99:-1 100:-1 101:-1 102:-1 103:-1 104:-1 105:-1 106:-1 107:-1 108:-1 109:-1 110:-1 111:-1 112:-1 115:-1 116:-1 117:-1 118:-1 119:-1 120:-1 121:-1 122:-1 123:-1 124:-1 125:-1 126:-1 127:-1 128:-1 129:-1 130:-1 131:-1 132:-1 133:-1 134:-1 135:-1 181:-0.897638 220:-1 221:-1 222:-1 223:-1 224:-1 225:-1 226:-1 227:-1 228:-1 229:-1 230:-1 231:-1 232:-1 233:-1 234:-1 235:-1 236:-1 237:-1 238:-1 239:-1 240:-1 241:-1 242:-1 243:-0.881037 244:-0.941107 245:-1 246:-1 247:-1 248:-0.947485 249:-1 250:-1 251:-0.90106 252:-0.840106 253:-0.945067 254:-0.834754 255:-0.670243 256:-1 257:-0.807397 258:-0.923532 259:-0.776715 260:-0.882266 261:-0.816031 262:-0.653836 263:-0.783988 264:-0.818905 265:-0.818766 266:-0.825592 267:-0.817086 268:-0.848057 269:-0.823269 270:-0.676472 271:-0.810469 272:-0.736229 273:-0.840415 274:-0.826082 275:-0.828219 276:-0.900828 277:-0.776836 278:-0.799302 279:-0.873066 280:-0.889867 281:-0.73905 282:-0.831362 283:-0.807409 284:-0.802403 285:-0.798082 286:-0.935093 287:-0.943359 288:-0.967756 289:-0.987871 290:-1 
0 0 0 0 1.727741198625106 18.85967331438975 1:0.969114 4:-1 9:-1 11:-1 13:-1 14:-1 15:-1 16:-1 17:-1 18:-1 19:-1 20:-1 21:-1 22:-1 23:-1 24:-1 25:-1 26:-1 27:-1 28:-1 29:-1 30:-1 31:-1 32:-1 33:-1 34:-1 35:-1 36:-1 37:-1 38:-1 39:-1 41:-1 42:-1 46:0.969114 47:-1 48:-1 51:-1 52:-1 53:-1 54:-1 55:-1 56:-1 57:-1 58:-1 59:-1 60:-1 61:-1 62:-1 63:-1 64:-1 65:-1 66:-1 67:-1 68:-1 69:-1 70:-1 71:-1 72:-1 73:-1 74:-1 75:-1 76:-1 77:-1 78:-1 79:-1 80:-1 81:-1 82:-1 83:-1 84:-1 85:-1 86:-1 87:-1 88:-1 90:-1 91:0.969114 92:-1 93:-1 94:-1 95:-1 96:-1 97:-1 98:-1 99:-1 100:-1 101:-1 102:-1 103:-1 104:-1 105:-1 106:-1 107:-1 108:-1 109:-1 110:-1 111:-1 112:-1 115:-1 116:-1 117:-1 118:-1 119:-1 120:-1 121:-1 122:-1 123:-1 124:-1 125:-1 126:-1 127:-1 128:-1 129:-1 130:-1 131:-1 132:-1 133:-1 134:-1 135:-1 181:-0.924562 220:-1 221:-1 222:-1 223:-1 224:-1 225:-1 226:-1 227:-1 228:-1 229:-1 230:-1 231:-1 232:-1 233:-1 234:-1 235:-1 236:-1 237:-1 238:-1 239:-1 240:-1 241:-1 242:-1 243:-1 244:-1 245:-0.886097 246:-1 247:-0.89438 248:-0.948397 249:-1 250:-1 251:-0.902778 252:-1 253:-0.730105 254:-0.621119 255:-0.837983 256:-0.392047 257:-0.697184 258:-0.84972 259:-0.64346 260:-0.797543 261:-0.909612 262:-0.773231 263:-0.64623 264:-0.715278 265:-0.703188 266:-0.785775 267:-0.640522 268:-0.682726 269:-0.69609 270:-0.706544 271:-0.654125 272:-0.585293 273:-0.905911 274:-0.87793 275:-0.849956 276:-1 277:-0.853806 278:-0.868524 279:-0.87527 280:-0.90724 281:-0.87179 282:-0.969871 283:-0.952688 284:-0.951458 285:-0.900794 286:-1 287:-0.955474 288:-0.968316 289:-1 290:-0.986733 
0 0 0 0 5.78280505971534 0 1:0.969153 4:-1 9:-1 11:-1 13:-1 14:-1 15:-1 16:-1 17:-1 18:-1 19:-1 20:-1 21:-1 22:-1 23:-1 24:-1 25:-1 26:-1 27:-1 28:-1 29:-1 30:-1 31:-1 32:-1 33:-1 34:-1 35:-1 36:-1 37:-1 38:-1 39:-1 41:-1 42:-1 46:0.969153 47:-1 48:-1 51:-1 52:-1 53:-1 54:-1 55:-1 56:-1 57:-1 58:-1 59:-1 60:-1 61:-1 62:-1 63:-1 64:-1 65:-1 66:-1 67:-1 68:-1 69:-1 70:-1 71:-1 72:-1 73:-1 74:-1 75:-1 76:-1 77:-1 78:-1 79:-1 80:-1 81:-1 82:-1 83:-1 84:-1 85:-1 86:-1 87:-1 88:-1 90:-1 91:0.969153 92:-1 93:-1 94:-1 95:-1 96:-1 97:-1 98:-1 99:-1 100:-1 101:-1 102:-1 103:-1 104:-1 105:-1 106:-1 107:-1 108:-1 109:-1 110:-1 111:-1 112:-1 115:-1 116:-1 117:-1 118:-1 119:-1 120:-1 121:-1 122:-1 123:-1 124:-1 125:-1 126:-1 127:-1 128:-1 129:-1 130:-1 131:-1 132:-1 133:-1 134:-1 135:-1 181:-0.87339 220:-1 221:-1 222:-1 223:-1 224:-1 225:-1 226:-1 227:-1 228:-1 229:-1 230:-1 231:-1 232:-1 233:-1 234:-1 235:-1 236:-1 237:-1 238:-1 239:-1 240:-1 241:-1 242:-1 243:-1 244:-1 245:-1 246:-0.906401 247:-0.94682 248:-0.948036 249:-1 250:-0.930752 251:-1 252:-0.762675 253:-0.619505 254:-0.672975 255:-0.728085 256:-0.438813 257:-0.923767 258:-0.848669 259:-0.751439 260:-0.767003 261:-0.787621 262:-0.771645 263:-0.750629 264:-0.569931 265:-0.76089 266:-0.784277 267:-0.638008 268:-0.812063 269:-0.781404 270:-0.605989 271:-0.464164 272:-0.477991 273:-0.921044 274:-0.95083 275:-0.924454 276:-0.918224 277:-0.926392 278:-0.823473 279:-0.958132 280:-0.906591 281:-0.944669 282:-0.93932 283:-0.920595 284:-0.902238 285:-0.925075 286:-0.989296 287:-1 288:-0.968094 289:-0.975997 290:-1 
0 0 3.314371285941686 0 19.35346582369085 11.02921546486039 1:0.96827 4:-1 9:-1 11:-1 13:-1 14:-1 15:-1 16:-1 17:-1 18:-1 19:-1 20:-1 21:-1 22:-1 23:-1 24:-1 25:-1 26:-1 27:-1 28:-1 29:-1 30:-1 31:-1 32:-1 33:-1 34:-1 35:-1 36:-1 37:-1 38:-1 39:-1 41:-1 42:-1 46:0.96827 47:-1 48:-1 51:-1 52:-1 53:-1 54:-1 55:-1 56:-1 57:-1 58:-1 59:-1 60:-1 61:-1 62:-1 63:-1 64:-1 65:-1 66:-1 67:-1 68:-1 69:-1 70:-1 71:-1 72:-1 73:-1 74:-1 75:-1 76:-1 77:-1 78:-1 79:-1 80:-1 81:-1 82:-1 83:-1 84:-1 85:-1 86:-1 87:-1 88:-1 90:-1 91:0.96827 92:-1 93:-1 94:-1 95:-1 96:-1 97:-1 98:-1 99:-1 100:-1 101:-1 102:-1 103:-1 104:-1 105:-1 106:-1 107:-1 108:-1 109:-1 110:-1 111:-1 112:-1 115:-1 116:-1 117:-1 118:-1 119:-1 120:-1 121:-1 122:-1 123:-1 124:-1 125:-1 126:-1 127:-1 128:-1 129:-1 130:-1 131:-1 132:-1 133:-1 134:-1 135:-1 181:-0.874882 220:-1 221:-1 222:-1 223:-1 224:-1 225:-1 226:-1 227:-1 228:-1 229:-1 230:-1 231:-1 232:-1 233:-1 234:-1 235:-1 236:-1 237:-1 238:-1 239:-1 240:-1 241:-1 242:-1 243:-1 244:-0.949187 245:-0.949994 246:-0.959193 247:-0.95363 248:-0.86407 249:-0.964123 250:-0.698096 251:-0.743903 252:-0.379193 253:-0.763019 254:-0.762375 255:-0.478387 256:-0.644126 257:-0.667641 258:-0.824062 259:-0.783267 260:-0.822233 261:-0.814815 262:-0.568585 263:-0.596184 264:-0.71875 265:-0.808882 266:-0.75547 267:-0.743543 268:-0.70503 269:-0.847516 270:-0.785276 271:-0.813111 272:-0.86345 273:-0.972462 274:-0.785632 275:-0.901191 276:-0.85739 277:-0.951863 278:-0.903798 279:-0.926987 280:-0.837103 281:-0.91959 282:-0.854498 283:-0.944611 284:-0.957378 285:-0.760453 286:-0.962665 287:-0.980452 288:-0.990727 289:-0.989535 290:-1 
0 0 0 0 0 9.270909283794767 1:0.968859 4:-1 9:-1 11:-1 13:-1 14:-1 15:-1 16:-1 17:-1 18:-1 19:-1 20:-1 21:-1 22:-1 23:-1 24:-1 25:-1 26:-1 27:-1 28:-1 29:-1 30:-1 31:-1 32:-1 33:-1 34:-1 35:-1 36:-1 37:-1 38:-1 39:-1 41:-1 42:-1 46:0.968859 47:-1 48:-1 51:-1 52:-1 53:-1 54:-1 55:-1 56:-1 57:-1 58:-1 59:-1 60:-1 61:-1 62:-1 63:-1 64:-1 65:-1 66:-1 67:-1 68:-1 69:-1 70:-1 71:-1 72:-1 73:-1 74:-1 75:-1 76:-1 77:-1 78:-1 79:-1 80:-1 81:-1 82:-1 83:-1 84:-1 85:-1 86:-1 87:-1 88:-1 90:-1 91:0.968859 92:-1 93:-1 94:-1 95:-1 96:-1 97:-1 98:-1 99:-1 100:-1 101:-1 102:-1 103:-1 104:-1 105:-1 106:-1 107:-1 108:-1 109:-1 110:-1 111:-1 112:-1 115:-1 116:-1 117:-1 118:-1 119:-1 120:-1 121:-1 122:-1 123:-1 124:-1 125:-1 126:-1 127:-1 128:-1 129:-1 130:-1 131:-1 132:-1 133:-1 134:-1 135:-1 181:-0.975779 220:-1 221:-1 222:-1 223:-1 224:-1 225:-1 226:-1 227:-1 228:-1 229:-1 230:-1 231:-1 232:-1 233:-1 234:-1 235:-1 236:-1 237:-1 238:-1 239:-1 240:-1 241:-1 242:-1 243:-1 244:-1 245:-0.945144 246:-1 247:-0.949133 248:-1 249:-0.960643 250:-1 251:-1 252:-0.621656 253:-0.740035 254:-0.739328 255:-0.63587 256:-0.707206 257:-0.708324 258:-0.855248 259:-0.867914 260:-0.804991 261:-0.854896 262:-0.563146 263:-0.659245 264:-0.62291 265:-0.733167 266:-0.731752 267:-0.697029 268:-0.856187 269:-0.498179 270:-0.411124 271:-0.461834 272:-0.77531 273:-0.939582 274:-0.764841 275:-0.747084 276:-0.906135 277:-0.947195 278:-0.894468 279:-0.959953 280:-0.895761 281:-0.911791 282:-0.956469 283:-0.939238 284:-0.968829 285:-0.976111 286:-1 287:-0.978556 288:-0.959309 289:-0.98852 290:-1 
0 0 10.13282663127903 0 5.239488415633007 4.467366885518573 1:0.968525 4:-1 9:-1 11:-1 13:-1 14:-1 15:-1 16:-1 17:-1 18:-1 19:-1 20:-1 21:-1 22:-1 23:-1 24:-1 25:-1 26:-1 27:-1 28:-1 29:-1 30:-1 31:-1 32:-1 33:-1 34:-1 35:-1 36:-1 37:-1 38:-1 39:-1 41:-1 42:-1 46:0.968525 47:-1 48:-1 51:-1 52:-1 53:-1 54:-1 55:-1 56:-1 57:-1 58:-1 59:-1 60:-1 61:-1 62:-1 63:-1 64:-1 65:-1 66:-1 67:-1 68:-1 69:-1 70:-1 71:-1 72:-1 73:-1 74:-1 75:-1 76:-1 77:-1 78:-1 79:-1 80:-1 81:-1 82:-1 83:-1 84:-1 85:-1 86:-1 87:-1 88:-1 90:-1 91:0.968525 92:-1 93:-1 94:-1 95:-1 96:-1 97:-1 98:-1 99:-1 100:-1 101:-1 102:-1 103:-1 104:-1 105:-1 106:-1 107:-1 108:-1 109:-1 110:-1 111:-1 112:-1 115:-1 116:-1 117:-1 118:-1 119:-1 120:-1 121:-1 122:-1 123:-1 124:-1 125:-1 126:-1 127:-1 128:-1 129:-1 130:-1 131:-1 132:-1 133:-1 134:-1 135:-1 181:-0.969346 220:-1 221:-1 222:-1 223:-1 224:-1 225:-1 226:-1 227:-1 228:-1 229:-1 230:-1 231:-1 232:-1 233:-1 234:-1 235:-1 236:-1 237:-1 238:-1 239:-1 240:-1 241:-1 242:-1 243:-1 244:-1 245:-0.89586 246:-1 247:-1 248:-0.95282 249:-0.962642 250:-1 251:-0.911111 252:-0.784524 253:-0.654535 254:-0.752568 255:-0.555613 256:-0.536798 257:-0.792355 258:-0.771001 259:-0.774322 260:-0.709123 261:-0.641894 262:-0.516225 263:-0.547174 264:-0.609524 265:-0.74672 266:-0.706205 267:-0.671334 268:-0.761111 269:-0.741987 270:-0.709339 271:-0.756748 272:-0.857815 273:-0.942651 274:-0.888393 275:-0.84567 276:-0.925752 277:-0.949877 278:-0.899828 279:-0.847948 280:-0.91519 281:-0.88278 282:-0.944907 283:-0.927906 284:-0.896444 285:-0.977324 286:-0.980562 287:-0.979645 288:-0.942064 289:-0.989103 290:-0.975741 
0 0 0 0 0 36.46282868739942 1:0.97088 4:-1 9:-1 11:-1 13:-1 14:-1 15:-1 16:-1 17:-1 18:-1 19:-1 20:-1 21:-1 22:-1 23:-1 24:-1 25:-1 26:-1 27:-1 28:-1 29:-1 30:-1 31:-1 32:-1 33:-1 34:-1 35:-1 36:-1 37:-1 38:-1 39:-1 41:-1 42:-1 46:0.97088 47:-1 48:-1 51:-1 52:-1 53:-1 54:-1 55:-1 56:-1 57:-1 58:-1 59:-1 60:-1 61:-1 62:-1 63:-1 64:-1 65:-1 66:-1 67:-1 68:-1 69:-1 70:-1 71:-1 72:-1 73:-1 74:-1 75:-1 76:-1 77:-1 78:-1 79:-1 80:-1 81:-1 82:-1 83:-1 84:-1 85:-1 86:-1 87:-1 88:-1 90:-1 91:0.97088 92:-1 93:-1 94:-1 95:-1 96:-1 97:-1 98:-1 99:-1 100:-1 101:-1 102:-1 103:-1 104:-1 105:-1 106:-1 107:-1 108:-1 109:-1 110:-1 111:-1 112:-1 115:-1 116:-1 117:-1 118:-1 119:-1 120:-1 121:-1 122:-1 123:-1 124:-1 125:-1 126:-1 127:-1 128:-1 129:-1 130:-1 131:-1 132:-1 133:-1 134:-1 135:-1 181:-0.768084 220:-1 221:-1 222:-1 223:-1 224:-1 225:-1 226:-1 227:-1 228:-1 229:-1 230:-1 231:-1 232:-1 233:-1 234:-1 235:-1 236:-1 237:-1 238:-1 239:-1 240:-1 241:-1 242:-1 243:-1 244:-1 245:-1 246:-1 247:-0.933584 248:-1 249:-0.897226 250:-1 251:-0.877729 252:-0.901201 253:-1 254:-0.931929 255:-0.796242 256:-0.872569 257:-0.857188 258:-0.8425 259:-0.896523 260:-0.781756 261:-0.810541 262:-0.857403 263:-0.644067 264:-0.731441 265:-0.875572 266:-0.86529 267:-0.971744 268:-0.741812 269:-0.918098 270:-0.969245 271:-0.765776 272:-0.739224 273:-0.940835 274:-0.846479 275:-0.952825 276:-0.877442 277:-0.908071 278:-0.83465 279:-0.843134 280:-0.902783 281:-0.792689 282:-0.829487 283:-0.841329 284:-0.694759 285:-0.719276 286:-0.839575 287:-0.874005 288:-0.946871 289:-0.940045 290:-1 
0 0 0 0 5.809740294763396 59.18184829014993 1:0.970115 4:-1 9:-1 11:-1 13:-1 14:-1 15:-1 16:-1 17:-1 18:-1 19:-1 20:-1 21:-1 22:-1 23:-1 24:-1 25:-1 26:-1 27:-1 28:-1 29:-1 30:-1 31:-1 32:-1 33:-1 34:-1 35:-1 36:-1 37:-1 38:-1 39:-1 41:-1 42:-1 46:0.970115 47:-1 48:-1 51:-1 52:-1 53:-1 54:-1 55:-1 56:-1 57:-1 58:-1 59:-1 60:-1 61:-1 62:-1 63:-1 64:-1 65:-1 66:-1 67:-1 68:-1 69:-1 70:-1 71:-1 72:-1 73:-1 74:-1 75:-1 76:-1 77:-1 78:-1 79:-1 80:-1 81:-1 82:-1 83:-1 84:-1 85:-1 86:-1 87:-1 88:-1 90:-1 91:0.970115 92:-1 93:-1 94:-1 95:-1 96:-1 97:-1 98:-1 99:-1 100:-1 101:-1 102:-1 103:-1 104:-1 105:-1 106:-1 107:-1 108:-1 109:-1 110:-1 111:-1 112:-1 115:-1 116:-1 117:-1 118:-1 119:-1 120:-1 121:-1 122:-1 123:-1 124:-1 125:-1 126:-1 127:-1 128:-1 129:-1 130:-1 131:-1 132:-1 133:-1 134:-1 135:-1 181:-0.817265 220:-1 221:-1 222:-1 223:-1 224:-1 225:-1 226:-1 227:-1 228:-1 229:-1 230:-1 231:-1 232:-1 233:-1 234:-1 235:-1 236:-1 237:-1 238:-1 239:-1 240:-1 241:-1 242:-1 243:-1 244:-0.933599 245:-0.934653 246:-1 247:-1 248:-1 249:-1 250:-0.921096 251:-1 252:-1 253:-0.938064 254:-1 255:-0.814101 256:-0.534952 257:-0.695978 258:-0.885044 259:-0.905593 260:-0.834071 261:-0.723436 262:-0.783169 263:-0.837632 264:-0.795817 265:-0.79566 266:-0.852517 267:-0.871104 268:-0.8501 269:-0.850553 270:-0.831643 271:-0.908417 272:-0.762081 273:-0.928027 274:-0.887948 275:-0.892399 276:-0.925456 277:-0.958064 278:-0.773715 279:-0.880736 280:-0.858087 281:-0.789844 282:-0.861718 283:-0.855237 284:-0.832908 285:-0.630051 286:-0.890227 287:-0.795641 288:-0.939409 289:-0.904275 290:-1 
0 0 3.065220289768047 0 26.07914541804912 29.27518631583033 1:0.970409 4:-1 9:-1 11:-1 13:-1 14:-1 15:-1 16:-1 17:-1 18:-1 19:-1 20:-1 21:-1 22:-1 23:-1 24:-1 25:-1 26:-1 27:-1 28:-1 29:-1 30:-1 31:-1 32:-1 33:-1 34:-1 35:-1 36:-1 37:-1 38:-1 39:-1 41:-1 42:-1 46:0.970409 47:-1 48:-1 51:-1 52:-1 53:-1 54:-1 55:-1 56:-1 57:-1 58:-1 59:-1 60:-1 61:-1 62:-1 63:-1 64:-1 65:-1 66:-1 67:-1 68:-1 69:-1 70:-1 71:-1 72:-1 73:-1 74:-1 75:-1 76:-1 77:-1 78:-1 79:-1 80:-1 81:-1 82:-1 83:-1 84:-1 85:-1 86:-1 87:-1 88:-1 90:-1 91:0.970409 92:-1 93:-1 94:-1 95:-1 96:-1 97:-1 98:-1 99:-1 100:-1 101:-1 102:-1 103:-1 104:-1 105:-1 106:-1 107:-1 108:-1 109:-1 110:-1 111:-1 112:-1 115:-1 116:-1 117:-1 118:-1 119:-1 120:-1 121:-1 122:-1 123:-1 124:-1 125:-1 126:-1 127:-1 128:-1 129:-1 130:-1 131:-1 132:-1 133:-1 134:-1 135:-1 181:-0.830419 220:-1 221:-1 222:-1 223:-1 224:-1 225:-1 226:-1 227:-1 228:-1 229:-1 230:-1 231:-1 232:-1 233:-1 234:-1 235:-1 236:-1 237:-1 238:-1 239:-1 240:-1 241:-1 242:-1 243:-1 244:-1 245:-0.932223 246:-0.889383 247:-1 248:-0.754352 249:-0.902746 250:-0.918162 251:-0.768595 252:-0.906508 253:-0.935761 254:-0.613515 255:-0.742917 256:-0.57795 257:-0.774764 258:-0.821154 259:-0.804163 260:-0.79348 261:-0.892431 262:-0.775104 263:-0.789491 264:-0.788223 265:-0.929354 266:-0.745054 267:-0.786095 268:-0.955579 269:-0.870829 270:-0.796279 271:-0.841685 272:-0.753232 273:-0.888026 274:-0.94189 275:-0.910718 276:-0.922684 277:-0.934757 278:-0.687066 279:-0.92578 280:-0.908006 281:-0.803825 282:-0.874503 283:-0.88739 284:-0.84595 285:-0.645809 286:-0.898795 287:-0.880773 288:-0.962293 289:-0.943266 290:-1 
0 0 0 0 0 14.70536546536814 1:0.970645 4:-1 9:-1 11:-1 13:-1 14:-1 15:-1 16:-1 17:-1 18:-1 19:-1 20:-1 21:-1 22:-1 23:-1 24:-1 25:-1 26:-1 27:-1 28:-1 29:-1 30:-1 31:-1 32:-1 33:-1 34:-1 35:-1 36:-1 37:-1 38:-1 39:-1 41:-1 42:-1 46:0.970645 47:-1 48:-1 51:-1 52:-1 53:-1 54:-1 55:-1 56:-1 57:-1 58:-1 59:-1 60:-1 61:-1 62:-1 63:-1 64:-1 65:-1 66:-1 67:-1 68:-1 69:-1 70:-1 71:-1 72:-1 73:-1 74:-1 75:-1 76:-1 77:-1 78:-1 79:-1 80:-1 81:-1 82:-1 83:-1 84:-1 85:-1 86:-1 87:-1 88:-1 90:-1 91:0.970645 92:-1 93:-1 94:-1 95:-1 96:-1 97:-1 98:-1 99:-1 100:-1 101:-1 102:-1 103:-1 104:-1 105:-1 106:-1 107:-1 108:-1 109:-1 110:-1 111:-1 112:-1 115:-1 116:-1 117:-1 118:-1 119:-1 120:-1 121:-1 122:-1 123:-1 124:-1 125:-1 126:-1 127:-1 128:-1 129:-1 130:-1 131:-1 132:-1 133:-1 134:-1 135:-1 181:-0.866458 220:-1 221:-1 222:-1 223:-1 224:-1 225:-1 226:-1 227:-1 228:-1 229:-1 230:-1 231:-1 232:-1 233:-1 234:-1 235:-1 236:-1 237:-1 238:-1 239:-1 240:-1 241:-1 242:-1 243:-1 244:-1 245:-0.930204 246:-1 247:-1 248:-0.873517 249:-1 250:-1 251:-0.880851 252:-1 253:-1 254:-1 255:-0.867629 256:-1 257:-1 258:-1 259:-0.899165 260:-0.893664 261:-0.74153 262:-0.583129 263:-0.783221 264:-0.956383 265:-0.902999 266:-0.921238 267:-0.807259 268:-0.817021 269:-0.813775 270:-0.76024 271:-0.73915 272:-0.809412 273:-0.807819 274:-0.850399 275:-0.908058 276:-0.900476 277:-0.910418 278:-0.677745 279:-0.770708 280:-0.886319 281:-0.887768 282:-0.723068 283:-0.748744 284:-0.900851 285:-0.787234 286:-0.830643 287:-0.877221 288:-0.844681 289:-0.956182 290:-1 
0 0 0 0 0 40.60216449665512 1:0.970213 4:-1 9:-1 11:-1 13:-1 14:-1 15:-1 16:-1 17:-1 18:-1 19:-1 20:-1 21:-1 22:-1 23:-1 24:-1 25:-1 26:-1 27:-1 28:-1 29:-1 30:-1 31:-1 32:-1 33:-1 34:-1 35:-1 36:-1 37:-1 38:-1 39:-1 41:-1 42:-1 46:0.970213 47:-1 48:-1 51:-1 52:-1 53:-1 54:-1 55:-1 56:-1 57:-1 58:-1 59:-1 60:-1 61:-1 62:-1 63:-1 64:-1 65:-1 66:-1 67:-1 68:-1 69:-1 70:-1 71:-1 72:-1 73:-1 74:-1 75:-1 76:-1 77:-1 78:-1 79:-1 80:-1 81:-1 82:-1 83:-1 84:-1 85:-1 86:-1 87:-1 88:-1 90:-1 91:0.970213 92:-1 93:-1 94:-1 95:-1 96:-1 97:-1 98:-1 99:-1 100:-1 101:-1 102:-1 103:-1 104:-1 105:-1 106:-1 107:-1 108:-1 109:-1 110:-1 111:-1 112:-1 115:-1 116:-1 117:-1 118:-1 119:-1 120:-1 121:-1 122:-1 123:-1 124:-1 125:-1 126:-1 127:-1 128:-1 129:-1 130:-1 131:-1 132:-1 133:-1 134:-1 135:-1 181:-0.85399 220:-1 221:-1 222:-1 223:-1 224:-1 225:-1 226:-1 227:-1 228:-1 229:-1 230:-1 231:-1 232:-1 233:-1 234:-1 235:-1 236:-1 237:-1 238:-1 239:-1 240:-1 241:-1 242:-1 243:-1 244:-0.932796 245:-1 246:-1 247:-1 248:-0.940074 249:-0.857649 250:-0.920141 251:-1 252:-0.81754 253:-1 254:-0.748578 255:-1 256:-0.823497 257:-1 258:-0.738221 259:-0.9363 260:-0.798477 261:-0.650113 262:-0.780545 263:-0.548087 264:-0.628025 265:-0.908084 266:-0.950244 267:-0.817362 268:-0.891633 269:-0.899164 270:-0.914803 271:-0.876412 272:-0.819402 273:-0.890736 274:-0.943296 275:-0.869317 276:-0.811386 277:-0.87267 278:-0.872765 279:-0.855152 280:-0.784556 281:-0.744762 282:-0.772573 283:-0.926743 284:-0.868468 285:-0.711981 286:-0.925933 287:-0.83195 288:-0.914146 289:-0.916957 290:-1 
0 0 15.44469141382577 0 0 33.62936509979942 1:0.970586 4:-1 9:-1 11:-1 13:-1 14:-1 15:-1 16:-1 17:-1 18:-1 19:-1 20:-1 21:-1 22:-1 23:-1 24:-1 25:-1 26:-1 27:-1 28:-1 29:-1 30:-1 31:-1 32:-1 33:-1 34:-1 35:-1 36:-1 37:-1 38:-1 39:-1 41:-1 42:-1 46:0.970586 47:-1 48:-1 51:-1 52:-1 53:-1 54:-1 55:-1 56:-1 57:-1 58:-1 59:-1 60:-1 61:-1 62:-1 63:-1 64:-1 65:-1 66:-1 67:-1 68:-1 69:-1 70:-1 71:-1 72:-1 73:-1 74:-1 75:-1 76:-1 77:-1 78:-1 79:-1 80:-1 81:-1 82:-1 83:-1 84:-1 85:-1 86:-1 87:-1 88:-1 90:-1 91:0.970586 92:-1 93:-1 94:-1 95:-1 96:-1 97:-1 98:-1 99:-1 100:-1 101:-1 102:-1 103:-1 104:-1 105:-1 106:-1 107:-1 108:-1 109:-1 110:-1 111:-1 112:-1 115:-1 116:-1 117:-1 118:-1 119:-1 120:-1 121:-1 122:-1 123:-1 124:-1 125:-1 126:-1 127:-1 128:-1 129:-1 130:-1 131:-1 132:-1 133:-1 134:-1 135:-1 181:-0.867585 220:-1 221:-1 222:-1 223:-1 224:-1 225:-1 226:-1 227:-1 228:-1 229:-1 230:-1 231:-1 232:-1 233:-1 234:-1 235:-1 236:-1 237:-1 238:-1 239:-1 240:-1 241:-1 242:-1 243:-1 244:-1 245:-1 246:-1 247:-1 248:-1 249:-0.950347 250:-0.83287 251:-0.763713 252:-1 253:-1 254:-0.868454 255:-0.606239 256:-0.938435 257:-0.816011 258:-0.969563 259:-0.800032 260:-0.859415 261:-0.963387 262:-0.724431 263:-0.785051 264:-0.827005 265:-0.903818 266:-0.921903 267:-0.808885 268:-0.909283 269:-0.788967 270:-0.851415 271:-0.741352 272:-0.748026 273:-0.828496 274:-0.73299 275:-0.908835 276:-0.861842 277:-0.755727 278:-0.813604 279:-0.72212 280:-0.75577 281:-0.844201 282:-0.890162 283:-0.846685 284:-0.862363 285:-0.758891 286:-0.832072 287:-0.932365 288:-0.948664 289:-0.956552 290:-1 
0 0 0 0 11.45978466016441 42.81592560427553 1:0.971174 4:-1 9:-1 11:-1 13:-1 14:-1 15:-1 16:-1 17:-1 18:-1 19:-1 20:-1 21:-1 22:-1 23:-1 24:-1 25:-1 26:-1 27:-1 28:-1 29:-1 30:-1 31:-1 32:-1 33:-1 34:-1 35:-1 36:-1 37:-1 38:-1 39:-1 41:-1 42:-1 46:0.971174 47:-1 48:-1 51:-1 52:-1 53:-1 54:-1 55:-1 56:-1 57:-1 58:-1 59:-1 60:-1 61:-1 62:-1 63:-1 64:-1 65:-1 66:-1 67:-1 68:-1 69:-1 70:-1 71:-1 72:-1 73:-1 74:-1 75:-1 76:-1 77:-1 78:-1 79:-1 80:-1 81:-1 82:-1 83:-1 84:-1 85:-1 86:-1 87:-1 88:-1 90:-1 91:0.971174 92:-1 93:-1 94:-1 95:-1 96:-1 97:-1 98:-1 99:-1 100:-1 101:-1 102:-1 103:-1 104:-1 105:-1 106:-1 107:-1 108:-1 109:-1 110:-1 111:-1 112:-1 115:-1 116:-1 117:-1 118:-1 119:-1 120:-1 121:-1 122:-1 123:-1 124:-1 125:-1 126:-1 127:-1 128:-1 129:-1 130:-1 131:-1 132:-1 133:-1 134:-1 135:-1 181:-0.803382 220:-1 221:-1 222:-1 223:-1 224:-1 225:-1 226:-1 227:-1 228:-1 229:-1 230:-1 231:-1 232:-1 233:-1 234:-1 235:-1 236:-1 237:-1 238:-1 239:-1 240:-1 241:-1 242:-1 243:-0.847662 244:-0.849171 245:-0.851565 246:-0.818308 247:-0.862359 248:-0.932752 249:-0.840257 250:-1 251:-0.619909 252:-0.488123 253:-1 254:-0.788395 255:-0.718489 256:-1 257:-0.950672 258:-0.93472 259:-1 260:-0.849237 261:-0.803683 262:-0.901494 263:-0.769489 264:-0.95362 265:-0.793709 266:-0.972083 267:-0.912163 268:-0.951357 269:-0.943422 270:-0.872526 271:-0.965328 272:-0.797338 273:-1 274:-0.77729 275:-0.975559 276:-0.915337 277:-0.8333 278:-0.771553 279:-0.945819 280:-0.939559 281:-0.809053 282:-0.901842 283:-0.794482 284:-0.89457 285:-0.903038 286:-0.778356 287:-0.695369 288:-0.752262 289:-0.860218 290:-1 
0 0 0 0 5.41702948925523 16.48744594346968 1:0.970213 4:-1 9:-1 11:-1 13:-1 14:-1 15:-1 16:-1 17:-1 18:-1 19:-1 20:-1 21:-1 22:-1 23:-1 24:-1 25:-1 26:-1 27:-1 28:-1 29:-1 30:-1 31:-1 32:-1 33:-1 34:-1 35:-1 36:-1 37:-1 38:-1 39:-1 41:-1 42:-1 46:0.970213 47:-1 48:-1 51:-1 52:-1 53:-1 54:-1 55:-1 56:-1 57:-1 58:-1 59:-1 60:-1 61:-1 62:-1 63:-1 64:-1 65:-1 66:-1 67:-1 68:-1 69:-1 70:-1 71:-1 72:-1 73:-1 74:-1 75:-1 76:-1 77:-1 78:-1 79:-1 80:-1 81:-1 82:-1 83:-1 84:-1 85:-1 86:-1 87:-1 88:-1 90:-1 91:0.970213 92:-1 93:-1 94:-1 95:-1 96:-1 97:-1 98:-1 99:-1 100:-1 101:-1 102:-1 103:-1 104:-1 105:-1 106:-1 107:-1 108:-1 109:-1 110:-1 111:-1 112:-1 115:-1 116:-1 117:-1 118:-1 119:-1 120:-1 121:-1 122:-1 123:-1 124:-1 125:-1 126:-1 127:-1 128:-1 129:-1 130:-1 131:-1 132:-1 133:-1 134:-1 135:-1 181:-0.824788 220:-1 221:-1 222:-1 223:-1 224:-1 225:-1 226:-1 227:-1 228:-1 229:-1 230:-1 231:-1 232:-1 233:-1 234:-1 235:-1 236:-1 237:-1 238:-1 239:-1 240:-1 241:-0.623863 242:-1 243:-1 244:-1 245:-1 246:-0.94603 247:-0.938672 248:-1 249:-0.95255 250:-1 251:-0.774194 252:-0.90877 253:-0.87463 254:-0.748578 255:-0.749137 256:-1 257:-0.912086 258:-0.738221 259:-0.808902 260:-0.832063 261:-0.965011 262:-0.780545 263:-0.58917 264:-0.752017 265:-0.885105 266:-0.950244 267:-0.843453 268:-0.891633 269:-0.798327 270:-0.858005 271:-0.721927 272:-0.849502 273:-0.854314 274:-0.801537 275:-0.891097 276:-0.86797 277:-0.893892 278:-0.821871 279:-0.831011 280:-0.892278 281:-0.829841 282:-0.930023 283:-0.945057 284:-0.755725 285:-0.827189 286:-0.876554 287:-0.844877 288:-0.889617 289:-0.903117 290:-1 
0 0 0 0 10.86525574658535 40.70604036928371 1:0.968349 4:-1 9:-1 11:-1 13:-1 14:-1 15:-1 16:-1 17:-1 18:-1 19:-1 20:-1 21:-1 22:-1 23:-1 24:-1 25:-1 26:-1 27:-1 28:-1 29:-1 30:-1 31:-1 32:-1 33:-1 34:-1 35:-1 36:-1 37:-1 38:-1 39:-1 41:-1 42:-1 46:0.968349 47:-1 48:-1 51:-1 52:-1 53:-1 54:-1 55:-1 56:-1 57:-1 58:-1 59:-1 60:-1 61:-1 62:-1 63:-1 64:-1 65:-1 66:-1 67:-1 68:-1 69:-1 70:-1 71:-1 72:-1 73:-1 74:-1 75:-1 76:-1 77:-1 78:-1 79:-1 80:-1 81:-1 82:-1 83:-1 84:-1 85:-1 86:-1 87:-1 88:-1 90:-1 91:0.968349 92:-1 93:-1 94:-1 95:-1 96:-1 97:-1 98:-1 99:-1 100:-1 101:-1 102:-1 103:-1 104:-1 105:-1 106:-1 107:-1 108:-1 109:-1 110:-1 111:-1 112:-1 115:-1 116:-1 117:-1 118:-1 119:-1 120:-1 121:-1 122:-1 123:-1 124:-1 125:-1 126:-1 127:-1 128:-1 129:-1 130:-1 131:-1 132:-1 133:-1 134:-1 135:-1 181:-0.910592 220:-1 221:-1 222:-1 223:-1 224:-1 225:-1 226:-1 227:-1 228:-1 229:-1 230:-1 231:-1 232:-1 233:-1 234:-1 235:-1 236:-1 237:-1 238:-1 239:-1 240:-1 241:-1 242:-1 243:-1 244:-1 245:-0.949376 246:-1 247:-0.953058 248:-0.954131 249:-0.89104 250:-0.816621 251:-0.222222 252:-0.93017 253:-0.712113 254:-0.663218 255:-0.711972 256:-0.729799 257:-0.899061 258:-0.732835 259:-0.78059 260:-0.742912 261:-0.81253 262:-0.798427 263:-0.591198 264:-0.715278 265:-0.753755 266:-0.714366 267:-0.740377 268:-0.817516 269:-0.787746 270:-0.673938 271:-0.621607 272:-0.631372 273:-0.84667 274:-0.891493 275:-0.8833 276:-0.898941 277:-0.886294 278:-0.922088 279:-0.833693 280:-0.958773 281:-0.983719 282:-0.906265 283:-0.901872 284:-0.928086 285:-0.911816 286:-0.990551 287:-0.990105 288:-0.981224 289:-0.925843 290:-1 
0 0 0 0 1.513563995029896 3.049084468773762 1:0.969467 4:-1 9:-1 11:-1 13:-1 14:-1 15:-1 16:-1 17:-1 18:-1 19:-1 20:-1 21:-1 22:-1 23:-1 24:-1 25:-1 26:-1 27:-1 28:-1 29:-1 30:-1 31:-1 32:-1 33:-1 34:-1 35:-1 36:-1 37:-1 38:-1 39:-1 41:-1 42:-1 46:0.969467 47:-1 48:-1 51:-1 52:-1 53:-1 54:-1 55:-1 56:-1 57:-1 58:-1 59:-1 60:-1 61:-1 62:-1 63:-1 64:-1 65:-1 66:-1 67:-1 68:-1 69:-1 70:-1 71:-1 72:-1 73:-1 74:-1 75:-1 76:-1 77:-1 78:-1 79:-1 80:-1 81:-1 82:-1 83:-1 84:-1 85:-1 86:-1 87:-1 88:-1 90:-1 91:0.969467 92:-1 93:-1 94:-1 95:-1 96:-1 97:-1 98:-1 99:-1 100:-1 101:-1 102:-1 103:-1 104:-1 105:-1 106:-1 107:-1 108:-1 109:-1 110:-1 111:-1 112:-1 115:-1 116:-1 117:-1 118:-1 119:-1 120:-1 121:-1 122:-1 123:-1 124:-1 125:-1 126:-1 127:-1 128:-1 129:-1 130:-1 131:-1 132:-1 133:-1 134:-1 135:-1 181:-0.717037 220:-1 221:-1 222:-1 223:-1 224:-1 225:-1 226:-1 227:-1 228:-1 229:-1 230:-1 231:-1 232:-1 233:-1 234:-1 235:-1 236:-1 237:-1 238:-1 239:-1 240:-1 241:-1 242:-1 243:-1 244:-0.6337 245:-0.279032 246:-0.509721 247:-0.610017 248:-0.618931 249:-0.74137 250:-0.564727 251:-0.589744 252:-0.419872 253:-0.829166 254:-0.657402 255:-0.715137 256:-0.732768 257:-0.800341 258:-0.947154 259:-0.913201 260:-0.847442 261:-0.841077 262:-0.720899 263:-0.813396 264:-0.812271 265:-0.916501 266:-0.841803 267:-0.881491 268:-0.940934 269:-0.954199 270:-0.819412 271:-0.943865 272:-0.91797 273:-0.950371 274:-0.974244 275:-0.980214 276:-0.948598 277:-0.942165 278:-0.93065 279:-0.934208 280:-0.951071 281:-0.922712 282:-0.952323 283:-0.966726 284:-0.931722 285:-0.843014 286:-0.899073 287:-0.976514 288:-0.899725 289:-0.647956 290:-1 
0 0 0 0 10.1738220491901 28.81573974874306 1:0.96827 4:-1 9:-1 11:-1 13:-1 14:-1 15:-1 16:-1 17:-1 18:-1 19:-1 20:-1 21:-1 22:-1 23:-1 24:-1 25:-1 26:-1 27:-1 28:-1 29:-1 30:-1 31:-1 32:-1 33:-1 34:-1 35:-1 36:-1 37:-1 38:-1 39:-1 41:-1 42:-1 46:0.96827 47:-1 48:-1 51:-1 52:-1 53:-1 54:-1 55:-1 56:-1 57:-1 58:-1 59:-1 60:-1 61:-1 62:-1 63:-1 64:-1 65:-1 66:-1 67:-1 68:-1 69:-1 70:-1 71:-1 72:-1 73:-1 74:-1 75:-1 76:-1 77:-1 78:-1 79:-1 80:-1 81:-1 82:-1 83:-1 84:-1 85:-1 86:-1 87:-1 88:-1 90:-1 91:0.96827 92:-1 93:-1 94:-1 95:-1 96:-1 97:-1 98:-1 99:-1 100:-1 101:-1 102:-1 103:-1 104:-1 105:-1 106:-1 107:-1 108:-1 109:-1 110:-1 111:-1 112:-1 115:-1 116:-1 117:-1 118:-1 119:-1 120:-1 121:-1 122:-1 123:-1 124:-1 125:-1 126:-1 127:-1 128:-1 129:-1 130:-1 131:-1 132:-1 133:-1 134:-1 135:-1 181:-0.926402 220:-1 221:-1 222:-1 223:-1 224:-1 225:-1 226:-1 227:-1 228:-1 229:-1 230:-1 231:-1 232:-1 233:-1 234:-1 235:-1 236:-1 237:-1 238:-1 239:-1 240:-1 241:-1 242:-1 243:-0.897358 244:-1 245:-0.899988 246:-1 247:-0.95363 248:-0.95469 249:-0.892369 250:-0.758477 251:-0.829268 252:-0.379193 253:-0.620832 254:-0.762375 255:-0.715484 256:-0.777578 257:-0.800584 258:-0.846054 259:-0.807348 260:-0.695256 261:-0.788361 262:-0.634956 263:-0.751498 264:-0.8125 265:-0.652512 266:-0.811899 267:-0.723816 268:-0.868903 269:-0.63785 270:-0.527607 271:-0.649583 272:-0.86345 273:-0.889847 274:-0.957126 275:-0.917659 276:-0.942956 277:-0.88768 278:-0.884558 279:-0.872227 280:-0.932126 281:-0.887425 282:-0.920635 283:-0.903068 284:-0.829512 285:-0.891115 286:-0.962665 287:-0.980452 288:-0.97218 289:-0.989535 290:-1 
0 0 3.287881306693977 0 0.3768252080618615 0 1:0.968251 4:-1 9:-1 11:-1 13:-1 14:-1 15:-1 16:-1 17:-1 18:-1 19:-1 20:-1 21:-1 22:-1 23:-1 24:-1 25:-1 26:-1 27:-1 28:-1 29:-1 30:-1 31:-1 32:-1 33:-1 34:-1 35:-1 36:-1 37:-1 38:-1 39:-1 41:-1 42:-1 46:0.968251 47:-1 48:-1 51:-1 52:-1 53:-1 54:-1 55:-1 56:-1 57:-1 58:-1 59:-1 60:-1 61:-1 62:-1 63:-1 64:-1 65:-1 66:-1 67:-1 68:-1 69:-1 70:-1 71:-1 72:-1 73:-1 74:-1 75:-1 76:-1 77:-1 78:-1 79:-1 80:-1 81:-1 82:-1 83:-1 84:-1 85:-1 86:-1 87:-1 88:-1 90:-1 91:0.968251 92:-1 93:-1 94:-1 95:-1 96:-1 97:-1 98:-1 99:-1 100:-1 101:-1 102:-1 103:-1 104:-1 105:-1 106:-1 107:-1 108:-1 109:-1 110:-1 111:-1 112:-1 115:-1 116:-1 117:-1 118:-1 119:-1 120:-1 121:-1 122:-1 123:-1 124:-1 125:-1 126:-1 127:-1 128:-1 129:-1 130:-1 131:-1 132:-1 133:-1 134:-1 135:-1 181:-0.926625 220:-1 221:-1 222:-1 223:-1 224:-1 225:-1 226:-1 227:-1 228:-1 229:-1 230:-1 231:-1 232:-1 233:-1 234:-1 235:-1 236:-1 237:-1 238:-1 239:-1 240:-1 241:-1 242:-0.771207 243:-1 244:-1 245:-1 246:-0.959317 247:-0.907542 248:-0.954828 249:-0.928464 250:-0.879605 251:-0.744681 252:-0.724923 253:-0.574732 254:-0.763096 255:-0.716348 256:-0.733905 257:-0.701786 258:-0.868447 259:-0.639875 260:-0.822773 261:-0.841753 262:-0.569896 263:-0.783221 264:-0.781915 265:-0.844106 266:-0.812471 267:-0.724655 268:-0.836626 269:-0.619948 270:-0.678893 271:-0.487617 272:-0.795798 273:-0.807819 274:-0.829027 275:-0.901491 276:-0.928911 277:-0.824035 278:-0.961636 279:-0.890813 280:-0.864666 281:-0.839668 282:-0.934064 283:-0.930973 284:-0.929179 285:-0.934868 286:-0.981389 287:-0.970767 288:-0.98151 289:-0.989567 290:-1 
0.426327573385824 0 0 1.045269527330108 0 0 1:0.971783 4:-1 9:-1 11:-1 13:-1 14:-1 15:-1 16:-1 17:-1 18:-1 19:-1 20:-1 21:-1 22:-1 23:-1 24:-1 25:-1 26:-1 27:-1 28:-1 29:-1 30:-1 31:-1 32:-1 33:-1 34:-1 35:-1 36:-1 37:-1 38:-1 39:-1 41:-1 42:-1 46:0.971783 47:-1 48:-1 51:-1 52:-1 53:-1 54:-1 55:-1 56:-1 57:-1 58:-1 59:-1 60:-1 61:-1 62:-1 63:-1 64:-1 65:-1 66:-1 67:-1 68:-1 69:-1 70:-1 71:-1 72:-1 73:-1 74:-1 75:-1 76:-1 77:-1 78:-1 79:-1 80:-1 81:-1 82:-1 83:-1 84:-1 85:-1 86:-1 87:-1 88:-1 90:-1 91:0.971783 92:-1 93:-1 94:-1 95:-1 96:-1 97:-1 98:-1 99:-1 100:-1 101:-1 102:-1 103:-1 104:-1 105:-1 106:-1 107:-1 108:-1 109:-1 110:-1 111:-1 112:-1 115:-1 116:-1 117:-1 118:-1 119:-1 120:-1 121:-1 122:-1 123:-1 124:-1 125:-1 126:-1 127:-1 128:-1 129:-1 130:-1 131:-1 132:-1 133:-1 134:-1 135:-1 181:-0.720112 220:-1 221:-1 222:-1 223:-1 224:-1 225:-1 226:-1 227:-1 228:-1 229:-1 230:-1 231:-1 232:-1 233:-1 234:-1 235:-1 236:-1 237:-1 238:-1 239:-1 240:-1 241:-1 242:-1 243:-1 244:-0.919485 245:-0.920763 246:-0.87068 247:-0.926525 248:-0.856409 249:-1 250:-0.712971 251:-1 252:-0.8907 253:-1 254:-0.849389 255:-0.924862 256:-0.647563 257:-0.947336 258:-0.790914 259:-0.771051 260:-0.83904 261:-0.790406 262:-1 263:-0.901559 264:-0.702899 265:-0.917408 266:-0.791363 267:-0.874964 268:-0.870169 269:-0.879191 270:-0.727809 271:-0.88895 272:-0.927877 273:-0.912729 274:-0.932065 275:-0.817338 276:-0.706237 277:-1 278:-0.847564 279:-0.971077 280:-0.956981 281:-0.592277 282:-0.937122 283:-0.956116 284:-0.932463 285:-0.930987 286:-0.807735 287:-0.798664 288:-0.823671 289:-1 290:-1 
0 0 0 0 0 105.1322585346061 1:0.968937 4:-1 9:-1 11:-1 13:-1 14:-1 15:-1 16:-1 17:-1 18:-1 19:-1 20:-1 21:-1 22:-1 23:-1 24:-1 25:-1 26:-1 27:-1 28:-1 29:-1 30:-1 31:-1 32:-1 33:-1 34:-1 35:-1 36:-1 37:-1 38:-1 39:-1 41:-1 42:-1 46:0.968937 47:-1 48:-1 51:-1 52:-1 53:-1 54:-1 55:-1 56:-1 57:-1 58:-1 59:-1 60:-1 61:-1 62:-1 63:-1 64:-1 65:-1 66:-1 67:-1 68:-1 69:-1 70:-1 71:-1 72:-1 73:-1 74:-1 75:-1 76:-1 77:-1 78:-1 79:-1 80:-1 81:-1 82:-1 83:-1 84:-1 85:-1 86:-1 87:-1 88:-1 90:-1 91:0.968937 92:-1 93:-1 94:-1 95:-1 96:-1 97:-1 98:-1 99:-1 100:-1 101:-1 102:-1 103:-1 104:-1 105:-1 106:-1 107:-1 108:-1 109:-1 110:-1 111:-1 112:-1 115:-1 116:-1 117:-1 118:-1 119:-1 120:-1 121:-1 122:-1 123:-1 124:-1 125:-1 126:-1 127:-1 128:-1 129:-1 130:-1 131:-1 132:-1 133:-1 134:-1 135:-1 181:-0.901802 220:-1 221:-1 222:-1 223:-1 224:-1 225:-1 226:-1 227:-1 228:-1 229:-1 230:-1 231:-1 232:-1 233:-1 234:-1 235:-1 236:-1 237:-1 238:-1 239:-1 240:-1 241:-1 242:-1 243:-0.885876 244:-0.943503 245:-1 246:-0.863885 247:-0.948443 248:-1 249:-1 250:-0.932865 251:-0.905085 252:-0.923305 253:-0.841906 254:-0.841476 255:-0.947276 256:-0.950539 257:-0.926092 258:-0.926643 259:-0.812572 260:-0.830583 261:-0.676444 262:-0.704816 263:-0.7237 264:-0.861017 265:-0.80682 266:-0.895429 267:-0.890328 268:-0.927119 269:-0.809265 270:-0.761256 271:-0.636358 272:-0.898784 273:-0.892834 274:-0.809322 275:-0.835206 276:-0.778011 277:-0.821594 278:-0.871644 279:-0.756459 280:-0.818881 281:-0.66026 282:-0.7941 283:-0.846036 284:-0.85783 285:-0.854721 286:-0.937733 287:-0.945663 288:-0.979379 289:-0.918552 290:-1 
0 0 10.16632311631392 0 0 11.63328976968136 1:0.969075 4:-1 9:-1 11:-1 13:-1 14:-1 15:-1 16:-1 17:-1 18:-1 19:-1 20:-1 21:-1 22:-1 23:-1 24:-1 25:-1 26:-1 27:-1 28:-1 29:-1 30:-1 31:-1 32:-1 33:-1 34:-1 35:-1 36:-1 37:-1 38:-1 39:-1 41:-1 42:-1 46:0.969075 47:-1 48:-1 51:-1 52:-1 53:-1 54:-1 55:-1 56:-1 57:-1 58:-1 59:-1 60:-1 61:-1 62:-1 63:-1 64:-1 65:-1 66:-1 67:-1 68:-1 69:-1 70:-1 71:-1 72:-1 73:-1 74:-1 75:-1 76:-1 77:-1 78:-1 79:-1 80:-1 81:-1 82:-1 83:-1 84:-1 85:-1 86:-1 87:-1 88:-1 90:-1 91:0.969075 92:-1 93:-1 94:-1 95:-1 96:-1 97:-1 98:-1 99:-1 100:-1 101:-1 102:-1 103:-1 104:-1 105:-1 106:-1 107:-1 108:-1 109:-1 110:-1 111:-1 112:-1 115:-1 116:-1 117:-1 118:-1 119:-1 120:-1 121:-1 122:-1 123:-1 124:-1 125:-1 126:-1 127:-1 128:-1 129:-1 130:-1 131:-1 132:-1 133:-1 134:-1 135:-1 181:-0.89141 220:-1 221:-1 222:-1 223:-1 224:-1 225:-1 226:-1 227:-1 228:-1 229:-1 230:-1 231:-1 232:-1 233:-1 234:-1 235:-1 236:-1 237:-1 238:-1 239:-1 240:-1 241:-1 242:-0.47908 243:-1 244:-0.94233 245:-1 246:-0.953686 247:-0.947372 248:-0.948575 249:-1 250:-0.931471 251:-1 252:-1 253:-0.946208 254:-0.838185 255:-0.62327 256:-0.798051 257:-0.811395 258:-0.825279 259:-0.863344 260:-0.884711 261:-0.729775 262:-0.774015 263:-0.612199 264:-0.680796 265:-0.881686 266:-0.829212 267:-0.776103 268:-0.888409 269:-0.848571 270:-0.829409 271:-0.628809 272:-0.922512 273:-0.796846 274:-0.854023 275:-0.794404 276:-0.935258 277:-0.799679 278:-0.650611 279:-0.751402 280:-0.86134 281:-0.76272 282:-0.789826 283:-0.874271 284:-0.919377 285:-0.950568 286:-0.957627 287:-0.977814 288:-0.936851 289:-0.988123 290:-1 
0 0 8.69467810424292 0 0 0 1:0.968094 4:-1 9:-1 11:-1 13:-1 14:-1 15:-1 16:-1 17:-1 18:-1 19:-1 20:-1 21:-1 22:-1 23:-1 24:-1 25:-1 26:-1 27:-1 28:-1 29:-1 30:-1 31:-1 32:-1 33:-1 34:-1 35:-1 36:-1 37:-1 38:-1 39:-1 41:-1 42:-1 46:0.968094 47:-1 48:-1 51:-1 52:-1 53:-1 54:-1 55:-1 56:-1 57:-1 58:-1 59:-1 60:-1 61:-1 62:-1 63:-1 64:-1 65:-1 66:-1 67:-1 68:-1 69:-1 70:-1 71:-1 72:-1 73:-1 74:-1 75:-1 76:-1 77:-1 78:-1 79:-1 80:-1 81:-1 82:-1 83:-1 84:-1 85:-1 86:-1 87:-1 88:-1 90:-1 91:0.968094 92:-1 93:-1 94:-1 95:-1 96:-1 97:-1 98:-1 99:-1 100:-1 101:-1 102:-1 103:-1 104:-1 105:-1 106:-1 107:-1 108:-1 109:-1 110:-1 111:-1 112:-1 115:-1 116:-1 117:-1 118:-1 119:-1 120:-1 121:-1 122:-1 123:-1 124:-1 125:-1 126:-1 127:-1 128:-1 129:-1 130:-1 131:-1 132:-1 133:-1 134:-1 135:-1 181:-0.585757 220:-1 221:-1 222:-1 223:-1 224:-1 225:-1 226:-1 227:-1 228:-1 229:-1 230:-1 231:-1 232:-1 233:-1 234:-1 235:-1 236:-1 237:-1 238:-1 239:-1 240:-0.68426 241:-1 242:-1 243:-0.900395 244:-0.901381 245:-0.708839 246:-1 247:-0.910004 248:-0.912061 249:-0.965184 250:-0.941406 251:-0.751479 252:-0.799186 253:-1 254:-1 255:-0.907967 256:-0.870495 257:-0.935495 258:-0.935975 259:-0.953262 260:-0.87678 261:-0.743278 262:-0.871184 263:-0.879425 264:-0.727071 265:-0.949419 266:-0.945239 267:-0.827706 268:-0.825074 269:-0.815034 270:-0.70828 271:-0.68262 272:-0.889575 273:-0.946553 274:-0.895987 275:-0.824209 276:-0.84777 277:-0.750865 278:-0.850631 279:-0.964574 280:-0.973654 281:-0.828331 282:-0.820295 283:-0.744684 284:-0.875917 285:-0.76754 286:-0.96377 287:-0.962061 288:-0.946006 289:-0.918759 290:-1 
0.7462758451855611 0 0 0 0 0 1:0.968251 4:-1 9:-1 11:-1 13:-1 14:-1 15:-1 16:-1 17:-1 18:-1 19:-1 20:-1 21:-1 22:-1 23:-1 24:-1 25:-1 26:-1 27:-1 28:-1 29:-1 30:-1 31:-1 32:-1 33:-1 34:-1 35:-1 36:-1 37:-1 38:-1 39:-1 41:-1 42:-1 46:0.968251 47:-1 48:-1 51:-1 52:-1 53:-1 54:-1 55:-1 56:-1 57:-1 58:-1 59:-1 60:-1 61:-1 62:-1 63:-1 64:-1 65:-1 66:-1 67:-1 68:-1 69:-1 70:-1 71:-1 72:-1 73:-1 74:-1 75:-1 76:-1 77:-1 78:-1 79:-1 80:-1 81:-1 82:-1 83:-1 84:-1 85:-1 86:-1 87:-1 88:-1 90:-1 91:0.968251 92:-1 93:-1 94:-1 95:-1 96:-1 97:-1 98:-1 99:-1 100:-1 101:-1 102:-1 103:-1 104:-1 105:-1 106:-1 107:-1 108:-1 109:-1 110:-1 111:-1 112:-1 115:-1 116:-1 117:-1 118:-1 119:-1 120:-1 121:-1 122:-1 123:-1 124:-1 125:-1 126:-1 127:-1 128:-1 129:-1 130:-1 131:-1 132:-1 133:-1 134:-1 135:-1 181:-0.515726 220:-1 221:-1 222:-1 223:-1 224:-1 225:-1 226:-1 227:-1 228:-1 229:-1 230:-1 231:-1 232:-1 233:-1 234:-1 235:-1 236:-1 237:-1 238:-1 239:-1 240:-1 241:-1 242:-0.771207 243:-1 244:-0.949341 245:-0.800582 246:-0.837268 247:-1 248:-1 249:-0.856927 250:-0.75921 251:-0.914894 252:-0.931231 253:-0.952748 254:-0.952619 255:-0.858174 256:-1 257:-0.900595 258:-0.890373 259:-0.951983 260:-0.924046 261:-0.920877 262:-0.80149 263:-0.845158 264:-0.81307 265:-0.948035 266:-0.831224 267:-0.76399 268:-0.771277 269:-0.809974 270:-0.743114 271:-0.650648 272:-0.909243 273:-0.958818 274:-0.957257 275:-0.917909 276:-0.914694 277:-0.728054 278:-0.808181 279:-0.963605 280:-0.9594 281:-0.855702 282:-0.736255 283:-0.820531 284:-0.773374 285:-0.913156 286:-0.962779 287:-0.980511 288:-0.935284 289:-0.968701 290:-1 
3.623108979213427 0.439125838455799 0 2.546490702940546 0 0 1:0.966445 4:-1 9:-1 11:-1 13:-1 14:-1 15:-1 16:-1 17:-1 18:-1 19:-1 20:-1 21:-1 22:-1 23:-1 24:-1 25:-1 26:-1 27:-1 28:-1 29:-1 30:-1 31:-1 32:-1 33:-1 34:-1 35:-1 36:-1 37:-1 38:-1 39:-1 41:-1 42:-1 46:0.966445 47:-1 48:-1 51:-1 52:-1 53:-1 54:-1 55:-1 56:-1 57:-1 58:-1 59:-1 60:-1 61:-1 62:-1 63:-1 64:-1 65:-1 66:-1 67:-1 68:-1 69:-1 70:-1 71:-1 72:-1 73:-1 74:-1 75:-1 76:-1 77:-1 78:-1 79:-1 80:-1 81:-1 82:-1 83:-1 84:-1 85:-1 86:-1 87:-1 88:-1 90:-1 91:0.966445 92:-1 93:-1 94:-1 95:-1 96:-1 97:-1 98:-1 99:-1 100:-1 101:-1 102:-1 103:-1 104:-1 105:-1 106:-1 107:-1 108:-1 109:-1 110:-1 111:-1 112:-1 115:-1 116:-1 117:-1 118:-1 119:-1 120:-1 121:-1 122:-1 123:-1 124:-1 125:-1 126:-1 127:-1 128:-1 129:-1 130:-1 131:-1 132:-1 133:-1 134:-1 135:-1 181:-0.851365 220:-1 221:-1 222:-1 223:-1 224:-1 225:-1 226:-1 227:-1 228:-1 229:-1 230:-1 231:-1 232:-1 233:-1 234:-1 235:-1 236:-1 237:-1 238:-1 239:-1 240:-1 241:-1 242:-1 243:-1 244:-1 245:-0.965176 246:-1 247:-0.967708 248:-0.968447 249:-1 250:-0.957951 251:-0.881104 252:-0.855892 253:-0.768956 254:-0.602848 255:-0.57071 256:-0.473366 257:-0.560242 258:-0.586489 259:-0.798758 260:-0.681669 261:-0.594696 262:-0.445353 263:-0.740418 264:-0.151275 265:-0.697516 266:-0.515332 267:-0.354313 268:-0.326701 269:-0.654887 270:-0.895328 271:-1 272:-0.952454 273:-1 274:-1 275:-1 276:-0.970206 277:-0.988826 278:-1 279:-0.987289 280:-1 281:-1 282:-0.990789 283:-0.990357 284:-1 285:-1 286:-1 287:-1 288:-1 289:-1 290:-1 
0.982619418510185 0 0 0 0 17.55416297896419 1:0.966995 4:-1 9:-1 11:-1 13:-1 14:-1 15:-1 16:-1 17:-1 18:-1 19:-1 20:-1 21:-1 22:-1 23:-1 24:-1 25:-1 26:-1 27:-1 28:-1 29:-1 30:-1 31:-1 32:-1 33:-1 34:-1 35:-1 36:-1 37:-1 38:-1 39:-1 41:-1 42:-1 46:0.966995 47:-1 48:-1 51:-1 52:-1 53:-1 54:-1 55:-1 56:-1 57:-1 58:-1 59:-1 60:-1 61:-1 62:-1 63:-1 64:-1 65:-1 66:-1 67:-1 68:-1 69:-1 70:-1 71:-1 72:-1 73:-1 74:-1 75:-1 76:-1 77:-1 78:-1 79:-1 80:-1 81:-1 82:-1 83:-1 84:-1 85:-1 86:-1 87:-1 88:-1 90:-1 91:0.966995 92:-1 93:-1 94:-1 95:-1 96:-1 97:-1 98:-1 99:-1 100:-1 101:-1 102:-1 103:-1 104:-1 105:-1 106:-1 107:-1 108:-1 109:-1 110:-1 111:-1 112:-1 115:-1 116:-1 117:-1 118:-1 119:-1 120:-1 121:-1 122:-1 123:-1 124:-1 125:-1 126:-1 127:-1 128:-1 129:-1 130:-1 131:-1 132:-1 133:-1 134:-1 135:-1 181:-0.907153 220:-1 221:-1 222:-1 223:-1 224:-1 225:-1 226:-1 227:-1 228:-1 229:-1 230:-1 231:-1 232:-1 233:-1 234:-1 235:-1 236:-1 237:-1 238:-1 239:-1 240:-1 241:-1 242:-1 243:-1 244:-1 245:-1 246:-0.967825 247:-0.963439 248:-0.964275 249:-1 250:-0.952392 251:-1 252:-1 253:-0.96263 254:-0.962528 255:-0.962612 256:-0.894777 257:-0.895179 258:-0.843939 259:-0.886076 260:-0.819791 261:-0.728837 262:-0.529017 263:-0.706098 264:-0.704327 265:-0.945204 266:-0.822028 267:-0.875565 268:-0.922476 269:-0.909829 270:-0.746047 271:-0.834226 272:-0.784671 273:-0.869723 274:-0.797175 275:-0.883139 276:-0.853824 277:-0.671065 278:-0.635913 279:-0.812905 280:-0.860859 281:-0.632278 282:-0.718408 283:-0.683374 284:-0.910384 285:-0.879808 286:-0.963204 287:-0.984587 288:-0.978065 289:-0.975247 290:-1 
0 0 0 0 0 6.788143380255824 1:0.966955 4:-1 9:-1 11:-1 13:-1 14:-1 15:-1 16:-1 17:-1 18:-1 19:-1 20:-1 21:-1 22:-1 23:-1 24:-1 25:-1 26:-1 27:-1 28:-1 29:-1 30:-1 31:-1 32:-1 33:-1 34:-1 35:-1 36:-1 37:-1 38:-1 39:-1 41:-1 42:-1 46:0.966955 47:-1 48:-1 51:-1 52:-1 53:-1 54:-1 55:-1 56:-1 57:-1 58:-1 59:-1 60:-1 61:-1 62:-1 63:-1 64:-1 65:-1 66:-1 67:-1 68:-1 69:-1 70:-1 71:-1 72:-1 73:-1 74:-1 75:-1 76:-1 77:-1 78:-1 79:-1 80:-1 81:-1 82:-1 83:-1 84:-1 85:-1 86:-1 87:-1 88:-1 90:-1 91:0.966955 92:-1 93:-1 94:-1 95:-1 96:-1 97:-1 98:-1 99:-1 100:-1 101:-1 102:-1 103:-1 104:-1 105:-1 106:-1 107:-1 108:-1 109:-1 110:-1 111:-1 112:-1 115:-1 116:-1 117:-1 118:-1 119:-1 120:-1 121:-1 122:-1 123:-1 124:-1 125:-1 126:-1 127:-1 128:-1 129:-1 130:-1 131:-1 132:-1 133:-1 134:-1 135:-1 181:-0.867488 220:-1 221:-1 222:-1 223:-1 224:-1 225:-1 226:-1 227:-1 228:-1 229:-1 230:-1 231:-1 232:-1 233:-1 234:-1 235:-1 236:-1 237:-1 238:-1 239:-1 240:-1 241:-1 242:-1 243:-1 244:-1 245:-1 246:-1 247:-1 248:-0.964531 249:-1 250:-1 251:-0.933174 252:-0.892005 253:-1 254:-1 255:-0.888638 256:-1 257:-0.947965 258:-0.862272 259:-0.868041 260:-0.860841 261:-0.68936 262:-0.636302 263:-0.635254 264:-0.828759 265:-0.877591 266:-0.779128 267:-0.891899 268:-0.910203 269:-0.895554 270:-0.781484 271:-0.743975 272:-0.804029 273:-0.881435 274:-0.848971 275:-0.75506 276:-0.843707 277:-0.748785 278:-0.63852 279:-0.771377 280:-0.957494 281:-0.534196 282:-0.751488 283:-0.653121 284:-1 285:-0.829526 286:-0.970774 287:-0.977046 288:-1 289:-0.967232 290:-1 
0 0 35.21881898788874 0 0 0 1:0.967995 4:-1 9:-1 11:-1 13:-1 14:-1 15:-1 16:-1 17:-1 18:-1 19:-1 20:-1 21:-1 22:-1 23:-1 24:-1 25:-1 26:-1 27:-1 28:-1 29:-1 30:-1 31:-1 32:-1 33:-1 34:-1 35:-1 36:-1 37:-1 38:-1 39:-1 41:-1 42:-1 46:0.967995 47:-1 48:-1 51:-1 52:-1 53:-1 54:-1 55:-1 56:-1 57:-1 58:-1 59:-1 60:-1 61:-1 62:-1 63:-1 64:-1 65:-1 66:-1 67:-1 68:-1 69:-1 70:-1 71:-1 72:-1 73:-1 74:-1 75:-1 76:-1 77:-1 78:-1 79:-1 80:-1 81:-1 82:-1 83:-1 84:-1 85:-1 86:-1 87:-1 88:-1 90:-1 91:0.967995 92:-1 93:-1 94:-1 95:-1 96:-1 97:-1 98:-1 99:-1 100:-1 101:-1 102:-1 103:-1 104:-1 105:-1 106:-1 107:-1 108:-1 109:-1 110:-1 111:-1 112:-1 115:-1 116:-1 117:-1 118:-1 119:-1 120:-1 121:-1 122:-1 123:-1 124:-1 125:-1 126:-1 127:-1 128:-1 129:-1 130:-1 131:-1 132:-1 133:-1 134:-1 135:-1 181:-0.605873 220:-1 221:-1 222:-1 223:-1 224:-1 225:-1 226:-1 227:-1 228:-1 229:-1 230:-1 231:-1 232:-1 233:-1 234:-1 235:-1 236:-1 237:-1 238:-1 239:-1 240:-1 241:-1 242:-0.780546 243:-0.803693 244:-0.902818 245:-0.856542 246:-0.921955 247:-0.911316 248:-0.956671 249:-0.965692 250:-1 251:-0.836735 252:-0.604228 253:-0.909353 254:-0.86366 255:-0.954654 256:-0.829844 257:-0.904653 258:-0.873817 259:-0.86183 260:-0.927146 261:-0.848212 262:-0.777858 263:-0.821774 264:-0.850583 265:-0.850469 266:-0.874088 267:-0.849082 268:-0.811953 269:-0.81773 270:-0.733066 271:-0.865963 272:-0.847659 273:-0.947332 274:-0.897503 275:-0.826772 276:-0.877263 277:-0.815873 278:-0.889606 279:-0.96509 280:-0.935094 281:-0.861591 282:-0.810265 283:-0.814615 284:-0.823382 285:-0.875052 286:-0.955372 287:-0.887841 288:-0.920189 289:-0.959972 290:-1 
0.1355842035371602 0 0 0.4150755166137767 0 2.808298900554347 1:0.966426 4:-1 9:-1 11:-1 13:-1 14:-1 15:-1 16:-1 17:-1 18:-1 19:-1 20:-1 21:-1 22:-1 23:-1 24:-1 25:-1 26:-1 27:-1 28:-1 29:-1 30:-1 31:-1 32:-1 33:-1 34:-1 35:-1 36:-1 37:-1 38:-1 39:-1 41:-1 42:-1 46:0.966426 47:-1 48:-1 51:-1 52:-1 53:-1 54:-1 55:-1 56:-1 57:-1 58:-1 59:-1 60:-1 61:-1 62:-1 63:-1 64:-1 65:-1 66:-1 67:-1 68:-1 69:-1 70:-1 71:-1 72:-1 73:-1 74:-1 75:-1 76:-1 77:-1 78:-1 79:-1 80:-1 81:-1 82:-1 83:-1 84:-1 85:-1 86:-1 87:-1 88:-1 90:-1 91:0.966426 92:-1 93:-1 94:-1 95:-1 96:-1 97:-1 98:-1 99:-1 100:-1 101:-1 102:-1 103:-1 104:-1 105:-1 106:-1 107:-1 108:-1 109:-1 110:-1 111:-1 112:-1 115:-1 116:-1 117:-1 118:-1 119:-1 120:-1 121:-1 122:-1 123:-1 124:-1 125:-1 126:-1 127:-1 128:-1 129:-1 130:-1 131:-1 132:-1 133:-1 134:-1 135:-1 181:-0.831222 220:-1 221:-1 222:-1 223:-1 224:-1 225:-1 226:-1 227:-1 228:-1 229:-1 230:-1 231:-1 232:-1 233:-1 234:-1 235:-1 236:-1 237:-1 238:-1 239:-1 240:-1 241:-1 242:-1 243:-1 244:-1 245:-1 246:-0.943285 247:-0.935554 248:-0.968513 249:-0.975069 250:-0.874121 251:-0.703391 252:-0.616524 253:-0.736509 254:-0.60369 255:-0.73638 256:-0.56722 257:-0.792135 258:-0.816607 259:-0.715511 260:-0.717639 261:-0.466867 262:-0.538773 263:-0.503522 264:-0.305085 265:-0.601567 266:-0.594787 267:-0.300844 268:-0.373678 269:-0.774827 270:-0.835863 271:-0.967532 272:-0.96837 273:-0.990432 274:-0.940413 275:-0.965668 276:-0.98018 277:-1 278:-1 279:-0.974631 280:-0.981133 281:-1 282:-1 283:-1 284:-0.990127 285:-1 286:-1 287:-1 288:-1 289:-1 290:-1 
0.6924386200028475 0.2077654110797172 0 0.9208499618657948 0.4546611994321328 23.15419465342949 1:0.982928 4:-1 9:-1 11:-1 13:-1 14:-1 15:-1 16:-1 17:-1 18:-1 19:-1 20:-1 21:-1 22:-1 23:-1 24:-1 25:-1 26:-1 27:-1 28:-1 29:-1 30:-1 31:-1 32:-1 33:-1 34:-1 35:-1 36:-1 37:-1 38:-1 39:-1 41:-1 42:-1 46:0.982928 47:-1 48:-1 51:-1 52:-1 53:-1 54:-1 55:-1 56:-1 57:-1 58:-1 59:-1 60:-1 61:-1 62:-1 63:-1 64:-1 65:-1 66:-1 67:-1 68:-1 69:-1 70:-1 71:-1 72:-1 73:-1 74:-1 75:-1 76:-1 77:-1 78:-1 79:-1 80:-1 81:-1 82:-1 83:-1 84:-1 85:-1 86:-1 87:-1 88:-1 90:-1 91:0.982928 92:-1 93:-1 94:-1 95:-1 96:-1 97:-1 98:-1 99:-1 100:-1 101:-1 102:-1 103:-1 104:-1 105:-1 106:-1 107:-1 108:-1 109:-1 110:-1 111:-1 112:-1 115:-1 116:-1 117:-1 118:-1 119:-1 120:-1 121:-1 122:-1 123:-1 124:-1 125:-1 126:-1 127:-1 128:-1 129:-1 130:-1 131:-1 132:-1 133:-1 134:-1 135:-1 181:-0.849123 220:-1 221:-1 222:-1 223:-1 224:-1 225:-1 226:-1 227:-1 228:-1 229:-1 230:-1 231:-1 232:-1 233:-1 234:-1 235:-1 236:-1 237:-1 238:-1 239:-1 240:-1 241:-1 242:-1 243:-1 244:-1 245:-0.829145 246:-1 247:-1 248:-0.84519 249:-1 250:-1 251:-0.708333 252:-0.528647 253:-1 254:-0.675246 255:-0.675968 256:-0.848011 257:-0.659332 258:-1 259:-0.917721 260:-1 261:-0.819225 262:-0.773231 263:-1 264:-1 265:-0.940637 266:-0.742929 267:-0.797794 268:-0.888021 269:-0.934876 270:-0.706544 271:-0.521097 272:-0.68897 273:-0.764778 274:-0.780273 275:-0.943734 276:-0.90255 277:-0.835532 278:-0.539834 279:-0.812905 280:-0.860859 281:-0.945053 282:-0.50287 283:-0.668816 284:-1 285:-1 286:-1 287:-0.966605 288:-1 289:-1 290:-1 
0 0 30.63153521658296 0.04968744767832288 0 0 1:0.967407 4:-1 9:-1 11:-1 13:-1 14:-1 15:-1 16:-1 17:-1 18:-1 19:-1 20:-1 21:-1 22:-1 23:-1 24:-1 25:-1 26:-1 27:-1 28:-1 29:-1 30:-1 31:-1 32:-1 33:-1 34:-1 35:-1 36:-1 37:-1 38:-1 39:-1 41:-1 42:-1 46:0.967407 47:-1 48:-1 51:-1 52:-1 53:-1 54:-1 55:-1 56:-1 57:-1 58:-1 59:-1 60:-1 61:-1 62:-1 63:-1 64:-1 65:-1 66:-1 67:-1 68:-1 69:-1 70:-1 71:-1 72:-1 73:-1 74:-1 75:-1 76:-1 77:-1 78:-1 79:-1 80:-1 81:-1 82:-1 83:-1 84:-1 85:-1 86:-1 87:-1 88:-1 90:-1 91:0.967407 92:-1 93:-1 94:-1 95:-1 96:-1 97:-1 98:-1 99:-1 100:-1 101:-1 102:-1 103:-1 104:-1 105:-1 106:-1 107:-1 108:-1 109:-1 110:-1 111:-1 112:-1 115:-1 116:-1 117:-1 118:-1 119:-1 120:-1 121:-1 122:-1 123:-1 124:-1 125:-1 126:-1 127:-1 128:-1 129:-1 130:-1 131:-1 132:-1 133:-1 134:-1 135:-1 181:-0.677708 220:-1 221:-1 222:-1 223:-1 224:-1 225:-1 226:-1 227:-1 228:-1 229:-1 230:-1 231:-1 232:-1 233:-1 234:-1 235:-1 236:-1 237:-1 238:-1 239:-1 240:-1 241:-1 242:-1 243:-0.911867 244:-1 245:-1 246:-1 247:-0.960185 248:-1 249:-0.969195 250:-0.896309 251:-1 252:-1 253:-1 254:-0.959193 255:-0.918568 256:-0.961804 257:-1 258:-0.962233 259:-0.917291 260:-0.978195 261:-0.818279 262:-0.800538 263:-0.813298 264:-0.78534 265:-0.955245 266:-0.870792 267:-0.915306 268:-0.817081 269:-0.967268 270:-0.907815 271:-0.799412 272:-0.765506 273:-0.893596 274:-0.852749 275:-0.830317 276:-0.865304 277:-0.889781 278:-0.735672 279:-0.827598 280:-0.766884 281:-0.682401 282:-0.829636 283:-0.869211 284:-0.853612 285:-0.532536 286:-0.847729 287:-0.848937 288:-0.928338 289:-1 290:-1 
1.310313468248819 0.5389908532727057 0 0.4880809043797767 6.127015072572047 0.6614633257770061 1:0.967211 4:-1 9:-1 11:-1 13:-1 14:-1 15:-1 16:-1 17:-1 18:-1 19:-1 20:-1 21:-1 22:-1 23:-1 24:-1 25:-1 26:-1 27:-1 28:-1 29:-1 30:-1 31:-1 32:-1 33:-1 34:-1 35:-1 36:-1 37:-1 38:-1 39:-1 41:-1 42:-1 46:0.967211 47:-1 48:-1 51:-1 52:-1 53:-1 54:-1 55:-1 56:-1 57:-1 58:-1 59:-1 60:-1 61:-1 62:-1 63:-1 64:-1 65:-1 66:-1 67:-1 68:-1 69:-1 70:-1 71:-1 72:-1 73:-1 74:-1 75:-1 76:-1 77:-1 78:-1 79:-1 80:-1 81:-1 82:-1 83:-1 84:-1 85:-1 86:-1 87:-1 88:-1 90:-1 91:0.967211 92:-1 93:-1 94:-1 95:-1 96:-1 97:-1 98:-1 99:-1 100:-1 101:-1 102:-1 103:-1 104:-1 105:-1 106:-1 107:-1 108:-1 109:-1 110:-1 111:-1 112:-1 115:-1 116:-1 117:-1 118:-1 119:-1 120:-1 121:-1 122:-1 123:-1 124:-1 125:-1 126:-1 127:-1 128:-1 129:-1 130:-1 131:-1 132:-1 133:-1 134:-1 135:-1 181:-0.824544 220:-1 221:-1 222:-1 223:-1 224:-1 225:-1 226:-1 227:-1 228:-1 229:-1 230:-1 231:-1 232:-1 233:-1 234:-1 235:-1 236:-1 237:-1 238:-1 239:-0.430058 240:-1 241:-0.766211 242:-1 243:-1 244:-0.958229 245:-1 246:-1 247:-0.961881 248:-0.962753 249:-1 250:-0.950364 251:-0.929824 252:-0.943296 253:-0.84415 254:-0.921864 255:-0.922037 256:-0.926863 257:-0.945357 258:-0.963842 259:-0.901019 260:-0.937371 261:-0.826021 262:-0.863597 263:-0.61697 264:-0.66604 265:-0.871456 266:-0.845371 267:-0.789178 268:-0.865288 269:-0.921656 270:-0.894091 271:-0.827163 272:-0.73808 273:-0.864172 274:-0.806156 275:-0.891698 276:-0.871043 277:-0.894477 278:-0.731117 279:-0.804933 280:-0.86609 281:-0.722373 282:-0.869516 283:-0.886167 284:-0.859849 285:-0.552453 286:-0.869562 287:-0.766991 288:-0.984754 289:-0.982795 290:-1 
0 0.228499862386703 4.412006328157436 1.243447441453207 0 0 1:0.968192 4:-1 9:-1 11:-1 13:-1 14:-1 15:-1 16:-1 17:-1 18:-1 19:-1 20:-1 21:-1 22:-1 23:-1 24:-1 25:-1 26:-1 27:-1 28:-1 29:-1 30:-1 31:-1 32:-1 33:-1 34:-1 35:-1 36:-1 37:-1 38:-1 39:-1 41:-1 42:-1 46:0.968192 47:-1 48:-1 51:-1 52:-1 53:-1 54:-1 55:-1 56:-1 57:-1 58:-1 59:-1 60:-1 61:-1 62:-1 63:-1 64:-1 65:-1 66:-1 67:-1 68:-1 69:-1 70:-1 71:-1 72:-1 73:-1 74:-1 75:-1 76:-1 77:-1 78:-1 79:-1 80:-1 81:-1 82:-1 83:-1 84:-1 85:-1 86:-1 87:-1 88:-1 90:-1 91:0.968192 92:-1 93:-1 94:-1 95:-1 96:-1 97:-1 98:-1 99:-1 100:-1 101:-1 102:-1 103:-1 104:-1 105:-1 106:-1 107:-1 108:-1 109:-1 110:-1 111:-1 112:-1 115:-1 116:-1 117:-1 118:-1 119:-1 120:-1 121:-1 122:-1 123:-1 124:-1 125:-1 126:-1 127:-1 128:-1 129:-1 130:-1 131:-1 132:-1 133:-1 134:-1 135:-1 181:-0.571 220:-1 221:-1 222:-1 223:-1 224:-1 225:-1 226:-1 227:-1 228:-1 229:-1 230:-1 231:-1 232:-1 233:-1 234:-1 235:-1 236:-1 237:-1 238:-1 239:-1 240:-0.678554 241:-0.71903 242:-1 243:-1 244:-0.899598 245:-0.802385 246:-0.879054 247:-1 248:-0.865707 249:-0.858221 250:-0.940347 251:-0.915663 252:-0.931852 253:-0.953175 254:-0.906095 255:-0.859456 256:-0.956052 257:-0.901493 258:-0.934818 259:-0.928626 260:-0.899643 261:-0.86932 262:-0.934428 263:-0.877246 264:-0.845633 265:-0.862679 266:-0.814166 267:-0.844082 268:-0.773343 269:-0.811691 270:-0.936359 271:-0.769203 272:-0.730191 273:-0.95919 274:-1 275:-0.869842 276:-0.774572 277:-0.873182 278:-0.790906 279:-0.9459 280:-0.986589 281:-0.920559 282:-0.803979 283:-0.767431 284:-0.789458 285:-0.784854 286:-0.917009 287:-0.951719 288:-0.89006 289:-0.968984 290:-1 
0 0 27.37881164158446 0 0 0 1:0.967269 4:-1 9:-1 11:-1 13:-1 14:-1 15:-1 16:-1 17:-1 18:-1 19:-1 20:-1 21:-1 22:-1 23:-1 24:-1 25:-1 26:-1 27:-1 28:-1 29:-1 30:-1 31:-1 32:-1 33:-1 34:-1 35:-1 36:-1 37:-1 38:-1 39:-1 41:-1 42:-1 46:0.967269 47:-1 48:-1 51:-1 52:-1 53:-1 54:-1 55:-1 56:-1 57:-1 58:-1 59:-1 60:-1 61:-1 62:-1 63:-1 64:-1 65:-1 66:-1 67:-1 68:-1 69:-1 70:-1 71:-1 72:-1 73:-1 74:-1 75:-1 76:-1 77:-1 78:-1 79:-1 80:-1 81:-1 82:-1 83:-1 84:-1 85:-1 86:-1 87:-1 88:-1 90:-1 91:0.967269 92:-1 93:-1 94:-1 95:-1 96:-1 97:-1 98:-1 99:-1 100:-1 101:-1 102:-1 103:-1 104:-1 105:-1 106:-1 107:-1 108:-1 109:-1 110:-1 111:-1 112:-1 115:-1 116:-1 117:-1 118:-1 119:-1 120:-1 121:-1 122:-1 123:-1 124:-1 125:-1 126:-1 127:-1 128:-1 129:-1 130:-1 131:-1 132:-1 133:-1 134:-1 135:-1 181:-0.748154 220:-1 221:-1 222:-1 223:-1 224:-1 225:-1 226:-1 227:-1 228:-1 229:-1 230:-1 231:-1 232:-1 233:-1 234:-1 235:-1 236:-1 237:-1 238:-1 239:-1 240:-1 241:-1 242:-1 243:-1 244:-1 245:-1 246:-0.931885 247:-1 248:-1 249:-1 250:-1 251:-0.928753 252:-1 253:-0.881329 254:-0.881006 255:-0.960424 256:-0.925746 257:-1 258:-0.88987 259:-1 260:-0.95761 261:-0.823365 262:-0.889212 263:-0.792599 264:-0.791349 265:-0.782489 266:-0.811612 267:-0.917677 268:-0.863232 269:-0.872736 270:-0.838711 271:-0.863519 272:-0.772069 273:-0.850607 274:-0.785305 275:-0.835066 276:-0.857172 277:-0.946433 278:-0.710954 279:-0.801955 280:-0.784739 281:-0.744979 282:-0.889603 283:-0.8382 284:-0.81028 285:-0.709196 286:-0.883151 287:-0.771591 288:-0.961302 289:-1 290:-1 
0 0 13.01702696123041 0 0 0 1:0.967368 4:-1 9:-1 11:-1 13:-1 14:-1 15:-1 16:-1 17:-1 18:-1 19:-1 20:-1 21:-1 22:-1 23:-1 24:-1 25:-1 26:-1 27:-1 28:-1 29:-1 30:-1 31:-1 32:-1 33:-1 34:-1 35:-1 36:-1 37:-1 38:-1 39:-1 41:-1 42:-1 46:0.967368 47:-1 48:-1 51:-1 52:-1 53:-1 54:-1 55:-1 56:-1 57:-1 58:-1 59:-1 60:-1 61:-1 62:-1 63:-1 64:-1 65:-1 66:-1 67:-1 68:-1 69:-1 70:-1 71:-1 72:-1 73:-1 74:-1 75:-1 76:-1 77:-1 78:-1 79:-1 80:-1 81:-1 82:-1 83:-1 84:-1 85:-1 86:-1 87:-1 88:-1 90:-1 91:0.967368 92:-1 93:-1 94:-1 95:-1 96:-1 97:-1 98:-1 99:-1 100:-1 101:-1 102:-1 103:-1 104:-1 105:-1 106:-1 107:-1 108:-1 109:-1 110:-1 111:-1 112:-1 115:-1 116:-1 117:-1 118:-1 119:-1 120:-1 121:-1 122:-1 123:-1 124:-1 125:-1 126:-1 127:-1 128:-1 129:-1 130:-1 131:-1 132:-1 133:-1 134:-1 135:-1 181:-0.787365 220:-1 221:-1 222:-1 223:-1 224:-1 225:-1 226:-1 227:-1 228:-1 229:-1 230:-1 231:-1 232:-1 233:-1 234:-1 235:-1 236:-1 237:-1 238:-1 239:-1 240:-0.723523 241:-1 242:-1 243:-1 244:-1 245:-1 246:-0.930649 247:-1 248:-0.961498 249:-1 250:-0.948692 251:-1 252:-1 253:-1 254:-0.959616 255:-0.919412 256:-0.9244 257:-0.971758 258:-0.962624 259:-0.918148 260:-0.892103 261:-0.865122 262:-0.746206 263:-0.736047 264:-0.707902 265:-0.837599 266:-0.904098 267:-0.916184 268:-0.874676 269:-0.902821 270:-0.762802 271:-0.861044 272:-0.845291 273:-0.836198 274:-0.74498 275:-0.804088 276:-0.8667 277:-0.863654 278:-0.885555 279:-0.829384 280:-0.79237 281:-0.713023 282:-0.786442 283:-0.847033 284:-0.915492 285:-0.629904 286:-0.833444 287:-0.808976 288:-0.95272 289:-1 290:-1 
0 0 0 0 0 9.862087518182038 1:0.966995 4:-1 9:-1 11:-1 13:-1 14:-1 15:-1 16:-1 17:-1 18:-1 19:-1 20:-1 21:-1 22:-1 23:-1 24:-1 25:-1 26:-1 27:-1 28:-1 29:-1 30:-1 31:-1 32:-1 33:-1 34:-1 35:-1 36:-1 37:-1 38:-1 39:-1 41:-1 42:-1 46:0.966995 47:-1 48:-1 51:-1 52:-1 53:-1 54:-1 55:-1 56:-1 57:-1 58:-1 59:-1 60:-1 61:-1 62:-1 63:-1 64:-1 65:-1 66:-1 67:-1 68:-1 69:-1 70:-1 71:-1 72:-1 73:-1 74:-1 75:-1 76:-1 77:-1 78:-1 79:-1 80:-1 81:-1 82:-1 83:-1 84:-1 85:-1 86:-1 87:-1 88:-1 90:-1 91:0.966995 92:-1 93:-1 94:-1 95:-1 96:-1 97:-1 98:-1 99:-1 100:-1 101:-1 102:-1 103:-1 104:-1 105:-1 106:-1 107:-1 108:-1 109:-1 110:-1 111:-1 112:-1 115:-1 116:-1 117:-1 118:-1 119:-1 120:-1 121:-1 122:-1 123:-1 124:-1 125:-1 126:-1 127:-1 128:-1 129:-1 130:-1 131:-1 132:-1 133:-1 134:-1 135:-1 181:-0.866852 220:-1 221:-1 222:-1 223:-1 224:-1 225:-1 226:-1 227:-1 228:-1 229:-1 230:-1 231:-1 232:-1 233:-1 234:-1 235:-1 236:-1 237:-1 238:-1 239:-1 240:-1 241:-1 242:-1 243:-0.838529 244:-0.960032 245:-1 246:-1 247:-0.89058 248:-1 249:-1 250:-1 251:-0.932854 252:-0.891487 253:-0.96272 254:-1 255:-0.962701 256:-0.89503 257:-0.947715 258:-0.896209 259:-0.867407 260:-0.760298 261:-0.687871 262:-0.817279 263:-0.609071 264:-0.631295 265:-0.863338 266:-0.911227 267:-0.891381 268:-0.871103 269:-0.805098 270:-0.763546 271:-0.779498 272:-0.82099 273:-0.805053 274:-0.7808 275:-0.818653 276:-0.820523 277:-0.772822 278:-0.682188 279:-0.842068 280:-0.733063 281:-0.531962 282:-0.791914 283:-0.869296 284:-0.944125 285:-0.948613 286:-0.985317 287:-0.984624 288:-0.992706 289:-1 290:-1 
0 0 19.2610583086181 0 0 0 1:0.967309 4:-1 9:-1 11:-1 13:-1 14:-1 15:-1 16:-1 17:-1 18:-1 19:-1 20:-1 21:-1 22:-1 23:-1 24:-1 25:-1 26:-1 27:-1 28:-1 29:-1 30:-1 31:-1 32:-1 33:-1 34:-1 35:-1 36:-1 37:-1 38:-1 39:-1 41:-1 42:-1 46:0.967309 47:-1 48:-1 51:-1 52:-1 53:-1 54:-1 55:-1 56:-1 57:-1 58:-1 59:-1 60:-1 61:-1 62:-1 63:-1 64:-1 65:-1 66:-1 67:-1 68:-1 69:-1 70:-1 71:-1 72:-1 73:-1 74:-1 75:-1 76:-1 77:-1 78:-1 79:-1 80:-1 81:-1 82:-1 83:-1 84:-1 85:-1 86:-1 87:-1 88:-1 90:-1 91:0.967309 92:-1 93:-1 94:-1 95:-1 96:-1 97:-1 98:-1 99:-1 100:-1 101:-1 102:-1 103:-1 104:-1 105:-1 106:-1 107:-1 108:-1 109:-1 110:-1 111:-1 112:-1 115:-1 116:-1 117:-1 118:-1 119:-1 120:-1 121:-1 122:-1 123:-1 124:-1 125:-1 126:-1 127:-1 128:-1 129:-1 130:-1 131:-1 132:-1 133:-1 134:-1 135:-1 181:-0.770977 220:-1 221:-1 222:-1 223:-1 224:-1 225:-1 226:-1 227:-1 228:-1 229:-1 230:-1 231:-1 232:-1 233:-1 234:-1 235:-1 236:-1 237:-1 238:-1 239:-1 240:-1 241:-1 242:-1 243:-1 244:-0.957265 245:-1 246:-0.96568 247:-1 248:-0.923786 249:-0.969826 250:-0.949218 251:-1 252:-0.941987 253:-1 254:-0.96003 255:-1 256:-0.925175 257:-1 258:-0.963008 259:-0.918987 260:-0.935926 261:-0.933252 262:-0.804629 263:-0.738754 264:-0.710898 265:-0.853877 266:-0.841803 267:-0.817496 268:-0.889744 269:-0.855727 270:-0.801353 271:-0.862469 272:-0.789457 273:-0.872618 274:-0.855769 275:-0.861498 276:-0.904049 277:-0.865052 278:-0.854365 279:-0.739026 280:-0.725999 281:-0.70244 282:-0.833131 283:-0.895186 284:-0.820769 285:-0.560439 286:-0.866552 287:-0.827375 288:-0.953205 289:-1 290:-1 
0 0.43210299497085 0 1.044663837448514 0 0 1:0.968094 4:-1 9:-1 11:-1 13:-1 14:-1 15:-1 16:-1 17:-1 18:-1 19:-1 20:-1 21:-1 22:-1 23:-1 24:-1 25:-1 26:-1 27:-1 28:-1 29:-1 30:-1 31:-1 32:-1 33:-1 34:-1 35:-1 36:-1 37:-1 38:-1 39:-1 41:-1 42:-1 46:0.968094 47:-1 48:-1 51:-1 52:-1 53:-1 54:-1 55:-1 56:-1 57:-1 58:-1 59:-1 60:-1 61:-1 62:-1 63:-1 64:-1 65:-1 66:-1 67:-1 68:-1 69:-1 70:-1 71:-1 72:-1 73:-1 74:-1 75:-1 76:-1 77:-1 78:-1 79:-1 80:-1 81:-1 82:-1 83:-1 84:-1 85:-1 86:-1 87:-1 88:-1 90:-1 91:0.968094 92:-1 93:-1 94:-1 95:-1 96:-1 97:-1 98:-1 99:-1 100:-1 101:-1 102:-1 103:-1 104:-1 105:-1 106:-1 107:-1 108:-1 109:-1 110:-1 111:-1 112:-1 115:-1 116:-1 117:-1 118:-1 119:-1 120:-1 121:-1 122:-1 123:-1 124:-1 125:-1 126:-1 127:-1 128:-1 129:-1 130:-1 131:-1 132:-1 133:-1 134:-1 135:-1 181:-0.55719 220:-1 221:-1 222:-1 223:-1 224:-1 225:-1 226:-1 227:-1 228:-1 229:-1 230:-1 231:-1 232:-1 233:-1 234:-1 235:-1 236:-1 237:-1 238:-1 239:-1 240:-0.68426 241:-0.724018 242:-0.777299 243:-1 244:-0.95069 245:-0.951473 246:-0.881201 247:-0.910004 248:-0.780152 249:-0.930369 250:-0.882811 251:-0.91716 252:-0.866124 253:-0.908012 254:-0.861643 255:-0.953984 256:-1 257:-0.967747 258:-0.935975 259:-0.953262 260:-0.926068 261:-0.897311 262:-0.83898 263:-0.819137 264:-0.848373 265:-0.747095 266:-0.799211 267:-0.904281 268:-0.872781 269:-0.722551 270:-0.749954 271:-0.84131 272:-0.933745 273:-0.973277 274:-0.91679 275:-0.776267 276:-0.792413 277:-0.844291 278:-0.943987 279:-1 280:-0.907788 281:-0.781512 282:-0.858803 283:-0.811872 284:-0.848343 285:-0.788673 286:-0.972827 287:-0.943091 288:-0.901011 289:-0.918759 290:-1 
0.09638436608975894 0 0 0 0 5.363600295768029 1:0.966543 4:-1 9:-1 11:-1 13:-1 14:-1 15:-1 16:-1 17:-1 18:-1 19:-1 20:-1 21:-1 22:-1 23:-1 24:-1 25:-1 26:-1 27:-1 28:-1 29:-1 30:-1 31:-1 32:-1 33:-1 34:-1 35:-1 36:-1 37:-1 38:-1 39:-1 41:-1 42:-1 46:0.966543 47:-1 48:-1 51:-1 52:-1 53:-1 54:-1 55:-1 56:-1 57:-1 58:-1 59:-1 60:-1 61:-1 62:-1 63:-1 64:-1 65:-1 66:-1 67:-1 68:-1 69:-1 70:-1 71:-1 72:-1 73:-1 74:-1 75:-1 76:-1 77:-1 78:-1 79:-1 80:-1 81:-1 82:-1 83:-1 84:-1 85:-1 86:-1 87:-1 88:-1 90:-1 91:0.966543 92:-1 93:-1 94:-1 95:-1 96:-1 97:-1 98:-1 99:-1 100:-1 101:-1 102:-1 103:-1 104:-1 105:-1 106:-1 107:-1 108:-1 109:-1 110:-1 111:-1 112:-1 115:-1 116:-1 117:-1 118:-1 119:-1 120:-1 121:-1 122:-1 123:-1 124:-1 125:-1 126:-1 127:-1 128:-1 129:-1 130:-1 131:-1 132:-1 133:-1 134:-1 135:-1 181:-0.847811 220:-1 221:-1 222:-1 223:-1 224:-1 225:-1 226:-1 227:-1 228:-1 229:-1 230:-1 231:-1 232:-1 233:-1 234:-1 235:-1 236:-1 237:-1 238:-1 239:-1 240:-1 241:-0.797214 242:-1 243:-1 244:-1 245:-0.964343 246:-0.912709 247:-0.933872 248:-0.935384 249:-0.974418 250:-0.870837 251:-0.878261 252:-0.704891 253:-0.864818 254:-0.728901 255:-0.898564 256:-0.619368 257:-0.64452 258:-0.686371 259:-0.793946 260:-0.710273 261:-0.679321 262:-0.787034 263:-0.557017 264:-0.532065 265:-0.752226 266:-0.691515 267:-0.479538 268:-0.696196 269:-0.619452 270:-0.433502 271:-0.350357 272:-0.464488 273:-0.941092 274:-1 275:-0.988257 276:-1 277:-1 278:-1 279:-0.986985 280:-1 281:-1 282:-1 283:-0.990126 284:-1 285:-1 286:-1 287:-1 288:-0.993388 289:-1 290:-1 
1.967949723626836 0.767649358110072 0 1.277896915360111 0.07545670486704396 4.636352090078138 1:0.965464 4:-1 9:-1 11:-1 13:-1 14:-1 15:-1 16:-1 17:-1 18:-1 19:-1 20:-1 21:-1 22:-1 23:-1 24:-1 25:-1 26:-1 27:-1 28:-1 29:-1 30:-1 31:-1 32:-1 33:-1 34:-1 35:-1 36:-1 37:-1 38:-1 39:-1 41:-1 42:-1 46:0.965464 47:-1 48:-1 51:-1 52:-1 53:-1 54:-1 55:-1 56:-1 57:-1 58:-1 59:-1 60:-1 61:-1 62:-1 63:-1 64:-1 65:-1 66:-1 67:-1 68:-1 69:-1 70:-1 71:-1 72:-1 73:-1 74:-1 75:-1 76:-1 77:-1 78:-1 79:-1 80:-1 81:-1 82:-1 83:-1 84:-1 85:-1 86:-1 87:-1 88:-1 90:-1 91:0.965464 92:-1 93:-1 94:-1 95:-1 96:-1 97:-1 98:-1 99:-1 100:-1 101:-1 102:-1 103:-1 104:-1 105:-1 106:-1 107:-1 108:-1 109:-1 110:-1 111:-1 112:-1 115:-1 116:-1 117:-1 118:-1 119:-1 120:-1 121:-1 122:-1 123:-1 124:-1 125:-1 126:-1 127:-1 128:-1 129:-1 130:-1 131:-1 132:-1 133:-1 134:-1 135:-1 181:-0.384659 220:-1 221:-1 222:-1 223:-1 224:-1 225:-1 226:-1 227:-1 228:-1 229:-1 230:-1 231:-1 232:-1 233:-1 234:-1 235:-1 236:-1 237:-1 238:-1 239:-1 240:-1 241:-1 242:-1 243:-0.00980372 244:0.007625 245:0.500841 246:0.246609 247:0.416558 248:0.141341 249:-0.730805 250:-0.67639 251:-0.72549 252:-0.741218 253:-0.974598 254:-0.923587 255:-0.847514 256:-0.904635 257:-0.893124 258:-0.941066 259:-0.948374 260:-0.986389 261:-0.971643 262:-0.982214 263:-0.900112 264:-0.966503 265:-0.981376 266:-1 267:-0.947136 268:-0.973652 269:-0.969354 270:-0.953968 271:-0.949919 272:-0.951211 273:-0.955723 274:-0.977022 275:-0.982348 276:-0.954141 277:-0.948402 278:-0.958753 279:-0.970652 280:-0.956348 281:-0.965523 282:-0.943286 283:-0.925785 284:-0.969542 285:-0.894958 286:-0.994998 287:-0.96857 288:-1 289:-0.977566 290:-1 
0.2904826527638381 0 0 0.1497090924708828 0 0 1:0.966465 4:-1 9:-1 11:-1 13:-1 14:-1 15:-1 16:-1 17:-1 18:-1 19:-1 20:-1 21:-1 22:-1 23:-1 24:-1 25:-1 26:-1 27:-1 28:-1 29:-1 30:-1 31:-1 32:-1 33:-1 34:-1 35:-1 36:-1 37:-1 38:-1 39:-1 41:-1 42:-1 46:0.966465 47:-1 48:-1 51:-1 52:-1 53:-1 54:-1 55:-1 56:-1 57:-1 58:-1 59:-1 60:-1 61:-1 62:-1 63:-1 64:-1 65:-1 66:-1 67:-1 68:-1 69:-1 70:-1 71:-1 72:-1 73:-1 74:-1 75:-1 76:-1 77:-1 78:-1 79:-1 80:-1 81:-1 82:-1 83:-1 84:-1 85:-1 86:-1 87:-1 88:-1 90:-1 91:0.966465 92:-1 93:-1 94:-1 95:-1 96:-1 97:-1 98:-1 99:-1 100:-1 101:-1 102:-1 103:-1 104:-1 105:-1 106:-1 107:-1 108:-1 109:-1 110:-1 111:-1 112:-1 115:-1 116:-1 117:-1 118:-1 119:-1 120:-1 121:-1 122:-1 123:-1 124:-1 125:-1 126:-1 127:-1 128:-1 129:-1 130:-1 131:-1 132:-1 133:-1 134:-1 135:-1 181:-0.850732 220:-1 221:-1 222:-1 223:-1 224:-1 225:-1 226:-1 227:-1 228:-1 229:-1 230:-1 231:-1 232:-1 233:-1 234:-1 235:-1 236:-1 237:-1 238:-1 239:-1 240:-1 241:-1 242:-1 243:-1 244:-1 245:-1 246:-1 247:-1 248:-0.936624 249:-0.974909 250:-0.957772 251:-0.880597 252:-0.807036 253:-0.900559 254:-0.833814 255:-0.767857 256:-0.502231 257:-0.651342 258:-0.753912 259:-0.781058 260:-0.751354 261:-0.796483 262:-0.326944 263:-0.608967 264:-0.69403 265:-0.671924 266:-0.671125 267:-0.586102 268:-0.644723 269:-0.453463 270:-0.249151 271:-0.411837 272:-0.840837 273:-0.971111 274:-1 275:-0.988483 276:-0.950132 277:-0.977557 278:-1 279:-0.987234 280:-1 281:-0.988753 282:-1 283:-0.980631 284:-0.990064 285:-1 286:-0.993472 287:-0.993164 288:-0.993515 289:-1 290:-1 
0.02917428929006463 0 0 0 0 0 1:0.967937 4:-1 9:-1 11:-1 13:-1 14:-1 15:-1 16:-1 17:-1 18:-1 19:-1 20:-1 21:-1 22:-1 23:-1 24:-1 25:-1 26:-1 27:-1 28:-1 29:-1 30:-1 31:-1 32:-1 33:-1 34:-1 35:-1 36:-1 37:-1 38:-1 39:-1 41:-1 42:-1 46:0.967937 47:-1 48:-1 51:-1 52:-1 53:-1 54:-1 55:-1 56:-1 57:-1 58:-1 59:-1 60:-1 61:-1 62:-1 63:-1 64:-1 65:-1 66:-1 67:-1 68:-1 69:-1 70:-1 71:-1 72:-1 73:-1 74:-1 75:-1 76:-1 77:-1 78:-1 79:-1 80:-1 81:-1 82:-1 83:-1 84:-1 85:-1 86:-1 87:-1 88:-1 90:-1 91:0.967937 92:-1 93:-1 94:-1 95:-1 96:-1 97:-1 98:-1 99:-1 100:-1 101:-1 102:-1 103:-1 104:-1 105:-1 106:-1 107:-1 108:-1 109:-1 110:-1 111:-1 112:-1 115:-1 116:-1 117:-1 118:-1 119:-1 120:-1 121:-1 122:-1 123:-1 124:-1 125:-1 126:-1 127:-1 128:-1 129:-1 130:-1 131:-1 132:-1 133:-1 134:-1 135:-1 181:-0.533889 220:-1 221:-1 222:-1 223:-1 224:-1 225:-1 226:-1 227:-1 228:-1 229:-1 230:-1 231:-1 232:-1 233:-1 234:-1 235:-1 236:-1 237:-1 238:-1 239:-1 240:-1 241:-0.731177 242:-1 243:-0.902978 244:-0.951969 245:-0.716391 246:-0.922855 247:-0.912338 248:-0.914342 249:-0.966087 250:-1 251:-0.757925 252:-0.869597 253:-1 254:-0.955077 255:-1 256:-1 257:-0.937168 258:-1 259:-0.954474 260:-0.879976 261:-0.924981 262:-0.74905 263:-0.970638 264:-0.675072 265:-0.901461 266:-0.875539 267:-0.832174 268:-0.798631 269:-0.855865 270:-0.736143 271:-0.801262 272:-0.806391 273:-0.934924 274:-0.858159 275:-0.859902 276:-0.838238 277:-0.711826 278:-0.963626 279:-0.982746 280:-0.871686 281:-0.817582 282:-0.737433 283:-0.829841 284:-0.758271 285:-0.938246 286:-0.938242 287:-0.981522 288:-0.956172 289:-0.940649 290:-1 
5.430892820880074 0 76.55486568304623 0.8068222967022806 0 0 1:0.967073 4:-1 9:-1 11:-1 13:-1 14:-1 15:-1 16:-1 17:-1 18:-1 19:-1 20:-1 21:-1 22:-1 23:-1 24:-1 25:-1 26:-1 27:-1 28:-1 29:-1 30:-1 31:-1 32:-1 33:-1 34:-1 35:-1 36:-1 37:-1 38:-1 39:-1 41:-1 42:-1 46:0.967073 47:-1 48:-1 51:-1 52:-1 53:-1 54:-1 55:-1 56:-1 57:-1 58:-1 59:-1 60:-1 61:-1 62:-1 63:-1 64:-1 65:-1 66:-1 67:-1 68:-1 69:-1 70:-1 71:-1 72:-1 73:-1 74:-1 75:-1 76:-1 77:-1 78:-1 79:-1 80:-1 81:-1 82:-1 83:-1 84:-1 85:-1 86:-1 87:-1 88:-1 90:-1 91:0.967073 92:-1 93:-1 94:-1 95:-1 96:-1 97:-1 98:-1 99:-1 100:-1 101:-1 102:-1 103:-1 104:-1 105:-1 106:-1 107:-1 108:-1 109:-1 110:-1 111:-1 112:-1 115:-1 116:-1 117:-1 118:-1 119:-1 120:-1 121:-1 122:-1 123:-1 124:-1 125:-1 126:-1 127:-1 128:-1 129:-1 130:-1 131:-1 132:-1 133:-1 134:-1 135:-1 181:-0.828834 220:-1 221:-1 222:-1 223:-1 224:-1 225:-1 226:-1 227:-1 228:-1 229:-1 230:-1 231:-1 232:-1 233:-1 234:-1 235:-1 236:-1 237:-1 238:-1 239:-1 240:-1 241:-1 242:-0.631917 243:-1 244:-0.9185 245:-1 246:-0.934549 247:-0.925627 248:-0.963663 249:-0.971228 250:-0.854732 251:-1 252:-1 253:-1 254:-1 255:-0.961972 256:-0.928651 257:-0.920039 258:-0.894179 259:-0.942063 260:-0.796341 261:-0.851491 262:-0.866933 263:-0.800712 264:-0.824572 265:-0.846731 266:-0.834067 267:-0.841794 268:-0.776589 269:-0.801286 270:-0.862241 271:-0.737716 272:-0.83574 273:-0.889578 274:-0.828086 275:-0.828312 276:-0.839886 277:-0.897057 278:-0.737691 279:-0.66332 280:-0.858478 281:-0.677572 282:-0.649942 283:-0.811215 284:-0.931638 285:-0.825358 286:-0.962574 287:-0.960808 288:-0.910758 289:-0.991608 290:-1 
0 0 48.31008634145554 0 0 0 1:0.967152 4:-1 9:-1 11:-1 13:-1 14:-1 15:-1 16:-1 17:-1 18:-1 19:-1 20:-1 21:-1 22:-1 23:-1 24:-1 25:-1 26:-1 27:-1 28:-1 29:-1 30:-1 31:-1 32:-1 33:-1 34:-1 35:-1 36:-1 37:-1 38:-1 39:-1 41:-1 42:-1 46:0.967152 47:-1 48:-1 51:-1 52:-1 53:-1 54:-1 55:-1 56:-1 57:-1 58:-1 59:-1 60:-1 61:-1 62:-1 63:-1 64:-1 65:-1 66:-1 67:-1 68:-1 69:-1 70:-1 71:-1 72:-1 73:-1 74:-1 75:-1 76:-1 77:-1 78:-1 79:-1 80:-1 81:-1 82:-1 83:-1 84:-1 85:-1 86:-1 87:-1 88:-1 90:-1 91:0.967152 92:-1 93:-1 94:-1 95:-1 96:-1 97:-1 98:-1 99:-1 100:-1 101:-1 102:-1 103:-1 104:-1 105:-1 106:-1 107:-1 108:-1 109:-1 110:-1 111:-1 112:-1 115:-1 116:-1 117:-1 118:-1 119:-1 120:-1 121:-1 122:-1 123:-1 124:-1 125:-1 126:-1 127:-1 128:-1 129:-1 130:-1 131:-1 132:-1 133:-1 134:-1 135:-1 181:-0.711758 220:-1 221:-1 222:-1 223:-1 224:-1 225:-1 226:-1 227:-1 228:-1 229:-1 230:-1 231:-1 232:-1 233:-1 234:-1 235:-1 236:-1 237:-1 238:-1 239:-1 240:-1 241:-1 242:-1 243:-0.916252 244:-0.958541 245:-1 246:-1 247:-0.886497 248:-0.926061 249:-0.970727 250:-0.901468 251:-0.930348 252:-1 253:-0.845314 254:-0.806117 255:-0.767857 256:-0.637043 257:-0.755939 258:-0.784673 259:-0.764217 260:-0.772074 261:-0.676224 262:-0.647999 263:-0.543795 264:-0.439055 265:-0.659773 266:-0.616312 267:-0.597599 268:-0.719216 269:-0.906689 270:-0.807282 271:-0.733148 272:-0.851448 273:-0.876421 274:-0.860074 275:-0.825323 276:-0.883641 277:-0.895264 278:-0.858712 279:-0.970214 280:-0.966772 281:-0.986878 282:-0.967622 283:-0.988702 284:-1 285:-1 286:-1 287:-0.98405 288:-1 289:-0.991462 290:-1 
0 0 95.19552966416128 0 0 0 1:0.967171 4:-1 9:-1 11:-1 13:-1 14:-1 15:-1 16:-1 17:-1 18:-1 19:-1 20:-1 21:-1 22:-1 23:-1 24:-1 25:-1 26:-1 27:-1 28:-1 29:-1 30:-1 31:-1 32:-1 33:-1 34:-1 35:-1 36:-1 37:-1 38:-1 39:-1 41:-1 42:-1 46:0.967171 47:-1 48:-1 51:-1 52:-1 53:-1 54:-1 55:-1 56:-1 57:-1 58:-1 59:-1 60:-1 61:-1 62:-1 63:-1 64:-1 65:-1 66:-1 67:-1 68:-1 69:-1 70:-1 71:-1 72:-1 73:-1 74:-1 75:-1 76:-1 77:-1 78:-1 79:-1 80:-1 81:-1 82:-1 83:-1 84:-1 85:-1 86:-1 87:-1 88:-1 90:-1 91:0.967171 92:-1 93:-1 94:-1 95:-1 96:-1 97:-1 98:-1 99:-1 100:-1 101:-1 102:-1 103:-1 104:-1 105:-1 106:-1 107:-1 108:-1 109:-1 110:-1 111:-1 112:-1 115:-1 116:-1 117:-1 118:-1 119:-1 120:-1 121:-1 122:-1 123:-1 124:-1 125:-1 126:-1 127:-1 128:-1 129:-1 130:-1 131:-1 132:-1 133:-1 134:-1 135:-1 181:-0.806878 220:-1 221:-1 222:-1 223:-1 224:-1 225:-1 226:-1 227:-1 228:-1 229:-1 230:-1 231:-1 232:-1 233:-1 234:-1 235:-1 236:-1 237:-1 238:-1 239:-1 240:-1 241:-1 242:-0.811818 243:-0.915833 244:-1 245:-1 246:-0.966538 247:-0.847906 248:-0.925691 249:-1 250:-1 251:-0.93 252:-1 253:-0.961135 254:-0.961029 255:-0.922232 256:-0.963523 257:-0.836479 258:-0.909832 259:-0.802532 260:-0.854231 261:-0.804763 262:-0.863938 263:-0.8217 264:-0.820625 265:-0.871777 266:-0.876606 267:-0.805882 268:-0.879062 269:-0.859333 270:-0.806319 271:-0.808439 272:-0.832044 273:-0.887093 274:-0.753906 275:-0.891969 276:-0.789507 277:-0.907898 278:-0.637127 279:-0.850324 280:-0.677193 281:-0.683505 282:-0.826456 283:-0.829677 284:-0.82525 285:-0.892857 286:-0.954078 287:-0.951912 288:-0.90875 289:-0.991419 290:-1 
0 0 7.14138537900098 0 0 0 1:0.966838 4:-1 9:-1 11:-1 13:-1 14:-1 15:-1 16:-1 17:-1 18:-1 19:-1 20:-1 21:-1 22:-1 23:-1 24:-1 25:-1 26:-1 27:-1 28:-1 29:-1 30:-1 31:-1 32:-1 33:-1 34:-1 35:-1 36:-1 37:-1 38:-1 39:-1 41:-1 42:-1 46:0.966838 47:-1 48:-1 51:-1 52:-1 53:-1 54:-1 55:-1 56:-1 57:-1 58:-1 59:-1 60:-1 61:-1 62:-1 63:-1 64:-1 65:-1 66:-1 67:-1 68:-1 69:-1 70:-1 71:-1 72:-1 73:-1 74:-1 75:-1 76:-1 77:-1 78:-1 79:-1 80:-1 81:-1 82:-1 83:-1 84:-1 85:-1 86:-1 87:-1 88:-1 90:-1 91:0.966838 92:-1 93:-1 94:-1 95:-1 96:-1 97:-1 98:-1 99:-1 100:-1 101:-1 102:-1 103:-1 104:-1 105:-1 106:-1 107:-1 108:-1 109:-1 110:-1 111:-1 112:-1 115:-1 116:-1 117:-1 118:-1 119:-1 120:-1 121:-1 122:-1 123:-1 124:-1 125:-1 126:-1 127:-1 128:-1 129:-1 130:-1 131:-1 132:-1 133:-1 134:-1 135:-1 181:-0.859975 220:-1 221:-1 222:-1 223:-1 224:-1 225:-1 226:-1 227:-1 228:-1 229:-1 230:-1 231:-1 232:-1 233:-1 234:-1 235:-1 236:-1 237:-1 238:-1 239:-1 240:-1 241:-1 242:-1 243:-0.921887 244:-0.96133 245:-0.961944 246:-0.968945 247:-1 248:-0.862072 249:-0.972697 250:-1 251:-0.805104 252:-1 253:-1 254:-0.927665 255:-0.855652 256:-0.729172 257:-0.848241 258:-0.899581 259:-0.853388 260:-0.768084 261:-0.818805 262:-0.772704 263:-0.716327 264:-0.881091 265:-0.920666 266:-0.856851 267:-0.84987 268:-0.87529 269:-0.796923 270:-0.754886 271:-0.662212 272:-0.774846 273:-0.821865 274:-0.706351 275:-0.874673 276:-0.826353 277:-0.853468 278:-0.751081 279:-0.805525 280:-0.762395 281:-0.755224 282:-0.677877 283:-0.757622 284:-0.935128 285:-0.883991 286:-0.992897 287:-1 288:-1 289:-1 290:-1 
0 0 15.92799944714437 0 0 0 1:0.967034 4:-1 9:-1 11:-1 13:-1 14:-1 15:-1 16:-1 17:-1 18:-1 19:-1 20:-1 21:-1 22:-1 23:-1 24:-1 25:-1 26:-1 27:-1 28:-1 29:-1 30:-1 31:-1 32:-1 33:-1 34:-1 35:-1 36:-1 37:-1 38:-1 39:-1 41:-1 42:-1 46:0.967034 47:-1 48:-1 51:-1 52:-1 53:-1 54:-1 55:-1 56:-1 57:-1 58:-1 59:-1 60:-1 61:-1 62:-1 63:-1 64:-1 65:-1 66:-1 67:-1 68:-1 69:-1 70:-1 71:-1 72:-1 73:-1 74:-1 75:-1 76:-1 77:-1 78:-1 79:-1 80:-1 81:-1 82:-1 83:-1 84:-1 85:-1 86:-1 87:-1 88:-1 90:-1 91:0.967034 92:-1 93:-1 94:-1 95:-1 96:-1 97:-1 98:-1 99:-1 100:-1 101:-1 102:-1 103:-1 104:-1 105:-1 106:-1 107:-1 108:-1 109:-1 110:-1 111:-1 112:-1 115:-1 116:-1 117:-1 118:-1 119:-1 120:-1 121:-1 122:-1 123:-1 124:-1 125:-1 126:-1 127:-1 128:-1 129:-1 130:-1 131:-1 132:-1 133:-1 134:-1 135:-1 181:-0.836337 220:-1 221:-1 222:-1 223:-1 224:-1 225:-1 226:-1 227:-1 228:-1 229:-1 230:-1 231:-1 232:-1 233:-1 234:-1 235:-1 236:-1 237:-1 238:-1 239:-1 240:-1 241:-1 242:-1 243:-1 244:-0.959645 245:-0.960286 246:-1 247:-0.963173 248:-0.92803 249:-0.943014 250:-0.952046 251:-0.932203 252:-1 253:-0.962358 254:-0.962256 255:-1 256:-0.929342 257:-0.81523 258:-0.842805 259:-0.866123 260:-0.899157 261:-0.852928 262:-0.815509 263:-0.777972 264:-0.900726 265:-0.848216 266:-0.865551 267:-0.811992 268:-0.85684 269:-0.848623 270:-0.846521 271:-0.70315 272:-0.855405 273:-0.901582 274:-0.846776 275:-0.803817 276:-0.818785 277:-0.821594 278:-0.67911 279:-0.739063 280:-0.870629 281:-0.808417 282:-0.705858 283:-0.758056 284:-0.808184 285:-0.809754 286:-0.911047 287:-0.961188 288:-0.963176 289:-0.983378 290:-1 
0 0 39.10259512680544 0 0 0 1:0.967073 4:-1 9:-1 11:-1 13:-1 14:-1 15:-1 16:-1 17:-1 18:-1 19:-1 20:-1 21:-1 22:-1 23:-1 24:-1 25:-1 26:-1 27:-1 28:-1 29:-1 30:-1 31:-1 32:-1 33:-1 34:-1 35:-1 36:-1 37:-1 38:-1 39:-1 41:-1 42:-1 46:0.967073 47:-1 48:-1 51:-1 52:-1 53:-1 54:-1 55:-1 56:-1 57:-1 58:-1 59:-1 60:-1 61:-1 62:-1 63:-1 64:-1 65:-1 66:-1 67:-1 68:-1 69:-1 70:-1 71:-1 72:-1 73:-1 74:-1 75:-1 76:-1 77:-1 78:-1 79:-1 80:-1 81:-1 82:-1 83:-1 84:-1 85:-1 86:-1 87:-1 88:-1 90:-1 91:0.967073 92:-1 93:-1 94:-1 95:-1 96:-1 97:-1 98:-1 99:-1 100:-1 101:-1 102:-1 103:-1 104:-1 105:-1 106:-1 107:-1 108:-1 109:-1 110:-1 111:-1 112:-1 115:-1 116:-1 117:-1 118:-1 119:-1 120:-1 121:-1 122:-1 123:-1 124:-1 125:-1 126:-1 127:-1 128:-1 129:-1 130:-1 131:-1 132:-1 133:-1 134:-1 135:-1 181:-0.758597 220:-1 221:-1 222:-1 223:-1 224:-1 225:-1 226:-1 227:-1 228:-1 229:-1 230:-1 231:-1 232:-1 233:-1 234:-1 235:-1 236:-1 237:-1 238:-1 239:-1 240:-1 241:-1 242:-1 243:-0.835772 244:-0.95935 245:-0.879985 246:-1 247:-0.925808 248:-0.891256 249:-0.971298 250:-0.951695 251:-0.863415 252:-1 253:-0.886249 254:-0.96198 255:-0.772388 256:-0.85765 257:-0.867057 258:-0.912031 259:-0.942204 260:-0.898419 261:-0.873017 262:-0.761062 263:-0.875749 264:-0.775 265:-0.888804 266:-0.954856 267:-0.857962 268:-0.882012 269:-0.954255 270:-0.793865 271:-0.738356 272:-0.799727 273:-0.856801 274:-0.622713 275:-0.868255 276:-0.885912 277:-0.820289 278:-0.66137 279:-0.810167 280:-0.804524 281:-0.79415 282:-0.777779 283:-0.800598 284:-0.886342 285:-0.825784 286:-0.940264 287:-0.960904 288:-0.925813 289:-0.966513 290:-1 
2.20061418337781 0.8394908553248952 0 1.905001626524185 0 4.906244740691485 1:0.970331 4:-1 9:-1 11:-1 13:-1 14:-1 15:-1 16:-1 17:-1 18:-1 19:-1 20:-1 21:-1 22:-1 23:-1 24:-1 25:-1 26:-1 27:-1 28:-1 29:-1 30:-1 31:-1 32:-1 33:-1 34:-1 35:-1 36:-1 37:-1 38:-1 39:-1 41:-1 42:-1 46:0.970331 47:-1 48:-1 51:-1 52:-1 53:-1 54:-1 55:-1 56:-1 57:-1 58:-1 59:-1 60:-1 61:-1 62:-1 63:-1 64:-1 65:-1 66:-1 67:-1 68:-1 69:-1 70:-1 71:-1 72:-1 73:-1 74:-1 75:-1 76:-1 77:-1 78:-1 79:-1 80:-1 81:-1 82:-1 83:-1 84:-1 85:-1 86:-1 87:-1 88:-1 90:-1 91:0.970331 92:-1 93:-1 94:-1 95:-1 96:-1 97:-1 98:-1 99:-1 100:-1 101:-1 102:-1 103:-1 104:-1 105:-1 106:-1 107:-1 108:-1 109:-1 110:-1 111:-1 112:-1 115:-1 116:-1 117:-1 118:-1 119:-1 120:-1 121:-1 122:-1 123:-1 124:-1 125:-1 126:-1 127:-1 128:-1 129:-1 130:-1 131:-1 132:-1 133:-1 134:-1 135:-1 181:-0.544895 220:-1 221:-1 222:-1 223:-1 224:-1 225:-1 226:-1 227:-1 228:-1 229:-1 230:-1 231:-1 232:-1 233:-1 234:-1 235:-1 236:-1 237:-1 238:-1 239:-1 240:-1 241:-1 242:-1 243:-1 244:-1 245:-0.932779 246:-0.945145 247:-0.937667 248:-0.939091 249:-1 250:-1 251:-1 252:-0.629099 253:-0.681436 254:-0.488911 255:0.0199054 256:0.136174 257:0.250977 258:-0.0539748 259:0.0358958 260:-0.658621 261:-0.822188 262:-0.866168 263:-0.832974 264:-1 265:-0.976644 266:-1 267:-0.893925 268:-1 269:-0.974378 270:-0.971135 271:-0.937193 272:-0.938814 273:-1 274:-1 275:-1 276:-0.961659 277:-0.956861 278:-1 279:-0.950926 280:-0.963504 281:-0.978381 282:-1 283:-0.944156 284:-1 285:-0.941452 286:-1 287:-0.973722 288:-0.987534 289:-1 290:-1 
0.6479062798988985 0 0 0 0 0 1:0.967368 4:-1 9:-1 11:-1 13:-1 14:-1 15:-1 16:-1 17:-1 18:-1 19:-1 20:-1 21:-1 22:-1 23:-1 24:-1 25:-1 26:-1 27:-1 28:-1 29:-1 30:-1 31:-1 32:-1 33:-1 34:-1 35:-1 36:-1 37:-1 38:-1 39:-1 41:-1 42:-1 46:0.967368 47:-1 48:-1 51:-1 52:-1 53:-1 54:-1 55:-1 56:-1 57:-1 58:-1 59:-1 60:-1 61:-1 62:-1 63:-1 64:-1 65:-1 66:-1 67:-1 68:-1 69:-1 70:-1 71:-1 72:-1 73:-1 74:-1 75:-1 76:-1 77:-1 78:-1 79:-1 80:-1 81:-1 82:-1 83:-1 84:-1 85:-1 86:-1 87:-1 88:-1 90:-1 91:0.967368 92:-1 93:-1 94:-1 95:-1 96:-1 97:-1 98:-1 99:-1 100:-1 101:-1 102:-1 103:-1 104:-1 105:-1 106:-1 107:-1 108:-1 109:-1 110:-1 111:-1 112:-1 115:-1 116:-1 117:-1 118:-1 119:-1 120:-1 121:-1 122:-1 123:-1 124:-1 125:-1 126:-1 127:-1 128:-1 129:-1 130:-1 131:-1 132:-1 133:-1 134:-1 135:-1 181:-0.818164 220:-1 221:-1 222:-1 223:-1 224:-1 225:-1 226:-1 227:-1 228:-1 229:-1 230:-1 231:-1 232:-1 233:-1 234:-1 235:-1 236:-1 237:-1 238:-1 239:-1 240:-1 241:-0.75771 242:-1 243:-0.825108 244:-0.95671 245:-0.957397 246:-0.930469 247:-0.960495 248:-1 249:-0.969435 250:-1 251:-0.927273 252:-1 253:-1 254:-0.919022 255:-0.919202 256:-0.962102 257:-0.886739 258:-0.943791 259:-0.938451 260:-0.848552 261:-0.909847 262:-0.717274 263:-0.735362 264:-0.92013 265:-0.940792 266:-0.935899 267:-0.831932 268:-0.888312 269:-0.935046 270:-0.853653 271:-0.800975 272:-0.8255 273:-0.894425 274:-0.872159 275:-0.8597 276:-0.914952 277:-0.8633 278:-0.721339 279:-0.79784 280:-0.872786 281:-0.904093 282:-0.75208 283:-0.799446 284:-0.818442 285:-0.795919 286:-0.7853 287:-0.80848 288:-0.841991 289:-0.875184 290:-1 
0.3096420748795617 0 45.57447500698696 0 0 107.3252361112299 1:0.967093 4:-1 9:-1 11:-1 13:-1 14:-1 15:-1 16:-1 17:-1 18:-1 19:-1 20:-1 21:-1 22:-1 23:-1 24:-1 25:-1 26:-1 27:-1 28:-1 29:-1 30:-1 31:-1 32:-1 33:-1 34:-1 35:-1 36:-1 37:-1 38:-1 39:-1 41:-1 42:-1 46:0.967093 47:-1 48:-1 51:-1 52:-1 53:-1 54:-1 55:-1 56:-1 57:-1 58:-1 59:-1 60:-1 61:-1 62:-1 63:-1 64:-1 65:-1 66:-1 67:-1 68:-1 69:-1 70:-1 71:-1 72:-1 73:-1 74:-1 75:-1 76:-1 77:-1 78:-1 79:-1 80:-1 81:-1 82:-1 83:-1 84:-1 85:-1 86:-1 87:-1 88:-1 90:-1 91:0.967093 92:-1 93:-1 94:-1 95:-1 96:-1 97:-1 98:-1 99:-1 100:-1 101:-1 102:-1 103:-1 104:-1 105:-1 106:-1 107:-1 108:-1 109:-1 110:-1 111:-1 112:-1 115:-1 116:-1 117:-1 118:-1 119:-1 120:-1 121:-1 122:-1 123:-1 124:-1 125:-1 126:-1 127:-1 128:-1 129:-1 130:-1 131:-1 132:-1 133:-1 134:-1 135:-1 181:-0.89892 220:-1 221:-1 222:-1 223:-1 224:-1 225:-1 226:-1 227:-1 228:-1 229:-1 230:-1 231:-1 232:-1 233:-1 234:-1 235:-1 236:-1 237:-1 238:-1 239:-1 240:-1 241:-1 242:-1 243:-0.917077 244:-0.958949 245:-1 246:-0.967033 247:-0.925077 248:-1 249:-0.942031 250:-1 251:-1 252:-1 253:-0.96171 254:-1 255:-0.923381 256:-0.964062 257:-0.838896 258:-0.946699 259:-0.88327 260:-0.835869 261:-0.829021 262:-0.839139 263:-0.84943 264:-0.646551 265:-0.943854 266:-0.87843 267:-0.984063 268:-0.841133 269:-0.892209 270:-0.861223 271:-0.867889 272:-0.797754 273:-0.899886 274:-0.89609 275:-0.747218 276:-0.827182 277:-0.727778 278:-0.766841 279:-0.719818 280:-0.791632 281:-0.688182 282:-0.754217 283:-0.865755 284:-0.850788 285:-0.648135 286:-0.849189 287:-0.826282 288:-0.955049 289:-1 290:-1 
0 0 20.15989070661806 0 0 0 1:0.966995 4:-1 9:-1 11:-1 13:-1 14:-1 15:-1 16:-1 17:-1 18:-1 19:-1 20:-1 21:-1 22:-1 23:-1 24:-1 25:-1 26:-1 27:-1 28:-1 29:-1 30:-1 31:-1 32:-1 33:-1 34:-1 35:-1 36:-1 37:-1 38:-1 39:-1 41:-1 42:-1 46:0.966995 47:-1 48:-1 51:-1 52:-1 53:-1 54:-1 55:-1 56:-1 57:-1 58:-1 59:-1 60:-1 61:-1 62:-1 63:-1 64:-1 65:-1 66:-1 67:-1 68:-1 69:-1 70:-1 71:-1 72:-1 73:-1 74:-1 75:-1 76:-1 77:-1 78:-1 79:-1 80:-1 81:-1 82:-1 83:-1 84:-1 85:-1 86:-1 87:-1 88:-1 90:-1 91:0.966995 92:-1 93:-1 94:-1 95:-1 96:-1 97:-1 98:-1 99:-1 100:-1 101:-1 102:-1 103:-1 104:-1 105:-1 106:-1 107:-1 108:-1 109:-1 110:-1 111:-1 112:-1 115:-1 116:-1 117:-1 118:-1 119:-1 120:-1 121:-1 122:-1 123:-1 124:-1 125:-1 126:-1 127:-1 128:-1 129:-1 130:-1 131:-1 132:-1 133:-1 134:-1 135:-1 181:-0.837907 220:-1 221:-1 222:-1 223:-1 224:-1 225:-1 226:-1 227:-1 228:-1 229:-1 230:-1 231:-1 232:-1 233:-1 234:-1 235:-1 236:-1 237:-1 238:-1 239:-1 240:-1 241:-1 242:-0.81949 243:-1 244:-1 245:-1 246:-1 247:-0.963527 248:-0.928721 249:-1 250:-0.952506 251:-0.932854 252:-1 253:-0.96272 254:-0.962618 255:-0.925403 256:-0.93002 257:-0.89543 258:-0.87891 259:-1 260:-0.760298 261:-0.83353 262:-0.765073 263:-0.68237 264:-0.803357 265:-0.863338 266:-0.881636 267:-0.798278 268:-0.793765 269:-0.910045 270:-0.847994 271:-0.834624 272:-0.82099 273:-0.848375 274:-0.763939 275:-0.779792 276:-0.921479 277:-0.848548 278:-0.803259 279:-0.741566 280:-0.91458 281:-0.759656 282:-0.760701 283:-0.825729 284:-0.787674 285:-0.743063 286:-0.897217 287:-0.853929 288:-0.963529 289:-0.983538 290:-1 
0 0 53.03903431572968 0 0 0 1:0.967387 4:-1 9:-1 11:-1 13:-1 14:-1 15:-1 16:-1 17:-1 18:-1 19:-1 20:-1 21:-1 22:-1 23:-1 24:-1 25:-1 26:-1 27:-1 28:-1 29:-1 30:-1 31:-1 32:-1 33:-1 34:-1 35:-1 36:-1 37:-1 38:-1 39:-1 41:-1 42:-1 46:0.967387 47:-1 48:-1 51:-1 52:-1 53:-1 54:-1 55:-1 56:-1 57:-1 58:-1 59:-1 60:-1 61:-1 62:-1 63:-1 64:-1 65:-1 66:-1 67:-1 68:-1 69:-1 70:-1 71:-1 72:-1 73:-1 74:-1 75:-1 76:-1 77:-1 78:-1 79:-1 80:-1 81:-1 82:-1 83:-1 84:-1 85:-1 86:-1 87:-1 88:-1 90:-1 91:0.967387 92:-1 93:-1 94:-1 95:-1 96:-1 97:-1 98:-1 99:-1 100:-1 101:-1 102:-1 103:-1 104:-1 105:-1 106:-1 107:-1 108:-1 109:-1 110:-1 111:-1 112:-1 115:-1 116:-1 117:-1 118:-1 119:-1 120:-1 121:-1 122:-1 123:-1 124:-1 125:-1 126:-1 127:-1 128:-1 129:-1 130:-1 131:-1 132:-1 133:-1 134:-1 135:-1 181:-0.798831 220:-1 221:-1 222:-1 223:-1 224:-1 225:-1 226:-1 227:-1 228:-1 229:-1 230:-1 231:-1 232:-1 233:-1 234:-1 235:-1 236:-1 237:-1 238:-1 239:-1 240:-1 241:-1 242:-1 243:-1 244:-1 245:-0.914573 246:-0.965144 247:-0.960392 248:-1 249:-1 250:-1 251:-1 252:-0.941081 253:-1 254:-0.918811 255:-1 256:-0.962003 257:-0.886444 258:-0.906075 259:-0.876582 260:-0.826466 261:-0.796628 262:-0.716537 263:-0.81427 264:-0.866537 265:-0.910956 266:-0.887531 267:-0.898897 268:-0.930013 269:-0.755787 270:-0.81659 271:-0.900229 272:-0.805606 273:-0.917672 274:-0.780273 275:-0.887468 276:-0.890368 277:-0.862943 278:-0.835655 279:-0.859678 280:-0.826074 281:-0.862632 282:-0.796628 283:-0.810752 284:-0.939323 285:-0.646577 286:-0.720961 287:-0.858073 288:-0.865343 289:-0.919552 290:-1 
0 0 0 0 0 108.9749371080305 1:0.967034 4:-1 9:-1 11:-1 13:-1 14:-1 15:-1 16:-1 17:-1 18:-1 19:-1 20:-1 21:-1 22:-1 23:-1 24:-1 25:-1 26:-1 27:-1 28:-1 29:-1 30:-1 31:-1 32:-1 33:-1 34:-1 35:-1 36:-1 37:-1 38:-1 39:-1 41:-1 42:-1 46:0.967034 47:-1 48:-1 51:-1 52:-1 53:-1 54:-1 55:-1 56:-1 57:-1 58:-1 59:-1 60:-1 61:-1 62:-1 63:-1 64:-1 65:-1 66:-1 67:-1 68:-1 69:-1 70:-1 71:-1 72:-1 73:-1 74:-1 75:-1 76:-1 77:-1 78:-1 79:-1 80:-1 81:-1 82:-1 83:-1 84:-1 85:-1 86:-1 87:-1 88:-1 90:-1 91:0.967034 92:-1 93:-1 94:-1 95:-1 96:-1 97:-1 98:-1 99:-1 100:-1 101:-1 102:-1 103:-1 104:-1 105:-1 106:-1 107:-1 108:-1 109:-1 110:-1 111:-1 112:-1 115:-1 116:-1 117:-1 118:-1 119:-1 120:-1 121:-1 122:-1 123:-1 124:-1 125:-1 126:-1 127:-1 128:-1 129:-1 130:-1 131:-1 132:-1 133:-1 134:-1 135:-1 181:-0.88338 220:-1 221:-1 222:-1 223:-1 224:-1 225:-1 226:-1 227:-1 228:-1 229:-1 230:-1 231:-1 232:-1 233:-1 234:-1 235:-1 236:-1 237:-1 238:-1 239:-1 240:-1 241:-1 242:-1 243:-1 244:-1 245:-0.960382 246:-1 247:-1 248:-1 249:-1 250:-1 251:-1 252:-0.8907 253:-0.962449 254:-0.924695 255:-0.924862 256:-1 257:-0.921004 258:-0.825761 259:-0.866447 260:-0.758561 261:-0.769447 262:-0.684494 263:-0.680068 264:-0.876208 265:-0.889878 266:-0.910584 267:-0.937482 268:-0.909118 269:-0.894292 270:-0.812869 271:-0.759391 272:-0.837724 273:-0.912729 274:-0.728261 275:-0.778197 276:-0.887014 277:-0.822026 278:-0.78659 279:-0.652924 280:-0.838677 281:-0.770656 282:-0.738007 283:-0.780582 284:-0.864927 285:-0.844721 286:-0.866893 287:-0.837383 288:-0.948571 289:-1 290:-1 
