svm_type c_svc
kernel_type rbf
gamma 0.125
nr_class 7
total_sv 989
rho 15.5258 0.978497 4.24468 1.15114 2.13346 -10.1909 0.874819 -5.94134 0.839752 -2.55913 -22.3108 -0.942061 -0.696978 -0.966313 -0.983069 1.81422 1.18129 -3.81759 -0.879203 -0.94353 -5.22089
label 1 2 3 4 5 6 7
nr_sv 156 202 176 78 149 70 158
SV
0 0 0 0 0 86.61401797820869 1:-0.941658 2:-1 3:-1 4:-1 5:-1 6:-1 7:-1 8:-1 9:-1 10:-1 11:-1 12:-1 13:-1 14:-1 15:-1 16:-1 17:-1 18:-1 19:-1 20:-1 21:-1 22:-1 23:-1 24:-1 25:-1 26:-1 27:-1 28:-1 29:-1 30:-1 31:-1 32:-1 33:-1 34:-1 35:-1 36:-1 37:-1 38:-1 39:-1 40:-1 41:-1 42:-1 43:-1 44:-1 45:-1 46:-0.941681 47:-1 48:-1 49:-1 50:-1 51:-1 52:-1 53:-1 54:-1 55:-1 56:-1 57:-1 58:-1 59:-1 60:-1 61:-1 62:-1 63:-1 64:-1 65:-1 66:-1 67:-1 68:-1 69:-1 70:-1 71:-1 72:-1 73:-1 74:-1 75:-1 76:-1 77:-1 78:-1 79:-1 80:-1 81:-1 82:-1 83:-1 84:-1 85:-1 86:-1 87:-1 88:-1 89:-1 90:-1 91:-0.831169 92:-1 93:-1 94:-1 95:-1 96:-1 97:-1 98:-1 99:-1 100:-1 101:-1 102:-1 103:-1 104:-1 105:-1 106:-1 107:-1 108:-1 109:-1 110:-1 111:-1 112:-1 113:-1 114:-1 115:-1 116:-1 117:-1 118:-1 119:-1 120:-1 121:-1 122:-1 123:-1 124:-1 125:-1 126:-1 127:-1 128:-1 129:-1 130:-1 131:-1 132:-1 133:-1 134:-1 135:-1 136:-1 137:-1 138:-1 139:-1 140:-1 141:-1 142:-1 143:-0.983471 144:-0.932075 145:-0.940984 146:-0.938889 147:-0.903409 148:-0.91716 149:-0.944444 150:-0.941953 151:-0.967546 152:-0.965217 153:-0.980815 154:-0.983444 155:-0.967972 156:-0.98364 157:-0.973856 158:-0.978308 159:-0.985882 160:-0.995717 161:-0.991071 162:-0.989051 163:-0.977186 164:-0.967391 165:-0.969799 166:-0.982394 167:-0.990111 168:-1 169:-1 170:-0.981258 171:-0.985097 172:-0.98951 173:-0.978814 174:-0.978062 175:-0.991968 176:-0.98239 177:-0.989293 178:-0.990369 179:-1 180:-0.979798 181:-0.996036 197:-1 198:-1 199:-1 200:-1 201:-1 202:-1 203:-1 204:-1 205:-1 206:-1 207:-1 208:-1 209:-1 210:-1 211:-1 212:-1 213:-1 214:-1 215:-1 216:-1 217:-1 218:-1 219:-1 220:-1 221:-1 222:-1 223:-1 224:-1 225:-1 226:-1 227:-1 228:-1 229:-1 230:-1 231:-1 232:-1 233:-1 234:-1 235:-1 236:-1 237:-1 238:-1 239:-1 240:-1 241:-1 242:-1 243:-1 244:-0.982301 245:-0.955882 246:-0.983607 247:-0.984375 248:-1 249:-0.968085 250:-0.966102 251:-0.936 252:-0.983193 253:-1 254:-0.948718 255:-0.986111 256:-0.985294 257:-0.991597 258:-0.990783 259:-0.989529 260:-1 261:-0.980769 262:-0.97 263:-1 264:-0.972973 265:-0.972222 266:-0.975709 267:-0.968847 268:-0.983914 269:-0.951613 270:-0.93921 271:-0.994609 272:-0.988235 273:-0.96648 274:-0.985185 275:-0.993399 276:-0.995272 277:-0.991837 278:-0.992016 279:-0.962877 280:-0.96748 281:-0.99297 282:-1 283:-0.987288 284:-0.978456 285:-0.982183 286:-0.983022 287:-0.983713 288:-0.996154 289:-0.995968 290:-1 291:-0.993874 292:-0.994898 293:-0.989848 294:-0.976898 295:-0.98482 296:-0.989655 297:-0.975117 298:-0.991826 299:-0.993255 300:-0.982609 301:-0.9866 302:-0.985899 303:-0.969834 304:-0.987849 305:-0.988571 306:-0.99659 307:-0.997101 308:-1 
0 0 0 0 0 24.68192846686241 1:-0.942714 2:-1 3:-1 4:-1 5:-1 6:-1 7:-1 8:-1 9:-1 10:-1 11:-1 12:-1 13:-1 14:-1 15:-1 16:-1 17:-1 18:-1 19:-1 20:-1 21:-1 22:-1 23:-1 24:-1 25:-1 26:-1 27:-1 28:-1 29:-1 30:-1 31:-1 32:-1 33:-1 34:-1 35:-1 36:-1 37:-1 38:-1 39:-1 40:-1 41:-1 42:-1 43:-1 44:-1 45:-1 46:-0.942737 47:-1 48:-1 49:-1 50:-1 51:-1 52:-1 53:-1 54:-1 55:-1 56:-1 57:-1 58:-1 59:-1 60:-1 61:-1 62:-1 63:-1 64:-1 65:-1 66:-1 67:-1 68:-1 69:-1 70:-1 71:-1 72:-1 73:-1 74:-1 75:-1 76:-1 77:-1 78:-1 79:-1 80:-1 81:-1 82:-1 83:-1 84:-1 85:-1 86:-1 87:-1 88:-1 89:-1 90:-1 91:-0.834225 92:-1 93:-1 94:-1 95:-1 96:-1 97:-1 98:-1 99:-1 100:-1 101:-1 102:-1 103:-1 104:-1 105:-1 106:-1 107:-1 108:-1 109:-1 110:-1 111:-1 112:-1 113:-1 114:-1 115:-1 116:-1 117:-1 118:-1 119:-1 120:-1 121:-1 122:-1 123:-1 124:-1 125:-1 126:-1 127:-1 128:-1 129:-1 130:-1 131:-1 132:-1 133:-1 134:-1 135:-1 136:-1 137:-1 138:-1 139:-1 140:-1 141:-1 142:-1 143:-0.966942 144:-0.932075 145:-0.947541 146:-0.955556 147:-0.920455 148:-0.940828 149:-0.90404 150:-0.957784 151:-0.959432 152:-0.96087 153:-0.956835 154:-0.976821 155:-0.989324 156:-0.96319 157:-0.969499 158:-0.969631 159:-0.967059 160:-0.991435 161:-0.986607 162:-0.99635 163:-0.996198 164:-1 165:-0.996644 166:-0.96831 167:-0.985167 168:-0.984231 169:-0.993333 170:-1 171:-0.991058 172:-0.982517 173:-0.991525 174:-0.996344 175:-0.983936 176:-0.992453 177:-1 178:-0.980738 179:-0.933014 180:-0.939394 181:-0.993658 197:-1 198:-1 199:-1 200:-1 201:-1 202:-1 203:-1 204:-1 205:-1 206:-1 207:-1 208:-1 209:-1 210:-1 211:-1 212:-1 213:-1 214:-1 215:-1 216:-1 217:-1 218:-1 219:-1 220:-1 221:-1 222:-1 223:-1 224:-1 225:-1 226:-1 227:-1 228:-1 229:-1 230:-1 231:-1 232:-1 233:-1 234:-1 235:-1 236:-1 237:-1 238:-1 239:-1 240:-1 241:-0.923077 242:-1 243:-1 244:-0.982301 245:-0.985294 246:-1 247:-0.984375 248:-0.963636 249:-0.978723 250:-0.988701 251:-0.952 252:-1 253:-0.961783 254:-0.982906 255:-0.993056 256:-1 257:-0.966387 258:-0.981567 259:-0.989529 260:-1 261:-0.990385 262:-1 263:-0.987805 264:-1 265:-0.986111 266:-0.991903 267:-1 268:-0.97319 269:-0.973118 270:-0.969605 271:-0.973046 272:-0.982353 273:-0.98324 274:-0.980247 275:-0.980198 276:-0.995272 277:-0.995918 278:-0.996008 279:-0.99536 280:-0.97832 281:-0.982425 282:-0.992381 283:-0.987288 284:-0.985637 285:-1 286:-0.993209 287:-0.993485 288:-0.984615 289:-0.979839 290:-0.965157 291:-0.984686 292:-0.989796 293:-0.993232 294:-0.990099 295:-1 296:-0.986207 297:-0.987558 298:-0.983651 299:-0.989882 300:-0.997101 301:-0.99665 302:-0.9953 303:-0.99095 304:-0.982989 305:-0.965714 306:-0.98295 307:-0.988406 308:-0.999341 
0 0 0 0 43.92773032225445 0 1:-0.926346 2:-1 3:-1 4:-1 5:-1 6:-1 7:-1 8:-1 9:-1 10:-1 11:-1 12:-1 13:-1 14:-1 15:-1 16:-1 17:-1 18:-1 19:-1 20:-1 21:-1 22:-1 23:-1 24:-1 25:-1 26:-1 27:-1 28:-1 29:-1 30:-1 31:-1 32:-1 33:-1 34:-1 35:-1 36:-1 37:-1 38:-1 39:-1 40:-1 41:-1 42:-1 43:-1 44:-1 45:-1 46:-0.926376 47:-1 48:-1 49:-1 50:-1 51:-1 52:-1 53:-1 54:-1 55:-1 56:-1 57:-1 58:-1 59:-1 60:-1 61:-1 62:-1 63:-1 64:-1 65:-1 66:-1 67:-1 68:-1 69:-1 70:-1 71:-1 72:-1 73:-1 74:-1 75:-1 76:-1 77:-1 78:-1 79:-1 80:-1 81:-1 82:-1 83:-1 84:-1 85:-1 86:-1 87:-1 88:-1 89:-1 90:-1 91:-0.78686 92:-1 93:-1 94:-1 95:-1 96:-1 97:-1 98:-1 99:-1 100:-1 101:-1 102:-1 103:-1 104:-1 105:-1 106:-1 107:-1 108:-1 109:-1 110:-1 111:-1 112:-1 113:-1 114:-1 115:-1 116:-1 117:-1 118:-1 119:-1 120:-1 121:-1 122:-1 123:-1 124:-1 125:-1 126:-1 127:-1 128:-1 129:-1 130:-1 131:-1 132:-1 133:-1 134:-1 135:-1 136:-1 137:-1 138:-1 139:-1 140:-1 141:-1 142:-1 143:-1 144:-0.932075 145:-0.895082 146:-0.922222 147:-0.886364 148:-0.95858 149:-0.909091 150:-0.941953 151:-0.939148 152:-0.956522 153:-0.899281 154:-0.960265 155:-0.939502 156:-0.94683 157:-0.947712 158:-0.969631 159:-0.957647 160:-0.970021 161:-0.982143 162:-0.974453 163:-0.988593 164:-1 165:-1 166:-1 167:-1 168:-1 169:-1 170:-1 171:-0.985097 172:-0.979021 173:-0.987288 174:-0.985375 175:-0.994645 176:-0.977358 177:-0.995717 178:-0.980738 179:-0.933014 180:-0.959596 181:-0.996829 197:-1 198:-1 199:-1 200:-1 201:-1 202:-1 203:-1 204:-1 205:-1 206:-1 207:-1 208:-1 209:-1 210:-1 211:-1 212:-1 213:-1 214:-1 215:-1 216:-1 217:-1 218:-1 219:-1 220:-1 221:-1 222:-1 223:-1 224:-1 225:-1 226:-1 227:-1 228:-1 229:-1 230:-1 231:-1 232:-1 233:-1 234:-1 235:-1 236:-1 237:-1 238:-1 239:-1 240:-1 241:-1 242:-1 243:-1 244:-1 245:-1 246:-1 247:-1 248:-0.975758 249:-1 250:-0.977401 251:-1 252:-0.983193 253:-1 254:-1 255:-1 256:-0.985294 257:-0.97479 258:-0.9447 259:-0.968586 260:-0.967213 261:-0.961538 262:-0.93 263:-0.926829 264:-0.972973 265:-0.965278 266:-0.967611 267:-0.962617 268:-0.983914 269:-0.973118 270:-0.969605 271:-0.983827 272:-0.964706 273:-0.96648 274:-0.980247 275:-0.953795 276:-0.976359 277:-0.979592 278:-0.98004 279:-1 280:-0.934959 281:-0.99297 282:-0.984762 283:-0.987288 284:-0.967684 285:-0.973274 286:-0.996604 287:-0.977199 288:-0.976923 289:-0.959677 290:-0.961672 291:-0.97856 292:-0.989796 293:-0.972927 294:-0.986799 295:-0.962049 296:-0.97931 297:-0.975117 298:-0.978202 299:-0.962901 300:-0.991304 301:-0.9933 302:-0.9953 303:-0.996983 304:-0.990279 305:-1 306:-0.998295 307:-1 308:-0.996045 
0 0 0 0 8.426906001111371 0 1:-0.924762 2:-1 3:-1 4:-1 5:-1 6:-1 7:-1 8:-1 9:-1 10:-1 11:-1 12:-1 13:-1 14:-1 15:-1 16:-1 17:-1 18:-1 19:-1 20:-1 21:-1 22:-1 23:-1 24:-1 25:-1 26:-1 27:-1 28:-1 29:-1 30:-1 31:-1 32:-1 33:-1 34:-1 35:-1 36:-1 37:-1 38:-1 39:-1 40:-1 41:-1 42:-1 43:-1 44:-1 45:-1 46:-0.924792 47:-1 48:-1 49:-1 50:-1 51:-1 52:-1 53:-1 54:-1 55:-1 56:-1 57:-1 58:-1 59:-1 60:-1 61:-1 62:-1 63:-1 64:-1 65:-1 66:-1 67:-1 68:-1 69:-1 70:-1 71:-1 72:-1 73:-1 74:-1 75:-1 76:-1 77:-1 78:-1 79:-1 80:-1 81:-1 82:-1 83:-1 84:-1 85:-1 86:-1 87:-1 88:-1 89:-1 90:-1 91:-0.782277 92:-1 93:-1 94:-1 95:-1 96:-1 97:-1 98:-1 99:-1 100:-1 101:-1 102:-1 103:-1 104:-1 105:-1 106:-1 107:-1 108:-1 109:-1 110:-1 111:-1 112:-1 113:-1 114:-1 115:-1 116:-1 117:-1 118:-1 119:-1 120:-1 121:-1 122:-1 123:-1 124:-1 125:-1 126:-1 127:-1 128:-1 129:-1 130:-1 131:-1 132:-1 133:-1 134:-1 135:-1 136:-1 137:-1 138:-1 139:-1 140:-1 141:-1 142:-1 143:-1 144:-0.992453 145:-0.927869 146:-0.894444 147:-0.914773 148:-0.905325 149:-0.919192 150:-0.952507 151:-0.922921 152:-0.947826 153:-0.923261 154:-0.966887 155:-0.964413 156:-0.93456 157:-0.943355 158:-0.956616 159:-0.967059 160:-0.987152 161:-0.991071 162:-0.963504 163:-0.954373 164:-0.985507 165:-1 166:-1 167:-1 168:-1 169:-1 170:-1 171:-0.976155 172:-0.986014 173:-0.974576 174:-0.992687 175:-0.986613 176:-0.977358 177:-0.997859 178:-0.967897 179:-0.952153 180:-0.939394 181:-0.997093 197:-1 198:-1 199:-1 200:-1 201:-1 202:-1 203:-1 204:-1 205:-1 206:-1 207:-1 208:-1 209:-1 210:-1 211:-1 212:-1 213:-1 214:-1 215:-1 216:-1 217:-1 218:-1 219:-1 220:-1 221:-1 222:-1 223:-1 224:-1 225:-1 226:-1 227:-1 228:-1 229:-1 230:-1 231:-1 232:-1 233:-1 234:-1 235:-1 236:-1 237:-1 238:-1 239:-1 240:-1 241:-1 242:-0.94 243:-1 244:-0.982301 245:-1 246:-1 247:-0.984375 248:-0.987879 249:-1 250:-0.988701 251:-0.984 252:-1 253:-0.987261 254:-1 255:-0.993056 256:-0.992647 257:-0.991597 258:-0.981567 259:-1 260:-1 261:-0.980769 262:-0.96 263:-0.963415 264:-0.981982 265:-0.965278 266:-0.951417 267:-0.943925 268:-0.978552 269:-0.983871 270:-0.969605 271:-0.983827 272:-0.958824 273:-0.994413 274:-0.950617 275:-0.940594 276:-0.947991 277:-0.979592 278:-0.992016 279:-0.953596 280:-0.96748 281:-0.97891 282:-0.988571 283:-0.966102 284:-0.971275 285:-0.955457 286:-0.976231 287:-0.986971 288:-0.980769 289:-0.995968 290:-0.979094 291:-0.972435 292:-0.977041 293:-0.98308 294:-0.986799 295:-0.97723 296:-0.948276 297:-0.972006 298:-0.975477 299:-0.962901 300:-0.994203 301:-1 302:-0.9953 303:-0.987934 304:-0.99271 305:-0.998095 306:-1 307:-0.997101 308:-0.997363 
0 0 0 0 0 77.68220147447808 1:-0.996304 2:-0.978723 3:-1 4:-0.974684 5:-1 6:-1 7:-0.986301 8:-0.990338 9:-1 10:-0.994911 11:-1 12:-1 13:-0.994475 14:-0.992141 15:-0.991489 16:-0.99687 17:-0.996593 18:-0.988423 19:-1 20:-0.990625 21:-0.985685 22:-0.981735 23:-0.98596 24:-0.938992 25:-0.975398 26:-0.96424 27:-0.961415 28:-0.988545 29:-0.969466 30:-0.980139 31:-0.928721 32:-0.936585 33:-0.948718 34:-0.976087 35:-0.963534 36:-0.96603 37:-0.910569 38:-0.82439 39:-0.95122 40:-0.979381 41:-0.958763 42:-0.95 43:-1 44:-1 45:-1 46:-0.996833 47:-1 48:-0.994065 49:-0.994975 50:-0.988636 51:-0.946269 52:-0.941606 53:-0.966216 54:-0.923754 55:-0.975347 56:-0.954839 57:-0.978916 58:-0.992218 59:-0.986711 60:-0.965174 61:-0.920988 62:-0.949527 63:-0.976798 64:-0.972093 65:-0.974895 66:-0.974825 67:-0.991119 68:-0.99376 69:-0.977038 70:-0.984596 71:-0.972222 72:-0.956386 73:-0.977208 74:-0.925697 75:-0.966292 76:-0.99361 77:-0.967105 78:-0.978836 79:-0.981982 80:-0.975904 81:-0.950156 82:-0.950178 83:-0.975659 84:-0.958944 85:-0.982047 86:-0.95122 87:-0.994975 88:-0.992661 89:-0.987207 90:-0.980861 91:-0.997708 92:-0.995949 93:-0.978723 94:-0.978967 95:-0.978261 96:-0.982256 97:-0.963542 98:-0.966942 99:-0.958791 100:-0.980993 101:-0.96302 102:-0.960674 103:-0.96793 104:-0.955466 105:-0.978166 106:-0.959055 107:-0.925373 108:-0.96468 109:-0.929155 110:-0.952381 111:-0.959267 112:-0.983702 113:-0.997187 114:-0.989594 115:-0.98579 116:-1 117:-1 118:-0.985612 119:-1 120:-0.996008 121:-0.994152 122:-1 123:-1 124:-0.991853 125:-0.986622 126:-0.985646 127:-0.992908 128:-0.987288 129:-0.996599 130:-0.983051 131:-0.98995 132:-0.988166 133:-0.977087 134:-0.985185 135:-0.995006 136:-1 137:-0.918367 138:-0.951807 139:-0.981982 140:-0.927711 141:-0.947917 142:-0.971963 143:-0.92562 144:-0.954717 145:-0.967213 146:-0.95 147:-0.971591 148:-0.95858 149:-0.944444 150:-0.952507 151:-0.959432 152:-0.943478 153:-0.93765 154:-0.966887 155:-0.946619 156:-0.93456 157:-0.956427 158:-0.969631 159:-0.943529 160:-0.965739 161:-0.959821 162:-0.963504 163:-0.961977 164:-0.992754 165:-0.993289 166:-0.978873 167:-0.997528 168:-1 169:-1 170:-1 171:-0.991058 172:-0.986014 173:-0.978814 174:-0.974406 175:-0.986613 176:-0.989937 177:-0.989293 178:-0.987159 179:-0.952153 180:-0.878788 181:-0.996829 197:-1 198:-1 199:-1 200:-1 201:-1 202:-1 203:-1 204:-1 205:-1 206:-1 207:-1 208:-1 209:-1 210:-1 211:-1 212:-1 213:-1 214:-1 215:-1 216:-1 217:-1 218:-1 219:-1 220:-1 221:-1 222:-1 223:-1 224:-1 225:-1 226:-1 227:-1 228:-1 229:-1 230:-1 231:-1 232:-1 233:-1 234:-1 235:-1 236:-1 237:-1 238:-1 239:-1 240:-1 241:-1 242:-0.98 243:-0.970588 244:-1 245:-1 246:-1 247:-1 248:-0.987879 249:-1 250:-1 251:-1 252:-1 253:-0.987261 254:-1 255:-1 256:-0.985294 257:-0.97479 258:-0.963134 259:-0.989529 260:-0.978142 261:-0.980769 262:-0.99 263:-0.987805 264:-0.972973 265:-0.972222 266:-0.975709 267:-0.962617 268:-0.967828 269:-0.989247 270:-0.957447 271:-0.962264 272:-0.982353 273:-0.98324 274:-0.990123 275:-0.947195 276:-0.947991 277:-0.979592 278:-0.996008 279:-0.953596 280:-0.95122 281:-0.97188 282:-0.99619 283:-0.961864 284:-0.982047 285:-0.977728 286:-0.96944 287:-0.980456 288:-0.984615 289:-0.967742 290:-0.97561 291:-0.97856 292:-0.984694 293:-0.986464 294:-0.980198 295:-0.98482 296:-0.986207 297:-0.968896 298:-0.970027 299:-0.979764 300:-0.971014 301:-0.973199 302:-0.988249 303:-0.9819 304:-0.99271 305:-0.992381 306:-0.99318 307:-1 308:-0.999341 
66.01262147303925 0 0 0 0 122.7060235514858 1:-0.960401 2:-1 3:-1 4:-1 5:-1 6:-1 7:-1 8:-1 9:-1 10:-1 11:-1 12:-1 13:-1 14:-1 15:-1 16:-1 17:-1 18:-1 19:-1 20:-1 21:-1 22:-1 23:-1 24:-1 25:-1 26:-1 27:-1 28:-1 29:-1 30:-1 31:-1 32:-1 33:-1 34:-1 35:-1 36:-1 37:-1 38:-1 39:-1 40:-1 41:-1 42:-1 43:-1 44:-1 45:-1 46:-0.960417 47:-1 48:-1 49:-1 50:-1 51:-1 52:-1 53:-1 54:-1 55:-1 56:-1 57:-1 58:-1 59:-1 60:-1 61:-1 62:-1 63:-1 64:-1 65:-1 66:-1 67:-1 68:-1 69:-1 70:-1 71:-1 72:-1 73:-1 74:-1 75:-1 76:-1 77:-1 78:-1 79:-1 80:-1 81:-1 82:-1 83:-1 84:-1 85:-1 86:-1 87:-1 88:-1 89:-1 90:-1 91:-0.885409 92:-1 93:-1 94:-1 95:-1 96:-1 97:-1 98:-1 99:-1 100:-1 101:-1 102:-1 103:-1 104:-1 105:-1 106:-1 107:-1 108:-1 109:-1 110:-1 111:-1 112:-1 113:-1 114:-1 115:-1 116:-1 117:-1 118:-1 119:-1 120:-1 121:-1 122:-1 123:-1 124:-1 125:-1 126:-1 127:-1 128:-1 129:-1 130:-1 131:-1 132:-1 133:-1 134:-1 135:-1 136:-1 137:-1 138:-1 139:-1 140:-1 141:-1 142:-1 143:-0.983471 144:-0.886792 145:-0.888525 146:-0.905556 147:-0.914773 148:-0.899408 149:-0.974747 150:-0.994723 151:-1 152:-1 153:-0.995204 154:-0.993377 155:-1 156:-1 157:-1 158:-1 159:-0.990588 160:-1 161:-1 162:-0.985401 163:-0.958175 164:-0.934783 165:-0.973154 166:-0.985915 167:-0.987639 168:-0.994744 169:-0.997778 170:-1 171:-1 172:-1 173:-1 174:-1 175:-1 176:-1 177:-1 178:-1 179:-0.990431 180:-0.979798 181:-0.993923 197:-1 198:-1 199:-1 200:-1 201:-1 202:-1 203:-1 204:-1 205:-1 206:-1 207:-1 208:-1 209:-1 210:-1 211:-1 212:-1 213:-1 214:-1 215:-1 216:-1 217:-1 218:-1 219:-1 220:-1 221:-1 222:-1 223:-1 224:-1 225:-1 226:-1 227:-1 228:-1 229:-1 230:-1 231:-1 232:-1 233:-1 234:-1 235:-1 236:-1 237:-1 238:-1 239:-1 240:-1 241:-1 242:-1 243:-0.970588 244:-1 245:-0.985294 246:-0.934426 247:-1 248:-0.975758 249:-0.989362 250:-0.966102 251:-0.92 252:-1 253:-0.987261 254:-0.991453 255:-0.993056 256:-0.970588 257:-0.957983 258:-1 259:-0.968586 260:-0.978142 261:-0.980769 262:-0.99 263:-0.97561 264:-0.981982 265:-1 266:-0.967611 267:-1 268:-0.989276 269:-0.978495 270:-0.987842 271:-0.983827 272:-1 273:-0.994413 274:-0.980247 275:-0.993399 276:-0.985816 277:-0.995918 278:-0.992016 279:-0.990719 280:-0.99458 281:-1 282:-0.99619 283:-1 284:-0.996409 285:-0.991091 286:-1 287:-0.996743 288:-0.992308 289:-1 290:-0.996516 291:-1 292:-0.997449 293:-0.996616 294:-0.983498 295:-1 296:-0.996552 297:-0.987558 298:-0.997275 299:-1 300:-0.985507 301:-0.98325 302:-0.985899 303:-0.9819 304:-0.990279 305:-0.99619 306:-0.99318 307:-0.997101 308:-0.999341 
0 0 0 0 0 46.31835145034227 1:-0.939546 2:-1 3:-1 4:-1 5:-1 6:-1 7:-1 8:-1 9:-1 10:-1 11:-1 12:-1 13:-1 14:-1 15:-1 16:-1 17:-1 18:-1 19:-1 20:-1 21:-1 22:-1 23:-1 24:-1 25:-1 26:-1 27:-1 28:-1 29:-1 30:-1 31:-1 32:-1 33:-1 34:-1 35:-1 36:-1 37:-1 38:-1 39:-1 40:-1 41:-1 42:-1 43:-1 44:-1 45:-1 46:-0.93957 47:-1 48:-1 49:-1 50:-1 51:-1 52:-1 53:-1 54:-1 55:-1 56:-1 57:-1 58:-1 59:-1 60:-1 61:-1 62:-1 63:-1 64:-1 65:-1 66:-1 67:-1 68:-1 69:-1 70:-1 71:-1 72:-1 73:-1 74:-1 75:-1 76:-1 77:-1 78:-1 79:-1 80:-1 81:-1 82:-1 83:-1 84:-1 85:-1 86:-1 87:-1 88:-1 89:-1 90:-1 91:-0.825057 92:-1 93:-1 94:-1 95:-1 96:-1 97:-1 98:-1 99:-1 100:-1 101:-1 102:-1 103:-1 104:-1 105:-1 106:-1 107:-1 108:-1 109:-1 110:-1 111:-1 112:-1 113:-1 114:-1 115:-1 116:-1 117:-1 118:-1 119:-1 120:-1 121:-1 122:-1 123:-1 124:-1 125:-1 126:-1 127:-1 128:-1 129:-1 130:-1 131:-1 132:-1 133:-1 134:-1 135:-1 136:-1 137:-1 138:-1 139:-1 140:-1 141:-1 142:-0.981308 143:-0.958678 144:-0.962264 145:-0.934426 146:-0.955556 147:-0.948864 148:-0.905325 149:-0.969697 150:-0.915567 151:-0.955375 152:-0.952174 153:-0.956835 154:-0.956954 155:-0.953737 156:-0.97546 157:-0.986928 158:-0.986985 159:-0.971765 160:-0.982869 161:-0.973214 162:-0.978102 163:-0.988593 164:-0.985507 165:-1 166:-0.992958 167:-1 168:-0.997372 169:-0.975556 170:-0.98929 171:-0.988077 172:-0.986014 173:-0.987288 174:-0.985375 175:-0.997323 176:-0.987421 177:-0.991435 178:-0.99679 179:-0.923445 180:-0.979798 181:-0.994187 197:-1 198:-1 199:-1 200:-1 201:-1 202:-1 203:-1 204:-1 205:-1 206:-1 207:-1 208:-1 209:-1 210:-1 211:-1 212:-1 213:-1 214:-1 215:-1 216:-1 217:-1 218:-1 219:-1 220:-1 221:-1 222:-1 223:-1 224:-1 225:-1 226:-1 227:-1 228:-1 229:-1 230:-1 231:-1 232:-1 233:-1 234:-1 235:-1 236:-1 237:-1 238:-1 239:-1 240:-1 241:-1 242:-1 243:-1 244:-1 245:-1 246:-1 247:-1 248:-0.987879 249:-1 250:-0.988701 251:-0.984 252:-1 253:-1 254:-0.991453 255:-0.993056 256:-1 257:-0.991597 258:-1 259:-1 260:-0.967213 261:-0.980769 262:-0.97 263:-0.987805 264:-0.963964 265:-0.986111 266:-0.959514 267:-0.968847 268:-0.989276 269:-0.989247 270:-0.993921 271:-0.956873 272:-0.982353 273:-0.977654 274:-0.980247 275:-0.980198 276:-0.985816 277:-0.991837 278:-0.968064 279:-0.990719 280:-0.98916 281:-0.996485 282:-0.980952 283:-0.983051 284:-0.978456 285:-0.991091 286:-0.989813 287:-0.990228 288:-0.996154 289:-0.975806 290:-0.993031 291:-0.990812 292:-0.994898 293:-0.98308 294:-0.983498 295:-0.981025 296:-0.989655 297:-0.972006 298:-0.986376 299:-0.969646 300:-0.982609 301:-0.969849 302:-0.985899 303:-0.987934 304:-0.973269 305:-0.984762 306:-0.99659 307:-0.991304 308:-0.999341 
0 0 0 0 62.74502049272218 0 1:-0.93981 2:-1 3:-1 4:-1 5:-1 6:-1 7:-1 8:-1 9:-1 10:-1 11:-1 12:-1 13:-1 14:-1 15:-1 16:-1 17:-1 18:-1 19:-1 20:-1 21:-1 22:-1 23:-1 24:-1 25:-1 26:-1 27:-1 28:-1 29:-1 30:-1 31:-1 32:-1 33:-1 34:-1 35:-1 36:-1 37:-1 38:-1 39:-1 40:-1 41:-1 42:-1 43:-1 44:-1 45:-1 46:-0.939834 47:-1 48:-1 49:-1 50:-1 51:-1 52:-1 53:-1 54:-1 55:-1 56:-1 57:-1 58:-1 59:-1 60:-1 61:-1 62:-1 63:-1 64:-1 65:-1 66:-1 67:-1 68:-1 69:-1 70:-1 71:-1 72:-1 73:-1 74:-1 75:-1 76:-1 77:-1 78:-1 79:-1 80:-1 81:-1 82:-1 83:-1 84:-1 85:-1 86:-1 87:-1 88:-1 89:-1 90:-1 91:-0.825821 92:-1 93:-1 94:-1 95:-1 96:-1 97:-1 98:-1 99:-1 100:-1 101:-1 102:-1 103:-1 104:-1 105:-1 106:-1 107:-1 108:-1 109:-1 110:-1 111:-1 112:-1 113:-1 114:-1 115:-1 116:-1 117:-1 118:-1 119:-1 120:-1 121:-1 122:-1 123:-1 124:-1 125:-1 126:-1 127:-1 128:-1 129:-1 130:-1 131:-1 132:-1 133:-1 134:-1 135:-1 136:-1 137:-1 138:-1 139:-1 140:-1 141:-1 142:-0.981308 143:-0.950413 144:-0.94717 145:-0.954098 146:-0.955556 147:-0.943182 148:-0.940828 149:-0.919192 150:-0.926121 151:-0.963489 152:-0.956522 153:-0.966427 154:-0.976821 155:-0.960854 156:-0.94683 157:-0.960784 158:-0.986985 159:-0.971765 160:-0.991435 161:-0.96875 162:-0.981752 163:-0.977186 164:-0.996377 165:-0.996644 166:-1 167:-0.997528 168:-0.986859 169:-0.982222 170:-0.98929 171:-0.982116 172:-1 173:-0.983051 174:-0.992687 175:-0.994645 176:-1 177:-0.993576 178:-0.980738 179:-0.971292 180:-0.878788 181:-0.998679 197:-1 198:-1 199:-1 200:-1 201:-1 202:-1 203:-1 204:-1 205:-1 206:-1 207:-1 208:-1 209:-1 210:-1 211:-1 212:-1 213:-1 214:-1 215:-1 216:-1 217:-1 218:-1 219:-1 220:-1 221:-1 222:-1 223:-1 224:-1 225:-1 226:-1 227:-1 228:-1 229:-1 230:-1 231:-1 232:-1 233:-1 234:-1 235:-1 236:-1 237:-1 238:-1 239:-1 240:-1 241:-1 242:-1 243:-1 244:-1 245:-1 246:-1 247:-1 248:-1 249:-0.989362 250:-1 251:-1 252:-1 253:-0.987261 254:-0.982906 255:-1 256:-1 257:-1 258:-1 259:-0.958115 260:-0.967213 261:-1 262:-0.98 263:-0.987805 264:-0.972973 265:-0.979167 266:-0.991903 267:-0.981308 268:-0.983914 269:-0.983871 270:-0.981763 271:-0.989218 272:-0.982353 273:-0.96648 274:-0.97037 275:-0.973597 276:-0.985816 277:-0.967347 278:-0.98004 279:-0.990719 280:-0.98374 281:-0.989455 282:-0.988571 283:-0.991525 284:-0.978456 285:-0.991091 286:-0.96944 287:-0.986971 288:-0.988462 289:-0.991935 290:-0.996516 291:-0.975498 292:-0.984694 293:-0.986464 294:-0.990099 295:-0.973435 296:-0.965517 297:-0.984448 298:-0.986376 299:-0.986509 300:-0.991304 301:-0.976549 302:-0.990599 303:-0.963801 304:-0.985419 305:-0.969524 306:-0.988065 307:-0.994203 308:-0.998682 
97.54138628483116 0 0 0 0 0 1:-0.943506 2:-1 3:-1 4:-1 5:-1 6:-1 7:-1 8:-1 9:-1 10:-1 11:-1 12:-1 13:-1 14:-1 15:-1 16:-1 17:-1 18:-1 19:-1 20:-1 21:-1 22:-1 23:-1 24:-1 25:-1 26:-1 27:-1 28:-1 29:-1 30:-1 31:-1 32:-1 33:-1 34:-1 35:-1 36:-1 37:-1 38:-1 39:-1 40:-1 41:-1 42:-1 43:-1 44:-1 45:-1 46:-0.943528 47:-1 48:-1 49:-1 50:-1 51:-1 52:-1 53:-1 54:-1 55:-1 56:-1 57:-1 58:-1 59:-1 60:-1 61:-1 62:-1 63:-1 64:-1 65:-1 66:-1 67:-1 68:-1 69:-1 70:-1 71:-1 72:-1 73:-1 74:-1 75:-1 76:-1 77:-1 78:-1 79:-1 80:-1 81:-1 82:-1 83:-1 84:-1 85:-1 86:-1 87:-1 88:-1 89:-1 90:-1 91:-0.836516 92:-1 93:-1 94:-1 95:-1 96:-1 97:-1 98:-1 99:-1 100:-1 101:-1 102:-1 103:-1 104:-1 105:-1 106:-1 107:-1 108:-1 109:-1 110:-1 111:-1 112:-1 113:-1 114:-1 115:-1 116:-1 117:-1 118:-1 119:-1 120:-1 121:-1 122:-1 123:-1 124:-1 125:-1 126:-1 127:-1 128:-1 129:-1 130:-1 131:-1 132:-1 133:-1 134:-1 135:-1 136:-1 137:-1 138:-1 139:-1 140:-1 141:-1 142:-0.971963 143:-0.942149 144:-0.94717 145:-0.954098 146:-0.944444 147:-0.948864 148:-0.934911 149:-0.934343 150:-0.91029 151:-0.963489 152:-0.952174 153:-0.966427 154:-0.990066 155:-0.992883 156:-0.97137 157:-0.986928 158:-0.986985 159:-0.981176 160:-0.970021 161:-0.986607 162:-0.970803 163:-0.992395 164:-0.992754 165:-1 166:-0.992958 167:-0.987639 168:-0.986859 169:-0.988889 170:-0.994645 171:-0.985097 172:-0.98951 173:-0.987288 174:-0.989031 175:-0.986613 176:-0.994969 177:-0.995717 178:-0.977528 179:-0.942584 180:-0.939394 181:-0.99498 197:-1 198:-1 199:-1 200:-1 201:-1 202:-1 203:-1 204:-1 205:-1 206:-1 207:-1 208:-1 209:-1 210:-1 211:-1 212:-1 213:-1 214:-1 215:-1 216:-1 217:-1 218:-1 219:-1 220:-1 221:-1 222:-1 223:-1 224:-1 225:-1 226:-1 227:-1 228:-1 229:-1 230:-1 231:-1 232:-1 233:-1 234:-1 235:-1 236:-1 237:-1 238:-1 239:-1 240:-1 241:-1 242:-1 243:-1 244:-1 245:-0.985294 246:-0.983607 247:-1 248:-1 249:-0.978723 250:-0.988701 251:-1 252:-0.983193 253:-1 254:-1 255:-0.993056 256:-1 257:-1 258:-0.981567 259:-0.968586 260:-1 261:-1 262:-0.98 263:-0.963415 264:-0.954955 265:-1 266:-0.983806 267:-1 268:-0.983914 269:-0.994624 270:-0.981763 271:-0.989218 272:-0.988235 273:-0.98324 274:-0.980247 275:-0.973597 276:-0.962175 277:-0.987755 278:-0.996008 279:-0.972158 280:-0.97832 281:-0.98594 282:-0.969524 283:-0.991525 284:-0.985637 285:-1 286:-0.996604 287:-0.993485 288:-0.980769 289:-0.971774 290:-0.986063 291:-0.990812 292:-0.982143 293:-0.98308 294:-0.993399 295:-0.97723 296:-0.986207 297:-0.993779 298:-0.978202 299:-0.986509 300:-0.994203 301:-0.9933 302:-0.992949 303:-0.984917 304:-0.980559 305:-0.977143 306:-0.988065 307:-0.989855 308:-0.998022 
0 0 0 0 0 128 1:-0.937434 2:-1 3:-1 4:-1 5:-1 6:-1 7:-1 8:-1 9:-1 10:-1 11:-1 12:-1 13:-1 14:-1 15:-1 16:-1 17:-1 18:-1 19:-1 20:-1 21:-1 22:-1 23:-1 24:-1 25:-1 26:-1 27:-1 28:-1 29:-1 30:-1 31:-1 32:-1 33:-1 34:-1 35:-1 36:-1 37:-1 38:-1 39:-1 40:-1 41:-1 42:-1 43:-1 44:-1 45:-1 46:-0.937459 47:-1 48:-1 49:-1 50:-1 51:-1 52:-1 53:-1 54:-1 55:-1 56:-1 57:-1 58:-1 59:-1 60:-1 61:-1 62:-1 63:-1 64:-1 65:-1 66:-1 67:-1 68:-1 69:-1 70:-1 71:-1 72:-1 73:-1 74:-1 75:-1 76:-1 77:-1 78:-1 79:-1 80:-1 81:-1 82:-1 83:-1 84:-1 85:-1 86:-1 87:-1 88:-1 89:-1 90:-1 91:-0.818946 92:-1 93:-1 94:-1 95:-1 96:-1 97:-1 98:-1 99:-1 100:-1 101:-1 102:-1 103:-1 104:-1 105:-1 106:-1 107:-1 108:-1 109:-1 110:-1 111:-1 112:-1 113:-1 114:-1 115:-1 116:-1 117:-1 118:-1 119:-1 120:-1 121:-1 122:-1 123:-1 124:-1 125:-1 126:-1 127:-1 128:-1 129:-1 130:-1 131:-1 132:-1 133:-1 134:-1 135:-1 136:-1 137:-1 138:-1 139:-1 140:-1 141:-1 142:-1 143:-1 144:-0.969811 145:-0.947541 146:-0.933333 147:-0.920455 148:-0.952663 149:-0.939394 150:-0.931398 151:-0.959432 152:-0.956522 153:-0.908873 154:-0.970199 155:-0.953737 156:-0.98773 157:-0.973856 158:-0.982646 159:-0.985882 160:-0.982869 161:-0.973214 162:-0.981752 163:-0.984791 164:-0.971014 165:-0.989933 166:-0.992958 167:-1 168:-1 169:-1 170:-0.983936 171:-0.988077 172:-0.958042 173:-0.966102 174:-0.978062 175:-0.983936 176:-1 177:-0.991435 178:-0.987159 179:-1 180:-0.878788 181:-0.996565 197:-1 198:-1 199:-1 200:-1 201:-1 202:-1 203:-1 204:-1 205:-1 206:-1 207:-1 208:-1 209:-1 210:-1 211:-1 212:-1 213:-1 214:-1 215:-1 216:-1 217:-1 218:-1 219:-1 220:-1 221:-1 222:-1 223:-1 224:-1 225:-1 226:-1 227:-1 228:-1 229:-1 230:-1 231:-1 232:-1 233:-1 234:-1 235:-1 236:-1 237:-1 238:-1 239:-1 240:-1 241:-1 242:-1 243:-1 244:-1 245:-1 246:-1 247:-1 248:-1 249:-1 250:-1 251:-0.984 252:-0.966387 253:-1 254:-0.982906 255:-1 256:-1 257:-1 258:-0.981567 259:-0.979058 260:-0.956284 261:-0.990385 262:-0.98 263:-0.97561 264:-0.990991 265:-0.965278 266:-0.983806 267:-0.981308 268:-0.994638 269:-0.973118 270:-0.987842 271:-0.978437 272:-0.988235 273:-0.977654 274:-0.990123 275:-0.980198 276:-0.985816 277:-0.983673 278:-0.984032 279:-0.981439 280:-0.9729 281:-0.98594 282:-0.984762 283:-0.961864 284:-0.982047 285:-0.96882 286:-0.993209 287:-0.977199 288:-0.984615 289:-0.979839 290:-0.982578 291:-0.975498 292:-0.984694 293:-0.98308 294:-0.973597 295:-0.965844 296:-0.972414 297:-0.987558 298:-0.989101 299:-0.986509 300:-0.985507 301:-0.979899 302:-0.990599 303:-0.975867 304:-0.975699 305:-0.992381 306:-1 307:-0.994203 308:-0.998022 
0.6458284465108581 0 0 0 0 128 1:-0.941658 2:-1 3:-1 4:-1 5:-1 6:-1 7:-1 8:-1 9:-1 10:-1 11:-1 12:-1 13:-1 14:-1 15:-1 16:-1 17:-1 18:-1 19:-1 20:-1 21:-1 22:-1 23:-1 24:-1 25:-1 26:-1 27:-1 28:-1 29:-1 30:-1 31:-1 32:-1 33:-1 34:-1 35:-1 36:-1 37:-1 38:-1 39:-1 40:-1 41:-1 42:-1 43:-1 44:-1 45:-1 46:-0.941681 47:-1 48:-1 49:-1 50:-1 51:-1 52:-1 53:-1 54:-1 55:-1 56:-1 57:-1 58:-1 59:-1 60:-1 61:-1 62:-1 63:-1 64:-1 65:-1 66:-1 67:-1 68:-1 69:-1 70:-1 71:-1 72:-1 73:-1 74:-1 75:-1 76:-1 77:-1 78:-1 79:-1 80:-1 81:-1 82:-1 83:-1 84:-1 85:-1 86:-1 87:-1 88:-1 89:-1 90:-1 91:-0.831169 92:-1 93:-1 94:-1 95:-1 96:-1 97:-1 98:-1 99:-1 100:-1 101:-1 102:-1 103:-1 104:-1 105:-1 106:-1 107:-1 108:-1 109:-1 110:-1 111:-1 112:-1 113:-1 114:-1 115:-1 116:-1 117:-1 118:-1 119:-1 120:-1 121:-1 122:-1 123:-1 124:-1 125:-1 126:-1 127:-1 128:-1 129:-1 130:-1 131:-1 132:-1 133:-1 134:-1 135:-1 136:-1 137:-1 138:-1 139:-1 140:-1 141:-1 142:-1 143:-0.991736 144:-0.94717 145:-0.947541 146:-0.95 147:-0.943182 148:-0.923077 149:-0.964646 150:-0.952507 151:-0.971602 152:-0.96087 153:-0.971223 154:-0.97351 155:-0.964413 156:-0.97137 157:-0.986928 158:-0.978308 159:-0.976471 160:-0.982869 161:-0.973214 162:-0.974453 163:-0.988593 164:-0.992754 165:-0.989933 166:-1 167:-0.997528 168:-1 169:-0.984444 170:-0.975904 171:-0.95231 172:-0.986014 173:-0.991525 174:-0.989031 175:-0.981258 176:-0.984906 177:-0.993576 178:-0.971108 179:-0.980861 180:-0.959596 181:-0.995244 197:-1 198:-1 199:-1 200:-1 201:-1 202:-1 203:-1 204:-1 205:-1 206:-1 207:-1 208:-1 209:-1 210:-1 211:-1 212:-1 213:-1 214:-1 215:-1 216:-1 217:-1 218:-1 219:-1 220:-1 221:-1 222:-1 223:-1 224:-1 225:-1 226:-1 227:-1 228:-1 229:-1 230:-1 231:-1 232:-1 233:-1 234:-1 235:-1 236:-1 237:-1 238:-1 239:-1 240:-1 241:-1 242:-1 243:-0.911765 244:-1 245:-0.985294 246:-0.967213 247:-0.96875 248:-0.975758 249:-1 250:-0.966102 251:-0.984 252:-1 253:-0.974522 254:-0.991453 255:-0.986111 256:-0.977941 257:-1 258:-0.97235 259:-0.968586 260:-0.989071 261:-1 262:-1 263:-0.987805 264:-0.981982 265:-1 266:-0.983806 267:-0.968847 268:-0.994638 269:-0.989247 270:-0.975684 271:-0.989218 272:-0.994118 273:-0.988827 274:-0.97037 275:-0.993399 276:-0.990544 277:-0.991837 278:-0.996008 279:-0.99536 280:-0.99458 281:-0.98594 282:-0.99619 283:-0.978814 284:-0.996409 285:-1 286:-0.986418 287:-0.990228 288:-0.996154 289:-0.995968 290:-0.986063 291:-0.981623 292:-0.987245 293:-0.986464 294:-0.9967 295:-0.988615 296:-0.989655 297:-0.978227 298:-0.991826 299:-0.979764 300:-0.97971 301:-0.9933 302:-0.9953 303:-0.9819 304:-0.961118 305:-0.971429 306:-0.977835 307:-0.985507 308:-0.996704 
72.20426498528951 0 0 0 123.9210702870244 0 1:-0.92793 2:-1 3:-1 4:-1 5:-1 6:-1 7:-1 8:-1 9:-1 10:-1 11:-1 12:-1 13:-1 14:-1 15:-1 16:-1 17:-1 18:-1 19:-1 20:-1 21:-1 22:-1 23:-1 24:-1 25:-1 26:-1 27:-1 28:-1 29:-1 30:-1 31:-1 32:-1 33:-1 34:-1 35:-1 36:-1 37:-1 38:-1 39:-1 40:-1 41:-1 42:-1 43:-1 44:-1 45:-1 46:-0.927959 47:-1 48:-1 49:-1 50:-1 51:-1 52:-1 53:-1 54:-1 55:-1 56:-1 57:-1 58:-1 59:-1 60:-1 61:-1 62:-1 63:-1 64:-1 65:-1 66:-1 67:-1 68:-1 69:-1 70:-1 71:-1 72:-1 73:-1 74:-1 75:-1 76:-1 77:-1 78:-1 79:-1 80:-1 81:-1 82:-1 83:-1 84:-1 85:-1 86:-1 87:-1 88:-1 89:-1 90:-1 91:-0.791444 92:-1 93:-1 94:-1 95:-1 96:-1 97:-1 98:-1 99:-1 100:-1 101:-1 102:-1 103:-1 104:-1 105:-1 106:-1 107:-1 108:-1 109:-1 110:-1 111:-1 112:-1 113:-1 114:-1 115:-1 116:-1 117:-1 118:-1 119:-1 120:-1 121:-1 122:-1 123:-1 124:-1 125:-1 126:-1 127:-1 128:-1 129:-1 130:-1 131:-1 132:-1 133:-1 134:-1 135:-1 136:-1 137:-1 138:-1 139:-1 140:-1 141:-1 142:-1 143:-1 144:-1 145:-0.993443 146:-0.916667 147:-0.943182 148:-0.923077 149:-0.883838 150:-0.915567 151:-0.947262 152:-0.926087 153:-0.918465 154:-0.950331 155:-0.886121 156:-0.93047 157:-0.938998 158:-0.960954 159:-0.995294 160:-1 161:-0.9375 162:-0.952555 163:-1 164:-1 165:-1 166:-1 167:-1 168:-1 169:-1 170:-1 171:-0.994039 172:-0.972028 173:-0.995763 174:-0.996344 175:-0.991968 176:-0.987421 177:-0.993576 178:-0.987159 179:-1 180:-0.89899 181:-0.991544 197:-1 198:-1 199:-1 200:-1 201:-1 202:-1 203:-1 204:-1 205:-1 206:-1 207:-1 208:-1 209:-1 210:-1 211:-1 212:-1 213:-1 214:-1 215:-1 216:-1 217:-1 218:-1 219:-1 220:-1 221:-1 222:-1 223:-1 224:-1 225:-1 226:-1 227:-1 228:-1 229:-1 230:-1 231:-1 232:-1 233:-1 234:-1 235:-1 236:-1 237:-1 238:-1 239:-1 240:-1 241:-1 242:-1 243:-1 244:-0.893805 245:-0.838235 246:-0.901639 247:-0.890625 248:-0.939394 249:-0.978723 250:-0.943503 251:-0.92 252:-0.89916 253:-0.961783 254:-0.982906 255:-0.965278 256:-0.970588 257:-0.991597 258:-0.953917 259:-0.947644 260:-0.978142 261:-0.971154 262:-0.97 263:-0.95122 264:-0.990991 265:-0.986111 266:-0.967611 267:-0.987539 268:-0.97319 269:-0.983871 270:-0.975684 271:-0.973046 272:-0.976471 273:-0.977654 274:-0.995062 275:-0.966997 276:-0.981087 277:-0.979592 278:-1 279:-0.99536 280:-0.98374 281:-0.98594 282:-0.988571 283:-0.995763 284:-0.989228 285:-0.991091 286:-0.993209 287:-1 288:-0.996154 289:-0.987903 290:-0.993031 291:-0.996937 292:-0.992347 293:-0.996616 294:-0.993399 295:-0.99241 296:-0.989655 297:-0.984448 298:-1 299:-1 300:-0.994203 301:-0.9866 302:-0.985899 303:-0.99095 304:-0.980559 305:-1 306:-0.99318 307:-0.989855 308:-0.982861 
113.5086576952559 0 0 0 0 30.09197981296252 1:-0.945354 2:-1 3:-1 4:-1 5:-1 6:-1 7:-1 8:-1 9:-1 10:-1 11:-1 12:-1 13:-1 14:-1 15:-1 16:-1 17:-1 18:-1 19:-1 20:-1 21:-1 22:-1 23:-1 24:-1 25:-1 26:-1 27:-1 28:-1 29:-1 30:-1 31:-1 32:-1 33:-1 34:-1 35:-1 36:-1 37:-1 38:-1 39:-1 40:-1 41:-1 42:-1 43:-1 44:-1 45:-1 46:-0.945375 47:-1 48:-1 49:-1 50:-1 51:-1 52:-1 53:-1 54:-1 55:-1 56:-1 57:-1 58:-1 59:-1 60:-1 61:-1 62:-1 63:-1 64:-1 65:-1 66:-1 67:-1 68:-1 69:-1 70:-1 71:-1 72:-1 73:-1 74:-1 75:-1 76:-1 77:-1 78:-1 79:-1 80:-1 81:-1 82:-1 83:-1 84:-1 85:-1 86:-1 87:-1 88:-1 89:-1 90:-1 91:-0.841864 92:-1 93:-1 94:-1 95:-1 96:-1 97:-1 98:-1 99:-1 100:-1 101:-1 102:-1 103:-1 104:-1 105:-1 106:-1 107:-1 108:-1 109:-1 110:-1 111:-1 112:-1 113:-1 114:-1 115:-1 116:-1 117:-1 118:-1 119:-1 120:-1 121:-1 122:-1 123:-1 124:-1 125:-1 126:-1 127:-1 128:-1 129:-1 130:-1 131:-1 132:-1 133:-1 134:-1 135:-1 136:-1 137:-1 138:-1 139:-1 140:-1 141:-1 142:-0.981308 143:-0.950413 144:-0.969811 145:-0.934426 146:-0.95 147:-0.948864 148:-0.91716 149:-0.944444 150:-0.936675 151:-0.975659 152:-0.969565 153:-0.966427 154:-0.983444 155:-0.989324 156:-0.97546 157:-0.982571 158:-0.982646 159:-0.967059 160:-0.991435 161:-0.982143 162:-0.981752 163:-0.992395 164:-0.992754 165:-0.996644 166:-1 167:-0.987639 168:-0.986859 169:-0.986667 170:-0.983936 171:-0.985097 172:-0.982517 173:-0.987288 174:-0.985375 175:-0.981258 176:-0.992453 177:-0.989293 178:-0.980738 179:-0.990431 180:-0.939394 181:-0.995508 197:-1 198:-1 199:-1 200:-1 201:-1 202:-1 203:-1 204:-1 205:-1 206:-1 207:-1 208:-1 209:-1 210:-1 211:-1 212:-1 213:-1 214:-1 215:-1 216:-1 217:-1 218:-1 219:-1 220:-1 221:-1 222:-1 223:-1 224:-1 225:-1 226:-1 227:-1 228:-1 229:-1 230:-1 231:-1 232:-1 233:-1 234:-1 235:-1 236:-1 237:-1 238:-1 239:-1 240:-1 241:-1 242:-1 243:-1 244:-1 245:-0.970588 246:-0.967213 247:-0.984375 248:-0.975758 249:-0.989362 250:-0.988701 251:-0.904 252:-0.983193 253:-1 254:-0.991453 255:-0.986111 256:-1 257:-0.97479 258:-0.981567 259:-1 260:-0.978142 261:-1 262:-1 263:-0.987805 264:-1 265:-0.979167 266:-0.94332 267:-0.993769 268:-0.989276 269:-1 270:-0.969605 271:-0.989218 272:-0.988235 273:-0.988827 274:-0.995062 275:-0.986799 276:-0.981087 277:-0.995918 278:-0.992016 279:-0.981439 280:-0.99458 281:-0.996485 282:-0.99619 283:-0.995763 284:-0.974865 285:-0.986637 286:-0.989813 287:-0.986971 288:-0.976923 289:-0.987903 290:-0.982578 291:-0.987749 292:-0.987245 293:-0.98308 294:-0.986799 295:-0.98482 296:-0.996552 297:-0.981337 298:-0.991826 299:-0.979764 300:-0.97971 301:-1 302:-0.990599 303:-0.993967 304:-0.985419 305:-0.986667 306:-0.97954 307:-0.989855 308:-0.995386 
2.351381405069329 0 0 0 0 128 1:-0.996832 2:-0.957447 3:-1 4:-0.974684 5:-0.938144 6:-0.981982 7:-1 8:-1 9:-0.993921 10:-1 11:-1 12:-0.996479 13:-0.994475 14:-1 15:-1 16:-1 17:-0.996593 18:-0.994211 19:-0.990419 20:-0.984375 21:-0.977505 22:-0.972603 23:-0.981046 24:-0.933687 25:-0.972504 26:-0.956577 27:-0.971061 28:-0.961054 29:-0.967285 30:-0.988083 31:-0.953878 32:-0.926829 33:-0.945869 34:-0.982609 35:-0.966339 36:-0.970276 37:-0.943089 38:-0.873171 39:-0.95122 40:-0.979381 41:-0.958763 42:-0.975 43:-1 44:-1 45:-1 46:-0.996042 47:-0.977456 48:-0.988131 49:-0.964824 50:-0.948864 51:-0.958209 52:-0.93674 53:-0.966216 54:-0.982405 55:-0.978428 56:-0.929032 57:-0.990964 58:-0.981842 59:-0.976744 60:-0.965174 61:-0.975309 62:-0.968454 63:-0.976798 64:-0.972093 65:-0.986053 66:-0.969231 67:-0.98579 68:-0.98908 69:-0.979334 70:-0.984596 71:-0.964286 72:-0.968847 73:-0.94302 74:-0.956656 75:-0.988764 76:-0.955272 77:-0.973684 78:-0.952381 79:-0.96997 80:-0.951807 81:-0.950156 82:-0.964413 83:-0.971602 84:-0.970674 85:-0.992819 86:-0.95122 87:-0.979899 88:-0.992661 89:-0.985075 90:-0.994258 91:-0.998472 92:-0.993248 93:-0.987589 94:-0.978967 95:-0.976285 96:-0.982256 97:-0.966146 98:-0.988194 99:-0.967033 100:-0.980993 101:-0.953775 102:-0.974719 103:-0.965015 104:-0.97166 105:-0.951965 106:-0.946457 107:-0.930348 108:-0.933775 109:-0.912807 110:-0.956349 111:-0.991853 112:-0.997672 113:-0.997187 114:-1 115:-0.98579 116:-0.994911 117:-1 118:-0.990408 119:-0.992844 120:-0.988024 121:-0.997076 122:-1 123:-0.985294 124:-0.991853 125:-0.993311 126:-0.980861 127:-0.98227 128:-0.970339 129:-0.972789 130:-0.977401 131:-0.979899 132:-0.960552 133:-0.973813 134:-0.991111 135:-0.980025 136:-1 137:-0.959184 138:-0.975904 139:-0.90991 140:-0.963855 141:-0.958333 142:-0.915888 143:-0.958678 144:-0.954717 145:-0.967213 146:-0.95 147:-0.960227 148:-0.946746 149:-0.944444 150:-0.968338 151:-0.971602 152:-0.973913 153:-0.932854 154:-0.960265 155:-0.946619 156:-0.95092 157:-0.956427 158:-0.969631 159:-0.967059 160:-0.974304 161:-0.919643 162:-0.963504 163:-0.961977 164:-0.956522 165:-0.983221 166:-0.989437 167:-0.995056 168:-1 169:-0.995556 170:-0.994645 171:-0.985097 172:-0.986014 173:-0.987288 174:-0.974406 175:-0.98929 176:-0.98239 177:-0.987152 178:-0.977528 179:-0.952153 180:-0.89899 181:-0.996829 197:-1 198:-1 199:-1 200:-1 201:-1 202:-1 203:-1 204:-1 205:-1 206:-1 207:-1 208:-1 209:-1 210:-1 211:-1 212:-1 213:-1 214:-1 215:-1 216:-1 217:-1 218:-1 219:-1 220:-1 221:-1 222:-1 223:-1 224:-1 225:-1 226:-1 227:-1 228:-1 229:-1 230:-1 231:-1 232:-1 233:-1 234:-1 235:-1 236:-1 237:-1 238:-1 239:-1 240:-1 241:-0.974359 242:-1 243:-1 244:-0.982301 245:-0.955882 246:-1 247:-0.984375 248:-1 249:-1 250:-1 251:-0.984 252:-0.983193 253:-1 254:-0.991453 255:-1 256:-0.985294 257:-0.991597 258:-0.97235 259:-0.989529 260:-1 261:-0.990385 262:-0.98 263:-0.963415 264:-0.981982 265:-0.986111 266:-0.967611 267:-0.956386 268:-0.951743 269:-0.962366 270:-0.975684 271:-0.973046 272:-0.982353 273:-0.972067 274:-0.980247 275:-0.947195 276:-0.981087 277:-0.995918 278:-0.976048 279:-0.990719 280:-0.9729 281:-0.957821 282:-0.977143 283:-0.978814 284:-0.978456 285:-0.986637 286:-0.976231 287:-0.973941 288:-0.976923 289:-0.971774 290:-0.972125 291:-0.972435 292:-0.994898 293:-0.969543 294:-0.973597 295:-0.946869 296:-0.968966 297:-0.975117 298:-0.972752 299:-0.969646 300:-0.971014 301:-0.9866 302:-0.9953 303:-0.987934 304:-0.99271 305:-0.994286 306:-0.99659 307:-0.994203 308:-0.996704 
6.809476400991969 0 0 0 23.12237961951056 66.89975013419041 1:-0.996304 2:-1 3:-1 4:-0.974684 5:-1 6:-1 7:-1 8:-1 9:-1 10:-0.989822 11:-1 12:-1 13:-1 14:-0.992141 15:-1 16:-0.99687 17:-0.989779 18:-0.997106 19:-0.99521 20:-0.99375 21:-0.98773 22:-0.981735 23:-0.98245 24:-0.909814 25:-0.975398 26:-0.96424 27:-0.954984 28:-0.979381 29:-0.982552 30:-0.974181 31:-0.953878 32:-0.941463 33:-0.954416 34:-0.965217 35:-0.957924 36:-0.957537 37:-0.918699 38:-0.882927 39:-0.939024 40:-0.958763 41:-0.979381 42:-1 43:-0.985294 44:-1 45:-1 46:-0.996306 47:-1 48:-0.982196 49:-0.984925 50:-0.988636 51:-0.940299 52:-0.956204 53:-0.905405 54:-0.947214 55:-0.978428 56:-0.916129 57:-0.98494 58:-0.992218 59:-0.980066 60:-0.960199 61:-0.960494 62:-0.968454 63:-0.976798 64:-0.95814 65:-0.966527 66:-0.977622 67:-0.987567 68:-0.98908 69:-0.988519 70:-0.982028 71:-0.956349 72:-0.956386 73:-0.965812 74:-0.950464 75:-0.97191 76:-0.98722 77:-0.940789 78:-0.952381 79:-0.963964 80:-0.987952 81:-0.968847 82:-0.964413 83:-0.975659 84:-0.970674 85:-0.992819 86:-0.96748 87:-0.98995 88:-0.985321 89:-0.993603 90:-0.986603 91:-0.99618 92:-0.997299 93:-0.98227 94:-0.982792 95:-0.98419 96:-0.946768 97:-0.966146 98:-0.976387 99:-0.956044 100:-0.983105 101:-0.975347 102:-0.963483 103:-0.988338 104:-0.967611 105:-0.965066 106:-0.962205 107:-0.925373 108:-0.94702 109:-0.918256 110:-0.944444 111:-0.9389 112:-0.98603 113:-0.988748 114:-0.991675 115:-1 116:-1 117:-0.994898 118:-0.995204 119:-0.992844 120:-1 121:-0.988304 122:-0.985714 123:-0.980392 124:-0.979633 125:-1 126:-0.980861 127:-0.989362 128:-0.991525 129:-1 130:-0.988701 131:-0.994975 132:-0.99211 133:-0.983633 134:-0.979259 135:-0.992509 136:-0.913043 137:-1 138:-0.951807 139:-0.945946 140:-0.903614 141:-0.958333 142:-0.971963 143:-0.933884 144:-0.969811 145:-0.954098 146:-0.972222 147:-0.948864 148:-0.964497 149:-0.949495 150:-0.952507 151:-0.955375 152:-0.934783 153:-0.952038 154:-0.956954 155:-0.935943 156:-0.94274 157:-0.934641 158:-0.947939 159:-0.943529 160:-0.948608 161:-0.950893 162:-0.981752 163:-0.992395 164:-0.981884 165:-0.996644 166:-1 167:-1 168:-1 169:-1 170:-0.994645 171:-0.994039 172:-0.993007 173:-0.970339 174:-0.974406 175:-0.983936 176:-0.98239 177:-0.993576 178:-0.971108 179:-0.942584 180:-0.959596 181:-0.996565 197:-1 198:-1 199:-1 200:-1 201:-1 202:-1 203:-1 204:-1 205:-1 206:-1 207:-1 208:-1 209:-1 210:-1 211:-1 212:-1 213:-1 214:-1 215:-1 216:-1 217:-1 218:-1 219:-1 220:-1 221:-1 222:-1 223:-1 224:-1 225:-1 226:-1 227:-1 228:-1 229:-1 230:-1 231:-1 232:-1 233:-1 234:-1 235:-1 236:-1 237:-1 238:-1 239:-1 240:-1 241:-1 242:-0.96 243:-1 244:-0.982301 245:-1 246:-1 247:-0.984375 248:-0.987879 249:-1 250:-1 251:-0.984 252:-0.983193 253:-1 254:-1 255:-1 256:-0.992647 257:-1 258:-0.981567 259:-0.979058 260:-0.923497 261:-0.971154 262:-0.99 263:-0.939024 264:-0.972973 265:-0.965278 266:-0.967611 267:-0.962617 268:-0.957105 269:-0.989247 270:-0.981763 271:-0.940701 272:-0.964706 273:-0.955307 274:-0.985185 275:-0.966997 276:-0.981087 277:-0.971429 278:-0.98004 279:-0.972158 280:-0.97832 281:-0.97188 282:-0.973333 283:-0.987288 284:-0.967684 285:-0.96882 286:-0.989813 287:-0.983713 288:-0.980769 289:-0.975806 290:-0.97561 291:-0.981623 292:-0.977041 293:-0.959391 294:-0.980198 295:-0.973435 296:-0.965517 297:-0.962675 298:-0.978202 299:-0.986509 300:-0.976812 301:-0.9933 302:-1 303:-0.996983 304:-0.990279 305:-0.992381 306:-0.99659 307:-0.997101 308:-0.999341 
92.72921997618751 0 0 0 0 0 1:-0.984161 2:-0.978723 3:-0.954545 4:-1 5:-0.979381 6:-0.963964 7:-0.986301 8:-0.990338 9:-1 10:-0.989822 11:-0.99687 12:-0.989437 13:-1 14:-0.996071 15:-1 16:-1 17:-0.996593 18:-0.988423 19:-0.973653 20:-0.884375 21:-0.96728 22:-0.987215 23:-0.98947 24:-0.981432 25:-0.988423 26:-0.936143 27:-0.890675 28:-0.981672 29:-0.984733 30:-0.988083 31:-0.953878 32:-0.956098 33:-0.97151 34:-0.982609 35:-0.966339 36:-0.978769 37:-0.95935 38:-0.970732 39:-0.987805 40:-0.917526 41:-0.979381 42:-0.925 43:-0.985294 44:-0.939394 45:-0.949367 46:-0.984695 47:-1 48:-0.988131 49:-0.959799 50:-0.954545 51:-0.976119 52:-0.970803 53:-0.993243 54:-0.97654 55:-0.987673 56:-0.954839 57:-0.981928 58:-0.98703 59:-0.976744 60:-0.995025 61:-0.985185 62:-0.962145 63:-0.972158 64:-0.986047 65:-0.994421 66:-0.98042 67:-0.98579 68:-0.98752 69:-0.977038 70:-0.979461 71:-0.964286 72:-0.962617 73:-0.948718 74:-0.93808 75:-0.94382 76:-0.948882 77:-0.973684 78:-0.973545 79:-0.96997 80:-0.981928 81:-0.987539 82:-0.97153 83:-0.983773 84:-0.98827 85:-0.985637 86:-0.97832 87:-0.954774 88:-0.970642 89:-0.959488 90:-0.94067 91:-0.997708 92:-0.99865 93:-0.992908 94:-0.986616 95:-0.978261 96:-0.964512 97:-0.958333 98:-0.955136 99:-0.956044 100:-0.968321 101:-0.966102 102:-0.941011 103:-0.889213 104:-0.88664 105:-0.965066 106:-0.981102 107:-0.995025 108:-0.977925 109:-0.989101 110:-0.988095 111:-0.995927 112:-0.997672 113:-0.991561 114:-0.997919 115:-0.996448 116:-0.989822 117:-0.984694 118:-0.966427 119:-0.978533 120:-0.956088 121:-0.967836 122:-0.919048 123:-0.838235 124:-0.983707 125:-0.996656 126:-0.995215 127:-0.992908 128:-1 129:-1 130:-1 131:-1 132:-0.99211 133:-1 134:-0.997037 135:-0.997503 136:-0.913043 137:-0.959184 138:-0.927711 139:-0.927928 140:-0.963855 141:-0.9375 142:-0.943925 143:-0.975207 144:-0.94717 145:-0.960656 146:-0.972222 147:-0.965909 148:-0.946746 149:-0.964646 150:-0.957784 151:-0.959432 152:-0.943478 153:-0.942446 154:-0.950331 155:-0.957295 156:-0.96319 157:-0.943355 158:-0.947939 159:-0.952941 160:-0.952891 161:-0.950893 162:-0.967153 163:-0.958175 164:-0.967391 165:-0.963087 166:-0.975352 167:-0.972806 168:-0.973719 169:-0.977778 170:-0.983936 171:-0.973174 172:-0.986014 173:-0.961864 174:-0.978062 175:-0.981258 176:-0.987421 177:-0.995717 178:-0.990369 179:-0.971292 180:-0.959596 181:-0.984674 197:-1 198:-1 199:-1 200:-1 201:-1 202:-1 203:-1 204:-1 205:-1 206:-1 207:-1 208:-1 209:-1 210:-1 211:-1 212:-1 213:-1 214:-1 215:-1 216:-1 217:-1 218:-1 219:-1 220:-1 221:-1 222:-1 223:-1 224:-1 225:-1 226:-1 227:-1 228:-1 229:-1 230:-1 231:-1 232:-1 233:-1 234:-1 235:-1 236:-1 237:-1 238:-1 239:-1 240:-0.969231 241:-1 242:-1 243:-0.941176 244:-0.982301 245:-1 246:-0.901639 247:-0.984375 248:-0.987879 249:-0.989362 250:-0.988701 251:-0.968 252:-0.983193 253:-1 254:-0.991453 255:-0.986111 256:-0.992647 257:-0.983193 258:-1 259:-1 260:-0.978142 261:-1 262:-0.99 263:-0.963415 264:-0.981982 265:-0.958333 266:-0.967611 267:-0.956386 268:-0.989276 269:-0.994624 270:-0.957447 271:-0.989218 272:-0.982353 273:-0.994413 274:-0.97037 275:-0.980198 276:-0.985816 277:-0.97551 278:-0.964072 279:-0.958237 280:-0.95664 281:-0.989455 282:-0.992381 283:-0.970339 284:-0.964093 285:-0.96882 286:-0.986418 287:-0.970684 288:-0.973077 289:-0.991935 290:-0.982578 291:-0.975498 292:-0.979592 293:-0.966159 294:-0.993399 295:-0.97723 296:-0.986207 297:-0.987558 298:-0.967302 299:-0.962901 300:-0.97971 301:-0.973199 302:-0.990599 303:-0.969834 304:-0.99271 305:-0.99619 306:-0.99318 307:-0.997101 308:-0.992749 
0 0 15.73177778293164 0 0 0 1:-0.992344 2:-0.957447 3:-0.931818 4:-0.974684 5:-0.958763 6:-0.891892 7:-0.972603 8:-0.990338 9:-0.981763 10:-0.994911 11:-0.99687 12:-0.992958 13:-0.98895 14:-0.992141 15:-0.978723 16:-0.981221 17:-0.884157 18:-0.898698 19:-0.964072 20:-0.953125 21:-0.981595 22:-0.987215 23:-0.991576 24:-0.981432 25:-0.984081 26:-0.98212 27:-0.967846 28:-0.912944 29:-0.947655 30:-0.966236 31:-0.932914 32:-0.960976 33:-0.97151 34:-0.963043 35:-0.980365 36:-0.953291 37:-0.902439 38:-0.921951 39:-0.878049 40:-0.917526 41:-0.958763 42:-0.975 43:-0.970588 44:-0.969697 45:-0.924051 46:-0.992083 47:-0.958132 48:-0.946588 49:-0.969849 50:-0.965909 51:-0.916418 52:-0.941606 53:-0.891892 54:-0.958944 55:-0.969183 56:-0.916129 57:-0.98494 58:-0.971466 59:-0.9701 60:-0.960199 61:-0.985185 62:-0.943218 63:-0.944316 64:-0.986047 65:-0.980474 66:-0.986014 67:-0.992895 68:-0.99064 69:-0.997704 70:-0.994865 71:-0.980159 72:-0.993769 73:-0.97151 74:-0.96904 75:-1 76:-0.980831 77:-0.973684 78:-0.973545 79:-0.981982 80:-0.963855 81:-0.975078 82:-0.94306 83:-0.979716 84:-0.941349 85:-0.956912 86:-0.940379 87:-0.889447 88:-0.904587 89:-0.942431 90:-0.927273 91:-0.982429 92:-0.964889 93:-0.960993 94:-0.952199 95:-0.958498 96:-0.969582 97:-0.973958 98:-0.96222 99:-0.942308 100:-0.974657 101:-0.972265 102:-0.974719 103:-0.970845 104:-0.967611 105:-0.951965 106:-0.984252 107:-0.975124 108:-0.99117 109:-0.989101 110:-0.992063 111:-1 112:-1 113:-1 114:-1 115:-1 116:-1 117:-0.994898 118:-0.990408 119:-0.992844 120:-0.968064 121:-0.979532 122:-0.952381 123:-0.980392 124:-0.955193 125:-0.956522 126:-0.933014 127:-0.93617 128:-0.944915 129:-0.92517 130:-0.779661 131:-0.979899 132:-0.996055 133:-0.996727 134:-1 135:-1 136:-0.913043 137:-0.918367 138:-0.951807 139:-0.963964 140:-0.891566 141:-0.979167 142:-0.906542 143:-0.958678 144:-0.909434 145:-0.921311 146:-0.927778 147:-0.943182 148:-0.940828 149:-0.929293 150:-0.915567 151:-0.955375 152:-0.93913 153:-0.93765 154:-0.963576 155:-0.939502 156:-0.95501 157:-0.934641 158:-0.969631 159:-0.948235 160:-0.948608 161:-0.946429 162:-0.963504 163:-0.946768 164:-0.967391 165:-0.95302 166:-0.961268 167:-0.965389 168:-0.976347 169:-0.975556 170:-0.986613 171:-0.988077 172:-0.972028 173:-0.966102 174:-0.959781 175:-0.973226 176:-0.979874 177:-0.985011 178:-0.980738 179:-0.961722 180:-0.939394 181:-0.99313 197:-1 198:-1 199:-1 200:-1 201:-1 202:-1 203:-1 204:-1 205:-1 206:-1 207:-1 208:-1 209:-1 210:-1 211:-1 212:-1 213:-1 214:-1 215:-1 216:-1 217:-1 218:-1 219:-1 220:-1 221:-1 222:-1 223:-1 224:-1 225:-1 226:-1 227:-1 228:-1 229:-1 230:-1 231:-1 232:-1 233:-1 234:-1 235:-1 236:-1 237:-1 238:-1 239:-1 240:-1 241:-1 242:-1 243:-1 244:-1 245:-1 246:-1 247:-1 248:-0.975758 249:-0.989362 250:-0.988701 251:-0.984 252:-1 253:-1 254:-1 255:-0.993056 256:-0.992647 257:-0.983193 258:-0.97235 259:-0.979058 260:-0.989071 261:-1 262:-0.97 263:-0.97561 264:-0.972973 265:-0.979167 266:-0.991903 267:-0.987539 268:-0.946381 269:-0.951613 270:-0.951368 271:-0.93531 272:-0.958824 273:-0.960894 274:-0.985185 275:-0.960396 276:-0.962175 277:-0.979592 278:-0.968064 279:-0.953596 280:-0.97832 281:-0.954306 282:-0.969524 283:-0.970339 284:-0.982047 285:-0.955457 286:-0.972835 287:-0.964169 288:-0.957692 289:-0.96371 290:-0.954704 291:-0.963247 292:-0.956633 293:-0.939086 294:-0.966997 295:-0.927894 296:-0.931034 297:-0.937792 298:-0.915531 299:-0.983137 300:-0.997101 301:-0.976549 302:-0.985899 303:-0.99095 304:-0.99757 305:-0.998095 306:-1 307:-0.997101 308:-0.999341 
0 0 21.75197426590374 0 0 0 1:-0.995776 2:-0.957447 3:-0.931818 4:-0.974684 5:-0.938144 6:-0.90991 7:-0.931507 8:-0.971014 9:-0.963526 10:-0.984733 11:-0.99061 12:-0.985915 13:-0.977901 14:-0.992141 15:-0.995745 16:-0.99687 17:-0.945486 18:-0.881331 19:-0.959281 20:-0.940625 21:-0.97955 22:-0.987215 23:-0.988768 24:-0.970822 25:-0.984081 26:-0.979566 27:-0.983923 28:-0.979381 29:-0.899673 30:-0.968222 31:-0.9413 32:-0.936585 33:-0.965812 34:-0.969565 35:-0.957924 36:-0.944798 37:-0.902439 38:-0.912195 39:-0.939024 40:-0.938144 41:-0.896907 42:-0.95 43:-0.955882 44:-0.969697 45:-0.974684 46:-0.995778 47:-0.996779 48:-0.988131 49:-0.984925 50:-0.977273 51:-0.958209 52:-0.975669 53:-0.986486 54:-0.97654 55:-0.98151 56:-0.967742 57:-0.978916 58:-0.992218 59:-0.980066 60:-0.950249 61:-0.935802 62:-0.92429 63:-0.911833 64:-0.962791 65:-0.972106 66:-0.974825 67:-0.980462 68:-0.98752 69:-0.988519 70:-0.992298 71:-0.97619 72:-0.968847 73:-0.960114 74:-0.96904 75:-0.977528 76:-0.980831 77:-0.967105 78:-0.968254 79:-0.981982 80:-0.963855 81:-0.956386 82:-0.950178 83:-0.963489 84:-0.935484 85:-0.956912 86:-0.902439 87:-0.899497 88:-0.86789 89:-0.910448 90:-0.952153 91:-0.990069 92:-0.971641 93:-0.957447 94:-0.961759 95:-0.942688 96:-0.941698 97:-0.890625 98:-0.950413 99:-0.972527 100:-0.978881 101:-0.972265 102:-0.977528 103:-0.973761 104:-0.94332 105:-0.951965 106:-0.990551 107:-0.99005 108:-0.99117 109:-1 110:-1 111:-1 112:-1 113:-1 114:-1 115:-0.996448 116:-1 117:-0.989796 118:-1 119:-0.989267 120:-0.988024 121:-0.982456 122:-0.961905 123:-0.946078 124:-0.955193 125:-0.953177 126:-0.937799 127:-0.957447 128:-0.927966 129:-0.877551 130:-0.971751 131:-1 132:-1 133:-0.993453 134:-0.997037 135:-1 136:-1 137:-0.918367 138:-0.903614 139:-0.963964 140:-0.903614 141:-0.96875 142:-0.962617 143:-0.917355 144:-0.94717 145:-0.947541 146:-0.938889 147:-0.965909 148:-0.934911 149:-0.934343 150:-0.931398 151:-0.943205 152:-0.943478 153:-0.928058 154:-0.94702 155:-0.939502 156:-0.94683 157:-0.95207 158:-0.939262 159:-0.943529 160:-0.948608 161:-0.946429 162:-0.948905 163:-0.965779 164:-0.942029 165:-0.949664 166:-0.971831 167:-0.987639 168:-0.968463 169:-0.984444 170:-0.983936 171:-0.982116 172:-0.968531 173:-0.95339 174:-0.967093 175:-0.983936 176:-0.977358 177:-0.985011 178:-0.977528 179:-0.942584 180:-0.959596 181:-0.995772 197:-1 198:-1 199:-1 200:-1 201:-1 202:-1 203:-1 204:-1 205:-1 206:-1 207:-1 208:-1 209:-1 210:-1 211:-1 212:-1 213:-1 214:-1 215:-1 216:-1 217:-1 218:-1 219:-1 220:-1 221:-1 222:-1 223:-1 224:-1 225:-1 226:-1 227:-1 228:-1 229:-1 230:-1 231:-1 232:-1 233:-1 234:-1 235:-1 236:-1 237:-1 238:-1 239:-1 240:-1 241:-1 242:-1 243:-1 244:-1 245:-1 246:-1 247:-1 248:-0.987879 249:-1 250:-0.988701 251:-0.984 252:-1 253:-1 254:-0.991453 255:-1 256:-1 257:-1 258:-1 259:-0.958115 260:-0.978142 261:-0.980769 262:-1 263:-0.926829 264:-0.963964 265:-0.944444 266:-0.935223 267:-0.950156 268:-0.957105 269:-0.967742 270:-0.920973 271:-0.956873 272:-0.952941 273:-0.977654 274:-0.97037 275:-0.960396 276:-0.976359 277:-0.97551 278:-0.972056 279:-0.962877 280:-0.96748 281:-0.989455 282:-0.961905 283:-0.961864 284:-0.974865 285:-0.955457 286:-0.976231 287:-0.980456 288:-0.961538 289:-0.947581 290:-0.947735 291:-0.954058 292:-0.971939 293:-0.952623 294:-0.960396 295:-0.954459 296:-0.917241 297:-0.944012 298:-0.950954 299:-0.942664 300:-0.982609 301:-0.98325 302:-0.990599 303:-0.978884 304:-0.99514 305:-0.99619 306:-0.998295 307:-0.997101 308:-0.998022 
33.51076839502178 0 0 0 0 0 1:-0.984688 2:-0.978723 3:-0.977273 4:-1 5:-0.979381 6:-0.981982 7:-0.958904 8:-1 9:-1 10:-0.994911 11:-0.99687 12:-1 13:-1 14:-1 15:-1 16:-0.99687 17:-0.979557 18:-0.994211 19:-0.988024 20:-0.890625 21:-0.961145 22:-0.979909 23:-0.988768 24:-0.984085 25:-0.991317 26:-0.92848 27:-0.890675 28:-0.979381 29:-0.986914 30:-0.994042 31:-0.958071 32:-0.926829 33:-0.980057 34:-0.982609 35:-0.97195 36:-0.949045 37:-0.910569 38:-0.980488 39:-0.95122 40:-0.938144 41:-1 42:-0.95 43:-0.985294 44:-0.969697 45:-0.924051 46:-0.985222 47:-1 48:-0.970326 49:-0.959799 50:-0.971591 51:-0.964179 52:-0.975669 53:-0.993243 54:-0.958944 55:-0.98151 56:-0.987097 57:-0.975904 58:-0.971466 59:-0.996678 60:-0.970149 61:-0.940741 62:-0.936909 63:-0.986079 64:-0.986047 65:-0.974895 66:-0.98042 67:-0.984014 68:-0.98908 69:-0.988519 70:-0.987163 71:-0.956349 72:-0.981308 73:-0.925926 74:-0.950464 75:-0.97191 76:-0.961661 77:-0.947368 78:-0.952381 79:-0.96997 80:-0.993976 81:-0.981308 82:-0.978648 83:-0.983773 84:-0.98827 85:-0.982047 86:-0.99458 87:-0.954774 88:-0.955963 89:-0.968017 90:-0.955981 91:-0.999236 92:-0.997299 93:-0.994681 94:-0.977055 95:-0.974308 96:-0.959442 97:-0.973958 98:-0.957497 99:-0.953297 100:-0.974657 101:-0.953775 102:-0.949438 103:-0.915452 104:-0.894737 105:-0.938865 106:-0.974803 107:-0.970149 108:-0.98234 109:-0.989101 110:-1 111:-0.991853 112:-0.993015 113:-0.991561 114:-0.995838 115:-0.996448 116:-0.979644 117:-0.994898 118:-0.980815 119:-0.985689 120:-0.96008 121:-0.964912 122:-0.909524 123:-0.862745 124:-0.98778 125:-0.983278 126:-0.990431 127:-1 128:-0.995763 129:-1 130:-1 131:-0.994975 132:-0.984221 133:-0.996727 134:-0.994074 135:-0.987516 136:-0.913043 137:-0.959184 138:-0.927711 139:-0.90991 140:-0.975904 141:-0.96875 142:-0.925234 143:-1 144:-0.924528 145:-0.97377 146:-0.966667 147:-0.954545 148:-0.952663 149:-0.974747 150:-0.941953 151:-0.959432 152:-0.96087 153:-0.928058 154:-0.963576 155:-0.957295 156:-0.92229 157:-0.960784 158:-0.97397 159:-0.915294 160:-0.952891 161:-0.96875 162:-0.941606 163:-0.977186 164:-0.971014 165:-0.949664 166:-0.975352 167:-0.980222 168:-0.960578 169:-0.982222 170:-0.978581 171:-0.979136 172:-0.968531 173:-0.978814 174:-0.978062 175:-0.981258 176:-0.989937 177:-0.993576 178:-0.980738 179:-0.990431 180:-0.979798 181:-0.985203 197:-1 198:-1 199:-1 200:-1 201:-1 202:-1 203:-1 204:-1 205:-1 206:-1 207:-1 208:-1 209:-1 210:-1 211:-1 212:-1 213:-1 214:-1 215:-1 216:-1 217:-1 218:-1 219:-1 220:-1 221:-1 222:-1 223:-1 224:-1 225:-1 226:-1 227:-1 228:-1 229:-1 230:-1 231:-1 232:-1 233:-1 234:-1 235:-1 236:-1 237:-1 238:-1 239:-1 240:-1 241:-1 242:-0.92 243:-0.970588 244:-0.982301 245:-1 246:-0.983607 247:-0.9375 248:-1 249:-0.989362 250:-1 251:-0.984 252:-0.983193 253:-0.987261 254:-1 255:-0.986111 256:-0.977941 257:-0.966387 258:-1 259:-0.968586 260:-0.945355 261:-0.990385 262:-0.97 263:-0.963415 264:-0.972973 265:-0.986111 266:-0.951417 267:-0.956386 268:-0.989276 269:-0.983871 270:-0.981763 271:-0.978437 272:-0.970588 273:-0.988827 274:-0.975309 275:-0.980198 276:-0.947991 277:-0.955102 278:-0.98004 279:-0.962877 280:-0.99458 281:-0.996485 282:-0.977143 283:-0.95339 284:-0.989228 285:-0.973274 286:-0.962649 287:-0.980456 288:-0.984615 289:-0.991935 290:-0.993031 291:-0.987749 292:-0.984694 293:-0.969543 294:-0.980198 295:-0.97723 296:-0.986207 297:-0.990669 298:-0.975477 299:-0.979764 300:-0.965217 301:-0.98995 302:-0.978848 303:-0.9819 304:-0.978129 305:-0.984762 306:-0.99318 307:-0.991304 308:-0.996704 
19.91366323647605 0 0 0 0 0 1:-0.990496 2:-0.957447 3:-1 4:-1 5:-1 6:-1 7:-1 8:-1 9:-1 10:-1 11:-1 12:-1 13:-1 14:-1 15:-0.995745 16:-0.99687 17:-0.993186 18:-0.997106 19:-0.976048 20:-0.965625 21:-0.944785 22:-0.857534 23:-0.932608 24:-0.835544 25:-0.965268 26:-0.961686 27:-0.967846 28:-0.997709 29:-0.982552 30:-1 31:-0.991614 32:-0.995122 33:-0.994302 34:-0.997826 35:-0.99439 36:-0.995754 37:-0.98374 38:-0.990244 39:-0.97561 40:-0.958763 41:-0.979381 42:-0.95 43:-0.955882 44:-0.757576 45:-0.848101 46:-0.979153 47:-0.954911 48:-0.934718 49:-0.974874 50:-0.943182 51:-0.964179 52:-0.975669 53:-0.972973 54:-0.994135 55:-0.984592 56:-0.967742 57:-0.981928 58:-0.979248 59:-0.976744 60:-0.965174 61:-0.975309 62:-0.917981 63:-0.967517 64:-0.976744 65:-0.974895 66:-0.977622 67:-0.976909 68:-0.975039 69:-0.983927 70:-0.979461 71:-0.964286 72:-0.956386 73:-0.937322 74:-0.956656 75:-0.926966 76:-0.974441 77:-0.980263 78:-0.952381 79:-0.987988 80:-0.975904 81:-0.962617 82:-0.978648 83:-0.971602 84:-1 85:-0.978456 86:-0.96206 87:-0.994975 88:-0.966972 89:-0.963753 90:-0.938756 91:-0.997708 92:-1 93:-0.998227 94:-0.99044 95:-0.982213 96:-0.979721 97:-0.976562 98:-0.978749 99:-0.986264 100:-0.991552 101:-0.950693 102:-0.969101 103:-0.962099 104:-0.91498 105:-0.938865 106:-0.974803 107:-0.945274 108:-0.95585 109:-0.967302 110:-0.964286 111:-0.959267 112:-0.960419 113:-0.994374 114:-0.98127 115:-0.950266 116:-0.949109 117:-0.933673 118:-0.932854 119:-0.949911 120:-0.916168 121:-0.947368 122:-0.947619 123:-0.946078 124:-0.942974 125:-0.963211 126:-0.961722 127:-0.957447 128:-0.961864 129:-0.972789 130:-0.954802 131:-0.974874 132:-0.988166 133:-0.986907 134:-0.997037 135:-0.995006 136:-1 137:-0.959184 138:-0.903614 139:-0.963964 140:-0.939759 141:-0.916667 142:-0.981308 143:-0.933884 144:-0.939623 145:-0.97377 146:-0.938889 147:-0.960227 148:-0.940828 149:-0.964646 150:-0.952507 151:-0.939148 152:-0.947826 153:-0.947242 154:-0.94702 155:-0.953737 156:-0.92638 157:-0.943355 158:-0.969631 159:-0.934118 160:-0.952891 161:-0.946429 162:-0.952555 163:-0.958175 164:-0.952899 165:-0.966443 166:-0.96831 167:-0.962917 168:-0.973719 169:-0.975556 170:-0.941098 171:-0.943368 172:-0.972028 173:-0.927966 174:-0.967093 175:-0.981258 176:-0.984906 177:-0.993576 178:-0.993579 179:-0.961722 180:-0.939394 181:-0.991544 197:-1 198:-1 199:-1 200:-1 201:-1 202:-1 203:-1 204:-1 205:-1 206:-1 207:-1 208:-1 209:-1 210:-1 211:-1 212:-1 213:-1 214:-1 215:-1 216:-1 217:-1 218:-1 219:-1 220:-1 221:-1 222:-1 223:-1 224:-1 225:-1 226:-1 227:-1 228:-1 229:-1 230:-1 231:-1 232:-1 233:-1 234:-1 235:-1 236:-1 237:-1 238:-1 239:-1 240:-1 241:-1 242:-1 243:-1 244:-1 245:-1 246:-1 247:-1 248:-1 249:-1 250:-1 251:-0.984 252:-1 253:-1 254:-1 255:-1 256:-1 257:-1 258:-1 259:-0.989529 260:-0.989071 261:-0.980769 262:-0.99 263:-0.926829 264:-0.972973 265:-0.986111 266:-0.975709 267:-0.956386 268:-0.97319 269:-0.951613 270:-0.981763 271:-0.978437 272:-0.958824 273:-0.960894 274:-0.975309 275:-0.940594 276:-0.976359 277:-0.967347 278:-0.968064 279:-0.981439 280:-0.934959 281:-0.968366 282:-0.950476 283:-0.949153 284:-0.949731 285:-0.959911 286:-0.96944 287:-0.977199 288:-0.953846 289:-0.947581 290:-0.965157 291:-0.966309 292:-0.961735 293:-0.962775 294:-0.963696 295:-0.98482 296:-0.948276 297:-0.931571 298:-0.929155 299:-0.929174 300:-0.947826 301:-0.9933 302:-0.99765 303:-0.996983 304:-0.99271 305:-0.992381 306:-1 307:-1 308:-0.998022 
16.41511233655591 0 0.62560212138417 0 0 51.64559358816592 1:-0.992872 2:-0.978723 3:-0.977273 4:-0.949367 5:-0.958763 6:-0.927928 7:-0.90411 8:-0.951691 9:-0.987842 10:-0.969466 11:-0.99061 12:-0.992958 13:-0.98895 14:-0.996071 15:-0.987234 16:-1 17:-0.901193 18:-0.942113 19:-0.956886 20:-0.971875 21:-0.97137 22:-0.987215 23:-0.990874 24:-0.960212 25:-0.985528 26:-0.979566 27:-0.987138 28:-0.979381 29:-0.886587 30:-0.956306 31:-0.932914 32:-0.936585 33:-0.974359 34:-0.945652 35:-0.966339 36:-0.949045 37:-0.902439 38:-0.95122 39:-0.926829 40:-0.917526 41:-0.979381 42:-0.925 43:-0.985294 44:-0.969697 45:-1 46:-0.993139 47:-0.983897 48:-0.952522 49:-0.974874 50:-0.977273 51:-0.99403 52:-0.951338 53:-0.959459 54:-0.947214 55:-0.975347 56:-0.929032 57:-0.978916 58:-0.981842 59:-0.993355 60:-0.950249 61:-0.965432 62:-0.911672 63:-0.921114 64:-0.939535 65:-0.974895 66:-0.974825 67:-0.98579 68:-0.99376 69:-0.977038 70:-0.987163 71:-0.980159 72:-0.975078 73:-0.97151 74:-0.96904 75:-0.966292 76:-0.98722 77:-0.960526 78:-0.978836 79:-0.963964 80:-0.981928 81:-0.962617 82:-0.964413 83:-0.979716 84:-0.947214 85:-0.960503 86:-0.934959 87:-0.904523 88:-0.893578 89:-0.936034 90:-0.94067 91:-0.990833 92:-0.963538 93:-0.953901 94:-0.942639 95:-0.940711 96:-0.926489 97:-0.890625 98:-0.943329 99:-0.96978 100:-0.98944 101:-0.96302 102:-0.97191 103:-0.979592 104:-0.963563 105:-0.969432 106:-0.990551 107:-0.99005 108:-0.98234 109:-0.989101 110:-1 111:-1 112:-1 113:-0.997187 114:-1 115:-1 116:-1 117:-1 118:-1 119:-1 120:-0.988024 121:-0.988304 122:-0.971429 123:-0.941176 124:-0.967413 125:-0.963211 126:-0.942584 127:-0.968085 128:-0.949153 129:-0.901361 130:-0.903955 131:-0.98995 132:-1 133:-1 134:-1 135:-1 136:-1 137:-0.918367 138:-0.975904 139:-0.90991 140:-0.951807 141:-0.9375 142:-0.953271 143:-0.950413 144:-0.939623 145:-0.980328 146:-0.922222 147:-0.977273 148:-0.964497 149:-0.944444 150:-0.936675 151:-0.959432 152:-0.947826 153:-0.942446 154:-0.956954 155:-0.950178 156:-0.9591 157:-0.934641 158:-0.956616 159:-0.929412 160:-0.957173 161:-0.959821 162:-0.952555 163:-0.946768 164:-0.963768 165:-0.969799 166:-0.943662 167:-0.980222 168:-0.968463 169:-0.977778 170:-0.967871 171:-0.970194 172:-0.961538 173:-0.936441 174:-0.945155 175:-0.967871 176:-0.98239 177:-0.982869 178:-0.971108 179:-0.971292 180:-0.878788 181:-0.99313 197:-1 198:-1 199:-1 200:-1 201:-1 202:-1 203:-1 204:-1 205:-1 206:-1 207:-1 208:-1 209:-1 210:-1 211:-1 212:-1 213:-1 214:-1 215:-1 216:-1 217:-1 218:-1 219:-1 220:-1 221:-1 222:-1 223:-1 224:-1 225:-1 226:-1 227:-1 228:-1 229:-1 230:-1 231:-1 232:-1 233:-1 234:-1 235:-1 236:-1 237:-1 238:-1 239:-1 240:-1 241:-1 242:-1 243:-1 244:-1 245:-1 246:-1 247:-1 248:-1 249:-1 250:-1 251:-0.968 252:-1 253:-0.987261 254:-0.974359 255:-1 256:-1 257:-0.97479 258:-0.990783 259:-1 260:-0.978142 261:-0.990385 262:-0.98 263:-0.902439 264:-0.990991 265:-0.986111 266:-0.959514 267:-0.981308 268:-0.97319 269:-0.956989 270:-0.93921 271:-0.962264 272:-0.941176 273:-0.949721 274:-0.975309 275:-0.966997 276:-0.971631 277:-0.987755 278:-0.956088 279:-0.948956 280:-0.96206 281:-0.982425 282:-0.965714 283:-0.966102 284:-0.992819 285:-0.955457 286:-0.972835 287:-0.957655 288:-0.953846 289:-0.947581 290:-0.961672 291:-0.97856 292:-0.966837 293:-0.949239 294:-0.960396 295:-0.965844 296:-0.951724 297:-0.953344 298:-0.929155 299:-0.922428 300:-0.968116 301:-0.979899 302:-0.992949 303:-0.984917 304:-0.99514 305:-0.99619 306:-0.99659 307:-0.994203 308:-0.999341 
102.4974547661345 0 0 0 0 0 1:-0.993928 2:-1 3:-1 4:-1 5:-1 6:-1 7:-0.972603 8:-0.980676 9:-0.993921 10:-0.994911 11:-0.99687 12:-0.996479 13:-1 14:-0.996071 15:-1 16:-0.99687 17:-1 18:-0.985528 19:-0.997605 20:-0.9875 21:-0.98364 22:-0.965297 23:-0.93682 24:-0.859416 25:-0.956585 26:-0.925926 27:-0.948553 28:-0.972509 29:-0.971647 30:-0.976167 31:-0.932914 32:-0.926829 33:-0.974359 34:-0.976087 35:-0.97195 36:-0.957537 37:-0.926829 38:-0.921951 39:-0.963415 40:-0.979381 41:-0.979381 42:-0.975 43:-1 44:-0.939394 45:-1 46:-0.993403 47:-0.954911 48:-0.916914 49:-0.969849 50:-0.920455 51:-0.928358 52:-0.951338 53:-0.959459 54:-0.958944 55:-0.969183 56:-0.954839 57:-0.98494 58:-0.979248 59:-0.976744 60:-0.940299 61:-0.950617 62:-0.968454 63:-0.953596 64:-0.967442 65:-0.969317 66:-0.969231 67:-0.980462 68:-0.976599 69:-0.977038 70:-0.969191 71:-0.97619 72:-0.956386 73:-0.948718 74:-0.93808 75:-0.94382 76:-0.929712 77:-0.947368 78:-0.957672 79:-0.96997 80:-0.945783 81:-0.943925 82:-0.957295 83:-0.971602 84:-0.958944 85:-0.982047 86:-0.95664 87:-0.964824 88:-0.963303 89:-0.970149 90:-0.988517 91:-1 92:-0.994598 93:-0.998227 94:-0.996176 95:-0.98419 96:-0.979721 97:-0.984375 98:-0.952774 99:-0.961538 100:-0.959873 101:-0.959938 102:-0.929775 103:-0.947522 104:-0.919028 105:-0.899563 106:-0.940157 107:-0.905473 108:-0.90287 109:-0.923706 110:-0.896825 111:-0.861507 112:-0.930151 113:-0.969058 114:-0.968783 115:-0.918295 116:-0.984733 117:-0.994898 118:-0.995204 119:-0.982111 120:-0.992016 121:-1 122:-0.995238 123:-1 124:-0.995927 125:-0.996656 126:-0.995215 127:-0.989362 128:-0.974576 129:-0.993197 130:-1 131:-1 132:-1 133:-1 134:-1 135:-1 136:-0.913043 137:-1 138:-0.855422 139:-0.981982 140:-0.915663 141:-0.947917 142:-0.962617 143:-0.933884 144:-0.954717 145:-0.967213 146:-0.933333 147:-0.960227 148:-0.928994 149:-0.964646 150:-0.926121 151:-0.955375 152:-0.956522 153:-0.923261 154:-0.953642 155:-0.953737 156:-0.93047 157:-0.943355 158:-0.943601 159:-0.943529 160:-0.952891 161:-0.941964 162:-0.967153 163:-0.946768 164:-0.971014 165:-0.95302 166:-0.961268 167:-0.965389 168:-0.950066 169:-0.966667 170:-0.951807 171:-0.958271 172:-0.961538 173:-0.932203 174:-0.974406 175:-0.98929 176:-1 177:-1 178:-0.99679 179:-0.952153 180:-0.959596 181:-0.993923 197:-1 198:-1 199:-1 200:-1 201:-1 202:-1 203:-1 204:-1 205:-1 206:-1 207:-1 208:-1 209:-1 210:-1 211:-1 212:-1 213:-1 214:-1 215:-1 216:-1 217:-1 218:-1 219:-1 220:-1 221:-1 222:-1 223:-1 224:-1 225:-1 226:-1 227:-1 228:-1 229:-1 230:-1 231:-1 232:-1 233:-1 234:-1 235:-1 236:-1 237:-1 238:-1 239:-1 240:-1 241:-1 242:-1 243:-1 244:-0.982301 245:-1 246:-0.983607 247:-0.921875 248:-1 249:-1 250:-1 251:-0.968 252:-0.966387 253:-1 254:-1 255:-0.979167 256:-1 257:-0.991597 258:-0.981567 259:-0.958115 260:-0.978142 261:-0.990385 262:-0.99 263:-0.97561 264:-0.972973 265:-0.986111 266:-0.975709 267:-0.950156 268:-0.989276 269:-0.973118 270:-0.945289 271:-0.962264 272:-0.964706 273:-0.977654 274:-0.955556 275:-0.953795 276:-0.981087 277:-0.963265 278:-0.98004 279:-0.958237 280:-0.945799 281:-0.968366 282:-0.977143 283:-0.983051 284:-0.971275 285:-0.964365 286:-0.952462 287:-0.957655 288:-0.946154 289:-0.967742 290:-0.97561 291:-0.941807 292:-0.964286 293:-0.939086 294:-0.980198 295:-0.965844 296:-0.958621 297:-0.937792 298:-0.956403 299:-0.89882 300:-0.944928 301:-0.979899 302:-0.990599 303:-0.99095 304:-0.99757 305:-1 306:-0.998295 307:-1 308:-1 
3.47201856461393 0 0 0 0 0 1:-0.99208 2:-0.957447 3:-0.931818 4:-0.848101 5:-0.876289 6:-0.873874 7:-0.739726 8:-0.932367 9:-0.975684 10:-0.994911 11:-0.99687 12:-0.961268 13:-0.972376 14:-0.952849 15:-0.978723 16:-0.912363 17:-0.935264 18:-0.97974 19:-0.978443 20:-0.984375 21:-0.985685 22:-0.989041 23:-0.990874 24:-0.97878 25:-0.981187 26:-0.992337 27:-0.993569 28:-0.981672 29:-0.960742 30:-0.962264 31:-0.903564 32:-0.946341 33:-0.965812 34:-0.973913 35:-0.974755 36:-0.932059 37:-0.894309 38:-0.814634 39:-0.890244 40:-0.896907 41:-0.917526 42:-0.925 43:-0.897059 44:-1 45:-0.924051 46:-0.991556 47:-0.967794 48:-0.958457 49:-0.969849 50:-0.931818 51:-0.970149 52:-0.946472 53:-0.952703 54:-0.912023 55:-0.966102 56:-0.948387 57:-0.978916 58:-0.992218 59:-0.993355 60:-0.99005 61:-0.985185 62:-0.974763 63:-0.972158 64:-0.986047 65:-0.991632 66:-0.986014 67:-0.994671 68:-0.99376 69:-0.993111 70:-0.98973 71:-0.984127 72:-0.962617 73:-0.977208 74:-0.981424 75:-0.983146 76:-0.961661 77:-0.973684 78:-0.973545 79:-0.963964 80:-0.951807 81:-0.912773 82:-0.914591 83:-0.939148 84:-0.935484 85:-0.928187 86:-0.891599 87:-0.874372 88:-0.908257 89:-0.948827 90:-0.925359 91:-0.957983 92:-0.956786 93:-0.957447 94:-0.950287 95:-0.948617 96:-0.959442 97:-0.953125 98:-0.978749 99:-0.972527 100:-0.972545 101:-0.972265 102:-0.983146 103:-0.965015 104:-0.979757 105:-0.978166 106:-0.99685 107:-0.975124 108:-0.995585 109:-0.99455 110:-0.996032 111:-1 112:-1 113:-0.997187 114:-1 115:-1 116:-1 117:-0.994898 118:-1 119:-0.996422 120:-0.992016 121:-0.98538 122:-0.966667 123:-0.965686 124:-0.967413 125:-0.943144 126:-0.91866 127:-0.964539 128:-0.949153 129:-0.955782 130:-0.943503 131:-0.929648 132:-0.897436 133:-0.99018 134:-0.997037 135:-1 136:-1 137:-0.918367 138:-0.951807 139:-0.945946 140:-0.927711 141:-0.9375 142:-0.953271 143:-0.950413 144:-0.94717 145:-0.97377 146:-0.955556 147:-0.943182 148:-0.952663 149:-0.954545 150:-0.94723 151:-0.951318 152:-0.93913 153:-0.956835 154:-0.950331 155:-0.953737 156:-0.93865 157:-0.95207 158:-0.952278 159:-0.943529 160:-0.948608 161:-0.950893 162:-0.956204 163:-0.961977 164:-0.974638 165:-0.956376 166:-0.961268 167:-0.965389 168:-0.978975 169:-0.966667 170:-0.973226 171:-0.964232 172:-0.926573 173:-0.949153 174:-0.937843 175:-0.970549 176:-0.979874 177:-0.972163 178:-0.974318 179:-0.971292 180:-0.939394 181:-0.992337 197:-1 198:-1 199:-1 200:-1 201:-1 202:-1 203:-1 204:-1 205:-1 206:-1 207:-1 208:-1 209:-1 210:-1 211:-1 212:-1 213:-1 214:-1 215:-1 216:-1 217:-1 218:-1 219:-1 220:-1 221:-1 222:-1 223:-1 224:-1 225:-1 226:-1 227:-1 228:-1 229:-1 230:-1 231:-1 232:-1 233:-1 234:-1 235:-1 236:-1 237:-1 238:-1 239:-1 240:-1 241:-1 242:-1 243:-1 244:-0.964602 245:-1 246:-1 247:-1 248:-1 249:-1 250:-1 251:-0.984 252:-1 253:-0.974522 254:-0.991453 255:-0.979167 256:-0.985294 257:-0.97479 258:-0.981567 259:-0.968586 260:-0.89071 261:-0.894231 262:-0.95 263:-0.878049 264:-0.900901 265:-0.965278 266:-0.919028 267:-0.925234 268:-0.951743 269:-0.967742 270:-0.908815 271:-0.913747 272:-0.941176 273:-0.932961 274:-0.965432 275:-0.841584 276:-0.92435 277:-0.922449 278:-0.916168 279:-0.944316 280:-0.897019 281:-0.884007 282:-0.935238 283:-0.949153 284:-0.960503 285:-0.986637 286:-0.979626 287:-0.986971 288:-0.980769 289:-0.991935 290:-0.97561 291:-1 292:-0.992347 293:-0.986464 294:-0.993399 295:-0.996205 296:-0.986207 297:-0.99689 298:-1 299:-0.996627 300:-1 301:-0.98995 302:-1 303:-0.996983 304:-0.99514 305:-1 306:-1 307:-1 308:-1 
128 0 0 0 128 128 1:-0.974657 2:-1 3:-1 4:-1 5:-1 6:-1 7:-1 8:-1 9:-1 10:-1 11:-1 12:-1 13:-1 14:-1 15:-1 16:-1 17:-1 18:-1 19:-1 20:-1 21:-1 22:-1 23:-1 24:-1 25:-1 26:-1 27:-1 28:-1 29:-1 30:-1 31:-1 32:-1 33:-1 34:-1 35:-1 36:-1 37:-1 38:-1 39:-1 40:-1 41:-1 42:-1 43:-1 44:-1 45:-1 46:-0.974667 47:-1 48:-1 49:-1 50:-1 51:-1 52:-1 53:-1 54:-1 55:-1 56:-1 57:-1 58:-1 59:-1 60:-1 61:-1 62:-1 63:-1 64:-1 65:-1 66:-1 67:-1 68:-1 69:-1 70:-1 71:-1 72:-1 73:-1 74:-1 75:-1 76:-1 77:-1 78:-1 79:-1 80:-1 81:-1 82:-1 83:-1 84:-1 85:-1 86:-1 87:-1 88:-1 89:-1 90:-1 91:-0.926662 92:-1 93:-1 94:-1 95:-1 96:-1 97:-1 98:-1 99:-1 100:-1 101:-1 102:-1 103:-1 104:-1 105:-1 106:-1 107:-1 108:-1 109:-1 110:-1 111:-1 112:-1 113:-1 114:-1 115:-1 116:-1 117:-1 118:-1 119:-1 120:-1 121:-1 122:-1 123:-1 124:-1 125:-1 126:-1 127:-1 128:-1 129:-1 130:-1 131:-1 132:-1 133:-1 134:-1 135:-1 136:-1 137:-1 138:-1 139:-1 140:-1 141:-1 142:-1 143:-1 144:-1 145:-1 146:-1 147:-1 148:-1 149:-1 150:-1 151:-1 152:-1 153:-1 154:-1 155:-1 156:-0.98773 157:-0.978214 158:-0.978308 159:-0.971765 160:-0.991435 161:-0.982143 162:-0.985401 163:-0.984791 164:-0.98913 165:-0.989933 166:-1 167:-0.992583 168:-0.997372 169:-0.991111 170:-0.98929 171:-0.991058 172:-0.986014 173:-0.987288 174:-0.978062 175:-0.983936 176:-0.987421 177:-0.987152 178:-0.977528 179:-0.980861 180:-0.959596 181:-0.998415 197:-1 198:-1 199:-1 200:-1 201:-1 202:-1 203:-1 204:-1 205:-1 206:-1 207:-1 208:-1 209:-1 210:-1 211:-1 212:-1 213:-1 214:-1 215:-1 216:-1 217:-1 218:-1 219:-1 220:-1 221:-1 222:-1 223:-1 224:-1 225:-1 226:-1 227:-1 228:-1 229:-1 230:-1 231:-1 232:-1 233:-1 234:-1 235:-1 236:-1 237:-1 238:-1 239:-1 240:-1 241:-1 242:-1 243:-1 244:-1 245:-0.985294 246:-1 247:-1 248:-1 249:-1 250:-0.988701 251:-1 252:-1 253:-1 254:-0.991453 255:-0.986111 256:-1 257:-1 258:-0.990783 259:-0.989529 260:-1 261:-0.980769 262:-0.99 263:-0.97561 264:-0.990991 265:-1 266:-1 267:-0.993769 268:-1 269:-0.989247 270:-1 271:-0.994609 272:-0.994118 273:-1 274:-1 275:-0.993399 276:-0.995272 277:-0.995918 278:-0.988024 279:-0.986079 280:-0.99458 281:-0.996485 282:-0.99619 283:-0.995763 284:-0.974865 285:-0.991091 286:-0.989813 287:-0.996743 288:-0.984615 289:-0.991935 290:-0.993031 291:-1 292:-0.994898 293:-0.996616 294:-0.986799 295:-0.988615 296:-0.989655 297:-0.990669 298:-1 299:-0.993255 300:-0.994203 301:-0.969849 302:-0.985899 303:-0.993967 304:-1 305:-1 306:-1 307:-1 308:-0.999341 
23.86786661422438 0 0 0 0 0 1:-0.986272 2:-1 3:-1 4:-1 5:-1 6:-1 7:-1 8:-1 9:-1 10:-1 11:-1 12:-1 13:-1 14:-0.996071 15:-1 16:-1 17:-1 18:-1 19:-1 20:-0.996875 21:-0.981595 22:-0.930594 23:-0.98596 24:-0.893899 25:-0.924747 26:-0.938697 27:-0.945338 28:-0.965636 29:-0.960742 30:-0.970209 31:-0.9413 32:-0.941463 33:-0.968661 34:-0.973913 35:-0.985975 36:-0.974522 37:-0.95122 38:-0.960976 39:-0.963415 40:-0.917526 41:-0.979381 42:-0.975 43:-1 44:-0.969697 45:-1 46:-0.986278 47:-0.990338 48:-0.964392 49:-0.939698 50:-0.960227 51:-0.940299 52:-0.970803 53:-0.97973 54:-0.953079 55:-0.987673 56:-0.96129 57:-0.96988 58:-0.981842 59:-0.973422 60:-0.965174 61:-0.965432 62:-0.962145 63:-0.948956 64:-0.962791 65:-0.986053 66:-0.98042 67:-0.978686 68:-0.985959 69:-0.977038 70:-0.982028 71:-0.964286 72:-0.931464 73:-0.937322 74:-0.96904 75:-0.960674 76:-0.923323 77:-0.921053 78:-0.968254 79:-0.987988 80:-0.975904 81:-0.968847 82:-0.978648 83:-0.979716 84:-0.97654 85:-0.964093 86:-0.9729 87:-0.959799 88:-0.955963 89:-0.98081 90:-0.978947 91:-1 92:-1 93:-1 94:-0.994264 95:-0.992095 96:-0.987326 97:-0.953125 98:-0.955136 99:-0.953297 100:-0.964097 101:-0.972265 102:-0.938202 103:-0.93586 104:-0.94332 105:-0.908297 106:-0.92126 107:-0.875622 108:-0.88521 109:-0.803815 110:-0.936508 111:-0.98778 112:-0.993015 113:-0.997187 114:-0.989594 115:-0.975133 116:-0.969466 117:-0.903061 118:-0.860911 119:-0.982111 120:-0.992016 121:-1 122:-0.995238 123:-0.995098 124:-1 125:-0.996656 126:-1 127:-1 128:-1 129:-1 130:-1 131:-1 132:-1 133:-1 134:-1 135:-1 136:-1 137:-0.918367 138:-0.951807 139:-0.90991 140:-0.975904 141:-0.958333 142:-0.934579 143:-0.958678 144:-0.962264 145:-0.954098 146:-0.977778 147:-0.943182 148:-0.952663 149:-0.964646 150:-0.936675 151:-0.963489 152:-0.956522 153:-0.961631 154:-0.950331 155:-0.957295 156:-0.93865 157:-0.930283 158:-0.956616 159:-0.948235 160:-0.940043 161:-0.946429 162:-0.963504 163:-0.95057 164:-0.956522 165:-0.959732 166:-0.964789 167:-0.970334 168:-0.981603 169:-0.971111 170:-0.973226 171:-0.961252 172:-0.968531 173:-0.966102 174:-0.97075 175:-0.975904 176:-0.989937 177:-0.985011 178:-0.971108 179:-0.980861 180:-0.979798 181:-0.986524 197:-1 198:-1 199:-1 200:-1 201:-1 202:-1 203:-1 204:-1 205:-1 206:-1 207:-1 208:-1 209:-1 210:-1 211:-1 212:-1 213:-1 214:-1 215:-1 216:-1 217:-1 218:-1 219:-1 220:-1 221:-1 222:-1 223:-1 224:-1 225:-1 226:-1 227:-1 228:-1 229:-1 230:-1 231:-1 232:-1 233:-1 234:-1 235:-1 236:-1 237:-1 238:-1 239:-1 240:-1 241:-1 242:-1 243:-1 244:-0.982301 245:-1 246:-0.983607 247:-1 248:-1 249:-1 250:-1 251:-1 252:-0.983193 253:-0.987261 254:-0.991453 255:-1 256:-1 257:-1 258:-1 259:-1 260:-0.978142 261:-1 262:-0.98 263:-0.97561 264:-0.972973 265:-1 266:-0.983806 267:-0.975078 268:-0.967828 269:-0.967742 270:-0.981763 271:-0.973046 272:-0.988235 273:-0.972067 274:-0.975309 275:-0.973597 276:-0.976359 277:-0.959184 278:-0.992016 279:-0.990719 280:-0.98374 281:-0.989455 282:-0.980952 283:-0.970339 284:-0.967684 285:-0.959911 286:-0.983022 287:-0.980456 288:-0.973077 289:-0.975806 290:-0.961672 291:-0.966309 292:-0.982143 293:-0.979695 294:-0.973597 295:-0.950664 296:-0.962069 297:-0.959565 298:-0.956403 299:-0.976391 300:-0.97971 301:-0.953099 302:-0.960047 303:-0.966817 304:-0.965978 305:-0.961905 306:-0.98636 307:-0.997101 308:-1 
14.1304319003229 0 0 0 0 0 1:-0.992344 2:-0.957447 3:-1 4:-0.898734 5:-0.896907 6:-0.945946 7:-0.931507 8:-0.990338 9:-0.987842 10:-0.989822 11:-0.99061 12:-0.996479 13:-0.98895 14:-1 15:-0.987234 16:-0.98748 17:-0.996593 18:-0.93343 19:-0.918563 20:-0.95625 21:-0.973415 22:-0.978082 23:-0.990874 24:-0.973475 25:-0.992764 26:-0.971903 27:-0.958199 28:-0.871707 29:-0.954198 30:-0.974181 31:-0.945493 32:-0.965854 33:-0.965812 34:-0.976087 35:-0.969144 36:-0.936306 37:-0.95122 38:-0.95122 39:-0.939024 40:-0.917526 41:-1 42:-0.925 43:-0.985294 44:-1 45:-0.974684 46:-0.992347 47:-0.996779 48:-0.958457 49:-0.979899 50:-0.977273 51:-0.976119 52:-0.965937 53:-0.986486 54:-0.970674 55:-0.975347 56:-0.974194 57:-0.98494 58:-0.981842 59:-0.9701 60:-0.965174 61:-0.935802 62:-0.943218 63:-0.921114 64:-0.953488 65:-0.980474 66:-0.966434 67:-0.980462 68:-0.984399 69:-0.986223 70:-0.964056 71:-0.964286 72:-0.981308 73:-0.960114 74:-0.975232 75:-0.966292 76:-0.955272 77:-0.967105 78:-0.968254 79:-0.963964 80:-0.96988 81:-0.968847 82:-0.950178 83:-0.975659 84:-0.935484 85:-0.985637 86:-0.934959 87:-0.904523 88:-0.952294 89:-0.944563 90:-0.950239 91:-0.99618 92:-0.987846 93:-0.975177 94:-0.961759 95:-0.960474 96:-0.944233 97:-0.953125 98:-0.952774 99:-0.906593 100:-0.915523 101:-0.96302 102:-0.97191 103:-0.956268 104:-0.975709 105:-0.965066 106:-0.974803 107:-0.975124 108:-0.986755 109:-1 110:-0.996032 111:-1 112:-1 113:-0.997187 114:-1 115:-1 116:-0.994911 117:-1 118:-0.990408 119:-0.992844 120:-0.976048 121:-0.973684 122:-0.961905 123:-0.960784 124:-0.942974 125:-0.963211 126:-0.889952 127:-0.879433 128:-0.983051 129:-1 130:-1 131:-1 132:-0.984221 133:-1 134:-1 135:-0.995006 136:-1 137:-0.877551 138:-0.927711 139:-0.927928 140:-0.939759 141:-0.9375 142:-0.962617 143:-0.933884 144:-0.962264 145:-0.940984 146:-0.955556 147:-0.9375 148:-0.964497 149:-0.949495 150:-0.941953 151:-0.951318 152:-0.943478 153:-0.942446 154:-0.937086 155:-0.946619 156:-0.95501 157:-0.938998 158:-0.939262 159:-0.952941 160:-0.957173 161:-0.941964 162:-0.967153 163:-0.942966 164:-0.963768 165:-0.966443 166:-0.961268 167:-0.960445 168:-0.963206 169:-0.98 170:-0.975904 171:-0.973174 172:-0.968531 173:-0.974576 174:-0.967093 175:-0.981258 176:-0.989937 177:-0.991435 178:-0.990369 179:-0.952153 180:-0.939394 181:-0.992337 197:-1 198:-1 199:-1 200:-1 201:-1 202:-1 203:-1 204:-1 205:-1 206:-1 207:-1 208:-1 209:-1 210:-1 211:-1 212:-1 213:-1 214:-1 215:-1 216:-1 217:-1 218:-1 219:-1 220:-1 221:-1 222:-1 223:-1 224:-1 225:-1 226:-1 227:-1 228:-1 229:-1 230:-1 231:-1 232:-1 233:-1 234:-1 235:-1 236:-0.962617 237:-1 238:-1 239:-0.971429 240:-1 241:-1 242:-1 243:-0.970588 244:-1 245:-1 246:-1 247:-1 248:-0.987879 249:-1 250:-0.988701 251:-1 252:-0.983193 253:-1 254:-0.991453 255:-0.993056 256:-0.985294 257:-0.991597 258:-0.97235 259:-0.989529 260:-0.989071 261:-0.971154 262:-0.98 263:-1 264:-0.990991 265:-0.986111 266:-0.991903 267:-0.943925 268:-0.978552 269:-0.956989 270:-0.957447 271:-0.973046 272:-0.941176 273:-0.960894 274:-0.965432 275:-0.953795 276:-0.981087 277:-0.971429 278:-0.972056 279:-0.976798 280:-0.97832 281:-0.97188 282:-0.980952 283:-0.949153 284:-0.992819 285:-0.951002 286:-0.966044 287:-0.983713 288:-0.965385 289:-0.983871 290:-0.968641 291:-0.975498 292:-0.982143 293:-0.959391 294:-0.963696 295:-0.954459 296:-0.972414 297:-0.965785 298:-0.967302 299:-0.979764 300:-0.971014 301:-0.956449 302:-0.978848 303:-0.960784 304:-0.956258 305:-0.958095 306:-0.99659 307:-0.997101 308:-0.998682 
21.89090482245544 0 0 0 0 0 1:-0.983897 2:-0.978723 3:-0.977273 4:-1 5:-0.958763 6:-0.963964 7:-1 8:-0.980676 9:-0.993921 10:-1 11:-1 12:-1 13:-0.994475 14:-0.996071 15:-1 16:-1 17:-1 18:-0.985528 19:-0.992814 20:-0.909375 21:-0.961145 22:-0.974429 23:-0.99298 24:-0.986737 25:-0.988423 26:-0.902937 27:-0.913183 28:-0.97709 29:-0.989095 30:-0.984111 31:-0.958071 32:-0.921951 33:-0.985755 34:-0.98913 35:-0.974755 36:-0.953291 37:-0.943089 38:-0.95122 39:-0.97561 40:-0.938144 41:-0.938144 42:-0.975 43:-0.985294 44:-0.969697 45:-1 46:-0.984431 47:-0.996779 48:-0.970326 49:-0.969849 50:-0.960227 51:-0.952239 52:-0.985401 53:-0.972973 54:-0.970674 55:-0.984592 56:-0.967742 57:-0.96988 58:-0.994812 59:-0.976744 60:-0.985075 61:-0.975309 62:-0.949527 63:-0.981439 64:-0.986047 65:-0.988842 66:-0.972028 67:-0.984014 68:-0.98752 69:-0.993111 70:-0.964056 71:-0.980159 72:-0.943925 73:-0.965812 74:-0.956656 75:-0.938202 76:-0.929712 77:-0.940789 78:-0.978836 79:-0.975976 80:-0.987952 81:-0.993769 82:-0.992883 83:-0.979716 84:-0.98827 85:-1 86:-0.98916 87:-0.959799 88:-0.970642 89:-0.968017 90:-0.954067 91:-0.998472 92:-0.993248 93:-0.998227 94:-0.992352 95:-0.976285 96:-0.979721 97:-0.950521 98:-0.966942 99:-0.945055 100:-0.976769 101:-0.953775 102:-0.924157 103:-0.930029 104:-0.82996 105:-0.956332 106:-0.977953 107:-0.970149 108:-0.977925 109:-0.989101 110:-0.996032 111:-0.991853 112:-0.997672 113:-0.994374 114:-0.997919 115:-0.989343 116:-0.989822 117:-0.994898 118:-0.966427 119:-0.9678 120:-0.96008 121:-0.959064 122:-0.9 123:-0.921569 124:-0.991853 125:-1 126:-1 127:-0.996454 128:-1 129:-0.996599 130:-1 131:-1 132:-1 133:-1 134:-1 135:-0.990012 136:-1 137:-0.836735 138:-1 139:-0.927928 140:-0.951807 141:-0.9375 142:-0.981308 143:-0.958678 144:-0.962264 145:-0.97377 146:-0.966667 147:-0.9375 148:-0.994083 149:-0.939394 150:-0.963061 151:-0.967546 152:-0.969565 153:-0.918465 154:-0.970199 155:-0.950178 156:-0.95092 157:-0.956427 158:-0.956616 159:-0.934118 160:-0.965739 161:-0.96875 162:-0.948905 163:-0.973384 164:-0.978261 165:-0.956376 166:-0.975352 167:-0.982695 168:-0.960578 169:-0.984444 170:-0.975904 171:-0.964232 172:-0.972028 173:-0.961864 174:-0.978062 175:-0.973226 176:-0.992453 177:-0.993576 178:-0.993579 179:-0.961722 180:-0.959596 181:-0.98441 197:-1 198:-1 199:-1 200:-1 201:-1 202:-1 203:-1 204:-1 205:-1 206:-1 207:-1 208:-1 209:-1 210:-1 211:-1 212:-1 213:-1 214:-1 215:-1 216:-1 217:-1 218:-1 219:-1 220:-1 221:-1 222:-1 223:-1 224:-1 225:-1 226:-1 227:-1 228:-1 229:-1 230:-1 231:-1 232:-1 233:-1 234:-1 235:-1 236:-1 237:-1 238:-1 239:-0.971429 240:-0.969231 241:-1 242:-1 243:-0.970588 244:-0.982301 245:-0.985294 246:-0.934426 247:-0.984375 248:-0.987879 249:-0.978723 250:-0.988701 251:-0.968 252:-0.966387 253:-0.974522 254:-0.991453 255:-1 256:-0.992647 257:-1 258:-0.990783 259:-0.979058 260:-0.978142 261:-0.971154 262:-0.97 263:-0.97561 264:-0.990991 265:-0.979167 266:-0.983806 267:-0.968847 268:-0.989276 269:-0.989247 270:-0.993921 271:-0.983827 272:-0.988235 273:-0.98324 274:-0.975309 275:-0.960396 276:-0.971631 277:-0.97551 278:-0.972056 279:-0.953596 280:-0.96206 281:-0.97891 282:-0.988571 283:-0.983051 284:-0.985637 285:-0.964365 286:-0.989813 287:-0.977199 288:-0.973077 289:-0.971774 290:-0.986063 291:-0.987749 292:-0.987245 293:-0.976311 294:-0.986799 295:-0.988615 296:-0.989655 297:-0.953344 298:-0.997275 299:-0.983137 300:-0.973913 301:-0.943049 302:-0.9953 303:-0.963801 304:-0.987849 305:-0.992381 306:-0.988065 307:-0.992754 308:-0.996045 
0 0 3.947505785958789 0 0 0 1:-0.99076 2:-0.957447 3:-0.977273 4:-1 5:-0.958763 6:-0.891892 7:-0.945205 8:-0.961353 9:-0.981763 10:-0.989822 11:-0.99374 12:-0.996479 13:-0.98895 14:-0.996071 15:-0.987234 16:-1 17:-0.979557 18:-0.947902 19:-0.928144 20:-0.959375 21:-0.973415 22:-0.96895 23:-0.991576 24:-0.960212 25:-0.988423 26:-0.987229 27:-0.96463 28:-0.899198 29:-0.943293 30:-0.984111 31:-0.949686 32:-0.946341 33:-0.945869 34:-0.978261 35:-0.97195 36:-0.949045 37:-0.926829 38:-0.941463 39:-0.963415 40:-0.938144 41:-0.938144 42:-0.975 43:-0.985294 44:-1 45:-0.974684 46:-0.991028 47:-1 48:-0.982196 49:-0.964824 50:-0.960227 51:-0.98806 52:-0.975669 53:-0.952703 54:-0.964809 55:-0.990755 56:-0.948387 57:-0.98494 58:-0.98703 59:-0.960133 60:-0.970149 61:-0.97037 62:-0.911672 63:-0.972158 64:-0.930233 65:-0.983264 66:-0.972028 67:-0.976909 68:-0.985959 69:-0.977038 70:-0.987163 71:-0.968254 72:-0.962617 73:-0.97151 74:-0.944272 75:-0.983146 76:-0.974441 77:-0.960526 78:-0.984127 79:-0.96997 80:-0.987952 81:-0.968847 82:-0.957295 83:-0.971602 84:-0.958944 85:-0.960503 86:-0.940379 87:-0.929648 88:-0.919266 89:-0.938166 90:-0.946411 91:-0.997708 92:-0.990547 93:-0.968085 94:-0.959847 95:-0.962451 96:-0.946768 97:-0.942708 98:-0.945691 99:-0.846154 100:-0.961985 101:-0.975347 102:-0.97191 103:-0.96793 104:-0.947368 105:-0.978166 106:-0.971654 107:-0.99005 108:-0.99117 109:-0.99455 110:-1 111:-1 112:-0.997672 113:-1 114:-0.997919 115:-1 116:-0.994911 117:-1 118:-1 119:-0.992844 120:-0.972056 121:-0.973684 122:-0.957143 123:-0.955882 124:-0.942974 125:-0.956522 126:-0.956938 127:-0.865248 128:-0.957627 129:-1 130:-0.99435 131:-0.994975 132:-1 133:-0.996727 134:-1 135:-1 136:-0.913043 137:-0.918367 138:-0.975904 139:-0.90991 140:-0.951807 141:-0.916667 142:-0.943925 143:-0.942149 144:-0.939623 145:-0.940984 146:-0.961111 147:-0.943182 148:-0.940828 149:-0.944444 150:-0.920844 151:-0.951318 152:-0.96087 153:-0.918465 154:-0.94702 155:-0.950178 156:-0.93456 157:-0.947712 158:-0.960954 159:-0.948235 160:-0.944325 161:-0.955357 162:-0.948905 163:-0.95057 164:-0.971014 165:-0.969799 166:-0.957746 167:-0.970334 168:-0.978975 169:-0.982222 170:-0.973226 171:-0.985097 172:-0.965035 173:-0.970339 174:-0.97075 175:-0.983936 176:-0.98239 177:-0.993576 178:-0.983949 179:-0.990431 180:-0.89899 181:-0.991016 197:-1 198:-1 199:-1 200:-1 201:-1 202:-1 203:-1 204:-1 205:-1 206:-1 207:-1 208:-1 209:-1 210:-1 211:-1 212:-1 213:-1 214:-1 215:-1 216:-1 217:-1 218:-1 219:-1 220:-1 221:-1 222:-1 223:-1 224:-1 225:-1 226:-1 227:-1 228:-1 229:-1 230:-1 231:-1 232:-1 233:-1 234:-1 235:-1 236:-1 237:-1 238:-1 239:-1 240:-1 241:-1 242:-1 243:-1 244:-1 245:-1 246:-1 247:-0.984375 248:-1 249:-0.989362 250:-1 251:-0.968 252:-0.983193 253:-1 254:-1 255:-1 256:-0.992647 257:-1 258:-0.981567 259:-1 260:-0.989071 261:-0.961538 262:-0.99 263:-0.97561 264:-0.990991 265:-0.972222 266:-0.983806 267:-0.943925 268:-0.978552 269:-0.983871 270:-0.963526 271:-0.978437 272:-0.958824 273:-0.977654 274:-0.955556 275:-0.920792 276:-0.957447 277:-0.983673 278:-0.968064 279:-0.981439 280:-0.96748 281:-0.975395 282:-0.977143 283:-0.970339 284:-0.974865 285:-0.977728 286:-0.976231 287:-0.973941 288:-0.984615 289:-0.967742 290:-0.954704 291:-0.990812 292:-0.984694 293:-0.956007 294:-0.976898 295:-0.965844 296:-0.972414 297:-0.947123 298:-0.975477 299:-0.969646 300:-0.95942 301:-0.932998 302:-0.976498 303:-0.957768 304:-0.956258 305:-0.984762 306:-0.98977 307:-0.994203 308:-0.998682 
10.48893038935018 0 0 0 0 0 1:-0.99076 2:-1 3:-1 4:-1 5:-0.979381 6:-1 7:-1 8:-1 9:-0.993921 10:-1 11:-0.99374 12:-1 13:-1 14:-0.992141 15:-1 16:-1 17:-1 18:-1 19:-1 20:-0.996875 21:-0.973415 22:-0.915982 23:-0.984556 24:-0.920424 25:-0.929088 26:-0.918263 27:-0.945338 28:-0.961054 29:-0.969466 30:-0.976167 31:-0.932914 32:-0.95122 33:-0.962963 34:-0.986957 35:-0.960729 36:-0.949045 37:-0.95122 38:-0.95122 39:-0.97561 40:-0.958763 41:-0.958763 42:-0.925 43:-1 44:-0.969697 45:-1 46:-0.989445 47:-0.993559 48:-0.964392 49:-0.949749 50:-0.954545 51:-0.952239 52:-0.975669 53:-0.966216 54:-0.982405 55:-0.993837 56:-0.96129 57:-0.951807 58:-0.971466 59:-0.980066 60:-0.955224 61:-0.97037 62:-0.936909 63:-0.972158 64:-0.967442 65:-0.969317 66:-0.969231 67:-0.982238 68:-0.978159 69:-0.983927 70:-0.974326 71:-0.964286 72:-0.931464 73:-0.931624 74:-0.962848 75:-0.955056 76:-0.974441 77:-0.934211 78:-0.957672 79:-0.993994 80:-0.96988 81:-0.975078 82:-0.957295 83:-0.979716 84:-0.964809 85:-0.982047 86:-0.9729 87:-0.954774 88:-0.966972 89:-0.963753 90:-0.967464 91:-0.999236 92:-0.99865 93:-1 94:-0.994264 95:-0.990119 96:-0.974651 97:-0.963542 98:-0.976387 99:-0.947802 100:-0.961985 101:-0.950693 102:-0.946629 103:-0.930029 104:-0.927126 105:-0.917031 106:-0.92126 107:-0.865672 108:-0.88521 109:-0.803815 110:-0.97619 111:-0.983707 112:-0.997672 113:-0.994374 114:-0.993757 115:-0.996448 116:-0.954198 117:-0.908163 118:-0.8753 119:-0.960644 120:-0.988024 121:-0.997076 122:-0.990476 123:-1 124:-1 125:-1 126:-0.995215 127:-0.996454 128:-1 129:-1 130:-1 131:-1 132:-0.996055 133:-0.993453 134:-1 135:-0.992509 136:-0.913043 137:-0.918367 138:-0.903614 139:-1 140:-0.903614 141:-0.9375 142:-0.962617 143:-0.933884 144:-0.954717 145:-0.97377 146:-0.933333 147:-0.954545 148:-0.952663 149:-0.929293 150:-0.957784 151:-0.955375 152:-0.934783 153:-0.923261 154:-0.963576 155:-0.953737 156:-0.93456 157:-0.960784 158:-0.939262 159:-0.934118 160:-0.948608 161:-0.959821 162:-0.959854 163:-0.969582 164:-0.938406 165:-0.969799 166:-0.975352 167:-0.962917 168:-0.968463 169:-0.982222 170:-0.967871 171:-0.967213 172:-0.958042 173:-0.974576 174:-0.948812 175:-0.98929 176:-1 177:-1 178:-0.987159 179:-0.980861 180:-1 181:-0.991016 197:-1 198:-1 199:-1 200:-1 201:-1 202:-1 203:-1 204:-1 205:-1 206:-1 207:-1 208:-1 209:-1 210:-1 211:-1 212:-1 213:-1 214:-1 215:-1 216:-1 217:-1 218:-1 219:-1 220:-1 221:-1 222:-1 223:-1 224:-1 225:-1 226:-1 227:-1 228:-1 229:-1 230:-1 231:-1 232:-1 233:-1 234:-1 235:-1 236:-1 237:-1 238:-0.971429 239:-1 240:-1 241:-1 242:-1 243:-1 244:-1 245:-1 246:-1 247:-0.984375 248:-0.987879 249:-0.989362 250:-1 251:-1 252:-1 253:-1 254:-0.991453 255:-1 256:-1 257:-1 258:-1 259:-0.979058 260:-0.989071 261:-0.980769 262:-0.99 263:-0.987805 264:-0.981982 265:-0.972222 266:-0.983806 267:-0.950156 268:-0.978552 269:-0.967742 270:-0.969605 271:-0.978437 272:-0.976471 273:-0.960894 274:-0.965432 275:-0.953795 276:-0.962175 277:-0.987755 278:-0.996008 279:-0.986079 280:-0.945799 281:-0.98594 282:-0.969524 283:-0.961864 284:-0.971275 285:-0.964365 286:-0.979626 287:-0.983713 288:-0.946154 289:-0.959677 290:-0.972125 291:-0.981623 292:-0.982143 293:-0.969543 294:-0.970297 295:-0.97723 296:-0.965517 297:-0.956454 298:-0.959128 299:-0.966273 300:-0.965217 301:-0.973199 302:-0.969448 303:-0.969834 304:-0.970838 305:-0.973333 306:-0.97272 307:-0.994203 308:-1 
35.79999273779042 0 0 0 0 0 1:-0.98944 2:-1 3:-0.977273 4:-0.949367 5:-0.917526 6:-0.963964 7:-0.945205 8:-0.980676 9:-0.981763 10:-0.984733 11:-0.99687 12:-0.985915 13:-1 14:-0.992141 15:-0.995745 16:-0.99061 17:-0.982964 18:-0.921852 19:-0.964072 20:-0.965625 21:-0.97955 22:-0.978082 23:-0.987364 24:-0.976127 25:-0.984081 26:-0.979566 27:-0.948553 28:-0.899198 29:-0.947655 30:-0.980139 31:-0.958071 32:-0.941463 33:-0.928775 34:-0.978261 35:-0.969144 36:-0.96603 37:-0.926829 38:-0.960976 39:-0.987805 40:-0.979381 41:-0.958763 42:-0.975 43:-1 44:-0.909091 45:-0.974684 46:-0.989972 47:-0.996779 48:-0.988131 49:-0.959799 50:-0.988636 51:-0.976119 52:-0.985401 53:-0.959459 54:-0.958944 55:-0.987673 56:-0.974194 57:-0.978916 58:-0.994812 59:-0.9701 60:-0.975124 61:-0.975309 62:-0.949527 63:-0.962877 64:-0.95814 65:-0.960948 66:-0.983217 67:-0.984014 68:-0.973479 69:-0.98163 70:-0.987163 71:-0.964286 72:-0.931464 73:-0.960114 74:-0.96904 75:-0.966292 76:-0.961661 77:-0.960526 78:-0.962963 79:-0.93994 80:-0.96988 81:-0.975078 82:-0.950178 83:-0.963489 84:-0.964809 85:-0.974865 86:-0.934959 87:-0.944724 88:-0.944954 89:-0.933902 90:-0.952153 91:-0.999236 92:-0.985145 93:-0.97695 94:-0.961759 95:-0.956522 96:-0.941698 97:-0.9375 98:-0.919717 99:-0.824176 100:-0.966209 101:-0.959938 102:-0.974719 103:-0.96793 104:-0.987854 105:-0.960699 106:-0.984252 107:-0.985075 108:-0.995585 109:-1 110:-1 111:-0.995927 112:-0.995343 113:-1 114:-1 115:-0.996448 116:-1 117:-0.994898 118:-1 119:-0.985689 120:-0.988024 121:-0.979532 122:-0.961905 123:-0.970588 124:-0.942974 125:-0.9699 126:-0.937799 127:-0.897163 128:-0.966102 129:-1 130:-0.99435 131:-1 132:-0.996055 133:-1 134:-1 135:-1 136:-0.913043 137:-0.959184 138:-0.951807 139:-0.90991 140:-0.951807 141:-0.947917 142:-0.934579 143:-0.975207 144:-0.969811 145:-0.927869 146:-0.977778 147:-0.954545 148:-0.934911 149:-0.964646 150:-0.952507 151:-0.967546 152:-0.93913 153:-0.952038 154:-0.940397 155:-0.950178 156:-0.95501 157:-0.925926 158:-0.952278 159:-0.948235 160:-0.93576 161:-0.959821 162:-0.963504 163:-0.965779 164:-0.952899 165:-0.973154 166:-0.954225 167:-0.975278 168:-0.978975 169:-0.973333 170:-0.967871 171:-0.961252 172:-0.951049 173:-0.974576 174:-0.967093 175:-0.975904 176:-0.98239 177:-0.989293 178:-0.983949 179:-0.980861 180:-0.919192 181:-0.990223 197:-1 198:-1 199:-1 200:-1 201:-1 202:-1 203:-1 204:-1 205:-1 206:-1 207:-1 208:-1 209:-1 210:-1 211:-1 212:-1 213:-1 214:-1 215:-1 216:-1 217:-1 218:-1 219:-1 220:-1 221:-1 222:-1 223:-1 224:-1 225:-1 226:-1 227:-1 228:-1 229:-1 230:-1 231:-1 232:-1 233:-1 234:-1 235:-1 236:-1 237:-1 238:-1 239:-1 240:-1 241:-1 242:-0.98 243:-1 244:-0.982301 245:-1 246:-1 247:-1 248:-1 249:-0.989362 250:-1 251:-0.984 252:-1 253:-0.987261 254:-0.991453 255:-1 256:-0.992647 257:-0.991597 258:-1 259:-0.989529 260:-1 261:-1 262:-1 263:-0.987805 264:-0.954955 265:-1 266:-0.983806 267:-0.981308 268:-0.978552 269:-0.956989 270:-0.975684 271:-0.989218 272:-0.952941 273:-0.949721 274:-0.985185 275:-0.933993 276:-0.971631 277:-0.971429 278:-0.968064 279:-0.981439 280:-0.9729 281:-0.98594 282:-0.954286 283:-0.970339 284:-0.971275 285:-0.96882 286:-0.986418 287:-0.970684 288:-0.988462 289:-0.979839 290:-0.968641 291:-0.984686 292:-0.966837 293:-0.962775 294:-0.963696 295:-0.969639 296:-0.965517 297:-0.950233 298:-0.964578 299:-0.966273 300:-0.976812 301:-0.932998 302:-0.976498 303:-0.972851 304:-0.956258 305:-0.971429 306:-0.98977 307:-0.994203 308:-1 
24.0850399807013 0 0 0 0 0 1:-0.991816 2:-1 3:-1 4:-1 5:-0.979381 6:-1 7:-1 8:-1 9:-1 10:-1 11:-1 12:-1 13:-1 14:-1 15:-1 16:-1 17:-0.996593 18:-0.997106 19:-0.997605 20:-0.984375 21:-0.840491 22:-0.930594 23:-0.983152 24:-0.952255 25:-0.913169 26:-0.895275 27:-0.935691 28:-0.956472 29:-0.965104 30:-0.978153 31:-0.932914 32:-0.946341 33:-0.977208 34:-0.984783 35:-0.969144 36:-0.944798 37:-0.96748 38:-0.95122 39:-0.97561 40:-0.979381 41:-0.917526 42:-0.95 43:-0.955882 44:-0.818182 45:-0.949367 46:-0.983375 47:-0.938808 48:-0.881306 49:-0.924623 50:-0.954545 51:-0.958209 52:-0.93674 53:-0.952703 54:-0.947214 55:-0.978428 56:-0.941935 57:-0.98494 58:-0.971466 59:-0.976744 60:-0.935323 61:-0.975309 62:-0.943218 63:-0.948956 64:-0.925581 65:-0.963738 66:-0.966434 67:-0.975133 68:-0.99376 69:-0.972445 70:-0.969191 71:-0.972222 72:-0.950156 73:-0.954416 74:-0.950464 75:-0.955056 76:-0.936102 77:-0.921053 78:-0.931217 79:-0.957958 80:-0.957831 81:-0.975078 82:-0.978648 83:-0.975659 84:-0.964809 85:-0.982047 86:-0.945799 87:-0.964824 88:-0.981651 89:-0.989339 90:-1 91:-0.999236 92:-1 93:-0.998227 94:-1 95:-0.986166 96:-0.982256 97:-0.976562 98:-0.966942 99:-0.958791 100:-0.966209 101:-0.956857 102:-0.952247 103:-0.947522 104:-0.927126 105:-0.895197 106:-0.892913 107:-0.771144 108:-0.89404 109:-0.950954 110:-0.996032 111:-0.995927 112:-0.997672 113:-1 114:-1 115:-0.996448 116:-0.989822 117:-0.984694 118:-0.932854 119:-0.910555 120:-0.88024 121:-0.973684 122:-0.961905 123:-0.960784 124:-0.959267 125:-0.9699 126:-0.947368 127:-0.964539 128:-0.940678 129:-0.979592 130:-0.960452 131:-0.964824 132:-0.968442 133:-1 134:-0.997037 135:-1 136:-1 137:-0.918367 138:-0.951807 139:-0.927928 140:-0.963855 141:-0.958333 142:-0.943925 143:-0.966942 144:-0.939623 145:-0.980328 146:-0.938889 147:-0.954545 148:-0.982249 149:-0.959596 150:-0.957784 151:-0.951318 152:-0.965217 153:-0.93765 154:-0.960265 155:-0.960854 156:-0.95092 157:-0.947712 158:-0.934924 159:-0.957647 160:-0.944325 161:-0.933036 162:-0.952555 163:-0.939163 164:-0.960145 165:-0.95302 166:-0.929577 167:-0.965389 168:-0.955322 169:-0.968889 170:-0.957162 171:-0.946349 172:-0.937063 173:-0.936441 174:-0.941499 175:-0.975904 176:-0.969811 177:-0.982869 178:-0.967897 179:-0.933014 180:-0.89899 181:-0.992337 197:-1 198:-1 199:-1 200:-1 201:-1 202:-1 203:-1 204:-1 205:-1 206:-1 207:-1 208:-1 209:-1 210:-1 211:-1 212:-1 213:-1 214:-1 215:-1 216:-1 217:-1 218:-1 219:-1 220:-1 221:-1 222:-1 223:-1 224:-1 225:-1 226:-1 227:-1 228:-1 229:-1 230:-1 231:-1 232:-1 233:-1 234:-1 235:-1 236:-1 237:-1 238:-0.971429 239:-1 240:-1 241:-1 242:-1 243:-1 244:-0.982301 245:-0.985294 246:-1 247:-0.984375 248:-0.975758 249:-1 250:-1 251:-0.952 252:-0.966387 253:-0.961783 254:-0.957265 255:-0.958333 256:-0.977941 257:-0.991597 258:-0.981567 259:-0.947644 260:-0.836066 261:-0.951923 262:-0.92 263:-0.878049 264:-0.972973 265:-0.881944 266:-0.88664 267:-0.956386 268:-0.914209 269:-0.946237 270:-0.933131 271:-0.924528 272:-0.911765 273:-0.938547 274:-0.906173 275:-0.887789 276:-0.867612 277:-0.946939 278:-0.936128 279:-0.856148 280:-0.880759 281:-0.891037 282:-0.874286 283:-0.936441 284:-0.967684 285:-0.995546 286:-1 287:-1 288:-0.996154 289:-1 290:-1 291:-1 292:-1 293:-1 294:-1 295:-0.996205 296:-1 297:-1 298:-1 299:-1 300:-0.997101 301:-1 302:-1 303:-1 304:-1 305:-1 306:-1 307:-1 308:-0.999341 
34.17074408305681 0.6006099137891678 0 11.47327587777697 0 0 1:-0.838437 2:-1 3:-1 4:-1 5:-1 6:-1 7:-1 8:-1 9:-1 10:-1 11:-1 12:-1 13:-1 14:-1 15:-1 16:-1 17:-1 18:-1 19:-1 20:-1 21:-1 22:-1 23:-1 24:-1 25:-1 26:-1 27:-1 28:-1 29:-1 30:-1 31:-1 32:-1 33:-1 34:-1 35:-1 36:-1 37:-1 38:-1 39:-1 40:-1 41:-1 42:-1 43:-1 44:-1 45:-1 46:-0.838501 47:-1 48:-1 49:-1 50:-1 51:-1 52:-1 53:-1 54:-1 55:-1 56:-1 57:-1 58:-1 59:-1 60:-1 61:-1 62:-1 63:-1 64:-1 65:-1 66:-1 67:-1 68:-1 69:-1 70:-1 71:-1 72:-1 73:-1 74:-1 75:-1 76:-1 77:-1 78:-1 79:-1 80:-1 81:-1 82:-1 83:-1 84:-1 85:-1 86:-1 87:-1 88:-1 89:-1 90:-1 91:-0.532468 92:-1 93:-1 94:-1 95:-1 96:-1 97:-1 98:-1 99:-1 100:-1 101:-1 102:-1 103:-1 104:-1 105:-1 106:-1 107:-1 108:-1 109:-1 110:-1 111:-1 112:-1 113:-1 114:-1 115:-1 116:-1 117:-1 118:-1 119:-1 120:-1 121:-1 122:-1 123:-1 124:-1 125:-1 126:-1 127:-1 128:-1 129:-1 130:-1 131:-1 132:-1 133:-1 134:-1 135:-1 136:-1 137:-1 138:-1 139:-1 140:-1 141:-1 142:-1 143:-1 144:-1 145:-1 146:-1 147:-1 148:-0.988166 149:-0.722222 150:-0.788918 151:-0.902637 152:-0.886957 153:-0.923261 154:-0.937086 155:-0.921708 156:-0.9591 157:-0.899782 158:-0.952278 159:-0.934118 160:-0.914347 161:-0.955357 162:-0.959854 163:-0.927757 164:-0.942029 165:-0.956376 166:-0.93662 167:-0.967862 168:-0.95795 169:-0.955556 170:-0.981258 171:-0.976155 172:-0.937063 173:-0.957627 174:-0.978062 175:-0.962517 176:-0.954717 177:-0.948608 178:-0.88443 179:-0.626794 180:-0.737374 181:-0.958779 197:-1 198:-1 199:-1 200:-1 201:-1 202:-1 203:-1 204:-1 205:-1 206:-1 207:-1 208:-1 209:-1 210:-1 211:-1 212:-1 213:-1 214:-1 215:-1 216:-1 217:-1 218:-1 219:-1 220:-1 221:-1 222:-1 223:-1 224:-1 225:-1 226:-1 227:-1 228:-1 229:-1 230:-1 231:-1 232:-1 233:-1 234:-1 235:-1 236:-1 237:-1 238:-1 239:-1 240:-1 241:-1 242:-0.8 243:-0.529412 244:-0.486726 245:-0.455882 246:-0.262295 247:-0.421875 248:-0.587879 249:-0.510638 250:-0.706215 251:-0.904 252:-0.89916 253:-0.910828 254:-0.965812 255:-0.965278 256:-0.992647 257:-0.966387 258:-1 259:-0.979058 260:-0.945355 261:-0.971154 262:-0.96 263:-0.97561 264:-0.954955 265:-0.979167 266:-0.991903 267:-0.987539 268:-1 269:-0.989247 270:-0.993921 271:-0.967655 272:-1 273:-0.994413 274:-0.990123 275:-1 276:-0.985816 277:-0.987755 278:-0.992016 279:-0.986079 280:-0.98916 281:-0.99297 282:-0.984762 283:-0.995763 284:-0.985637 285:-0.977728 286:-0.996604 287:-0.993485 288:-0.996154 289:-0.987903 290:-0.979094 291:-0.987749 292:-0.992347 293:-0.989848 294:-0.9967 295:-0.988615 296:-0.97931 297:-0.990669 298:-0.986376 299:-0.976391 300:-0.988406 301:-0.98325 302:-0.983549 303:-0.996983 304:-0.99271 305:-0.994286 306:-1 307:-1 308:-0.997363 
