svm_type c_svc
kernel_type rbf
gamma 0.125
nr_class 7
total_sv 1075
rho 9.9343 0.988379 4.45578 1.4167 -1.64696 -13.4565 0.899803 -1.28625 0.688873 -0.592654 -5.48972 -0.949717 -0.815951 -0.972956 -0.988349 0.865334 0.441837 -3.29637 -0.754219 -1.56382 1.04822
label 1 2 3 4 5 6 7
nr_sv 150 149 276 52 120 97 231
SV
31.47134817346481 0 0 0 128 128 1:-0.941719 2:-1 3:-1 4:-1 5:-1 6:-1 7:-1 8:-1 9:-1 10:-1 11:-1 12:-1 13:-1 14:-1 15:-1 16:-1 17:-1 18:-1 19:-1 20:-1 21:-1 22:-1 23:-1 24:-1 25:-1 26:-1 27:-1 28:-1 29:-1 30:-1 31:-1 32:-1 33:-1 34:-1 35:-1 36:-1 37:-1 38:-1 39:-1 40:-1 41:-1 42:-1 43:-1 44:-1 45:-1 46:-0.942078 47:-1 48:-1 49:-1 50:-1 51:-1 52:-1 53:-1 54:-1 55:-1 56:-1 57:-1 58:-1 59:-1 60:-1 61:-1 62:-1 63:-1 64:-1 65:-1 66:-1 67:-1 68:-1 69:-1 70:-1 71:-1 72:-1 73:-1 74:-1 75:-1 76:-1 77:-1 78:-1 79:-1 80:-1 81:-1 82:-1 83:-1 84:-1 85:-1 86:-1 87:-1 88:-1 89:-1 90:-1 91:-0.810137 92:-1 93:-1 94:-1 95:-1 96:-1 97:-1 98:-1 99:-1 100:-1 101:-1 102:-1 103:-1 104:-1 105:-1 106:-1 107:-1 108:-1 109:-1 110:-1 111:-1 112:-1 113:-1 114:-1 115:-1 116:-1 117:-1 118:-1 119:-1 120:-1 121:-1 122:-1 123:-1 124:-1 125:-1 126:-1 127:-1 128:-1 129:-1 130:-1 131:-1 132:-1 133:-1 134:-1 135:-1 136:-1 137:-1 138:-1 139:-1 140:-1 141:-1 142:-1 143:-1 144:-1 145:-1 146:-1 147:-1 148:-1 149:-1 150:-1 151:-1 152:-1 153:-1 154:-1 155:-1 156:-1 157:-1 158:-1 159:-1 160:-1 161:-1 162:-1 163:-1 164:-1 165:-1 166:-1 167:-1 168:-1 169:-1 170:-1 171:-1 172:-1 173:-1 174:-1 175:-1 176:-1 177:-1 178:-1 179:-1 180:-1 181:-0.974853 182:-1 183:-1 184:-1 185:-1 186:-1 187:-1 188:-1 189:-1 190:-1 191:-1 192:-1 193:-1 194:-1 195:-1 196:-1 197:-1 198:-1 199:-1 200:-1 201:-1 202:-1 203:-1 204:-1 205:-1 206:-1 207:-1 208:-1 209:-1 210:-1 211:-1 212:-1 213:-1 214:-1 215:-1 216:-1 217:-1 218:-1 219:-1 220:-1 221:-1 222:-1 223:-1 224:-1 225:-1 226:-1 227:-1 228:-1 229:-1 230:-1 231:-1 232:-1 233:-1 234:-1 235:-1 236:-1 237:-1 238:-1 239:-1 240:-1 241:-1 242:-1 243:-1 244:-0.982906 245:-0.956204 246:-0.984 247:-0.982609 248:-1 249:-0.935484 250:-0.94 251:-0.936 252:-0.983193 253:-1 254:-0.934066 255:-0.977011 256:-0.979798 257:-0.991489 258:-0.992032 259:-0.991379 260:-1 261:-0.980769 262:-0.968254 263:-1 264:-0.979381 265:-0.972414 266:-0.976096 267:-0.968553 268:-0.984252 269:-0.952756 270:-0.940476 271:-0.993333 272:-0.985294 273:-0.956204 274:-0.980132 275:-0.993127 276:-0.995902 277:-0.991579 278:-0.991416 279:-0.957105 280:-0.968831 281:-0.988636 282:-1 283:-0.987342 284:-0.978571 285:-0.980723 286:-0.981752 287:-0.984375 288:-0.996016 289:-0.996176 290:-1 291:-0.994203 292:-0.99493 293:-0.99005 294:-0.971717 295:-0.988981 296:-0.992126 297:-0.975039 298:-0.989418 299:-0.988669 300:-0.982533 301:-0.985866 302:-0.985455 303:-0.979778 304:-0.98782 305:-0.98806 306:-0.994003 307:-0.993019 308:-1 
0 0 0 0 128 128 1:-0.942774 2:-1 3:-1 4:-1 5:-1 6:-1 7:-1 8:-1 9:-1 10:-1 11:-1 12:-1 13:-1 14:-1 15:-1 16:-1 17:-1 18:-1 19:-1 20:-1 21:-1 22:-1 23:-1 24:-1 25:-1 26:-1 27:-1 28:-1 29:-1 30:-1 31:-1 32:-1 33:-1 34:-1 35:-1 36:-1 37:-1 38:-1 39:-1 40:-1 41:-1 42:-1 43:-1 44:-1 45:-1 46:-0.943127 47:-1 48:-1 49:-1 50:-1 51:-1 52:-1 53:-1 54:-1 55:-1 56:-1 57:-1 58:-1 59:-1 60:-1 61:-1 62:-1 63:-1 64:-1 65:-1 66:-1 67:-1 68:-1 69:-1 70:-1 71:-1 72:-1 73:-1 74:-1 75:-1 76:-1 77:-1 78:-1 79:-1 80:-1 81:-1 82:-1 83:-1 84:-1 85:-1 86:-1 87:-1 88:-1 89:-1 90:-1 91:-0.813574 92:-1 93:-1 94:-1 95:-1 96:-1 97:-1 98:-1 99:-1 100:-1 101:-1 102:-1 103:-1 104:-1 105:-1 106:-1 107:-1 108:-1 109:-1 110:-1 111:-1 112:-1 113:-1 114:-1 115:-1 116:-1 117:-1 118:-1 119:-1 120:-1 121:-1 122:-1 123:-1 124:-1 125:-1 126:-1 127:-1 128:-1 129:-1 130:-1 131:-1 132:-1 133:-1 134:-1 135:-1 136:-1 137:-1 138:-1 139:-1 140:-1 141:-1 142:-1 143:-1 144:-1 145:-1 146:-1 147:-1 148:-1 149:-1 150:-1 151:-1 152:-1 153:-1 154:-1 155:-1 156:-1 157:-1 158:-1 159:-1 160:-1 161:-1 162:-1 163:-1 164:-1 165:-1 166:-1 167:-1 168:-1 169:-1 170:-1 171:-1 172:-1 173:-1 174:-1 175:-1 176:-1 177:-1 178:-1 179:-1 180:-1 181:-0.959765 182:-1 183:-1 184:-1 185:-1 186:-1 187:-1 188:-1 189:-1 190:-1 191:-1 192:-1 193:-1 194:-1 195:-1 196:-1 197:-1 198:-1 199:-1 200:-1 201:-1 202:-1 203:-1 204:-1 205:-1 206:-1 207:-1 208:-1 209:-1 210:-1 211:-1 212:-1 213:-1 214:-1 215:-1 216:-1 217:-1 218:-1 219:-1 220:-1 221:-1 222:-1 223:-1 224:-1 225:-1 226:-1 227:-1 228:-1 229:-1 230:-1 231:-1 232:-1 233:-1 234:-1 235:-1 236:-1 237:-1 238:-1 239:-1 240:-1 241:-0.929412 242:-1 243:-1 244:-0.982906 245:-0.985401 246:-1 247:-0.982609 248:-0.952756 249:-0.956989 250:-0.98 251:-0.952 252:-1 253:-0.96319 254:-0.978022 255:-0.988506 256:-1 257:-0.965957 258:-0.984064 259:-0.991379 260:-1 261:-0.990385 262:-1 263:-0.992806 264:-1 265:-0.986207 266:-0.992032 267:-1 268:-0.973753 269:-0.973753 270:-0.970238 271:-0.966667 272:-0.977941 273:-0.978102 274:-0.97351 275:-0.979381 276:-0.995902 277:-0.995789 278:-0.995708 279:-0.994638 280:-0.979221 281:-0.971591 282:-0.99093 283:-0.987342 284:-0.985714 285:-1 286:-0.992701 287:-0.99375 288:-0.984064 289:-0.98088 290:-0.963168 291:-0.985507 292:-0.989861 293:-0.993367 294:-0.987879 295:-1 296:-0.989501 297:-0.98752 298:-0.978836 299:-0.983003 300:-0.997089 301:-0.996466 302:-0.995152 303:-0.993933 304:-0.982948 305:-0.964179 306:-0.970015 307:-0.972077 308:-0.99934 
0 0 0 0 0 128 1:-0.919831 2:-1 3:-1 4:-1 5:-1 6:-1 7:-1 8:-1 9:-1 10:-1 11:-1 12:-1 13:-1 14:-1 15:-1 16:-1 17:-1 18:-1 19:-1 20:-1 21:-1 22:-1 23:-1 24:-1 25:-1 26:-1 27:-1 28:-1 29:-1 30:-1 31:-1 32:-1 33:-1 34:-1 35:-1 36:-1 37:-1 38:-1 39:-1 40:-1 41:-1 42:-1 43:-1 44:-1 45:-1 46:-0.920325 47:-1 48:-1 49:-1 50:-1 51:-1 52:-1 53:-1 54:-1 55:-1 56:-1 57:-1 58:-1 59:-1 60:-1 61:-1 62:-1 63:-1 64:-1 65:-1 66:-1 67:-1 68:-1 69:-1 70:-1 71:-1 72:-1 73:-1 74:-1 75:-1 76:-1 77:-1 78:-1 79:-1 80:-1 81:-1 82:-1 83:-1 84:-1 85:-1 86:-1 87:-1 88:-1 89:-1 90:-1 91:-0.738832 92:-1 93:-1 94:-1 95:-1 96:-1 97:-1 98:-1 99:-1 100:-1 101:-1 102:-1 103:-1 104:-1 105:-1 106:-1 107:-1 108:-1 109:-1 110:-1 111:-1 112:-1 113:-1 114:-1 115:-1 116:-1 117:-1 118:-1 119:-1 120:-1 121:-1 122:-1 123:-1 124:-1 125:-1 126:-1 127:-1 128:-1 129:-1 130:-1 131:-1 132:-1 133:-1 134:-1 135:-1 136:-1 137:-1 138:-1 139:-1 140:-1 141:-1 142:-1 143:-1 144:-1 145:-1 146:-1 147:-1 148:-1 149:-1 150:-1 151:-1 152:-1 153:-1 154:-1 155:-1 156:-1 157:-1 158:-1 159:-1 160:-1 161:-1 162:-1 163:-1 164:-1 165:-1 166:-1 167:-1 168:-1 169:-1 170:-1 171:-1 172:-1 173:-1 174:-1 175:-1 176:-1 177:-1 178:-1 179:-1 180:-1 181:-0.979883 182:-1 183:-1 184:-1 185:-1 186:-1 187:-1 188:-1 189:-1 190:-1 191:-1 192:-1 193:-1 194:-1 195:-1 196:-1 197:-1 198:-1 199:-1 200:-1 201:-1 202:-1 203:-1 204:-1 205:-1 206:-1 207:-1 208:-1 209:-1 210:-1 211:-1 212:-1 213:-1 214:-1 215:-1 216:-1 217:-1 218:-1 219:-1 220:-1 221:-1 222:-1 223:-1 224:-1 225:-1 226:-1 227:-1 228:-1 229:-1 230:-1 231:-1 232:-1 233:-1 234:-1 235:-1 236:-1 237:-1 238:-1 239:-1 240:-1 241:-1 242:-1 243:-1 244:-1 245:-1 246:-0.984 247:-1 248:-1 249:-1 250:-1 251:-0.952 252:-0.983193 253:-0.98773 254:-0.978022 255:-0.942529 256:-0.939394 257:-0.923404 258:-0.976096 259:-0.974138 260:-0.95092 261:-0.913462 262:-0.915344 263:-0.985612 264:-0.965636 265:-0.965517 266:-0.960159 267:-0.930818 268:-0.984252 269:-0.952756 270:-0.928571 271:-0.946667 272:-0.963235 273:-0.919708 274:-0.874172 275:-0.95189 276:-0.97541 277:-0.949474 278:-0.927039 279:-0.946381 280:-0.942857 281:-0.960227 282:-0.977324 283:-0.978903 284:-0.992857 285:-0.995181 286:-0.989051 287:-0.978125 288:-0.988048 289:-0.992352 290:-0.98895 291:-0.994203 292:-0.997465 293:-0.996683 294:-0.975758 295:-0.986226 296:-0.992126 297:-0.99064 298:-0.989418 299:-0.971671 300:-0.991266 301:-0.996466 302:-0.997576 303:-0.997978 304:-0.992692 305:-0.99801 306:-0.994003 307:-1 308:-1 
0 0 0 0 128 128 1:-0.917194 2:-1 3:-1 4:-1 5:-1 6:-1 7:-1 8:-1 9:-1 10:-1 11:-1 12:-1 13:-1 14:-1 15:-1 16:-1 17:-1 18:-1 19:-1 20:-1 21:-1 22:-1 23:-1 24:-1 25:-1 26:-1 27:-1 28:-1 29:-1 30:-1 31:-1 32:-1 33:-1 34:-1 35:-1 36:-1 37:-1 38:-1 39:-1 40:-1 41:-1 42:-1 43:-1 44:-1 45:-1 46:-0.917704 47:-1 48:-1 49:-1 50:-1 51:-1 52:-1 53:-1 54:-1 55:-1 56:-1 57:-1 58:-1 59:-1 60:-1 61:-1 62:-1 63:-1 64:-1 65:-1 66:-1 67:-1 68:-1 69:-1 70:-1 71:-1 72:-1 73:-1 74:-1 75:-1 76:-1 77:-1 78:-1 79:-1 80:-1 81:-1 82:-1 83:-1 84:-1 85:-1 86:-1 87:-1 88:-1 89:-1 90:-1 91:-0.730241 92:-1 93:-1 94:-1 95:-1 96:-1 97:-1 98:-1 99:-1 100:-1 101:-1 102:-1 103:-1 104:-1 105:-1 106:-1 107:-1 108:-1 109:-1 110:-1 111:-1 112:-1 113:-1 114:-1 115:-1 116:-1 117:-1 118:-1 119:-1 120:-1 121:-1 122:-1 123:-1 124:-1 125:-1 126:-1 127:-1 128:-1 129:-1 130:-1 131:-1 132:-1 133:-1 134:-1 135:-1 136:-1 137:-1 138:-1 139:-1 140:-1 141:-1 142:-1 143:-1 144:-1 145:-1 146:-1 147:-1 148:-1 149:-1 150:-1 151:-1 152:-1 153:-1 154:-1 155:-1 156:-1 157:-1 158:-1 159:-1 160:-1 161:-1 162:-1 163:-1 164:-1 165:-1 166:-1 167:-1 168:-1 169:-1 170:-1 171:-1 172:-1 173:-1 174:-1 175:-1 176:-1 177:-1 178:-1 179:-1 180:-1 181:-0.964795 182:-1 183:-1 184:-1 185:-1 186:-1 187:-1 188:-1 189:-1 190:-1 191:-1 192:-1 193:-1 194:-1 195:-1 196:-1 197:-1 198:-1 199:-1 200:-1 201:-1 202:-1 203:-1 204:-1 205:-1 206:-1 207:-1 208:-1 209:-1 210:-1 211:-1 212:-1 213:-1 214:-1 215:-1 216:-1 217:-1 218:-1 219:-1 220:-1 221:-1 222:-1 223:-1 224:-1 225:-1 226:-1 227:-1 228:-1 229:-1 230:-1 231:-1 232:-1 233:-1 234:-1 235:-1 236:-1 237:-1 238:-1 239:-1 240:-1 241:-1 242:-1 243:-1 244:-1 245:-1 246:-0.984 247:-1 248:-0.968504 249:-1 250:-1 251:-0.984 252:-0.983193 253:-1 254:-0.945055 255:-0.942529 256:-1 257:-0.948936 258:-0.952191 259:-0.931034 260:-0.96319 261:-0.951923 262:-0.915344 263:-0.956835 264:-0.972509 265:-0.951724 266:-0.896414 267:-0.930818 268:-0.968504 269:-0.968504 270:-0.946429 271:-0.94 272:-0.911765 273:-0.919708 274:-0.880795 275:-0.95189 276:-0.954918 277:-0.945263 278:-0.974249 279:-0.97319 280:-0.968831 281:-0.988636 282:-0.972789 283:-0.987342 284:-1 285:-0.995181 286:-0.989051 287:-0.978125 288:-0.984064 289:-0.992352 290:-0.996317 291:-0.997101 292:-0.987326 293:-0.993367 294:-0.971717 295:-0.991736 296:-0.997375 297:-0.99064 298:-0.982363 299:-0.966006 300:-0.973799 301:-0.985866 302:-0.997576 303:-0.993933 304:-0.995128 305:-1 306:-1 307:-1 308:-0.99934 
110.1667372829651 0 0 0 128 128 1:-0.933017 2:-1 3:-1 4:-1 5:-1 6:-1 7:-1 8:-1 9:-1 10:-1 11:-1 12:-1 13:-1 14:-1 15:-1 16:-1 17:-1 18:-1 19:-1 20:-1 21:-1 22:-1 23:-1 24:-1 25:-1 26:-1 27:-1 28:-1 29:-1 30:-1 31:-1 32:-1 33:-1 34:-1 35:-1 36:-1 37:-1 38:-1 39:-1 40:-1 41:-1 42:-1 43:-1 44:-1 45:-1 46:-0.933429 47:-1 48:-1 49:-1 50:-1 51:-1 52:-1 53:-1 54:-1 55:-1 56:-1 57:-1 58:-1 59:-1 60:-1 61:-1 62:-1 63:-1 64:-1 65:-1 66:-1 67:-1 68:-1 69:-1 70:-1 71:-1 72:-1 73:-1 74:-1 75:-1 76:-1 77:-1 78:-1 79:-1 80:-1 81:-1 82:-1 83:-1 84:-1 85:-1 86:-1 87:-1 88:-1 89:-1 90:-1 91:-0.781787 92:-1 93:-1 94:-1 95:-1 96:-1 97:-1 98:-1 99:-1 100:-1 101:-1 102:-1 103:-1 104:-1 105:-1 106:-1 107:-1 108:-1 109:-1 110:-1 111:-1 112:-1 113:-1 114:-1 115:-1 116:-1 117:-1 118:-1 119:-1 120:-1 121:-1 122:-1 123:-1 124:-1 125:-1 126:-1 127:-1 128:-1 129:-1 130:-1 131:-1 132:-1 133:-1 134:-1 135:-1 136:-1 137:-1 138:-1 139:-1 140:-1 141:-1 142:-1 143:-1 144:-1 145:-1 146:-1 147:-1 148:-1 149:-1 150:-1 151:-1 152:-1 153:-1 154:-1 155:-1 156:-1 157:-1 158:-1 159:-1 160:-1 161:-1 162:-1 163:-1 164:-1 165:-1 166:-1 167:-1 168:-1 169:-1 170:-1 171:-1 172:-1 173:-1 174:-1 175:-1 176:-1 177:-1 178:-1 179:-1 180:-1 181:-0.97653 182:-1 183:-1 184:-1 185:-1 186:-1 187:-1 188:-1 189:-1 190:-1 191:-1 192:-1 193:-1 194:-1 195:-1 196:-1 197:-1 198:-1 199:-1 200:-1 201:-1 202:-1 203:-1 204:-1 205:-1 206:-1 207:-1 208:-1 209:-1 210:-1 211:-1 212:-1 213:-1 214:-1 215:-1 216:-1 217:-1 218:-1 219:-1 220:-1 221:-1 222:-1 223:-1 224:-1 225:-1 226:-1 227:-1 228:-1 229:-1 230:-1 231:-1 232:-1 233:-1 234:-1 235:-1 236:-1 237:-1 238:-1 239:-1 240:-1 241:-1 242:-1 243:-1 244:-1 245:-1 246:-1 247:-1 248:-1 249:-1 250:-1 251:-1 252:-1 253:-1 254:-1 255:-1 256:-1 257:-1 258:-0.992032 259:-0.982759 260:-0.98773 261:-0.990385 262:-0.978836 263:-0.935252 264:-0.979381 265:-0.965517 266:-0.992032 267:-0.962264 268:-0.984252 269:-0.984252 270:-0.982143 271:-0.98 272:-0.992647 273:-0.956204 274:-0.986755 275:-0.945017 276:-0.971311 277:-0.978947 278:-0.957082 279:-0.951743 280:-0.963636 281:-0.982955 282:-0.977324 283:-0.991561 284:-0.985714 285:-0.961446 286:-0.985401 287:-0.984375 288:-0.98008 289:-0.957935 290:-0.985267 291:-0.973913 292:-0.961977 293:-0.993367 294:-0.99596 295:-0.986226 296:-0.989501 297:-0.965679 298:-0.975309 299:-0.954674 300:-0.959243 301:-0.985866 302:-1 303:-0.995956 304:-0.995128 305:-0.99801 306:-1 307:-0.989529 308:-0.998021 
25.59538620249053 0 0 0 128 128 1:-0.934335 2:-1 3:-1 4:-1 5:-1 6:-1 7:-1 8:-1 9:-1 10:-1 11:-1 12:-1 13:-1 14:-1 15:-1 16:-1 17:-1 18:-1 19:-1 20:-1 21:-1 22:-1 23:-1 24:-1 25:-1 26:-1 27:-1 28:-1 29:-1 30:-1 31:-1 32:-1 33:-1 34:-1 35:-1 36:-1 37:-1 38:-1 39:-1 40:-1 41:-1 42:-1 43:-1 44:-1 45:-1 46:-0.93474 47:-1 48:-1 49:-1 50:-1 51:-1 52:-1 53:-1 54:-1 55:-1 56:-1 57:-1 58:-1 59:-1 60:-1 61:-1 62:-1 63:-1 64:-1 65:-1 66:-1 67:-1 68:-1 69:-1 70:-1 71:-1 72:-1 73:-1 74:-1 75:-1 76:-1 77:-1 78:-1 79:-1 80:-1 81:-1 82:-1 83:-1 84:-1 85:-1 86:-1 87:-1 88:-1 89:-1 90:-1 91:-0.786082 92:-1 93:-1 94:-1 95:-1 96:-1 97:-1 98:-1 99:-1 100:-1 101:-1 102:-1 103:-1 104:-1 105:-1 106:-1 107:-1 108:-1 109:-1 110:-1 111:-1 112:-1 113:-1 114:-1 115:-1 116:-1 117:-1 118:-1 119:-1 120:-1 121:-1 122:-1 123:-1 124:-1 125:-1 126:-1 127:-1 128:-1 129:-1 130:-1 131:-1 132:-1 133:-1 134:-1 135:-1 136:-1 137:-1 138:-1 139:-1 140:-1 141:-1 142:-1 143:-1 144:-1 145:-1 146:-1 147:-1 148:-1 149:-1 150:-1 151:-1 152:-1 153:-1 154:-1 155:-1 156:-1 157:-1 158:-1 159:-1 160:-1 161:-1 162:-1 163:-1 164:-1 165:-1 166:-1 167:-1 168:-1 169:-1 170:-1 171:-1 172:-1 173:-1 174:-1 175:-1 176:-1 177:-1 178:-1 179:-1 180:-1 181:-0.983236 182:-1 183:-1 184:-1 185:-1 186:-1 187:-1 188:-1 189:-1 190:-1 191:-1 192:-1 193:-1 194:-1 195:-1 196:-1 197:-1 198:-1 199:-1 200:-1 201:-1 202:-1 203:-1 204:-1 205:-1 206:-1 207:-1 208:-1 209:-1 210:-1 211:-1 212:-1 213:-1 214:-1 215:-1 216:-1 217:-1 218:-1 219:-1 220:-1 221:-1 222:-1 223:-1 224:-1 225:-1 226:-1 227:-1 228:-1 229:-1 230:-1 231:-1 232:-1 233:-1 234:-1 235:-1 236:-1 237:-1 238:-1 239:-1 240:-1 241:-1 242:-1 243:-1 244:-1 245:-1 246:-1 247:-0.982609 248:-1 249:-1 250:-0.96 251:-1 252:-1 253:-1 254:-1 255:-1 256:-1 257:-1 258:-0.984064 259:-0.991379 260:-0.98773 261:-0.942308 262:-0.978836 263:-0.985612 264:-0.958763 265:-0.958621 266:-0.992032 267:-0.987421 268:-0.979003 269:-1 270:-0.982143 271:-0.986667 272:-0.941176 273:-0.985401 274:-0.940397 275:-0.958763 276:-0.983607 277:-0.962105 278:-0.982833 279:-0.967828 280:-0.968831 281:-0.971591 282:-0.99093 283:-0.991561 284:-0.985714 285:-0.961446 286:-0.985401 287:-0.971875 288:-0.988048 289:-0.98088 290:-0.985267 291:-0.968116 292:-0.974651 293:-0.983416 294:-0.987879 295:-0.986226 296:-0.994751 297:-0.968799 298:-0.968254 299:-0.966006 300:-0.959243 301:-0.982332 302:-0.987879 303:-0.993933 304:-0.997564 305:-0.99602 306:-0.994003 307:-0.993019 308:-0.998021 
128 0 0 0 128 128 1:-0.943565 2:-1 3:-1 4:-1 5:-1 6:-1 7:-1 8:-1 9:-1 10:-1 11:-1 12:-1 13:-1 14:-1 15:-1 16:-1 17:-1 18:-1 19:-1 20:-1 21:-1 22:-1 23:-1 24:-1 25:-1 26:-1 27:-1 28:-1 29:-1 30:-1 31:-1 32:-1 33:-1 34:-1 35:-1 36:-1 37:-1 38:-1 39:-1 40:-1 41:-1 42:-1 43:-1 44:-1 45:-1 46:-0.943913 47:-1 48:-1 49:-1 50:-1 51:-1 52:-1 53:-1 54:-1 55:-1 56:-1 57:-1 58:-1 59:-1 60:-1 61:-1 62:-1 63:-1 64:-1 65:-1 66:-1 67:-1 68:-1 69:-1 70:-1 71:-1 72:-1 73:-1 74:-1 75:-1 76:-1 77:-1 78:-1 79:-1 80:-1 81:-1 82:-1 83:-1 84:-1 85:-1 86:-1 87:-1 88:-1 89:-1 90:-1 91:-0.816151 92:-1 93:-1 94:-1 95:-1 96:-1 97:-1 98:-1 99:-1 100:-1 101:-1 102:-1 103:-1 104:-1 105:-1 106:-1 107:-1 108:-1 109:-1 110:-1 111:-1 112:-1 113:-1 114:-1 115:-1 116:-1 117:-1 118:-1 119:-1 120:-1 121:-1 122:-1 123:-1 124:-1 125:-1 126:-1 127:-1 128:-1 129:-1 130:-1 131:-1 132:-1 133:-1 134:-1 135:-1 136:-1 137:-1 138:-1 139:-1 140:-1 141:-1 142:-1 143:-1 144:-1 145:-1 146:-1 147:-1 148:-1 149:-1 150:-1 151:-1 152:-1 153:-1 154:-1 155:-1 156:-1 157:-1 158:-1 159:-1 160:-1 161:-1 162:-1 163:-1 164:-1 165:-1 166:-1 167:-1 168:-1 169:-1 170:-1 171:-1 172:-1 173:-1 174:-1 175:-1 176:-1 177:-1 178:-1 179:-1 180:-1 181:-0.974853 182:-1 183:-1 184:-1 185:-1 186:-1 187:-1 188:-1 189:-1 190:-1 191:-1 192:-1 193:-1 194:-1 195:-1 196:-1 197:-1 198:-1 199:-1 200:-1 201:-1 202:-1 203:-1 204:-1 205:-1 206:-1 207:-1 208:-1 209:-1 210:-1 211:-1 212:-1 213:-1 214:-1 215:-1 216:-1 217:-1 218:-1 219:-1 220:-1 221:-1 222:-1 223:-1 224:-1 225:-1 226:-1 227:-1 228:-1 229:-1 230:-1 231:-1 232:-1 233:-1 234:-1 235:-1 236:-1 237:-1 238:-1 239:-1 240:-1 241:-0.976471 242:-1 243:-0.967213 244:-1 245:-0.985401 246:-0.968 247:-0.947826 248:-0.952756 249:-0.978495 250:-0.94 251:-0.968 252:-0.983193 253:-1 254:-0.989011 255:-0.988506 256:-0.979798 257:-0.974468 258:-0.992032 259:-0.982759 260:-0.97546 261:-0.971154 262:-0.957672 263:-0.978417 264:-0.972509 265:-0.972414 266:-0.960159 267:-0.981132 268:-0.968504 269:-0.979003 270:-0.970238 271:-0.973333 272:-0.985294 273:-0.985401 274:-0.966887 275:-0.979381 276:-0.995902 277:-0.995789 278:-0.987124 279:-0.989276 280:-0.994805 281:-0.982955 282:-0.981859 283:-0.987342 284:-1 285:-0.990361 286:-0.989051 287:-0.9875 288:-0.988048 289:-0.984704 290:-0.981584 291:-0.997101 292:-0.997465 293:-1 294:-0.963636 295:-0.983471 296:-0.981627 297:-0.99376 298:-0.996473 299:-0.994334 300:-0.997089 301:-1 302:-0.992727 303:-0.993933 304:-0.970767 305:-0.98607 306:-0.952024 307:-0.993019 308:-0.99934 
0 0 0 0 128 128 1:-0.926424 2:-1 3:-1 4:-1 5:-1 6:-1 7:-1 8:-1 9:-1 10:-1 11:-1 12:-1 13:-1 14:-1 15:-1 16:-1 17:-1 18:-1 19:-1 20:-1 21:-1 22:-1 23:-1 24:-1 25:-1 26:-1 27:-1 28:-1 29:-1 30:-1 31:-1 32:-1 33:-1 34:-1 35:-1 36:-1 37:-1 38:-1 39:-1 40:-1 41:-1 42:-1 43:-1 44:-1 45:-1 46:-0.926877 47:-1 48:-1 49:-1 50:-1 51:-1 52:-1 53:-1 54:-1 55:-1 56:-1 57:-1 58:-1 59:-1 60:-1 61:-1 62:-1 63:-1 64:-1 65:-1 66:-1 67:-1 68:-1 69:-1 70:-1 71:-1 72:-1 73:-1 74:-1 75:-1 76:-1 77:-1 78:-1 79:-1 80:-1 81:-1 82:-1 83:-1 84:-1 85:-1 86:-1 87:-1 88:-1 89:-1 90:-1 91:-0.760309 92:-1 93:-1 94:-1 95:-1 96:-1 97:-1 98:-1 99:-1 100:-1 101:-1 102:-1 103:-1 104:-1 105:-1 106:-1 107:-1 108:-1 109:-1 110:-1 111:-1 112:-1 113:-1 114:-1 115:-1 116:-1 117:-1 118:-1 119:-1 120:-1 121:-1 122:-1 123:-1 124:-1 125:-1 126:-1 127:-1 128:-1 129:-1 130:-1 131:-1 132:-1 133:-1 134:-1 135:-1 136:-1 137:-1 138:-1 139:-1 140:-1 141:-1 142:-1 143:-1 144:-1 145:-1 146:-1 147:-1 148:-1 149:-1 150:-1 151:-1 152:-1 153:-1 154:-1 155:-1 156:-1 157:-1 158:-1 159:-1 160:-1 161:-1 162:-1 163:-1 164:-1 165:-1 166:-1 167:-1 168:-1 169:-1 170:-1 171:-1 172:-1 173:-1 174:-1 175:-1 176:-1 177:-1 178:-1 179:-1 180:-1 181:-0.979883 182:-1 183:-1 184:-1 185:-1 186:-1 187:-1 188:-1 189:-1 190:-1 191:-1 192:-1 193:-1 194:-1 195:-1 196:-1 197:-1 198:-1 199:-1 200:-1 201:-1 202:-1 203:-1 204:-1 205:-1 206:-1 207:-1 208:-1 209:-1 210:-1 211:-1 212:-1 213:-1 214:-1 215:-1 216:-1 217:-1 218:-1 219:-1 220:-1 221:-1 222:-1 223:-1 224:-1 225:-1 226:-1 227:-1 228:-1 229:-1 230:-1 231:-1 232:-1 233:-1 234:-1 235:-1 236:-1 237:-1 238:-1 239:-1 240:-1 241:-1 242:-1 243:-1 244:-1 245:-1 246:-1 247:-1 248:-0.968504 249:-1 250:-0.96 251:-1 252:-0.983193 253:-1 254:-1 255:-1 256:-0.979798 257:-0.974468 258:-0.952191 259:-0.974138 260:-0.96319 261:-0.961538 262:-0.925926 263:-0.956835 264:-0.979381 265:-0.965517 266:-0.968127 267:-0.962264 268:-0.984252 269:-0.973753 270:-0.970238 271:-0.98 272:-0.955882 273:-0.956204 274:-0.97351 275:-0.95189 276:-0.979508 277:-0.978947 278:-0.978541 279:-1 280:-0.937662 281:-0.988636 282:-0.981859 283:-0.987342 284:-0.967857 285:-0.971084 286:-0.99635 287:-0.978125 288:-0.976096 289:-0.961759 290:-0.959484 291:-0.97971 292:-0.989861 293:-0.973466 294:-0.983838 295:-0.972452 296:-0.984252 297:-0.975039 298:-0.971781 299:-0.937677 300:-0.991266 301:-0.992933 302:-0.995152 303:-0.997978 304:-0.990256 305:-1 306:-0.997001 307:-1 308:-0.996042 
34.3632973942394 0 0 0 128 128 1:-0.924842 2:-1 3:-1 4:-1 5:-1 6:-1 7:-1 8:-1 9:-1 10:-1 11:-1 12:-1 13:-1 14:-1 15:-1 16:-1 17:-1 18:-1 19:-1 20:-1 21:-1 22:-1 23:-1 24:-1 25:-1 26:-1 27:-1 28:-1 29:-1 30:-1 31:-1 32:-1 33:-1 34:-1 35:-1 36:-1 37:-1 38:-1 39:-1 40:-1 41:-1 42:-1 43:-1 44:-1 45:-1 46:-0.925305 47:-1 48:-1 49:-1 50:-1 51:-1 52:-1 53:-1 54:-1 55:-1 56:-1 57:-1 58:-1 59:-1 60:-1 61:-1 62:-1 63:-1 64:-1 65:-1 66:-1 67:-1 68:-1 69:-1 70:-1 71:-1 72:-1 73:-1 74:-1 75:-1 76:-1 77:-1 78:-1 79:-1 80:-1 81:-1 82:-1 83:-1 84:-1 85:-1 86:-1 87:-1 88:-1 89:-1 90:-1 91:-0.755155 92:-1 93:-1 94:-1 95:-1 96:-1 97:-1 98:-1 99:-1 100:-1 101:-1 102:-1 103:-1 104:-1 105:-1 106:-1 107:-1 108:-1 109:-1 110:-1 111:-1 112:-1 113:-1 114:-1 115:-1 116:-1 117:-1 118:-1 119:-1 120:-1 121:-1 122:-1 123:-1 124:-1 125:-1 126:-1 127:-1 128:-1 129:-1 130:-1 131:-1 132:-1 133:-1 134:-1 135:-1 136:-1 137:-1 138:-1 139:-1 140:-1 141:-1 142:-1 143:-1 144:-1 145:-1 146:-1 147:-1 148:-1 149:-1 150:-1 151:-1 152:-1 153:-1 154:-1 155:-1 156:-1 157:-1 158:-1 159:-1 160:-1 161:-1 162:-1 163:-1 164:-1 165:-1 166:-1 167:-1 168:-1 169:-1 170:-1 171:-1 172:-1 173:-1 174:-1 175:-1 176:-1 177:-1 178:-1 179:-1 180:-1 181:-0.981559 182:-1 183:-1 184:-1 185:-1 186:-1 187:-1 188:-1 189:-1 190:-1 191:-1 192:-1 193:-1 194:-1 195:-1 196:-1 197:-1 198:-1 199:-1 200:-1 201:-1 202:-1 203:-1 204:-1 205:-1 206:-1 207:-1 208:-1 209:-1 210:-1 211:-1 212:-1 213:-1 214:-1 215:-1 216:-1 217:-1 218:-1 219:-1 220:-1 221:-1 222:-1 223:-1 224:-1 225:-1 226:-1 227:-1 228:-1 229:-1 230:-1 231:-1 232:-1 233:-1 234:-1 235:-1 236:-1 237:-1 238:-1 239:-1 240:-1 241:-1 242:-0.914286 243:-1 244:-0.982906 245:-1 246:-1 247:-0.982609 248:-0.984252 249:-1 250:-0.98 251:-0.984 252:-1 253:-0.98773 254:-1 255:-0.988506 256:-0.989899 257:-0.991489 258:-0.984064 259:-1 260:-1 261:-0.980769 262:-0.957672 263:-0.978417 264:-0.986254 265:-0.965517 266:-0.952191 267:-0.943396 268:-0.979003 269:-0.984252 270:-0.970238 271:-0.98 272:-0.948529 273:-0.992701 274:-0.933775 275:-0.938144 276:-0.954918 277:-0.978947 278:-0.991416 279:-0.946381 280:-0.968831 281:-0.965909 282:-0.986395 283:-0.966245 284:-0.971429 285:-0.951807 286:-0.974453 287:-0.9875 288:-0.98008 289:-0.996176 290:-0.977901 291:-0.973913 292:-0.977186 293:-0.983416 294:-0.983838 295:-0.983471 296:-0.96063 297:-0.971919 298:-0.968254 299:-0.937677 300:-0.994178 301:-1 302:-0.995152 303:-0.991911 304:-0.992692 305:-0.99801 306:-1 307:-0.993019 308:-0.997361 
0 0 0 0 128 128 1:-0.931435 2:-1 3:-1 4:-1 5:-1 6:-1 7:-1 8:-1 9:-1 10:-1 11:-1 12:-1 13:-1 14:-1 15:-1 16:-1 17:-1 18:-1 19:-1 20:-1 21:-1 22:-1 23:-1 24:-1 25:-1 26:-1 27:-1 28:-1 29:-1 30:-1 31:-1 32:-1 33:-1 34:-1 35:-1 36:-1 37:-1 38:-1 39:-1 40:-1 41:-1 42:-1 43:-1 44:-1 45:-1 46:-0.931857 47:-1 48:-1 49:-1 50:-1 51:-1 52:-1 53:-1 54:-1 55:-1 56:-1 57:-1 58:-1 59:-1 60:-1 61:-1 62:-1 63:-1 64:-1 65:-1 66:-1 67:-1 68:-1 69:-1 70:-1 71:-1 72:-1 73:-1 74:-1 75:-1 76:-1 77:-1 78:-1 79:-1 80:-1 81:-1 82:-1 83:-1 84:-1 85:-1 86:-1 87:-1 88:-1 89:-1 90:-1 91:-0.776632 92:-1 93:-1 94:-1 95:-1 96:-1 97:-1 98:-1 99:-1 100:-1 101:-1 102:-1 103:-1 104:-1 105:-1 106:-1 107:-1 108:-1 109:-1 110:-1 111:-1 112:-1 113:-1 114:-1 115:-1 116:-1 117:-1 118:-1 119:-1 120:-1 121:-1 122:-1 123:-1 124:-1 125:-1 126:-1 127:-1 128:-1 129:-1 130:-1 131:-1 132:-1 133:-1 134:-1 135:-1 136:-1 137:-1 138:-1 139:-1 140:-1 141:-1 142:-1 143:-1 144:-1 145:-1 146:-1 147:-1 148:-1 149:-1 150:-1 151:-1 152:-1 153:-1 154:-1 155:-1 156:-1 157:-1 158:-1 159:-1 160:-1 161:-1 162:-1 163:-1 164:-1 165:-1 166:-1 167:-1 168:-1 169:-1 170:-1 171:-1 172:-1 173:-1 174:-1 175:-1 176:-1 177:-1 178:-1 179:-1 180:-1 181:-0.979883 182:-1 183:-1 184:-1 185:-1 186:-1 187:-1 188:-1 189:-1 190:-1 191:-1 192:-1 193:-1 194:-1 195:-1 196:-1 197:-1 198:-1 199:-1 200:-1 201:-1 202:-1 203:-1 204:-1 205:-1 206:-1 207:-1 208:-1 209:-1 210:-1 211:-1 212:-1 213:-1 214:-1 215:-1 216:-1 217:-1 218:-1 219:-1 220:-1 221:-1 222:-1 223:-1 224:-1 225:-1 226:-1 227:-1 228:-1 229:-1 230:-1 231:-1 232:-1 233:-1 234:-1 235:-1 236:-1 237:-1 238:-1 239:-1 240:-1 241:-1 242:-1 243:-1 244:-1 245:-1 246:-1 247:-1 248:-1 249:-0.978495 250:-0.96 251:-1 252:-1 253:-1 254:-0.989011 255:-1 256:-1 257:-1 258:-0.968127 259:-0.991379 260:-0.98773 261:-0.990385 262:-0.968254 263:-0.985612 264:-0.972509 265:-0.97931 266:-0.960159 267:-0.974843 268:-0.973753 269:-0.984252 270:-0.994048 271:-0.993333 272:-0.941176 273:-0.978102 274:-0.986755 275:-0.945017 276:-0.963115 277:-0.966316 278:-0.978541 279:-0.983914 280:-0.942857 281:-0.988636 282:-0.977324 283:-0.983122 284:-0.971429 285:-0.956627 286:-0.970803 287:-0.984375 288:-0.952191 289:-0.98088 290:-0.981584 291:-0.985507 292:-0.977186 293:-0.9801 294:-0.963636 295:-0.983471 296:-0.986877 297:-0.978159 298:-0.968254 299:-0.949008 300:-0.982533 301:-0.989399 302:-0.98303 303:-0.995956 304:-0.997564 305:-1 306:-1 307:-0.99651 308:-0.99934 
7.300619368181207 0 0 0 128 128 1:-0.943829 2:-1 3:-1 4:-1 5:-1 6:-1 7:-1 8:-1 9:-1 10:-1 11:-1 12:-1 13:-1 14:-1 15:-1 16:-1 17:-1 18:-1 19:-1 20:-1 21:-1 22:-1 23:-1 24:-1 25:-1 26:-1 27:-1 28:-1 29:-1 30:-1 31:-1 32:-1 33:-1 34:-1 35:-1 36:-1 37:-1 38:-1 39:-1 40:-1 41:-1 42:-1 43:-1 44:-1 45:-1 46:-0.944175 47:-1 48:-1 49:-1 50:-1 51:-1 52:-1 53:-1 54:-1 55:-1 56:-1 57:-1 58:-1 59:-1 60:-1 61:-1 62:-1 63:-1 64:-1 65:-1 66:-1 67:-1 68:-1 69:-1 70:-1 71:-1 72:-1 73:-1 74:-1 75:-1 76:-1 77:-1 78:-1 79:-1 80:-1 81:-1 82:-1 83:-1 84:-1 85:-1 86:-1 87:-1 88:-1 89:-1 90:-1 91:-0.81701 92:-1 93:-1 94:-1 95:-1 96:-1 97:-1 98:-1 99:-1 100:-1 101:-1 102:-1 103:-1 104:-1 105:-1 106:-1 107:-1 108:-1 109:-1 110:-1 111:-1 112:-1 113:-1 114:-1 115:-1 116:-1 117:-1 118:-1 119:-1 120:-1 121:-1 122:-1 123:-1 124:-1 125:-1 126:-1 127:-1 128:-1 129:-1 130:-1 131:-1 132:-1 133:-1 134:-1 135:-1 136:-1 137:-1 138:-1 139:-1 140:-1 141:-1 142:-1 143:-1 144:-1 145:-1 146:-1 147:-1 148:-1 149:-1 150:-1 151:-1 152:-1 153:-1 154:-1 155:-1 156:-1 157:-1 158:-1 159:-1 160:-1 161:-1 162:-1 163:-1 164:-1 165:-1 166:-1 167:-1 168:-1 169:-1 170:-1 171:-1 172:-1 173:-1 174:-1 175:-1 176:-1 177:-1 178:-1 179:-1 180:-1 181:-0.959765 182:-1 183:-1 184:-1 185:-1 186:-1 187:-1 188:-1 189:-1 190:-1 191:-1 192:-1 193:-1 194:-1 195:-1 196:-1 197:-1 198:-1 199:-1 200:-1 201:-1 202:-1 203:-1 204:-1 205:-1 206:-1 207:-1 208:-1 209:-1 210:-1 211:-1 212:-1 213:-1 214:-1 215:-1 216:-1 217:-1 218:-1 219:-1 220:-1 221:-1 222:-1 223:-1 224:-1 225:-1 226:-1 227:-1 228:-1 229:-1 230:-1 231:-1 232:-1 233:-1 234:-1 235:-1 236:-1 237:-1 238:-1 239:-1 240:-1 241:-1 242:-0.942857 243:-1 244:-1 245:-0.985401 246:-1 247:-0.982609 248:-0.984252 249:-0.978495 250:-0.98 251:-0.952 252:-1 253:-0.96319 254:-0.989011 255:-0.965517 256:-0.979798 257:-1 258:-1 259:-1 260:-1 261:-0.971154 262:-1 263:-0.992806 264:-0.993127 265:-0.958621 266:-0.976096 267:-0.974843 268:-0.984252 269:-0.979003 270:-0.994048 271:-0.98 272:-0.992647 273:-0.948905 274:-0.986755 275:-0.972509 276:-1 277:-0.991579 278:-0.987124 279:-0.994638 280:-0.979221 281:-0.994318 282:-0.986395 283:-0.987342 284:-0.989286 285:-1 286:-0.989051 287:-0.984375 288:-0.992032 289:-0.984704 290:-0.974217 291:-0.994203 292:-0.989861 293:-0.983416 294:-0.991919 295:-0.986226 296:-0.968504 297:-0.984399 298:-0.992945 299:-0.994334 300:-0.982533 301:-0.996466 302:-0.987879 303:-0.979778 304:-0.978076 305:-0.98607 306:-0.973013 307:-0.99651 308:-1 
0 0 0 0 128 128 1:-0.922205 2:-1 3:-1 4:-1 5:-1 6:-1 7:-1 8:-1 9:-1 10:-1 11:-1 12:-1 13:-1 14:-1 15:-1 16:-1 17:-1 18:-1 19:-1 20:-1 21:-1 22:-1 23:-1 24:-1 25:-1 26:-1 27:-1 28:-1 29:-1 30:-1 31:-1 32:-1 33:-1 34:-1 35:-1 36:-1 37:-1 38:-1 39:-1 40:-1 41:-1 42:-1 43:-1 44:-1 45:-1 46:-0.922684 47:-1 48:-1 49:-1 50:-1 51:-1 52:-1 53:-1 54:-1 55:-1 56:-1 57:-1 58:-1 59:-1 60:-1 61:-1 62:-1 63:-1 64:-1 65:-1 66:-1 67:-1 68:-1 69:-1 70:-1 71:-1 72:-1 73:-1 74:-1 75:-1 76:-1 77:-1 78:-1 79:-1 80:-1 81:-1 82:-1 83:-1 84:-1 85:-1 86:-1 87:-1 88:-1 89:-1 90:-1 91:-0.746564 92:-1 93:-1 94:-1 95:-1 96:-1 97:-1 98:-1 99:-1 100:-1 101:-1 102:-1 103:-1 104:-1 105:-1 106:-1 107:-1 108:-1 109:-1 110:-1 111:-1 112:-1 113:-1 114:-1 115:-1 116:-1 117:-1 118:-1 119:-1 120:-1 121:-1 122:-1 123:-1 124:-1 125:-1 126:-1 127:-1 128:-1 129:-1 130:-1 131:-1 132:-1 133:-1 134:-1 135:-1 136:-1 137:-1 138:-1 139:-1 140:-1 141:-1 142:-1 143:-1 144:-1 145:-1 146:-1 147:-1 148:-1 149:-1 150:-1 151:-1 152:-1 153:-1 154:-1 155:-1 156:-1 157:-1 158:-1 159:-1 160:-1 161:-1 162:-1 163:-1 164:-1 165:-1 166:-1 167:-1 168:-1 169:-1 170:-1 171:-1 172:-1 173:-1 174:-1 175:-1 176:-1 177:-1 178:-1 179:-1 180:-1 181:-0.9715 182:-1 183:-1 184:-1 185:-1 186:-1 187:-1 188:-1 189:-1 190:-1 191:-1 192:-1 193:-1 194:-1 195:-1 196:-1 197:-1 198:-1 199:-1 200:-1 201:-1 202:-1 203:-1 204:-1 205:-1 206:-1 207:-1 208:-1 209:-1 210:-1 211:-1 212:-1 213:-1 214:-1 215:-1 216:-1 217:-1 218:-1 219:-1 220:-1 221:-1 222:-1 223:-1 224:-1 225:-1 226:-1 227:-1 228:-1 229:-1 230:-1 231:-1 232:-1 233:-1 234:-1 235:-1 236:-1 237:-1 238:-1 239:-1 240:-1 241:-1 242:-0.914286 243:-0.967213 244:-0.982906 245:-1 246:-1 247:-0.982609 248:-0.984252 249:-0.978495 250:-0.98 251:-0.984 252:-0.983193 253:-0.98773 254:-1 255:-0.988506 256:-0.979798 257:-0.982979 258:-1 259:-0.991379 260:-0.98773 261:-0.961538 262:-0.957672 263:-0.992806 264:-0.972509 265:-0.958621 266:-0.968127 267:-0.981132 268:-0.979003 269:-0.984252 270:-0.97619 271:-0.98 272:-0.948529 273:-0.956204 274:-0.94702 275:-0.986254 276:-0.97541 277:-0.970526 278:-0.961373 279:-0.978552 280:-0.974026 281:-0.977273 282:-0.986395 283:-0.957806 284:-0.975 285:-0.985542 286:-0.981752 287:-0.9875 288:-0.98008 289:-0.973231 290:-0.981584 291:-0.962319 292:-0.969582 293:-0.993367 294:-0.987879 295:-0.99449 296:-0.981627 297:-0.981279 298:-0.968254 299:-0.966006 300:-0.967977 301:-0.968198 302:-0.985455 303:-0.985844 304:-0.980512 305:-0.99801 306:-0.991004 307:-0.989529 308:-0.997361 
0 0 0 0 0 60.68910675968735 1:-0.996308 2:-0.985612 3:-1 4:-1 5:-0.986301 6:-1 7:-1 8:-0.991632 9:-1 10:-1 11:-0.995122 12:-1 13:-0.99556 14:-0.993994 15:-1 16:-0.991643 17:-0.990017 18:-0.994631 19:-0.992053 20:-0.991747 21:-0.981132 22:-0.983033 23:-0.983509 24:-0.955923 25:-0.944535 26:-0.944118 27:-0.978193 28:-0.972715 29:-0.959184 30:-0.915119 31:-0.922518 32:-0.960396 33:-0.955947 34:-0.984078 35:-0.971242 36:-0.931818 37:-0.776224 38:-0.859375 39:-0.983871 40:-0.981651 41:-1 42:-0.96748 43:-1 44:-1 45:-1 46:-0.996855 47:-0.993921 48:-1 49:-0.98995 50:-0.989189 51:-0.923567 52:-0.896552 53:-0.900709 54:-0.879518 55:-0.938776 56:-0.974194 57:-0.942308 58:-0.946524 59:-0.933333 60:-0.922078 61:-0.898089 62:-0.89372 63:-0.934156 64:-0.942149 65:-0.965157 66:-0.956835 67:-0.983264 68:-0.992467 69:-0.985258 70:-0.970085 71:-0.944272 72:-0.913876 73:-0.94012 74:-0.916084 75:-0.888889 76:-0.872 77:-0.954887 78:-0.959732 79:-0.92053 80:-0.928571 81:-0.961538 82:-0.963855 83:-0.866667 84:-0.953271 85:-0.918182 86:-0.964413 87:-0.991189 88:-0.984556 89:-0.976744 90:-0.97555 91:-0.997423 92:-0.997476 93:-0.978648 94:-0.983213 95:-0.974651 96:-0.97994 97:-0.981497 98:-0.956113 99:-0.958678 100:-0.979101 101:-0.957692 102:-0.970238 103:-0.932673 104:-0.984536 105:-0.958824 106:-0.961965 107:-0.970642 108:-0.966102 109:-0.959064 110:-0.970545 111:-0.959866 112:-0.971576 113:-0.989833 114:-0.995776 115:-0.987382 116:-1 117:-1 118:-1 119:-0.992308 120:-1 121:-0.993846 122:-1 123:-1 124:-0.98773 125:-0.981859 126:-0.995585 127:-0.987879 128:-0.993475 129:-0.987805 130:-0.994083 131:-0.997264 132:-0.991163 133:-0.96944 134:-0.98524 135:-0.990755 136:-0.976788 137:-0.960985 138:-0.976904 139:-0.982722 140:-0.992499 141:-0.996506 142:-0.99735 143:-0.999983 144:-1 145:-1 146:-0.980771 147:-0.962712 148:-0.946233 149:-0.962629 150:-0.941256 151:-0.964169 152:-0.973208 153:-0.98385 154:-0.999919 155:-1 156:-1 157:-1 158:-1 159:-0.998464 160:-0.984269 161:-0.999614 162:-0.980224 163:-0.970968 164:-0.968555 165:-0.979477 166:-0.942258 167:-0.927827 168:-0.909483 169:-0.894673 170:-0.967704 171:-1 172:-1 173:-1 174:-1 175:-0.966335 176:-0.946444 177:-0.964677 178:-0.978416 179:-0.961619 180:-0.997461 181:-0.998755 182:-0.999786 183:-1 184:-1 185:-1 186:-1 187:-1 188:-0.975772 189:-0.952315 190:-0.963806 191:-0.957456 192:-0.95367 193:-0.967329 194:-0.979549 195:-0.999999 196:-1 197:-1 198:-0.982425 199:-0.973574 200:-0.96603 201:-0.958544 202:-0.950494 203:-0.970435 204:-0.971923 205:-0.981103 206:-0.998878 207:-0.999997 208:-1 209:-1 210:-1 211:-0.999429 212:-0.993662 213:-0.99963 214:-0.968499 215:-0.944024 216:-0.972561 217:-0.953447 218:-0.94087 219:-0.968816 220:-0.972427 221:-0.96692 222:-0.992888 223:-1 224:-1 225:-1 226:-0.995654 227:-0.961752 228:-0.942848 229:-0.972894 230:-0.976487 231:-0.987235 232:-0.999188 233:-0.998369 234:-0.999992 235:-1 236:-1 237:-1 238:-1 239:-1 240:-1 241:-1 242:-0.971429 243:-0.967213 244:-1 245:-1 246:-1 247:-1 248:-0.984252 249:-1 250:-1 251:-1 252:-1 253:-0.98773 254:-1 255:-1 256:-0.979798 257:-0.974468 258:-0.992032 259:-0.965517 260:-0.97546 261:-0.980769 262:-0.989418 263:-0.985612 264:-0.986254 265:-0.965517 266:-0.984064 267:-0.955975 268:-0.973753 269:-0.984252 270:-0.964286 271:-0.953333 272:-0.963235 273:-0.992701 274:-0.986755 275:-0.945017 276:-0.954918 277:-0.978947 278:-0.995708 279:-0.946381 280:-0.958442 281:-0.948864 282:-0.995465 283:-0.966245 284:-0.978571 285:-0.975904 286:-0.959854 287:-0.9875 288:-0.984064 289:-0.969407 290:-0.974217 291:-0.97971 292:-0.987326 293:-0.983416 294:-0.975758 295:-0.988981 296:-0.989501 297:-0.962559 298:-0.968254 299:-0.971671 300:-0.967977 301:-0.975265 302:-0.985455 303:-0.987867 304:-0.992692 305:-0.99204 306:-0.988006 307:-1 308:-0.99934 
0 0 0 0 128 128 1:-0.924051 2:-1 3:-1 4:-1 5:-1 6:-1 7:-1 8:-1 9:-1 10:-1 11:-1 12:-1 13:-1 14:-1 15:-1 16:-1 17:-1 18:-1 19:-1 20:-1 21:-1 22:-1 23:-1 24:-1 25:-1 26:-1 27:-1 28:-1 29:-1 30:-1 31:-1 32:-1 33:-1 34:-1 35:-1 36:-1 37:-1 38:-1 39:-1 40:-1 41:-1 42:-1 43:-1 44:-1 45:-1 46:-0.924518 47:-1 48:-1 49:-1 50:-1 51:-1 52:-1 53:-1 54:-1 55:-1 56:-1 57:-1 58:-1 59:-1 60:-1 61:-1 62:-1 63:-1 64:-1 65:-1 66:-1 67:-1 68:-1 69:-1 70:-1 71:-1 72:-1 73:-1 74:-1 75:-1 76:-1 77:-1 78:-1 79:-1 80:-1 81:-1 82:-1 83:-1 84:-1 85:-1 86:-1 87:-1 88:-1 89:-1 90:-1 91:-0.752577 92:-1 93:-1 94:-1 95:-1 96:-1 97:-1 98:-1 99:-1 100:-1 101:-1 102:-1 103:-1 104:-1 105:-1 106:-1 107:-1 108:-1 109:-1 110:-1 111:-1 112:-1 113:-1 114:-1 115:-1 116:-1 117:-1 118:-1 119:-1 120:-1 121:-1 122:-1 123:-1 124:-1 125:-1 126:-1 127:-1 128:-1 129:-1 130:-1 131:-1 132:-1 133:-1 134:-1 135:-1 136:-1 137:-1 138:-1 139:-1 140:-1 141:-1 142:-1 143:-1 144:-1 145:-1 146:-1 147:-1 148:-1 149:-1 150:-1 151:-1 152:-1 153:-1 154:-1 155:-1 156:-1 157:-1 158:-1 159:-1 160:-1 161:-1 162:-1 163:-1 164:-1 165:-1 166:-1 167:-1 168:-1 169:-1 170:-1 171:-1 172:-1 173:-1 174:-1 175:-1 176:-1 177:-1 178:-1 179:-1 180:-1 181:-0.984912 182:-1 183:-1 184:-1 185:-1 186:-1 187:-1 188:-1 189:-1 190:-1 191:-1 192:-1 193:-1 194:-1 195:-1 196:-1 197:-1 198:-1 199:-1 200:-1 201:-1 202:-1 203:-1 204:-1 205:-1 206:-1 207:-1 208:-1 209:-1 210:-1 211:-1 212:-1 213:-1 214:-1 215:-1 216:-1 217:-1 218:-1 219:-1 220:-1 221:-1 222:-1 223:-1 224:-1 225:-1 226:-1 227:-1 228:-1 229:-1 230:-1 231:-1 232:-1 233:-1 234:-1 235:-1 236:-1 237:-1 238:-1 239:-1 240:-1 241:-1 242:-1 243:-1 244:-1 245:-0.985401 246:-0.984 247:-0.982609 248:-0.984252 249:-1 250:-0.98 251:-1 252:-1 253:-1 254:-0.989011 255:-1 256:-0.959596 257:-0.991489 258:-0.960159 259:-0.965517 260:-0.92638 261:-0.932692 262:-0.94709 263:-0.964029 264:-0.972509 265:-0.924138 266:-0.976096 267:-0.955975 268:-0.994751 269:-0.973753 270:-0.970238 271:-0.953333 272:-0.948529 273:-0.934307 274:-0.953642 275:-0.945017 276:-0.963115 277:-0.932632 278:-0.957082 279:-0.941019 280:-0.979221 281:-0.9375 282:-0.963719 283:-0.92827 284:-0.982143 285:-0.975904 286:-0.992701 287:-0.9875 288:-0.972112 289:-1 290:-0.98895 291:-0.982609 292:-0.987326 293:-0.99005 294:-0.983838 295:-0.986226 296:-0.992126 297:-0.98752 298:-0.992945 299:-0.983003 300:-0.994178 301:-0.996466 302:-0.992727 303:-0.997978 304:-0.995128 305:-0.99602 306:-0.991004 307:-1 308:-0.99934 
0 0 0 0 128 128 1:-0.913502 2:-1 3:-1 4:-1 5:-1 6:-1 7:-1 8:-1 9:-1 10:-1 11:-1 12:-1 13:-1 14:-1 15:-1 16:-1 17:-1 18:-1 19:-1 20:-1 21:-1 22:-1 23:-1 24:-1 25:-1 26:-1 27:-1 28:-1 29:-1 30:-1 31:-1 32:-1 33:-1 34:-1 35:-1 36:-1 37:-1 38:-1 39:-1 40:-1 41:-1 42:-1 43:-1 44:-1 45:-1 46:-0.914035 47:-1 48:-1 49:-1 50:-1 51:-1 52:-1 53:-1 54:-1 55:-1 56:-1 57:-1 58:-1 59:-1 60:-1 61:-1 62:-1 63:-1 64:-1 65:-1 66:-1 67:-1 68:-1 69:-1 70:-1 71:-1 72:-1 73:-1 74:-1 75:-1 76:-1 77:-1 78:-1 79:-1 80:-1 81:-1 82:-1 83:-1 84:-1 85:-1 86:-1 87:-1 88:-1 89:-1 90:-1 91:-0.718213 92:-1 93:-1 94:-1 95:-1 96:-1 97:-1 98:-1 99:-1 100:-1 101:-1 102:-1 103:-1 104:-1 105:-1 106:-1 107:-1 108:-1 109:-1 110:-1 111:-1 112:-1 113:-1 114:-1 115:-1 116:-1 117:-1 118:-1 119:-1 120:-1 121:-1 122:-1 123:-1 124:-1 125:-1 126:-1 127:-1 128:-1 129:-1 130:-1 131:-1 132:-1 133:-1 134:-1 135:-1 136:-1 137:-1 138:-1 139:-1 140:-1 141:-1 142:-1 143:-1 144:-1 145:-1 146:-1 147:-1 148:-1 149:-1 150:-1 151:-1 152:-1 153:-1 154:-1 155:-1 156:-1 157:-1 158:-1 159:-1 160:-1 161:-1 162:-1 163:-1 164:-1 165:-1 166:-1 167:-1 168:-1 169:-1 170:-1 171:-1 172:-1 173:-1 174:-1 175:-1 176:-1 177:-1 178:-1 179:-1 180:-1 181:-0.9715 182:-1 183:-1 184:-1 185:-1 186:-1 187:-1 188:-1 189:-1 190:-1 191:-1 192:-1 193:-1 194:-1 195:-1 196:-1 197:-1 198:-1 199:-1 200:-1 201:-1 202:-1 203:-1 204:-1 205:-1 206:-1 207:-1 208:-1 209:-1 210:-1 211:-1 212:-1 213:-1 214:-1 215:-1 216:-1 217:-1 218:-1 219:-1 220:-1 221:-1 222:-1 223:-1 224:-1 225:-1 226:-1 227:-1 228:-1 229:-1 230:-1 231:-1 232:-1 233:-1 234:-1 235:-1 236:-1 237:-1 238:-1 239:-1 240:-1 241:-1 242:-1 243:-1 244:-0.982906 245:-1 246:-0.968 247:-0.982609 248:-1 249:-0.935484 250:-1 251:-1 252:-0.94958 253:-0.96319 254:-0.967033 255:-0.908046 256:-0.989899 257:-0.948936 258:-0.984064 259:-0.922414 260:-0.92638 261:-0.951923 262:-0.904762 263:-0.956835 264:-0.972509 265:-0.958621 266:-0.968127 267:-0.955975 268:-0.968504 269:-0.984252 270:-0.928571 271:-0.94 272:-0.933824 273:-0.970803 274:-0.940397 275:-0.917526 276:-0.991803 277:-0.932632 278:-0.95279 279:-0.957105 280:-0.974026 281:-0.960227 282:-0.977324 283:-0.978903 284:-0.982143 285:-0.995181 286:-0.974453 287:-0.9875 288:-0.976096 289:-0.98088 290:-0.974217 291:-0.997101 292:-0.992395 293:-0.986733 294:-0.991919 295:-0.980716 296:-0.979003 297:-0.99376 298:-0.964727 299:-0.971671 300:-0.991266 301:-1 302:-0.987879 303:-0.983822 304:-0.995128 305:-0.99801 306:-0.997001 307:-0.99651 308:-0.99934 
128 0 0 0 128 128 1:-0.960443 2:-1 3:-1 4:-1 5:-1 6:-1 7:-1 8:-1 9:-1 10:-1 11:-1 12:-1 13:-1 14:-1 15:-1 16:-1 17:-1 18:-1 19:-1 20:-1 21:-1 22:-1 23:-1 24:-1 25:-1 26:-1 27:-1 28:-1 29:-1 30:-1 31:-1 32:-1 33:-1 34:-1 35:-1 36:-1 37:-1 38:-1 39:-1 40:-1 41:-1 42:-1 43:-1 44:-1 45:-1 46:-0.960687 47:-1 48:-1 49:-1 50:-1 51:-1 52:-1 53:-1 54:-1 55:-1 56:-1 57:-1 58:-1 59:-1 60:-1 61:-1 62:-1 63:-1 64:-1 65:-1 66:-1 67:-1 68:-1 69:-1 70:-1 71:-1 72:-1 73:-1 74:-1 75:-1 76:-1 77:-1 78:-1 79:-1 80:-1 81:-1 82:-1 83:-1 84:-1 85:-1 86:-1 87:-1 88:-1 89:-1 90:-1 91:-0.871134 92:-1 93:-1 94:-1 95:-1 96:-1 97:-1 98:-1 99:-1 100:-1 101:-1 102:-1 103:-1 104:-1 105:-1 106:-1 107:-1 108:-1 109:-1 110:-1 111:-1 112:-1 113:-1 114:-1 115:-1 116:-1 117:-1 118:-1 119:-1 120:-1 121:-1 122:-1 123:-1 124:-1 125:-1 126:-1 127:-1 128:-1 129:-1 130:-1 131:-1 132:-1 133:-1 134:-1 135:-1 136:-1 137:-1 138:-1 139:-1 140:-1 141:-1 142:-1 143:-1 144:-1 145:-1 146:-1 147:-1 148:-1 149:-1 150:-1 151:-1 152:-1 153:-1 154:-1 155:-1 156:-1 157:-1 158:-1 159:-1 160:-1 161:-1 162:-1 163:-1 164:-1 165:-1 166:-1 167:-1 168:-1 169:-1 170:-1 171:-1 172:-1 173:-1 174:-1 175:-1 176:-1 177:-1 178:-1 179:-1 180:-1 181:-0.961442 182:-1 183:-1 184:-1 185:-1 186:-1 187:-1 188:-1 189:-1 190:-1 191:-1 192:-1 193:-1 194:-1 195:-1 196:-1 197:-1 198:-1 199:-1 200:-1 201:-1 202:-1 203:-1 204:-1 205:-1 206:-1 207:-1 208:-1 209:-1 210:-1 211:-1 212:-1 213:-1 214:-1 215:-1 216:-1 217:-1 218:-1 219:-1 220:-1 221:-1 222:-1 223:-1 224:-1 225:-1 226:-1 227:-1 228:-1 229:-1 230:-1 231:-1 232:-1 233:-1 234:-1 235:-1 236:-1 237:-1 238:-1 239:-1 240:-1 241:-1 242:-1 243:-0.967213 244:-1 245:-0.985401 246:-0.936 247:-1 248:-0.968504 249:-0.978495 250:-0.94 251:-0.92 252:-1 253:-0.98773 254:-0.989011 255:-0.988506 256:-0.959596 257:-0.957447 258:-1 259:-0.974138 260:-0.97546 261:-0.980769 262:-0.989418 263:-0.985612 264:-0.986254 265:-1 266:-0.968127 267:-1 268:-0.989501 269:-0.979003 270:-0.988095 271:-0.98 272:-1 273:-0.992701 274:-0.97351 275:-0.993127 276:-0.987705 277:-0.995789 278:-0.991416 279:-0.989276 280:-0.994805 281:-1 282:-0.995465 283:-1 284:-0.996429 285:-0.990361 286:-1 287:-0.996875 288:-0.992032 289:-1 290:-0.996317 291:-1 292:-0.997465 293:-0.996683 294:-0.979798 295:-1 296:-0.997375 297:-0.98752 298:-0.996473 299:-1 300:-0.985444 301:-0.982332 302:-0.985455 303:-0.987867 304:-0.990256 305:-0.99602 306:-0.988006 307:-0.993019 308:-0.99934 
0 0 0 0 128 128 1:-0.92115 2:-1 3:-1 4:-1 5:-1 6:-1 7:-1 8:-1 9:-1 10:-1 11:-1 12:-1 13:-1 14:-1 15:-1 16:-1 17:-1 18:-1 19:-1 20:-1 21:-1 22:-1 23:-1 24:-1 25:-1 26:-1 27:-1 28:-1 29:-1 30:-1 31:-1 32:-1 33:-1 34:-1 35:-1 36:-1 37:-1 38:-1 39:-1 40:-1 41:-1 42:-1 43:-1 44:-1 45:-1 46:-0.921635 47:-1 48:-1 49:-1 50:-1 51:-1 52:-1 53:-1 54:-1 55:-1 56:-1 57:-1 58:-1 59:-1 60:-1 61:-1 62:-1 63:-1 64:-1 65:-1 66:-1 67:-1 68:-1 69:-1 70:-1 71:-1 72:-1 73:-1 74:-1 75:-1 76:-1 77:-1 78:-1 79:-1 80:-1 81:-1 82:-1 83:-1 84:-1 85:-1 86:-1 87:-1 88:-1 89:-1 90:-1 91:-0.743127 92:-1 93:-1 94:-1 95:-1 96:-1 97:-1 98:-1 99:-1 100:-1 101:-1 102:-1 103:-1 104:-1 105:-1 106:-1 107:-1 108:-1 109:-1 110:-1 111:-1 112:-1 113:-1 114:-1 115:-1 116:-1 117:-1 118:-1 119:-1 120:-1 121:-1 122:-1 123:-1 124:-1 125:-1 126:-1 127:-1 128:-1 129:-1 130:-1 131:-1 132:-1 133:-1 134:-1 135:-1 136:-1 137:-1 138:-1 139:-1 140:-1 141:-1 142:-1 143:-1 144:-1 145:-1 146:-1 147:-1 148:-1 149:-1 150:-1 151:-1 152:-1 153:-1 154:-1 155:-1 156:-1 157:-1 158:-1 159:-1 160:-1 161:-1 162:-1 163:-1 164:-1 165:-1 166:-1 167:-1 168:-1 169:-1 170:-1 171:-1 172:-1 173:-1 174:-1 175:-1 176:-1 177:-1 178:-1 179:-1 180:-1 181:-0.994971 182:-1 183:-1 184:-1 185:-1 186:-1 187:-1 188:-1 189:-1 190:-1 191:-1 192:-1 193:-1 194:-1 195:-1 196:-1 197:-1 198:-1 199:-1 200:-1 201:-1 202:-1 203:-1 204:-1 205:-1 206:-1 207:-1 208:-1 209:-1 210:-1 211:-1 212:-1 213:-1 214:-1 215:-1 216:-1 217:-1 218:-1 219:-1 220:-1 221:-1 222:-1 223:-1 224:-1 225:-1 226:-1 227:-1 228:-1 229:-1 230:-1 231:-1 232:-1 233:-1 234:-1 235:-1 236:-1 237:-1 238:-1 239:-1 240:-1 241:-1 242:-1 243:-1 244:-1 245:-1 246:-0.984 247:-1 248:-0.984252 249:-1 250:-1 251:-0.984 252:-1 253:-1 254:-1 255:-0.954023 256:-0.969697 257:-0.965957 258:-0.968127 259:-0.974138 260:-0.92638 261:-0.961538 262:-0.94709 263:-0.956835 264:-0.979381 265:-0.972414 266:-0.976096 267:-0.949686 268:-0.994751 269:-0.963255 270:-0.952381 271:-0.946667 272:-0.926471 273:-0.948905 274:-0.940397 275:-0.938144 276:-0.967213 277:-0.957895 278:-0.969957 279:-0.908847 280:-0.927273 281:-0.880682 282:-0.931973 283:-0.966245 284:-0.985714 285:-0.980723 286:-0.970803 287:-0.990625 288:-0.948207 289:-0.984704 290:-0.981584 291:-0.994203 292:-0.992395 293:-0.996683 294:-0.991919 295:-0.983471 296:-0.994751 297:-0.99064 298:-0.989418 299:-0.983003 300:-0.994178 301:-0.996466 302:-0.997576 303:-1 304:-1 305:-0.99403 306:-0.994003 307:-0.993019 308:-1 
0 0 0 0 128 128 1:-0.91693 2:-1 3:-1 4:-1 5:-1 6:-1 7:-1 8:-1 9:-1 10:-1 11:-1 12:-1 13:-1 14:-1 15:-1 16:-1 17:-1 18:-1 19:-1 20:-1 21:-1 22:-1 23:-1 24:-1 25:-1 26:-1 27:-1 28:-1 29:-1 30:-1 31:-1 32:-1 33:-1 34:-1 35:-1 36:-1 37:-1 38:-1 39:-1 40:-1 41:-1 42:-1 43:-1 44:-1 45:-1 46:-0.917442 47:-1 48:-1 49:-1 50:-1 51:-1 52:-1 53:-1 54:-1 55:-1 56:-1 57:-1 58:-1 59:-1 60:-1 61:-1 62:-1 63:-1 64:-1 65:-1 66:-1 67:-1 68:-1 69:-1 70:-1 71:-1 72:-1 73:-1 74:-1 75:-1 76:-1 77:-1 78:-1 79:-1 80:-1 81:-1 82:-1 83:-1 84:-1 85:-1 86:-1 87:-1 88:-1 89:-1 90:-1 91:-0.729381 92:-1 93:-1 94:-1 95:-1 96:-1 97:-1 98:-1 99:-1 100:-1 101:-1 102:-1 103:-1 104:-1 105:-1 106:-1 107:-1 108:-1 109:-1 110:-1 111:-1 112:-1 113:-1 114:-1 115:-1 116:-1 117:-1 118:-1 119:-1 120:-1 121:-1 122:-1 123:-1 124:-1 125:-1 126:-1 127:-1 128:-1 129:-1 130:-1 131:-1 132:-1 133:-1 134:-1 135:-1 136:-1 137:-1 138:-1 139:-1 140:-1 141:-1 142:-1 143:-1 144:-1 145:-1 146:-1 147:-1 148:-1 149:-1 150:-1 151:-1 152:-1 153:-1 154:-1 155:-1 156:-1 157:-1 158:-1 159:-1 160:-1 161:-1 162:-1 163:-1 164:-1 165:-1 166:-1 167:-1 168:-1 169:-1 170:-1 171:-1 172:-1 173:-1 174:-1 175:-1 176:-1 177:-1 178:-1 179:-1 180:-1 181:-0.993294 182:-1 183:-1 184:-1 185:-1 186:-1 187:-1 188:-1 189:-1 190:-1 191:-1 192:-1 193:-1 194:-1 195:-1 196:-1 197:-1 198:-1 199:-1 200:-1 201:-1 202:-1 203:-1 204:-1 205:-1 206:-1 207:-1 208:-1 209:-1 210:-1 211:-1 212:-1 213:-1 214:-1 215:-1 216:-1 217:-1 218:-1 219:-1 220:-1 221:-1 222:-1 223:-1 224:-1 225:-1 226:-1 227:-1 228:-1 229:-1 230:-1 231:-1 232:-1 233:-1 234:-1 235:-1 236:-1 237:-1 238:-1 239:-1 240:-1 241:-1 242:-1 243:-1 244:-1 245:-0.985401 246:-0.984 247:-1 248:-1 249:-0.978495 250:-1 251:-0.984 252:-1 253:-1 254:-0.989011 255:-1 256:-0.939394 257:-0.948936 258:-0.976096 259:-0.956897 260:-0.90184 261:-0.942308 262:-0.94709 263:-0.964029 264:-0.938144 265:-0.965517 266:-0.952191 267:-0.937107 268:-0.958005 269:-0.942257 270:-0.940476 271:-0.946667 272:-0.955882 273:-0.905109 274:-0.92053 275:-0.938144 276:-0.946721 277:-0.957895 278:-0.965665 279:-0.951743 280:-0.937662 281:-0.960227 282:-0.968254 283:-0.991561 284:-0.978571 285:-0.985542 286:-0.985401 287:-0.98125 288:-0.984064 289:-0.984704 290:-0.992634 291:-0.991304 292:-0.992395 293:-0.973466 294:-0.99596 295:-0.983471 296:-0.989501 297:-0.978159 298:-1 299:-0.971671 300:-0.994178 301:-0.982332 302:-0.997576 303:-0.995956 304:-1 305:-0.99602 306:-0.988006 307:-0.989529 308:-0.998681 
0 0 0 0 128 128 1:-0.933808 2:-1 3:-1 4:-1 5:-1 6:-1 7:-1 8:-1 9:-1 10:-1 11:-1 12:-1 13:-1 14:-1 15:-1 16:-1 17:-1 18:-1 19:-1 20:-1 21:-1 22:-1 23:-1 24:-1 25:-1 26:-1 27:-1 28:-1 29:-1 30:-1 31:-1 32:-1 33:-1 34:-1 35:-1 36:-1 37:-1 38:-1 39:-1 40:-1 41:-1 42:-1 43:-1 44:-1 45:-1 46:-0.934216 47:-1 48:-1 49:-1 50:-1 51:-1 52:-1 53:-1 54:-1 55:-1 56:-1 57:-1 58:-1 59:-1 60:-1 61:-1 62:-1 63:-1 64:-1 65:-1 66:-1 67:-1 68:-1 69:-1 70:-1 71:-1 72:-1 73:-1 74:-1 75:-1 76:-1 77:-1 78:-1 79:-1 80:-1 81:-1 82:-1 83:-1 84:-1 85:-1 86:-1 87:-1 88:-1 89:-1 90:-1 91:-0.784364 92:-1 93:-1 94:-1 95:-1 96:-1 97:-1 98:-1 99:-1 100:-1 101:-1 102:-1 103:-1 104:-1 105:-1 106:-1 107:-1 108:-1 109:-1 110:-1 111:-1 112:-1 113:-1 114:-1 115:-1 116:-1 117:-1 118:-1 119:-1 120:-1 121:-1 122:-1 123:-1 124:-1 125:-1 126:-1 127:-1 128:-1 129:-1 130:-1 131:-1 132:-1 133:-1 134:-1 135:-1 136:-1 137:-1 138:-1 139:-1 140:-1 141:-1 142:-1 143:-1 144:-1 145:-1 146:-1 147:-1 148:-1 149:-1 150:-1 151:-1 152:-1 153:-1 154:-1 155:-1 156:-1 157:-1 158:-1 159:-1 160:-1 161:-1 162:-1 163:-1 164:-1 165:-1 166:-1 167:-1 168:-1 169:-1 170:-1 171:-1 172:-1 173:-1 174:-1 175:-1 176:-1 177:-1 178:-1 179:-1 180:-1 181:-0.968148 182:-1 183:-1 184:-1 185:-1 186:-1 187:-1 188:-1 189:-1 190:-1 191:-1 192:-1 193:-1 194:-1 195:-1 196:-1 197:-1 198:-1 199:-1 200:-1 201:-1 202:-1 203:-1 204:-1 205:-1 206:-1 207:-1 208:-1 209:-1 210:-1 211:-1 212:-1 213:-1 214:-1 215:-1 216:-1 217:-1 218:-1 219:-1 220:-1 221:-1 222:-1 223:-1 224:-1 225:-1 226:-1 227:-1 228:-1 229:-1 230:-1 231:-1 232:-1 233:-1 234:-1 235:-1 236:-1 237:-1 238:-1 239:-1 240:-1 241:-1 242:-1 243:-0.967213 244:-1 245:-1 246:-0.984 247:-1 248:-1 249:-1 250:-1 251:-1 252:-0.983193 253:-1 254:-1 255:-1 256:-0.989899 257:-1 258:-1 259:-0.991379 260:-0.95092 261:-0.971154 262:-0.94709 263:-0.94964 264:-0.986254 265:-0.993103 266:-0.968127 267:-0.955975 268:-0.979003 269:-0.984252 270:-0.982143 271:-0.986667 272:-0.985294 273:-0.956204 274:-0.940397 275:-0.972509 276:-0.987705 277:-0.991579 278:-0.974249 279:-0.994638 280:-0.963636 281:-0.971591 282:-0.995465 283:-0.978903 284:-0.978571 285:-0.985542 286:-0.992701 287:-0.990625 288:-0.984064 289:-0.992352 290:-0.985267 291:-1 292:-0.977186 293:-0.996683 294:-0.983838 295:-0.983471 296:-0.981627 297:-0.984399 298:-0.975309 299:-0.988669 300:-0.973799 301:-0.975265 302:-0.98303 303:-0.979778 304:-0.985384 305:-0.976119 306:-0.97901 307:-0.989529 308:-0.996702 
74.91804896732867 0 0 0 128 128 1:-0.939873 2:-1 3:-1 4:-1 5:-1 6:-1 7:-1 8:-1 9:-1 10:-1 11:-1 12:-1 13:-1 14:-1 15:-1 16:-1 17:-1 18:-1 19:-1 20:-1 21:-1 22:-1 23:-1 24:-1 25:-1 26:-1 27:-1 28:-1 29:-1 30:-1 31:-1 32:-1 33:-1 34:-1 35:-1 36:-1 37:-1 38:-1 39:-1 40:-1 41:-1 42:-1 43:-1 44:-1 45:-1 46:-0.940244 47:-1 48:-1 49:-1 50:-1 51:-1 52:-1 53:-1 54:-1 55:-1 56:-1 57:-1 58:-1 59:-1 60:-1 61:-1 62:-1 63:-1 64:-1 65:-1 66:-1 67:-1 68:-1 69:-1 70:-1 71:-1 72:-1 73:-1 74:-1 75:-1 76:-1 77:-1 78:-1 79:-1 80:-1 81:-1 82:-1 83:-1 84:-1 85:-1 86:-1 87:-1 88:-1 89:-1 90:-1 91:-0.804124 92:-1 93:-1 94:-1 95:-1 96:-1 97:-1 98:-1 99:-1 100:-1 101:-1 102:-1 103:-1 104:-1 105:-1 106:-1 107:-1 108:-1 109:-1 110:-1 111:-1 112:-1 113:-1 114:-1 115:-1 116:-1 117:-1 118:-1 119:-1 120:-1 121:-1 122:-1 123:-1 124:-1 125:-1 126:-1 127:-1 128:-1 129:-1 130:-1 131:-1 132:-1 133:-1 134:-1 135:-1 136:-1 137:-1 138:-1 139:-1 140:-1 141:-1 142:-1 143:-1 144:-1 145:-1 146:-1 147:-1 148:-1 149:-1 150:-1 151:-1 152:-1 153:-1 154:-1 155:-1 156:-1 157:-1 158:-1 159:-1 160:-1 161:-1 162:-1 163:-1 164:-1 165:-1 166:-1 167:-1 168:-1 169:-1 170:-1 171:-1 172:-1 173:-1 174:-1 175:-1 176:-1 177:-1 178:-1 179:-1 180:-1 181:-0.991618 182:-1 183:-1 184:-1 185:-1 186:-1 187:-1 188:-1 189:-1 190:-1 191:-1 192:-1 193:-1 194:-1 195:-1 196:-1 197:-1 198:-1 199:-1 200:-1 201:-1 202:-1 203:-1 204:-1 205:-1 206:-1 207:-1 208:-1 209:-1 210:-1 211:-1 212:-1 213:-1 214:-1 215:-1 216:-1 217:-1 218:-1 219:-1 220:-1 221:-1 222:-1 223:-1 224:-1 225:-1 226:-1 227:-1 228:-1 229:-1 230:-1 231:-1 232:-1 233:-1 234:-1 235:-1 236:-1 237:-1 238:-1 239:-1 240:-1 241:-1 242:-1 243:-1 244:-1 245:-1 246:-1 247:-1 248:-1 249:-0.978495 250:-1 251:-1 252:-1 253:-0.98773 254:-0.978022 255:-1 256:-1 257:-1 258:-1 259:-0.965517 260:-0.96319 261:-1 262:-0.978836 263:-0.992806 264:-0.979381 265:-0.97931 266:-0.992032 267:-0.981132 268:-0.984252 269:-0.984252 270:-0.982143 271:-0.986667 272:-0.977941 273:-0.956204 274:-0.960265 275:-0.972509 276:-0.987705 277:-0.966316 278:-0.978541 279:-0.989276 280:-0.984416 281:-0.982955 282:-0.986395 283:-0.991561 284:-0.978571 285:-0.990361 286:-0.967153 287:-0.9875 288:-0.988048 289:-0.992352 290:-0.996317 291:-0.976812 292:-0.984791 293:-0.986733 294:-0.987879 295:-0.980716 296:-0.973753 297:-0.984399 298:-0.982363 299:-0.977337 300:-0.991266 301:-0.975265 302:-0.990303 303:-0.975733 304:-0.985384 305:-0.968159 306:-0.97901 307:-0.986038 308:-0.998681 
128 0 0 0 128 128 1:-0.943565 2:-1 3:-1 4:-1 5:-1 6:-1 7:-1 8:-1 9:-1 10:-1 11:-1 12:-1 13:-1 14:-1 15:-1 16:-1 17:-1 18:-1 19:-1 20:-1 21:-1 22:-1 23:-1 24:-1 25:-1 26:-1 27:-1 28:-1 29:-1 30:-1 31:-1 32:-1 33:-1 34:-1 35:-1 36:-1 37:-1 38:-1 39:-1 40:-1 41:-1 42:-1 43:-1 44:-1 45:-1 46:-0.943913 47:-1 48:-1 49:-1 50:-1 51:-1 52:-1 53:-1 54:-1 55:-1 56:-1 57:-1 58:-1 59:-1 60:-1 61:-1 62:-1 63:-1 64:-1 65:-1 66:-1 67:-1 68:-1 69:-1 70:-1 71:-1 72:-1 73:-1 74:-1 75:-1 76:-1 77:-1 78:-1 79:-1 80:-1 81:-1 82:-1 83:-1 84:-1 85:-1 86:-1 87:-1 88:-1 89:-1 90:-1 91:-0.816151 92:-1 93:-1 94:-1 95:-1 96:-1 97:-1 98:-1 99:-1 100:-1 101:-1 102:-1 103:-1 104:-1 105:-1 106:-1 107:-1 108:-1 109:-1 110:-1 111:-1 112:-1 113:-1 114:-1 115:-1 116:-1 117:-1 118:-1 119:-1 120:-1 121:-1 122:-1 123:-1 124:-1 125:-1 126:-1 127:-1 128:-1 129:-1 130:-1 131:-1 132:-1 133:-1 134:-1 135:-1 136:-1 137:-1 138:-1 139:-1 140:-1 141:-1 142:-1 143:-1 144:-1 145:-1 146:-1 147:-1 148:-1 149:-1 150:-1 151:-1 152:-1 153:-1 154:-1 155:-1 156:-1 157:-1 158:-1 159:-1 160:-1 161:-1 162:-1 163:-1 164:-1 165:-1 166:-1 167:-1 168:-1 169:-1 170:-1 171:-1 172:-1 173:-1 174:-1 175:-1 176:-1 177:-1 178:-1 179:-1 180:-1 181:-0.968148 182:-1 183:-1 184:-1 185:-1 186:-1 187:-1 188:-1 189:-1 190:-1 191:-1 192:-1 193:-1 194:-1 195:-1 196:-1 197:-1 198:-1 199:-1 200:-1 201:-1 202:-1 203:-1 204:-1 205:-1 206:-1 207:-1 208:-1 209:-1 210:-1 211:-1 212:-1 213:-1 214:-1 215:-1 216:-1 217:-1 218:-1 219:-1 220:-1 221:-1 222:-1 223:-1 224:-1 225:-1 226:-1 227:-1 228:-1 229:-1 230:-1 231:-1 232:-1 233:-1 234:-1 235:-1 236:-1 237:-1 238:-1 239:-1 240:-1 241:-1 242:-1 243:-1 244:-1 245:-0.985401 246:-0.984 247:-1 248:-1 249:-0.956989 250:-0.98 251:-1 252:-0.983193 253:-1 254:-1 255:-0.988506 256:-1 257:-1 258:-0.984064 259:-0.974138 260:-1 261:-1 262:-0.978836 263:-0.978417 264:-0.965636 265:-1 266:-0.984064 267:-1 268:-0.984252 269:-0.994751 270:-0.982143 271:-0.986667 272:-0.985294 273:-0.978102 274:-0.97351 275:-0.972509 276:-0.967213 277:-0.987368 278:-0.995708 279:-0.967828 280:-0.979221 281:-0.977273 282:-0.963719 283:-0.991561 284:-0.985714 285:-1 286:-0.99635 287:-0.99375 288:-0.98008 289:-0.973231 290:-0.985267 291:-0.991304 292:-0.982256 293:-0.983416 294:-0.991919 295:-0.983471 296:-0.989501 297:-0.99376 298:-0.971781 299:-0.977337 300:-0.994178 301:-0.992933 302:-0.992727 303:-0.989889 304:-0.980512 305:-0.976119 306:-0.97901 307:-0.975567 308:-0.998021 
0 0 0 0 128 128 1:-0.936181 2:-1 3:-1 4:-1 5:-1 6:-1 7:-1 8:-1 9:-1 10:-1 11:-1 12:-1 13:-1 14:-1 15:-1 16:-1 17:-1 18:-1 19:-1 20:-1 21:-1 22:-1 23:-1 24:-1 25:-1 26:-1 27:-1 28:-1 29:-1 30:-1 31:-1 32:-1 33:-1 34:-1 35:-1 36:-1 37:-1 38:-1 39:-1 40:-1 41:-1 42:-1 43:-1 44:-1 45:-1 46:-0.936574 47:-1 48:-1 49:-1 50:-1 51:-1 52:-1 53:-1 54:-1 55:-1 56:-1 57:-1 58:-1 59:-1 60:-1 61:-1 62:-1 63:-1 64:-1 65:-1 66:-1 67:-1 68:-1 69:-1 70:-1 71:-1 72:-1 73:-1 74:-1 75:-1 76:-1 77:-1 78:-1 79:-1 80:-1 81:-1 82:-1 83:-1 84:-1 85:-1 86:-1 87:-1 88:-1 89:-1 90:-1 91:-0.792096 92:-1 93:-1 94:-1 95:-1 96:-1 97:-1 98:-1 99:-1 100:-1 101:-1 102:-1 103:-1 104:-1 105:-1 106:-1 107:-1 108:-1 109:-1 110:-1 111:-1 112:-1 113:-1 114:-1 115:-1 116:-1 117:-1 118:-1 119:-1 120:-1 121:-1 122:-1 123:-1 124:-1 125:-1 126:-1 127:-1 128:-1 129:-1 130:-1 131:-1 132:-1 133:-1 134:-1 135:-1 136:-1 137:-1 138:-1 139:-1 140:-1 141:-1 142:-1 143:-1 144:-1 145:-1 146:-1 147:-1 148:-1 149:-1 150:-1 151:-1 152:-1 153:-1 154:-1 155:-1 156:-1 157:-1 158:-1 159:-1 160:-1 161:-1 162:-1 163:-1 164:-1 165:-1 166:-1 167:-1 168:-1 169:-1 170:-1 171:-1 172:-1 173:-1 174:-1 175:-1 176:-1 177:-1 178:-1 179:-1 180:-1 181:-0.9715 182:-1 183:-1 184:-1 185:-1 186:-1 187:-1 188:-1 189:-1 190:-1 191:-1 192:-1 193:-1 194:-1 195:-1 196:-1 197:-1 198:-1 199:-1 200:-1 201:-1 202:-1 203:-1 204:-1 205:-1 206:-1 207:-1 208:-1 209:-1 210:-1 211:-1 212:-1 213:-1 214:-1 215:-1 216:-1 217:-1 218:-1 219:-1 220:-1 221:-1 222:-1 223:-1 224:-1 225:-1 226:-1 227:-1 228:-1 229:-1 230:-1 231:-1 232:-1 233:-1 234:-1 235:-1 236:-1 237:-1 238:-1 239:-1 240:-1 241:-1 242:-1 243:-1 244:-1 245:-0.985401 246:-1 247:-0.965217 248:-1 249:-0.978495 250:-0.94 251:-0.968 252:-1 253:-0.96319 254:-1 255:-1 256:-0.989899 257:-0.991489 258:-0.952191 259:-0.982759 260:-0.97546 261:-0.932692 262:-0.957672 263:-0.978417 264:-0.972509 265:-0.965517 266:-0.952191 267:-0.993711 268:-0.989501 269:-0.979003 270:-0.97619 271:-0.986667 272:-0.977941 273:-0.978102 274:-0.97351 275:-0.958763 276:-0.971311 277:-0.978947 278:-1 279:-0.989276 280:-0.963636 281:-0.977273 282:-0.986395 283:-0.983122 284:-0.975 285:-0.980723 286:-0.989051 287:-1 288:-0.984064 289:-0.992352 290:-0.992634 291:-0.991304 292:-0.984791 293:-0.976783 294:-0.991919 295:-0.988981 296:-0.986877 297:-0.981279 298:-0.982363 299:-0.977337 300:-0.97671 301:-0.989399 302:-0.985455 303:-0.9818 304:-0.985384 305:-0.98408 306:-0.997001 307:-0.986038 308:-0.998681 
0 0 0 0 128 128 1:-0.934599 2:-1 3:-1 4:-1 5:-1 6:-1 7:-1 8:-1 9:-1 10:-1 11:-1 12:-1 13:-1 14:-1 15:-1 16:-1 17:-1 18:-1 19:-1 20:-1 21:-1 22:-1 23:-1 24:-1 25:-1 26:-1 27:-1 28:-1 29:-1 30:-1 31:-1 32:-1 33:-1 34:-1 35:-1 36:-1 37:-1 38:-1 39:-1 40:-1 41:-1 42:-1 43:-1 44:-1 45:-1 46:-0.935002 47:-1 48:-1 49:-1 50:-1 51:-1 52:-1 53:-1 54:-1 55:-1 56:-1 57:-1 58:-1 59:-1 60:-1 61:-1 62:-1 63:-1 64:-1 65:-1 66:-1 67:-1 68:-1 69:-1 70:-1 71:-1 72:-1 73:-1 74:-1 75:-1 76:-1 77:-1 78:-1 79:-1 80:-1 81:-1 82:-1 83:-1 84:-1 85:-1 86:-1 87:-1 88:-1 89:-1 90:-1 91:-0.786942 92:-1 93:-1 94:-1 95:-1 96:-1 97:-1 98:-1 99:-1 100:-1 101:-1 102:-1 103:-1 104:-1 105:-1 106:-1 107:-1 108:-1 109:-1 110:-1 111:-1 112:-1 113:-1 114:-1 115:-1 116:-1 117:-1 118:-1 119:-1 120:-1 121:-1 122:-1 123:-1 124:-1 125:-1 126:-1 127:-1 128:-1 129:-1 130:-1 131:-1 132:-1 133:-1 134:-1 135:-1 136:-1 137:-1 138:-1 139:-1 140:-1 141:-1 142:-1 143:-1 144:-1 145:-1 146:-1 147:-1 148:-1 149:-1 150:-1 151:-1 152:-1 153:-1 154:-1 155:-1 156:-1 157:-1 158:-1 159:-1 160:-1 161:-1 162:-1 163:-1 164:-1 165:-1 166:-1 167:-1 168:-1 169:-1 170:-1 171:-1 172:-1 173:-1 174:-1 175:-1 176:-1 177:-1 178:-1 179:-1 180:-1 181:-0.974853 182:-1 183:-1 184:-1 185:-1 186:-1 187:-1 188:-1 189:-1 190:-1 191:-1 192:-1 193:-1 194:-1 195:-1 196:-1 197:-1 198:-1 199:-1 200:-1 201:-1 202:-1 203:-1 204:-1 205:-1 206:-1 207:-1 208:-1 209:-1 210:-1 211:-1 212:-1 213:-1 214:-1 215:-1 216:-1 217:-1 218:-1 219:-1 220:-1 221:-1 222:-1 223:-1 224:-1 225:-1 226:-1 227:-1 228:-1 229:-1 230:-1 231:-1 232:-1 233:-1 234:-1 235:-1 236:-1 237:-1 238:-1 239:-1 240:-1 241:-1 242:-1 243:-1 244:-0.982906 245:-1 246:-1 247:-1 248:-1 249:-1 250:-0.94 251:-0.984 252:-0.983193 253:-1 254:-1 255:-0.977011 256:-1 257:-0.991489 258:-0.984064 259:-0.991379 260:-1 261:-0.980769 262:-0.989418 263:-0.985612 264:-0.938144 265:-1 266:-0.976096 267:-0.968553 268:-0.963255 269:-0.979003 270:-0.964286 271:-0.953333 272:-0.963235 273:-0.956204 274:-0.986755 275:-0.986254 276:-0.983607 277:-0.983158 278:-0.982833 279:-0.989276 280:-0.984416 281:-0.988636 282:-0.99093 283:-0.987342 284:-0.982143 285:-0.980723 286:-0.985401 287:-0.996875 288:-0.98008 289:-0.969407 290:-0.985267 291:-0.985507 292:-0.989861 293:-0.993367 294:-0.975758 295:-0.972452 296:-0.981627 297:-0.975039 298:-0.968254 299:-0.977337 300:-0.985444 301:-0.989399 302:-0.98303 303:-0.989889 304:-0.98782 305:-0.9801 306:-0.97901 307:-0.986038 308:-0.997361 
0 0 0 0 128 128 1:-0.932226 2:-1 3:-1 4:-1 5:-1 6:-1 7:-1 8:-1 9:-1 10:-1 11:-1 12:-1 13:-1 14:-1 15:-1 16:-1 17:-1 18:-1 19:-1 20:-1 21:-1 22:-1 23:-1 24:-1 25:-1 26:-1 27:-1 28:-1 29:-1 30:-1 31:-1 32:-1 33:-1 34:-1 35:-1 36:-1 37:-1 38:-1 39:-1 40:-1 41:-1 42:-1 43:-1 44:-1 45:-1 46:-0.932643 47:-1 48:-1 49:-1 50:-1 51:-1 52:-1 53:-1 54:-1 55:-1 56:-1 57:-1 58:-1 59:-1 60:-1 61:-1 62:-1 63:-1 64:-1 65:-1 66:-1 67:-1 68:-1 69:-1 70:-1 71:-1 72:-1 73:-1 74:-1 75:-1 76:-1 77:-1 78:-1 79:-1 80:-1 81:-1 82:-1 83:-1 84:-1 85:-1 86:-1 87:-1 88:-1 89:-1 90:-1 91:-0.77921 92:-1 93:-1 94:-1 95:-1 96:-1 97:-1 98:-1 99:-1 100:-1 101:-1 102:-1 103:-1 104:-1 105:-1 106:-1 107:-1 108:-1 109:-1 110:-1 111:-1 112:-1 113:-1 114:-1 115:-1 116:-1 117:-1 118:-1 119:-1 120:-1 121:-1 122:-1 123:-1 124:-1 125:-1 126:-1 127:-1 128:-1 129:-1 130:-1 131:-1 132:-1 133:-1 134:-1 135:-1 136:-1 137:-1 138:-1 139:-1 140:-1 141:-1 142:-1 143:-1 144:-1 145:-1 146:-1 147:-1 148:-1 149:-1 150:-1 151:-1 152:-1 153:-1 154:-1 155:-1 156:-1 157:-1 158:-1 159:-1 160:-1 161:-1 162:-1 163:-1 164:-1 165:-1 166:-1 167:-1 168:-1 169:-1 170:-1 171:-1 172:-1 173:-1 174:-1 175:-1 176:-1 177:-1 178:-1 179:-1 180:-1 181:-0.979883 182:-1 183:-1 184:-1 185:-1 186:-1 187:-1 188:-1 189:-1 190:-1 191:-1 192:-1 193:-1 194:-1 195:-1 196:-1 197:-1 198:-1 199:-1 200:-1 201:-1 202:-1 203:-1 204:-1 205:-1 206:-1 207:-1 208:-1 209:-1 210:-1 211:-1 212:-1 213:-1 214:-1 215:-1 216:-1 217:-1 218:-1 219:-1 220:-1 221:-1 222:-1 223:-1 224:-1 225:-1 226:-1 227:-1 228:-1 229:-1 230:-1 231:-1 232:-1 233:-1 234:-1 235:-1 236:-1 237:-1 238:-1 239:-1 240:-1 241:-1 242:-1 243:-1 244:-1 245:-1 246:-1 247:-0.982609 248:-1 249:-1 250:-0.96 251:-1 252:-1 253:-1 254:-1 255:-1 256:-0.979798 257:-1 258:-1 259:-0.991379 260:-0.98773 261:-0.980769 262:-0.968254 263:-0.971223 264:-0.993127 265:-0.944828 266:-0.968127 267:-0.981132 268:-0.989501 269:-0.979003 270:-0.964286 271:-1 272:-0.992647 273:-0.985401 274:-0.966887 275:-0.958763 276:-0.983607 277:-0.983158 278:-0.991416 279:-0.941019 280:-0.974026 281:-0.977273 282:-0.963719 283:-0.949367 284:-0.989286 285:-0.961446 286:-0.992701 287:-0.98125 288:-0.972112 289:-0.950287 290:-0.966851 291:-0.982609 292:-0.984791 293:-0.9801 294:-0.979798 295:-0.986226 296:-0.973753 297:-0.978159 298:-0.954145 299:-0.949008 300:-0.985444 301:-0.982332 302:-0.990303 303:-0.995956 304:-0.997564 305:-0.99602 306:-0.991004 307:-1 308:-1 
0 0 0 0 128 128 1:-0.9375 2:-1 3:-1 4:-1 5:-1 6:-1 7:-1 8:-1 9:-1 10:-1 11:-1 12:-1 13:-1 14:-1 15:-1 16:-1 17:-1 18:-1 19:-1 20:-1 21:-1 22:-1 23:-1 24:-1 25:-1 26:-1 27:-1 28:-1 29:-1 30:-1 31:-1 32:-1 33:-1 34:-1 35:-1 36:-1 37:-1 38:-1 39:-1 40:-1 41:-1 42:-1 43:-1 44:-1 45:-1 46:-0.937885 47:-1 48:-1 49:-1 50:-1 51:-1 52:-1 53:-1 54:-1 55:-1 56:-1 57:-1 58:-1 59:-1 60:-1 61:-1 62:-1 63:-1 64:-1 65:-1 66:-1 67:-1 68:-1 69:-1 70:-1 71:-1 72:-1 73:-1 74:-1 75:-1 76:-1 77:-1 78:-1 79:-1 80:-1 81:-1 82:-1 83:-1 84:-1 85:-1 86:-1 87:-1 88:-1 89:-1 90:-1 91:-0.796392 92:-1 93:-1 94:-1 95:-1 96:-1 97:-1 98:-1 99:-1 100:-1 101:-1 102:-1 103:-1 104:-1 105:-1 106:-1 107:-1 108:-1 109:-1 110:-1 111:-1 112:-1 113:-1 114:-1 115:-1 116:-1 117:-1 118:-1 119:-1 120:-1 121:-1 122:-1 123:-1 124:-1 125:-1 126:-1 127:-1 128:-1 129:-1 130:-1 131:-1 132:-1 133:-1 134:-1 135:-1 136:-1 137:-1 138:-1 139:-1 140:-1 141:-1 142:-1 143:-1 144:-1 145:-1 146:-1 147:-1 148:-1 149:-1 150:-1 151:-1 152:-1 153:-1 154:-1 155:-1 156:-1 157:-1 158:-1 159:-1 160:-1 161:-1 162:-1 163:-1 164:-1 165:-1 166:-1 167:-1 168:-1 169:-1 170:-1 171:-1 172:-1 173:-1 174:-1 175:-1 176:-1 177:-1 178:-1 179:-1 180:-1 181:-0.978206 182:-1 183:-1 184:-1 185:-1 186:-1 187:-1 188:-1 189:-1 190:-1 191:-1 192:-1 193:-1 194:-1 195:-1 196:-1 197:-1 198:-1 199:-1 200:-1 201:-1 202:-1 203:-1 204:-1 205:-1 206:-1 207:-1 208:-1 209:-1 210:-1 211:-1 212:-1 213:-1 214:-1 215:-1 216:-1 217:-1 218:-1 219:-1 220:-1 221:-1 222:-1 223:-1 224:-1 225:-1 226:-1 227:-1 228:-1 229:-1 230:-1 231:-1 232:-1 233:-1 234:-1 235:-1 236:-1 237:-1 238:-1 239:-1 240:-1 241:-1 242:-1 243:-1 244:-1 245:-1 246:-1 247:-1 248:-1 249:-1 250:-1 251:-0.984 252:-0.966387 253:-1 254:-0.978022 255:-1 256:-1 257:-1 258:-0.984064 259:-0.982759 260:-0.95092 261:-0.990385 262:-0.978836 263:-0.985612 264:-0.993127 265:-0.965517 266:-0.984064 267:-0.981132 268:-0.994751 269:-0.973753 270:-0.988095 271:-0.973333 272:-0.985294 273:-0.970803 274:-0.986755 275:-0.979381 276:-0.987705 277:-0.983158 278:-0.982833 279:-0.978552 280:-0.974026 281:-0.977273 282:-0.981859 283:-0.962025 284:-0.982143 285:-0.966265 286:-0.992701 287:-0.978125 288:-0.984064 289:-0.98088 290:-0.981584 291:-0.976812 292:-0.984791 293:-0.983416 294:-0.967677 295:-0.975207 296:-0.979003 297:-0.98752 298:-0.985891 299:-0.977337 300:-0.985444 301:-0.978799 302:-0.990303 303:-0.983822 304:-0.975639 305:-0.99204 306:-1 307:-0.986038 308:-0.998021 
116.7618812235962 0 0 0 128 128 1:-0.941719 2:-1 3:-1 4:-1 5:-1 6:-1 7:-1 8:-1 9:-1 10:-1 11:-1 12:-1 13:-1 14:-1 15:-1 16:-1 17:-1 18:-1 19:-1 20:-1 21:-1 22:-1 23:-1 24:-1 25:-1 26:-1 27:-1 28:-1 29:-1 30:-1 31:-1 32:-1 33:-1 34:-1 35:-1 36:-1 37:-1 38:-1 39:-1 40:-1 41:-1 42:-1 43:-1 44:-1 45:-1 46:-0.942078 47:-1 48:-1 49:-1 50:-1 51:-1 52:-1 53:-1 54:-1 55:-1 56:-1 57:-1 58:-1 59:-1 60:-1 61:-1 62:-1 63:-1 64:-1 65:-1 66:-1 67:-1 68:-1 69:-1 70:-1 71:-1 72:-1 73:-1 74:-1 75:-1 76:-1 77:-1 78:-1 79:-1 80:-1 81:-1 82:-1 83:-1 84:-1 85:-1 86:-1 87:-1 88:-1 89:-1 90:-1 91:-0.810137 92:-1 93:-1 94:-1 95:-1 96:-1 97:-1 98:-1 99:-1 100:-1 101:-1 102:-1 103:-1 104:-1 105:-1 106:-1 107:-1 108:-1 109:-1 110:-1 111:-1 112:-1 113:-1 114:-1 115:-1 116:-1 117:-1 118:-1 119:-1 120:-1 121:-1 122:-1 123:-1 124:-1 125:-1 126:-1 127:-1 128:-1 129:-1 130:-1 131:-1 132:-1 133:-1 134:-1 135:-1 136:-1 137:-1 138:-1 139:-1 140:-1 141:-1 142:-1 143:-1 144:-1 145:-1 146:-1 147:-1 148:-1 149:-1 150:-1 151:-1 152:-1 153:-1 154:-1 155:-1 156:-1 157:-1 158:-1 159:-1 160:-1 161:-1 162:-1 163:-1 164:-1 165:-1 166:-1 167:-1 168:-1 169:-1 170:-1 171:-1 172:-1 173:-1 174:-1 175:-1 176:-1 177:-1 178:-1 179:-1 180:-1 181:-0.969824 182:-1 183:-1 184:-1 185:-1 186:-1 187:-1 188:-1 189:-1 190:-1 191:-1 192:-1 193:-1 194:-1 195:-1 196:-1 197:-1 198:-1 199:-1 200:-1 201:-1 202:-1 203:-1 204:-1 205:-1 206:-1 207:-1 208:-1 209:-1 210:-1 211:-1 212:-1 213:-1 214:-1 215:-1 216:-1 217:-1 218:-1 219:-1 220:-1 221:-1 222:-1 223:-1 224:-1 225:-1 226:-1 227:-1 228:-1 229:-1 230:-1 231:-1 232:-1 233:-1 234:-1 235:-1 236:-1 237:-1 238:-1 239:-1 240:-1 241:-1 242:-1 243:-0.901639 244:-1 245:-0.985401 246:-0.968 247:-0.965217 248:-0.968504 249:-1 250:-0.94 251:-0.984 252:-1 253:-0.97546 254:-0.989011 255:-0.977011 256:-0.969697 257:-1 258:-0.976096 259:-0.974138 260:-0.98773 261:-1 262:-1 263:-0.992806 264:-0.986254 265:-1 266:-0.984064 267:-0.968553 268:-0.994751 269:-0.989501 270:-0.97619 271:-0.986667 272:-0.992647 273:-0.985401 274:-0.960265 275:-0.993127 276:-0.991803 277:-0.991579 278:-0.995708 279:-0.994638 280:-0.994805 281:-0.977273 282:-0.995465 283:-0.978903 284:-0.996429 285:-1 286:-0.985401 287:-0.990625 288:-0.996016 289:-0.996176 290:-0.985267 291:-0.982609 292:-0.987326 293:-0.986733 294:-0.99596 295:-0.991736 296:-0.992126 297:-0.978159 298:-0.989418 299:-0.966006 300:-0.979622 301:-0.992933 302:-0.995152 303:-0.987867 304:-0.961023 305:-0.970149 306:-0.961019 307:-0.965096 308:-0.996702 
0 0 0 0 128 128 1:-0.914557 2:-1 3:-1 4:-1 5:-1 6:-1 7:-1 8:-1 9:-1 10:-1 11:-1 12:-1 13:-1 14:-1 15:-1 16:-1 17:-1 18:-1 19:-1 20:-1 21:-1 22:-1 23:-1 24:-1 25:-1 26:-1 27:-1 28:-1 29:-1 30:-1 31:-1 32:-1 33:-1 34:-1 35:-1 36:-1 37:-1 38:-1 39:-1 40:-1 41:-1 42:-1 43:-1 44:-1 45:-1 46:-0.915083 47:-1 48:-1 49:-1 50:-1 51:-1 52:-1 53:-1 54:-1 55:-1 56:-1 57:-1 58:-1 59:-1 60:-1 61:-1 62:-1 63:-1 64:-1 65:-1 66:-1 67:-1 68:-1 69:-1 70:-1 71:-1 72:-1 73:-1 74:-1 75:-1 76:-1 77:-1 78:-1 79:-1 80:-1 81:-1 82:-1 83:-1 84:-1 85:-1 86:-1 87:-1 88:-1 89:-1 90:-1 91:-0.721649 92:-1 93:-1 94:-1 95:-1 96:-1 97:-1 98:-1 99:-1 100:-1 101:-1 102:-1 103:-1 104:-1 105:-1 106:-1 107:-1 108:-1 109:-1 110:-1 111:-1 112:-1 113:-1 114:-1 115:-1 116:-1 117:-1 118:-1 119:-1 120:-1 121:-1 122:-1 123:-1 124:-1 125:-1 126:-1 127:-1 128:-1 129:-1 130:-1 131:-1 132:-1 133:-1 134:-1 135:-1 136:-1 137:-1 138:-1 139:-1 140:-1 141:-1 142:-1 143:-1 144:-1 145:-1 146:-1 147:-1 148:-1 149:-1 150:-1 151:-1 152:-1 153:-1 154:-1 155:-1 156:-1 157:-1 158:-1 159:-1 160:-1 161:-1 162:-1 163:-1 164:-1 165:-1 166:-1 167:-1 168:-1 169:-1 170:-1 171:-1 172:-1 173:-1 174:-1 175:-1 176:-1 177:-1 178:-1 179:-1 180:-1 181:-0.979883 182:-1 183:-1 184:-1 185:-1 186:-1 187:-1 188:-1 189:-1 190:-1 191:-1 192:-1 193:-1 194:-1 195:-1 196:-1 197:-1 198:-1 199:-1 200:-1 201:-1 202:-1 203:-1 204:-1 205:-1 206:-1 207:-1 208:-1 209:-1 210:-1 211:-1 212:-1 213:-1 214:-1 215:-1 216:-1 217:-1 218:-1 219:-1 220:-1 221:-1 222:-1 223:-1 224:-1 225:-1 226:-1 227:-1 228:-1 229:-1 230:-1 231:-1 232:-1 233:-1 234:-1 235:-1 236:-1 237:-1 238:-1 239:-1 240:-1 241:-1 242:-1 243:-1 244:-1 245:-0.985401 246:-1 247:-1 248:-0.984252 249:-1 250:-0.98 251:-0.952 252:-0.983193 253:-0.95092 254:-0.923077 255:-0.988506 256:-0.979798 257:-0.940426 258:-0.968127 259:-0.982759 260:-0.91411 261:-0.971154 262:-0.989418 263:-0.964029 264:-0.938144 265:-0.951724 266:-0.944223 267:-0.962264 268:-0.984252 269:-0.963255 270:-0.958333 271:-0.96 272:-0.941176 273:-0.948905 274:-0.933775 275:-0.924399 276:-0.954918 277:-0.974737 278:-0.961373 279:-0.967828 280:-0.927273 281:-0.965909 282:-0.931973 283:-0.966245 284:-0.960714 285:-0.966265 286:-0.974453 287:-0.990625 288:-0.98008 289:-0.977055 290:-0.98895 291:-0.991304 292:-0.987326 293:-0.986733 294:-0.971717 295:-0.99449 296:-0.994751 297:-0.99376 298:-0.985891 299:-0.971671 300:-0.991266 301:-0.982332 302:-0.995152 303:-0.995956 304:-0.997564 305:-0.99801 306:-0.997001 307:-0.99651 308:-0.995383 
0 0 0 0 127.283395755969 128 1:-0.914293 2:-1 3:-1 4:-1 5:-1 6:-1 7:-1 8:-1 9:-1 10:-1 11:-1 12:-1 13:-1 14:-1 15:-1 16:-1 17:-1 18:-1 19:-1 20:-1 21:-1 22:-1 23:-1 24:-1 25:-1 26:-1 27:-1 28:-1 29:-1 30:-1 31:-1 32:-1 33:-1 34:-1 35:-1 36:-1 37:-1 38:-1 39:-1 40:-1 41:-1 42:-1 43:-1 44:-1 45:-1 46:-0.914821 47:-1 48:-1 49:-1 50:-1 51:-1 52:-1 53:-1 54:-1 55:-1 56:-1 57:-1 58:-1 59:-1 60:-1 61:-1 62:-1 63:-1 64:-1 65:-1 66:-1 67:-1 68:-1 69:-1 70:-1 71:-1 72:-1 73:-1 74:-1 75:-1 76:-1 77:-1 78:-1 79:-1 80:-1 81:-1 82:-1 83:-1 84:-1 85:-1 86:-1 87:-1 88:-1 89:-1 90:-1 91:-0.72079 92:-1 93:-1 94:-1 95:-1 96:-1 97:-1 98:-1 99:-1 100:-1 101:-1 102:-1 103:-1 104:-1 105:-1 106:-1 107:-1 108:-1 109:-1 110:-1 111:-1 112:-1 113:-1 114:-1 115:-1 116:-1 117:-1 118:-1 119:-1 120:-1 121:-1 122:-1 123:-1 124:-1 125:-1 126:-1 127:-1 128:-1 129:-1 130:-1 131:-1 132:-1 133:-1 134:-1 135:-1 136:-1 137:-1 138:-1 139:-1 140:-1 141:-1 142:-1 143:-1 144:-1 145:-1 146:-1 147:-1 148:-1 149:-1 150:-1 151:-1 152:-1 153:-1 154:-1 155:-1 156:-1 157:-1 158:-1 159:-1 160:-1 161:-1 162:-1 163:-1 164:-1 165:-1 166:-1 167:-1 168:-1 169:-1 170:-1 171:-1 172:-1 173:-1 174:-1 175:-1 176:-1 177:-1 178:-1 179:-1 180:-1 181:-0.978206 182:-1 183:-1 184:-1 185:-1 186:-1 187:-1 188:-1 189:-1 190:-1 191:-1 192:-1 193:-1 194:-1 195:-1 196:-1 197:-1 198:-1 199:-1 200:-1 201:-1 202:-1 203:-1 204:-1 205:-1 206:-1 207:-1 208:-1 209:-1 210:-1 211:-1 212:-1 213:-1 214:-1 215:-1 216:-1 217:-1 218:-1 219:-1 220:-1 221:-1 222:-1 223:-1 224:-1 225:-1 226:-1 227:-1 228:-1 229:-1 230:-1 231:-1 232:-1 233:-1 234:-1 235:-1 236:-1 237:-1 238:-1 239:-1 240:-1 241:-1 242:-1 243:-0.967213 244:-0.965812 245:-0.956204 246:-0.984 247:-0.982609 248:-1 249:-0.978495 250:-1 251:-0.984 252:-0.983193 253:-0.98773 254:-0.989011 255:-0.965517 256:-0.969697 257:-0.965957 258:-0.968127 259:-0.948276 260:-0.92638 261:-0.942308 262:-0.957672 263:-0.956835 264:-0.986254 265:-0.972414 266:-0.968127 267:-0.974843 268:-0.968504 269:-0.963255 270:-0.988095 271:-0.946667 272:-0.941176 273:-0.941606 274:-0.927152 275:-0.95189 276:-0.959016 277:-0.957895 278:-0.944206 279:-0.941019 280:-0.932468 281:-0.914773 282:-0.945578 283:-0.957806 284:-0.971429 285:-0.980723 286:-0.989051 287:-0.9875 288:-0.984064 289:-0.988528 290:-0.981584 291:-0.994203 292:-0.992395 293:-0.99005 294:-0.979798 295:-0.991736 296:-0.981627 297:-0.978159 298:-0.982363 299:-0.983003 300:-0.982533 301:-0.985866 302:-0.995152 303:-0.987867 304:-0.992692 305:-0.99602 306:-1 307:-1 308:-1 
128 0 0 0 128 128 1:-0.928006 2:-1 3:-1 4:-1 5:-1 6:-1 7:-1 8:-1 9:-1 10:-1 11:-1 12:-1 13:-1 14:-1 15:-1 16:-1 17:-1 18:-1 19:-1 20:-1 21:-1 22:-1 23:-1 24:-1 25:-1 26:-1 27:-1 28:-1 29:-1 30:-1 31:-1 32:-1 33:-1 34:-1 35:-1 36:-1 37:-1 38:-1 39:-1 40:-1 41:-1 42:-1 43:-1 44:-1 45:-1 46:-0.92845 47:-1 48:-1 49:-1 50:-1 51:-1 52:-1 53:-1 54:-1 55:-1 56:-1 57:-1 58:-1 59:-1 60:-1 61:-1 62:-1 63:-1 64:-1 65:-1 66:-1 67:-1 68:-1 69:-1 70:-1 71:-1 72:-1 73:-1 74:-1 75:-1 76:-1 77:-1 78:-1 79:-1 80:-1 81:-1 82:-1 83:-1 84:-1 85:-1 86:-1 87:-1 88:-1 89:-1 90:-1 91:-0.765464 92:-1 93:-1 94:-1 95:-1 96:-1 97:-1 98:-1 99:-1 100:-1 101:-1 102:-1 103:-1 104:-1 105:-1 106:-1 107:-1 108:-1 109:-1 110:-1 111:-1 112:-1 113:-1 114:-1 115:-1 116:-1 117:-1 118:-1 119:-1 120:-1 121:-1 122:-1 123:-1 124:-1 125:-1 126:-1 127:-1 128:-1 129:-1 130:-1 131:-1 132:-1 133:-1 134:-1 135:-1 136:-1 137:-1 138:-1 139:-1 140:-1 141:-1 142:-1 143:-1 144:-1 145:-1 146:-1 147:-1 148:-1 149:-1 150:-1 151:-1 152:-1 153:-1 154:-1 155:-1 156:-1 157:-1 158:-1 159:-1 160:-1 161:-1 162:-1 163:-1 164:-1 165:-1 166:-1 167:-1 168:-1 169:-1 170:-1 171:-1 172:-1 173:-1 174:-1 175:-1 176:-1 177:-1 178:-1 179:-1 180:-1 181:-0.946354 182:-1 183:-1 184:-1 185:-1 186:-1 187:-1 188:-1 189:-1 190:-1 191:-1 192:-1 193:-1 194:-1 195:-1 196:-1 197:-1 198:-1 199:-1 200:-1 201:-1 202:-1 203:-1 204:-1 205:-1 206:-1 207:-1 208:-1 209:-1 210:-1 211:-1 212:-1 213:-1 214:-1 215:-1 216:-1 217:-1 218:-1 219:-1 220:-1 221:-1 222:-1 223:-1 224:-1 225:-1 226:-1 227:-1 228:-1 229:-1 230:-1 231:-1 232:-1 233:-1 234:-1 235:-1 236:-1 237:-1 238:-1 239:-1 240:-1 241:-1 242:-1 243:-1 244:-0.897436 245:-0.839416 246:-0.904 247:-0.878261 248:-0.92126 249:-0.956989 250:-0.9 251:-0.92 252:-0.89916 253:-0.96319 254:-0.978022 255:-0.942529 256:-0.959596 257:-0.991489 258:-0.960159 259:-0.956897 260:-0.97546 261:-0.971154 262:-0.968254 263:-0.971223 264:-0.993127 265:-0.986207 266:-0.968127 267:-0.987421 268:-0.973753 269:-0.984252 270:-0.97619 271:-0.966667 272:-0.970588 273:-0.970803 274:-0.993377 275:-0.965636 276:-0.983607 277:-0.978947 278:-1 279:-0.994638 280:-0.984416 281:-0.977273 282:-0.986395 283:-0.995781 284:-0.989286 285:-0.990361 286:-0.992701 287:-1 288:-0.996016 289:-0.988528 290:-0.992634 291:-0.997101 292:-0.992395 293:-0.996683 294:-0.991919 295:-0.99449 296:-0.992126 297:-0.984399 298:-1 299:-1 300:-0.994178 301:-0.985866 302:-0.985455 303:-0.993933 304:-0.980512 305:-1 306:-0.988006 307:-0.975567 308:-0.98285 
0 0 0 0 128 128 1:-0.913502 2:-1 3:-1 4:-1 5:-1 6:-1 7:-1 8:-1 9:-1 10:-1 11:-1 12:-1 13:-1 14:-1 15:-1 16:-1 17:-1 18:-1 19:-1 20:-1 21:-1 22:-1 23:-1 24:-1 25:-1 26:-1 27:-1 28:-1 29:-1 30:-1 31:-1 32:-1 33:-1 34:-1 35:-1 36:-1 37:-1 38:-1 39:-1 40:-1 41:-1 42:-1 43:-1 44:-1 45:-1 46:-0.914035 47:-1 48:-1 49:-1 50:-1 51:-1 52:-1 53:-1 54:-1 55:-1 56:-1 57:-1 58:-1 59:-1 60:-1 61:-1 62:-1 63:-1 64:-1 65:-1 66:-1 67:-1 68:-1 69:-1 70:-1 71:-1 72:-1 73:-1 74:-1 75:-1 76:-1 77:-1 78:-1 79:-1 80:-1 81:-1 82:-1 83:-1 84:-1 85:-1 86:-1 87:-1 88:-1 89:-1 90:-1 91:-0.718213 92:-1 93:-1 94:-1 95:-1 96:-1 97:-1 98:-1 99:-1 100:-1 101:-1 102:-1 103:-1 104:-1 105:-1 106:-1 107:-1 108:-1 109:-1 110:-1 111:-1 112:-1 113:-1 114:-1 115:-1 116:-1 117:-1 118:-1 119:-1 120:-1 121:-1 122:-1 123:-1 124:-1 125:-1 126:-1 127:-1 128:-1 129:-1 130:-1 131:-1 132:-1 133:-1 134:-1 135:-1 136:-1 137:-1 138:-1 139:-1 140:-1 141:-1 142:-1 143:-1 144:-1 145:-1 146:-1 147:-1 148:-1 149:-1 150:-1 151:-1 152:-1 153:-1 154:-1 155:-1 156:-1 157:-1 158:-1 159:-1 160:-1 161:-1 162:-1 163:-1 164:-1 165:-1 166:-1 167:-1 168:-1 169:-1 170:-1 171:-1 172:-1 173:-1 174:-1 175:-1 176:-1 177:-1 178:-1 179:-1 180:-1 181:-0.983236 182:-1 183:-1 184:-1 185:-1 186:-1 187:-1 188:-1 189:-1 190:-1 191:-1 192:-1 193:-1 194:-1 195:-1 196:-1 197:-1 198:-1 199:-1 200:-1 201:-1 202:-1 203:-1 204:-1 205:-1 206:-1 207:-1 208:-1 209:-1 210:-1 211:-1 212:-1 213:-1 214:-1 215:-1 216:-1 217:-1 218:-1 219:-1 220:-1 221:-1 222:-1 223:-1 224:-1 225:-1 226:-1 227:-1 228:-1 229:-1 230:-1 231:-1 232:-1 233:-1 234:-1 235:-1 236:-1 237:-1 238:-1 239:-1 240:-1 241:-1 242:-1 243:-0.967213 244:-1 245:-0.970803 246:-1 247:-0.982609 248:-1 249:-1 250:-0.98 251:-0.952 252:-0.94958 253:-0.97546 254:-0.989011 255:-0.931034 256:-0.929293 257:-0.965957 258:-0.976096 259:-0.974138 260:-0.90184 261:-0.990385 262:-0.957672 263:-0.956835 264:-0.972509 265:-0.951724 266:-0.960159 267:-0.943396 268:-0.979003 269:-0.963255 270:-0.958333 271:-0.946667 272:-0.963235 273:-0.912409 274:-0.940397 275:-0.95189 276:-0.971311 277:-0.949474 278:-0.982833 279:-0.930295 280:-0.937662 281:-0.897727 282:-0.945578 283:-0.978903 284:-0.985714 285:-0.975904 286:-0.989051 287:-0.990625 288:-0.992032 289:-0.984704 290:-0.98895 291:-0.982609 292:-0.989861 293:-0.976783 294:-0.991919 295:-0.986226 296:-0.986877 297:-0.99064 298:-0.982363 299:-0.971671 300:-0.982533 301:-0.971731 302:-0.997576 303:-0.987867 304:-0.995128 305:-0.99801 306:-0.991004 307:-0.99651 308:-0.99934 
128 0 0 0 128 128 1:-0.945411 2:-1 3:-1 4:-1 5:-1 6:-1 7:-1 8:-1 9:-1 10:-1 11:-1 12:-1 13:-1 14:-1 15:-1 16:-1 17:-1 18:-1 19:-1 20:-1 21:-1 22:-1 23:-1 24:-1 25:-1 26:-1 27:-1 28:-1 29:-1 30:-1 31:-1 32:-1 33:-1 34:-1 35:-1 36:-1 37:-1 38:-1 39:-1 40:-1 41:-1 42:-1 43:-1 44:-1 45:-1 46:-0.945748 47:-1 48:-1 49:-1 50:-1 51:-1 52:-1 53:-1 54:-1 55:-1 56:-1 57:-1 58:-1 59:-1 60:-1 61:-1 62:-1 63:-1 64:-1 65:-1 66:-1 67:-1 68:-1 69:-1 70:-1 71:-1 72:-1 73:-1 74:-1 75:-1 76:-1 77:-1 78:-1 79:-1 80:-1 81:-1 82:-1 83:-1 84:-1 85:-1 86:-1 87:-1 88:-1 89:-1 90:-1 91:-0.822165 92:-1 93:-1 94:-1 95:-1 96:-1 97:-1 98:-1 99:-1 100:-1 101:-1 102:-1 103:-1 104:-1 105:-1 106:-1 107:-1 108:-1 109:-1 110:-1 111:-1 112:-1 113:-1 114:-1 115:-1 116:-1 117:-1 118:-1 119:-1 120:-1 121:-1 122:-1 123:-1 124:-1 125:-1 126:-1 127:-1 128:-1 129:-1 130:-1 131:-1 132:-1 133:-1 134:-1 135:-1 136:-1 137:-1 138:-1 139:-1 140:-1 141:-1 142:-1 143:-1 144:-1 145:-1 146:-1 147:-1 148:-1 149:-1 150:-1 151:-1 152:-1 153:-1 154:-1 155:-1 156:-1 157:-1 158:-1 159:-1 160:-1 161:-1 162:-1 163:-1 164:-1 165:-1 166:-1 167:-1 168:-1 169:-1 170:-1 171:-1 172:-1 173:-1 174:-1 175:-1 176:-1 177:-1 178:-1 179:-1 180:-1 181:-0.959765 182:-1 183:-1 184:-1 185:-1 186:-1 187:-1 188:-1 189:-1 190:-1 191:-1 192:-1 193:-1 194:-1 195:-1 196:-1 197:-1 198:-1 199:-1 200:-1 201:-1 202:-1 203:-1 204:-1 205:-1 206:-1 207:-1 208:-1 209:-1 210:-1 211:-1 212:-1 213:-1 214:-1 215:-1 216:-1 217:-1 218:-1 219:-1 220:-1 221:-1 222:-1 223:-1 224:-1 225:-1 226:-1 227:-1 228:-1 229:-1 230:-1 231:-1 232:-1 233:-1 234:-1 235:-1 236:-1 237:-1 238:-1 239:-1 240:-1 241:-1 242:-1 243:-1 244:-0.982906 245:-0.985401 246:-0.984 247:-0.982609 248:-0.984252 249:-0.978495 250:-0.98 251:-1 252:-0.983193 253:-0.97546 254:-1 255:-0.988506 256:-1 257:-0.991489 258:-0.992032 259:-1 260:-0.98773 261:-0.951923 262:-0.989418 263:-0.978417 264:-0.979381 265:-0.97931 266:-0.968127 267:-0.981132 268:-0.973753 269:-1 270:-1 271:-0.986667 272:-0.963235 273:-0.985401 274:-0.980132 275:-0.958763 276:-0.995902 277:-0.987368 278:-0.987124 279:-0.97319 280:-0.979221 281:-0.971591 282:-0.986395 283:-1 284:-0.992857 285:-0.985542 286:-0.992701 287:-0.996875 288:-0.976096 289:-0.957935 290:-0.98895 291:-1 292:-0.99493 293:-0.99005 294:-0.99596 295:-0.997245 296:-0.979003 297:-0.968799 298:-0.992945 299:-0.994334 300:-0.997089 301:-0.992933 302:-0.995152 303:-0.991911 304:-0.975639 305:-0.978109 306:-0.973013 307:-0.982548 308:-1 
128 0 0 0 128 128 1:-0.945411 2:-1 3:-1 4:-1 5:-1 6:-1 7:-1 8:-1 9:-1 10:-1 11:-1 12:-1 13:-1 14:-1 15:-1 16:-1 17:-1 18:-1 19:-1 20:-1 21:-1 22:-1 23:-1 24:-1 25:-1 26:-1 27:-1 28:-1 29:-1 30:-1 31:-1 32:-1 33:-1 34:-1 35:-1 36:-1 37:-1 38:-1 39:-1 40:-1 41:-1 42:-1 43:-1 44:-1 45:-1 46:-0.945748 47:-1 48:-1 49:-1 50:-1 51:-1 52:-1 53:-1 54:-1 55:-1 56:-1 57:-1 58:-1 59:-1 60:-1 61:-1 62:-1 63:-1 64:-1 65:-1 66:-1 67:-1 68:-1 69:-1 70:-1 71:-1 72:-1 73:-1 74:-1 75:-1 76:-1 77:-1 78:-1 79:-1 80:-1 81:-1 82:-1 83:-1 84:-1 85:-1 86:-1 87:-1 88:-1 89:-1 90:-1 91:-0.822165 92:-1 93:-1 94:-1 95:-1 96:-1 97:-1 98:-1 99:-1 100:-1 101:-1 102:-1 103:-1 104:-1 105:-1 106:-1 107:-1 108:-1 109:-1 110:-1 111:-1 112:-1 113:-1 114:-1 115:-1 116:-1 117:-1 118:-1 119:-1 120:-1 121:-1 122:-1 123:-1 124:-1 125:-1 126:-1 127:-1 128:-1 129:-1 130:-1 131:-1 132:-1 133:-1 134:-1 135:-1 136:-1 137:-1 138:-1 139:-1 140:-1 141:-1 142:-1 143:-1 144:-1 145:-1 146:-1 147:-1 148:-1 149:-1 150:-1 151:-1 152:-1 153:-1 154:-1 155:-1 156:-1 157:-1 158:-1 159:-1 160:-1 161:-1 162:-1 163:-1 164:-1 165:-1 166:-1 167:-1 168:-1 169:-1 170:-1 171:-1 172:-1 173:-1 174:-1 175:-1 176:-1 177:-1 178:-1 179:-1 180:-1 181:-0.9715 182:-1 183:-1 184:-1 185:-1 186:-1 187:-1 188:-1 189:-1 190:-1 191:-1 192:-1 193:-1 194:-1 195:-1 196:-1 197:-1 198:-1 199:-1 200:-1 201:-1 202:-1 203:-1 204:-1 205:-1 206:-1 207:-1 208:-1 209:-1 210:-1 211:-1 212:-1 213:-1 214:-1 215:-1 216:-1 217:-1 218:-1 219:-1 220:-1 221:-1 222:-1 223:-1 224:-1 225:-1 226:-1 227:-1 228:-1 229:-1 230:-1 231:-1 232:-1 233:-1 234:-1 235:-1 236:-1 237:-1 238:-1 239:-1 240:-1 241:-1 242:-1 243:-1 244:-1 245:-0.970803 246:-0.968 247:-0.982609 248:-0.968504 249:-0.978495 250:-0.98 251:-0.904 252:-0.983193 253:-1 254:-0.989011 255:-0.977011 256:-1 257:-0.974468 258:-0.984064 259:-1 260:-0.97546 261:-1 262:-1 263:-0.992806 264:-1 265:-0.97931 266:-0.944223 267:-0.993711 268:-0.989501 269:-1 270:-0.970238 271:-0.986667 272:-0.985294 273:-0.985401 274:-0.993377 275:-0.986254 276:-0.983607 277:-0.995789 278:-0.991416 279:-0.978552 280:-0.994805 281:-0.994318 282:-0.995465 283:-0.995781 284:-0.975 285:-0.985542 286:-0.989051 287:-0.9875 288:-0.976096 289:-0.988528 290:-0.981584 291:-0.988406 292:-0.987326 293:-0.983416 294:-0.983838 295:-0.988981 296:-0.997375 297:-0.981279 298:-0.989418 299:-0.966006 300:-0.979622 301:-1 302:-0.990303 303:-0.995956 304:-0.985384 305:-0.98607 306:-0.964018 307:-0.975567 308:-0.995383 
0 0 0 0 0 36.74393700938472 1:-0.996572 2:-0.985612 3:-0.980952 4:-1 5:-0.972603 6:-0.96875 7:-0.98895 8:-1 9:-1 10:-0.996055 11:-1 12:-1 13:-1 14:-1 15:-0.995638 16:-1 17:-0.990017 18:-0.991946 19:-0.997351 20:-0.991747 21:-0.943396 22:-0.972428 23:-0.980211 24:-0.95225 25:-0.931485 26:-0.964706 27:-0.956386 28:-0.950887 29:-0.955473 30:-0.93634 31:-0.946731 32:-0.957096 33:-0.958884 34:-0.988977 35:-0.976471 36:-0.909091 37:-0.832168 38:-0.90625 39:-0.983871 40:-0.963303 41:-1 42:-1 43:-1 44:-1 45:-1 46:-0.996069 47:-1 48:-0.963636 49:-0.969849 50:-0.891892 51:-0.859873 52:-0.908046 53:-0.957447 54:-0.915663 55:-0.97449 56:-0.990323 57:-0.903846 58:-0.935829 59:-0.944444 60:-0.857143 61:-0.910828 62:-0.942029 63:-0.975309 64:-0.92562 65:-0.944251 66:-0.966427 67:-0.985356 68:-0.989956 69:-0.980344 70:-0.970085 71:-0.950464 72:-0.913876 73:-0.904192 74:-0.874126 75:-0.920635 76:-0.872 77:-0.924812 78:-0.90604 79:-0.933775 80:-0.938776 81:-0.923077 82:-0.891566 83:-0.927273 84:-0.943925 85:-0.963636 86:-0.985765 87:-0.938326 88:-0.96139 89:-0.988372 90:-0.987775 91:-0.999141 92:-0.993691 93:-0.987544 94:-0.976019 95:-0.969582 96:-0.975928 97:-0.986543 98:-0.971787 99:-0.972452 100:-0.970742 101:-0.969231 102:-0.958333 103:-0.956436 104:-0.984536 105:-0.979412 106:-0.980983 107:-0.955963 108:-0.949153 109:-0.95614 110:-0.967599 111:-0.943144 112:-0.976744 113:-0.99419 114:-0.995776 115:-1 116:-1 117:-0.990991 118:-0.992857 119:-0.992308 120:-0.975385 121:-0.993846 122:-0.992806 123:-0.987768 124:-0.98773 125:-0.99093 126:-0.986755 127:-0.975758 128:-0.986949 129:-0.981707 130:-0.988166 131:-0.997264 132:-0.967599 133:-0.976231 134:-0.98524 135:-0.975347 136:-0.978884 137:-0.967493 138:-0.975463 139:-0.973388 140:-0.999573 141:-0.999719 142:-0.999699 143:-0.999635 144:-1 145:-0.989754 146:-0.971909 147:-0.948567 148:-0.93716 149:-0.966087 150:-0.950443 151:-0.958853 152:-0.959871 153:-0.999797 154:-0.999999 155:-1 156:-1 157:-1 158:-0.996638 159:-0.994065 160:-0.977338 161:-0.998875 162:-0.979405 163:-0.969516 164:-0.9737 165:-0.98154 166:-0.98487 167:-0.960947 168:-0.926577 169:-0.843951 170:-0.900044 171:-0.993221 172:-1 173:-1 174:-0.993279 175:-0.965006 176:-0.943329 177:-0.968671 178:-0.976471 179:-0.971567 180:-0.977421 181:-0.999255 182:-0.987766 183:-0.999712 184:-1 185:-1 186:-1 187:-1 188:-0.976091 189:-0.971631 190:-0.965231 191:-0.950061 192:-0.967918 193:-0.970689 194:-0.989664 195:-0.998362 196:-1 197:-0.996104 198:-0.991681 199:-0.972299 200:-0.969268 201:-0.959253 202:-0.969099 203:-0.968997 204:-0.964076 205:-0.996274 206:-0.999924 207:-0.999999 208:-1 209:-1 210:-0.999529 211:-0.998452 212:-0.993121 213:-0.999236 214:-0.966346 215:-0.958604 216:-0.975991 217:-0.957159 218:-0.956879 219:-0.96608 220:-0.972872 221:-0.953478 222:-0.977537 223:-0.997273 224:-1 225:-1 226:-1 227:-0.95928 228:-0.95618 229:-0.97498 230:-0.969077 231:-0.984203 232:-0.990271 233:-0.998872 234:-0.996826 235:-0.999964 236:-1 237:-1 238:-1 239:-1 240:-1 241:-0.976471 242:-1 243:-1 244:-0.982906 245:-0.956204 246:-1 247:-0.982609 248:-1 249:-1 250:-0.98 251:-1 252:-0.983193 253:-1 254:-0.989011 255:-1 256:-0.979798 257:-0.982979 258:-0.984064 259:-0.991379 260:-1 261:-0.990385 262:-0.978836 263:-0.985612 264:-0.979381 265:-0.986207 266:-0.968127 267:-0.962264 268:-0.947507 269:-0.968504 270:-0.970238 271:-0.973333 272:-0.977941 273:-0.948905 274:-0.97351 275:-0.95189 276:-0.983607 277:-0.995789 278:-0.974249 279:-0.983914 280:-0.974026 281:-0.9375 282:-0.977324 283:-0.974684 284:-0.978571 285:-0.980723 286:-0.981752 287:-0.971875 288:-0.972112 289:-0.977055 290:-0.970534 291:-0.973913 292:-0.99493 293:-0.966833 294:-0.971717 295:-0.961433 296:-0.976378 297:-0.975039 298:-0.961199 299:-0.954674 300:-0.970888 301:-0.985866 302:-0.995152 303:-0.991911 304:-0.992692 305:-0.99403 306:-0.994003 307:-0.986038 308:-0.996702 
0 0 0 0 0 23.05462274687686 1:-0.996308 2:-1 3:-1 4:-1 5:-0.986301 6:-1 7:-1 8:-1 9:-0.992395 10:-0.996055 11:-1 12:-1 13:-1 14:-0.996997 15:-1 16:-0.997214 17:-0.996672 18:-0.991946 19:-0.997351 20:-0.997249 21:-0.981132 22:-0.978791 23:-0.983509 24:-0.94123 25:-0.947798 26:-0.947059 27:-0.959502 28:-0.972715 29:-0.948052 30:-0.952255 31:-0.951574 32:-0.953795 33:-0.955947 34:-0.981629 35:-0.95817 36:-0.916667 37:-0.832168 38:-0.8125 39:-0.935484 40:-0.963303 41:-0.981651 42:-1 43:-1 44:-1 45:-1 46:-0.996331 47:-0.993921 48:-0.992727 49:-0.969849 50:-0.978378 51:-0.961783 52:-0.931034 53:-0.77305 54:-0.927711 55:-0.938776 56:-0.967742 57:-0.903846 58:-0.935829 59:-0.966667 60:-0.883117 61:-0.898089 62:-0.932367 63:-0.950617 64:-0.942149 65:-0.909408 66:-0.961631 67:-0.979079 68:-0.996234 69:-0.990172 70:-0.961538 71:-0.944272 72:-0.913876 73:-0.928144 74:-0.93007 75:-0.920635 76:-0.92 77:-0.834586 78:-0.932886 79:-0.92053 80:-0.969388 81:-0.923077 82:-0.939759 83:-0.939394 84:-0.943925 85:-0.963636 86:-0.964413 87:-0.973568 88:-0.96139 89:-0.992248 90:-0.982885 91:-0.996564 92:-0.992429 93:-0.991103 94:-0.971223 95:-0.969582 96:-0.96991 97:-0.99159 98:-0.949843 99:-0.972452 100:-0.981191 101:-0.965385 102:-0.979167 103:-0.968317 104:-0.984536 105:-0.964706 106:-0.977813 107:-0.944954 108:-0.957627 109:-0.97076 110:-0.958763 111:-0.946488 112:-0.966408 113:-0.988381 114:-0.997888 115:-0.993691 116:-0.994764 117:-0.995495 118:-0.992857 119:-0.969231 120:-1 121:-0.975385 122:-0.985612 123:-0.969419 124:-0.981595 125:-0.99093 126:-0.98234 127:-1 128:-0.983687 129:-0.996951 130:-0.994083 131:-0.994528 132:-0.994109 133:-0.983022 134:-0.97417 135:-0.990755 136:-0.974188 137:-0.957984 138:-0.98249 139:-0.98764 140:-0.991174 141:-0.995714 142:-0.999108 143:-0.999993 144:-1 145:-1 146:-0.990908 147:-0.968411 148:-0.955934 149:-0.958464 150:-0.935606 151:-0.97034 152:-0.980545 153:-0.979812 154:-0.994992 155:-0.999999 156:-1 157:-1 158:-1 159:-0.997654 160:-0.978474 161:-0.991215 162:-0.971971 163:-0.968424 164:-0.969313 165:-0.98198 166:-0.953701 167:-0.919999 168:-0.872096 169:-0.930124 170:-1 171:-1 172:-1 173:-1 174:-1 175:-0.952283 176:-0.941132 177:-0.961877 178:-0.977383 179:-0.972647 180:-0.994042 181:-0.998371 182:-0.999982 183:-1 184:-1 185:-1 186:-1 187:-1 188:-0.972932 189:-0.961234 190:-0.963418 191:-0.951031 192:-0.95393 193:-0.962367 194:-0.977023 195:-0.999999 196:-1 197:-1 198:-0.97734 199:-0.963327 200:-0.946778 201:-0.95378 202:-0.956766 203:-0.966922 204:-0.966512 205:-0.982384 206:-0.997513 207:-0.999853 208:-1 209:-1 210:-1 211:-0.997201 212:-0.987844 213:-0.993603 214:-0.956921 215:-0.955643 216:-0.967563 217:-0.953481 218:-0.947963 219:-0.962341 220:-0.963339 221:-0.97974 222:-1 223:-0.998987 224:-1 225:-1 226:-1 227:-0.947755 228:-0.95176 229:-0.963935 230:-0.976532 231:-0.986342 232:-0.99557 233:-0.998568 234:-0.999997 235:-1 236:-0.998051 237:-1 238:-1 239:-1 240:-1 241:-1 242:-0.942857 243:-1 244:-0.982906 245:-1 246:-1 247:-0.982609 248:-0.984252 249:-1 250:-1 251:-0.984 252:-0.983193 253:-1 254:-1 255:-1 256:-0.989899 257:-1 258:-0.984064 259:-0.982759 260:-0.91411 261:-0.971154 262:-0.989418 263:-0.964029 264:-0.979381 265:-0.972414 266:-0.960159 267:-0.962264 268:-0.958005 269:-0.989501 270:-0.97619 271:-0.933333 272:-0.955882 273:-0.948905 274:-0.980132 275:-0.958763 276:-0.979508 277:-0.974737 278:-0.978541 279:-0.967828 280:-0.979221 281:-0.960227 282:-0.963719 283:-0.987342 284:-0.975 285:-0.956627 286:-0.989051 287:-0.984375 288:-0.976096 289:-0.98088 290:-0.974217 291:-0.982609 292:-0.979721 293:-0.963516 294:-0.967677 295:-0.980716 296:-0.973753 297:-0.968799 298:-0.964727 299:-0.977337 300:-0.97671 301:-0.992933 302:-1 303:-0.997978 304:-0.990256 305:-0.99204 306:-0.994003 307:-0.993019 308:-0.99934 
28.36615740065599 0 0 0 0 13.22524136583273 1:-0.981804 2:-0.971223 3:-1 4:-1 5:-0.986301 6:-1 7:-1 8:-1 9:-1 10:-1 11:-0.995122 12:-0.997326 13:-0.99556 14:-0.993994 15:-0.997819 16:-1 17:-0.996672 18:-1 19:-1 20:-0.997249 21:-0.996226 22:-0.995758 23:-0.96438 24:-0.932048 25:-0.964111 26:-0.979412 27:-0.981308 28:-0.9809 29:-0.981447 30:-0.973475 31:-0.961259 32:-0.950495 33:-0.964758 34:-0.981629 35:-0.947712 36:-0.94697 37:-0.832168 38:-0.859375 39:-0.951613 40:-0.908257 41:-0.944954 42:-0.96748 43:-0.987421 44:-0.987805 45:-1 46:-0.981654 47:-0.933131 48:-0.927273 49:-0.899497 50:-0.913514 51:-0.974522 52:-0.988506 53:-0.943262 54:-0.951807 55:-0.989796 56:-0.996774 57:-0.951923 58:-0.97861 59:-0.944444 60:-0.922078 61:-0.961783 62:-0.874396 63:-0.942387 64:-0.958678 65:-0.888502 66:-0.961631 67:-0.98954 68:-0.993723 69:-0.980344 70:-0.948718 71:-1 72:-0.885167 73:-0.904192 74:-0.804196 75:-0.888889 76:-0.952 77:-0.909774 78:-0.986577 79:-0.97351 80:-0.94898 81:-1 82:-0.963855 83:-0.975758 84:-0.943925 85:-0.963636 86:-0.935943 87:-0.947137 88:-0.953668 89:-0.968992 90:-0.99022 91:-0.997423 92:-0.996215 93:-0.987544 94:-0.978417 95:-0.977186 96:-0.97994 97:-0.986543 98:-0.971787 99:-0.961433 100:-0.972832 101:-0.946154 102:-0.967262 103:-0.972277 104:-0.974227 105:-0.952941 106:-0.946117 107:-0.959633 108:-0.944915 109:-0.961988 110:-0.964654 111:-0.919732 112:-0.878553 113:-0.972404 114:-0.980993 115:-0.993691 116:-1 117:-1 118:-0.992857 119:-0.992308 120:-1 121:-1 122:-0.992806 123:-1 124:-1 125:-0.995465 126:-1 127:-0.99596 128:-0.996737 129:-0.996951 130:-1 131:-0.991792 132:-0.997054 133:-0.996604 134:-1 135:-0.993837 136:-0.971421 137:-0.97502 138:-0.989901 139:-0.989857 140:-0.990084 141:-0.993421 142:-0.991455 143:-0.991985 144:-0.991335 145:-0.988048 146:-0.995684 147:-0.987626 148:-0.996984 149:-0.95386 150:-0.962598 151:-0.982184 152:-0.983307 153:-0.976841 154:-0.988534 155:-0.987507 156:-0.975448 157:-0.973742 158:-0.965977 159:-0.997292 160:-0.996684 161:-0.999947 162:-0.972532 163:-0.974889 164:-0.988524 165:-0.991317 166:-0.994288 167:-0.993619 168:-0.99089 169:-0.988143 170:-0.993416 171:-0.995738 172:-0.996098 173:-0.994633 174:-0.999968 175:-0.953086 176:-0.954153 177:-0.985558 178:-0.988684 179:-0.986909 180:-0.987582 181:-0.997323 182:-0.97879 183:-0.984648 184:-0.986554 185:-0.975174 186:-0.953205 187:-1 188:-0.9731 189:-0.9676 190:-0.966832 191:-0.970041 192:-0.961152 193:-0.967018 194:-0.960567 195:-0.981159 196:-0.971235 197:-0.967483 198:-0.953186 199:-0.968967 200:-0.983817 201:-0.953782 202:-0.964401 203:-0.968972 204:-0.973867 205:-0.981217 206:-0.992909 207:-0.993029 208:-0.994315 209:-0.992439 210:-0.98946 211:-0.995438 212:-0.99857 213:-0.999903 214:-0.959854 215:-0.955482 216:-0.9739 217:-0.974984 218:-0.955445 219:-0.976089 220:-0.965401 221:-0.967025 222:-0.978243 223:-0.980016 224:-0.975587 225:-0.970725 226:-0.965302 227:-0.951028 228:-0.951998 229:-0.971847 230:-0.982282 231:-0.985513 232:-0.992257 233:-0.993299 234:-0.99127 235:-0.993722 236:-0.990528 237:-0.983408 238:-0.975982 239:-0.999856 240:-1 241:-1 242:-0.971429 243:-1 244:-1 245:-0.941606 246:-0.968 247:-0.982609 248:-0.984252 249:-0.978495 250:-0.98 251:-0.952 252:-0.94958 253:-0.98773 254:-0.989011 255:-1 256:-0.989899 257:-0.991489 258:-0.992032 259:-1 260:-0.96319 261:-1 262:-0.978836 263:-0.985612 264:-0.979381 265:-0.986207 266:-0.968127 267:-1 268:-0.973753 269:-0.989501 270:-0.988095 271:-0.96 272:-0.977941 273:-0.985401 274:-0.960265 275:-0.958763 276:-0.983607 277:-0.974737 278:-0.957082 279:-0.962466 280:-0.958442 281:-0.9375 282:-0.968254 283:-0.957806 284:-0.982143 285:-0.985542 286:-0.99635 287:-0.99375 288:-1 289:-0.992352 290:-0.963168 291:-0.962319 292:-0.974651 293:-0.99005 294:-0.99596 295:-1 296:-0.979003 297:-0.971919 298:-0.968254 299:-0.954674 300:-0.965066 301:-0.975265 302:-0.987879 303:-0.991911 304:-0.98782 305:-0.99801 306:-0.985007 307:-0.989529 308:-0.997361 
0 0 0 0 11.13240799258266 0 1:-0.992616 2:-0.985612 3:-1 4:-1 5:-1 6:-1 7:-1 8:-1 9:-1 10:-1 11:-1 12:-1 13:-1 14:-1 15:-1 16:-0.997214 17:-1 18:-1 19:-1 20:-1 21:-0.996226 22:-1 23:-0.94657 24:-0.858586 25:-0.87602 26:-0.908824 27:-0.915888 28:-0.953615 29:-0.896104 30:-0.920424 31:-0.898305 32:-0.943894 33:-0.958884 34:-0.987753 35:-0.986928 36:-0.969697 37:-0.958042 38:-0.96875 39:-1 40:-1 41:-1 42:-1 43:-1 44:-1 45:-1 46:-0.993186 47:-0.987842 48:-0.941818 49:-0.949749 50:-0.945946 51:-0.936306 52:-0.942529 53:-0.815603 54:-0.903614 55:-0.943878 56:-0.974194 57:-0.903846 58:-0.893048 59:-0.866667 60:-0.909091 61:-0.872611 62:-0.874396 63:-0.950617 64:-0.950413 65:-0.902439 66:-0.956835 67:-0.987448 68:-0.987445 69:-0.982801 70:-0.931624 71:-0.925697 72:-0.913876 73:-0.916168 74:-0.86014 75:-0.825397 76:-0.872 77:-0.834586 78:-0.812081 79:-0.92053 80:-0.867347 81:-0.871795 82:-0.963855 83:-0.866667 84:-0.850467 85:-0.918182 86:-0.921708 87:-0.903084 88:-0.92278 89:-0.976744 90:-0.997555 91:-0.995704 92:-0.992429 93:-0.987544 94:-0.980815 95:-0.982256 96:-0.993982 97:-0.989907 98:-0.996865 99:-0.977961 100:-0.983281 101:-0.957692 102:-0.979167 103:-0.924752 104:-0.963918 105:-0.941176 106:-0.930269 107:-0.933945 108:-0.889831 109:-0.888889 110:-0.902798 111:-0.862876 112:-0.865633 113:-0.943355 114:-0.983105 115:-0.996845 116:-1 117:-1 118:-1 119:-0.992308 120:-1 121:-0.987692 122:-0.992806 123:-1 124:-0.993865 125:-1 126:-1 127:-1 128:-1 129:-1 130:-1 131:-1 132:-0.997054 133:-1 134:-1 135:-1 136:-0.964428 137:-0.953897 138:-0.95947 139:-0.962999 140:-0.967212 141:-0.974851 142:-0.979598 143:-0.963412 144:-0.955691 145:-0.988357 146:-0.999999 147:-1 148:-1 149:-0.943027 150:-0.932637 151:-0.952762 152:-0.963306 153:-0.957015 154:-0.967621 155:-0.97699 156:-0.928521 157:-0.914764 158:-0.981391 159:-1 160:-1 161:-1 162:-0.969147 163:-0.957545 164:-0.94995 165:-0.914658 166:-0.928381 167:-0.924917 168:-0.941613 169:-0.929178 170:-0.933999 171:-0.966986 172:-0.997035 173:-1 174:-1 175:-0.947716 176:-0.926301 177:-0.964246 178:-0.964298 179:-0.961936 180:-0.961269 181:-0.995336 182:-0.962664 183:-0.946216 184:-0.98721 185:-0.999999 186:-1 187:-1 188:-0.965064 189:-0.953861 190:-0.955749 191:-0.96976 192:-0.978946 193:-0.985936 194:-0.991243 195:-0.992467 196:-0.989239 197:-0.989959 198:-0.981753 199:-0.962332 200:-0.955916 201:-0.940403 202:-0.950678 203:-0.961667 204:-0.96086 205:-0.981091 206:-0.989191 207:-0.993424 208:-0.989277 209:-0.989858 210:-0.990857 211:-0.983559 212:-0.994959 213:-0.998507 214:-0.95325 215:-0.939014 216:-0.96587 217:-0.940424 218:-0.941994 219:-0.973427 220:-0.980544 221:-0.96558 222:-0.981469 223:-0.982259 224:-0.968676 225:-0.946675 226:-0.96366 227:-0.943387 228:-0.937849 229:-0.968648 230:-0.968101 231:-0.980031 232:-0.991521 233:-0.991108 234:-0.989274 235:-0.993232 236:-0.985439 237:-0.980252 238:-0.996389 239:-0.998068 240:-1 241:-1 242:-1 243:-1 244:-1 245:-1 246:-1 247:-0.982609 248:-0.984252 249:-0.956989 250:-1 251:-0.984 252:-1 253:-1 254:-1 255:-0.988506 256:-0.979798 257:-0.991489 258:-0.968127 259:-0.991379 260:-0.98773 261:-1 262:-0.989418 263:-0.971223 264:-0.979381 265:-0.972414 266:-1 267:-0.987421 268:-0.947507 269:-0.973753 270:-0.928571 271:-0.92 272:-0.941176 273:-0.956204 274:-0.97351 275:-0.972509 276:-0.963115 277:-0.978947 278:-0.961373 279:-0.951743 280:-0.984416 281:-0.909091 282:-0.972789 283:-0.974684 284:-0.982143 285:-0.946988 286:-0.970803 287:-0.965625 288:-0.956175 289:-0.965583 290:-0.948435 291:-0.968116 292:-0.956907 293:-0.943615 294:-0.955556 295:-0.950413 296:-0.939633 297:-0.943838 298:-0.890653 299:-0.971671 300:-0.997089 301:-0.975265 302:-0.985455 303:-0.993933 304:-0.997564 305:-0.99801 306:-1 307:-0.993019 308:-0.99934 
