svm_type c_svc
kernel_type rbf
gamma 3.05176e-05
nr_class 7
total_sv 267
rho 1.20064 0.00541493 -2.06904 -0.843863 1.90752 0.181691 2.77174 -17.9919 8.60068 0.0896876 -3.01365 -31.3093 -30.3144 3.77871 -0.716991 0.29166 14.7101 -7.53887 0.59696 -0.0687053 -10.1445
label 1 2 3 4 5 6 7
nr_sv 27 51 43 68 24 19 35
SV
0 0 0 0 1119.136852657279 492.1546729218648 1:-0.995078 2:-0.992653 3:-0.984047 4:-0.981061 5:-0.971835 6:-0.978218 7:-0.981247 8:-0.976086 9:-0.976641 10:-0.980394 11:-0.977151 12:-0.978169 13:-0.972797 14:-0.976527 15:-0.974157 16:-0.977884 17:-0.970807 18:-0.976388 19:-0.976414 20:-0.982859 21:-0.980861 22:-0.978225 23:-0.979453 24:-0.97935 25:-0.978307 26:-0.977697 27:-0.975145 28:-0.979425 29:-0.984107 30:-0.979247 31:-0.983314 32:-0.979783 33:-0.98308 34:-0.983792 35:-0.979325 36:-0.982385 37:-0.974897 38:-0.97706 39:-0.984373 40:-0.986272 41:-0.982575 42:-0.983633 43:-0.983904 44:-0.988657 45:-0.978231 46:-0.979291 47:-0.983813 48:-0.982964 49:-0.97689 50:-0.980771 51:-0.982747 52:-0.978055 53:-0.98324 54:-0.982624 55:-0.98511 56:-0.983238 57:-0.97709 58:-0.978867 59:-0.982965 60:-0.981108 61:-0.982014 62:-0.983017 63:-0.985816 64:-0.973445 65:-0.989268 66:-0.821733 67:-0.643641 68:-0.552328 69:-0.588995 70:-0.63053 71:-0.612045 72:-0.55475 73:-0.648827 74:-0.627787 75:-0.596264 76:-0.581489 77:-0.583761 78:-0.554583 79:-0.554304 80:-0.538257 81:-0.458073 82:-0.460594 83:-0.432255 84:-0.380233 85:-0.43682 86:-0.402293 87:-0.300911 88:-0.32661 89:-0.230938 90:-0.316193 91:-0.339765 92:-0.340426 93:-0.391422 94:-0.406881 95:-0.425674 96:-0.425521 97:-0.435756 98:-0.425874 99:-0.408112 100:-0.462144 101:-0.427677 102:-0.46499 103:-0.415194 104:-0.506946 105:-0.488197 106:-0.460441 107:-0.506187 108:-0.460791 109:-0.515471 110:-0.449941 111:-0.558999 112:-0.487099 113:-0.516817 114:-0.519425 115:-0.562213 116:-0.514564 117:-0.519895 118:-0.594993 119:-0.588941 120:-0.596268 121:-0.592114 122:-0.567933 123:-0.565542 124:-0.626784 125:-0.566055 126:-0.57795 127:-0.554941 128:-0.632268 129:-0.906184 130:-0.645917 131:-0.533507 132:-0.593515 133:-0.471697 134:-0.441699 135:-0.454623 136:-0.366139 137:-0.290917 138:-0.274378 139:-0.168435 140:-0.148056 141:-0.112946 142:-0.1953 143:-0.0892142 144:0.0130351 145:-0.0449106 146:0.0346581 147:-0.055766 148:0.0110622 149:0.0900377 150:0.0179717 151:0.151254 152:-0.0680737 153:-0.00594652 154:0.0686864 155:-0.00640252 156:-0.0726659 157:-0.0374798 158:-0.143408 159:-0.15295 160:-0.107633 161:-0.10072 162:-0.17879 163:-0.14959 164:-0.142814 165:-0.181908 166:-0.200128 167:-0.20078 168:-0.240023 169:-0.273153 170:-0.277333 171:-0.235852 172:-0.246276 173:-0.283645 174:-0.243966 175:-0.25152 176:-0.235627 177:-0.291509 178:-0.261287 179:-0.234802 180:-0.273236 181:-0.234266 182:-0.27093 183:-0.148564 184:-0.315331 185:-0.29468 186:-0.280346 187:-0.336529 188:-0.244469 189:-0.250448 190:-0.241484 191:-0.23663 192:-0.357029 193:-1 194:-0.982161 195:-1 196:-0.966402 197:-0.979691 198:-0.976307 199:-0.966278 200:-0.95715 201:-0.960946 202:-0.95147 203:-0.949428 204:-0.949121 205:-0.960421 206:-0.947033 207:-0.949305 208:-0.951814 209:-0.943289 210:-0.938137 211:-0.940818 212:-0.953334 213:-0.947839 214:-0.946916 215:-0.97137 216:-0.967568 217:-0.961157 218:-0.967153 219:-0.982941 220:-0.981547 221:-0.982032 222:-0.983351 223:-0.988048 224:-0.992039 225:-0.996237 226:-0.988332 227:-0.997904 228:-0.997853 229:-1 230:-0.997624 231:-1 232:-1 233:-1 234:-1 235:-1 236:-1 237:-1 238:-1 239:-1 240:-1 241:-1 242:-1 243:-1 244:-1 245:-1 246:-1 247:-1 248:-1 249:-1 250:-1 251:-1 252:-1 253:-1 254:-1 255:-1 256:-1 257:-1 258:-1 259:-0.971285 260:-0.968032 261:-0.977651 262:-0.938406 263:-0.95276 264:-0.934812 265:-0.890699 266:-0.895895 267:-0.874309 268:-0.838014 269:-0.730073 270:-0.657767 271:-0.655224 272:-0.640838 273:-0.528737 274:-0.323446 275:-0.365826 276:-0.219671 277:-0.200352 278:-0.279504 279:-0.251681 280:-0.187917 281:-0.236808 282:-0.244144 283:-0.20069 284:-0.284478 285:-0.297073 286:-0.220874 287:-0.163917 288:-0.273329 289:-0.280958 290:-0.184928 291:-0.299594 292:-0.371271 293:-0.316801 294:-0.39788 295:-0.439595 296:-0.510423 297:-0.440976 298:-0.550107 299:-0.454691 300:-0.501988 301:-0.548676 302:-0.542257 303:-0.6065 304:-0.650107 305:-0.591983 306:-0.744205 307:-0.685622 308:-0.657697 309:-0.628727 310:-0.66212 311:-0.654974 312:-0.696034 313:-0.682357 314:-0.769403 315:-0.914102 316:-0.944048 317:-0.817559 318:-0.970958 319:-1 320:-1 321:-1 322:-1 323:-1 324:-0.919207 325:-0.819009 326:-0.730769 327:-0.657567 328:-0.67766 329:-0.598557 330:-0.602965 331:-0.413221 332:-0.471631 333:-0.447422 334:-0.374955 335:-0.268484 336:-0.384064 337:-0.344183 338:-0.359866 339:-0.373787 340:-0.330837 341:-0.354729 342:-0.1375 343:-0.269806 344:-0.166426 345:-0.129502 346:-0.0851087 347:-0.106309 348:-0.0519187 349:-0.0825988 350:0.00194518 351:-0.0211761 352:-0.0625436 353:0.0791731 354:0.115295 355:0.132223 356:-0.0225578 357:0.0250203 358:0.0593824 359:-0.0518219 360:0.110748 361:0.0238098 362:-0.0507333 363:-0.00294991 364:-0.251496 365:0.000327202 366:-0.099934 367:-0.235197 368:-0.0831177 369:-0.242703 370:-0.35922 371:-0.220916 372:-0.226333 373:-0.39042 374:-0.225954 375:-0.255809 376:-0.222522 377:-0.625866 378:-0.6514 379:-0.670361 380:-0.632487 381:-0.839408 382:-0.898778 383:-0.899985 384:-0.757639 385:-1 386:-0.933038 387:-0.622251 388:-0.64959 389:-0.627377 390:-0.596185 391:-0.566697 392:-0.637217 393:-0.636554 394:-0.625119 395:-0.70235 396:-0.704396 397:-0.760274 398:-0.77343 399:-0.798166 400:-0.839506 401:-0.869566 402:-0.85347 403:-0.888309 404:-0.907091 405:-0.90711 406:-0.902543 407:-0.937608 408:-0.925218 409:-0.922801 410:-0.946868 411:-0.947567 412:-0.943195 413:-0.953596 414:-0.976522 415:-0.987964 416:-0.99778 417:-0.988737 418:-0.991633 419:-0.992943 420:-0.996325 421:-1 422:-1 423:-1 424:-1 425:-1 426:-1 427:-1 428:-1 429:-1 430:-1 431:-1 432:-1 433:-1 434:-1 435:-1 436:-1 437:-1 438:-1 439:-1 440:-1 441:-1 442:-1 443:-1 444:-1 445:-1 446:-1 447:-1 448:-1 453:-1 454:-0.990433 455:-0.936498 456:-0.851174 457:-0.765175 458:-0.480492 459:-0.129441 460:-0.129554 461:0.0618117 462:0.535482 463:0.373503 464:0.395067 465:0.276377 466:-0.0803831 467:-0.284851 468:-0.368888 469:-0.139639 470:-0.301129 471:-0.410412 472:-0.522676 473:-0.569208 474:-0.511816 475:-0.511229 476:-0.576594 477:-0.645442 478:-0.649694 479:-0.570837 480:-0.588298 481:-0.600501 482:-0.622517 483:-0.71653 484:-0.809162 485:-0.739488 486:-0.760345 487:-0.734197 488:-0.787695 489:-0.747197 490:-0.803871 491:-0.814891 492:-0.856092 493:-0.844101 494:-0.928492 495:-0.883414 496:-0.914799 497:-0.916767 498:-0.931529 499:-0.882426 500:-0.810951 501:-0.794236 502:-0.84439 503:-0.854548 504:-0.929585 505:-0.947093 506:-0.971745 507:-0.932258 508:-0.94859 509:-0.877044 510:-0.850428 511:-0.386162 512:-0.32514 522:-1 523:-0.961308 524:-0.721722 525:-0.638441 526:-0.34104 527:-0.201022 528:-0.381391 529:-0.338518 530:-0.389993 531:-0.279619 532:-0.25574 533:-0.256702 534:-0.189651 535:-0.231322 536:-0.202703 537:-0.0689964 538:-0.156862 539:-0.180459 540:-0.206877 541:-0.158196 542:-0.0610447 543:-0.0854498 544:-0.0180781 545:-0.00488286 546:0.0397623 547:-0.0119823 548:0.114931 549:0.0318446 550:0.0637197 551:0.0914946 552:0.235365 553:0.054986 554:0.0737606 555:-0.0878841 556:-0.0458728 557:-0.0763289 558:-0.237153 559:-0.339957 560:-0.298637 561:-0.210737 562:-0.333707 563:-0.34216 564:-0.403586 565:-0.608876 566:-0.643134 567:-0.818144 568:-0.665823 569:-0.695353 570:-0.724232 571:-0.845704 572:-0.889351 573:-0.837531 574:-0.830635 575:-0.820566 576:-1 585:-1 586:-1 587:-0.977475 588:-0.762333 589:-0.634126 590:-0.368162 591:-0.433277 592:-0.421073 593:-0.23049 594:-0.113483 595:-0.470628 596:-0.423583 597:-0.530393 598:-0.459364 599:-0.419124 600:-0.461747 601:-0.382022 602:-0.304068 603:-0.290272 604:-0.408948 605:-0.116101 606:-0.411466 607:-0.307087 608:-0.668553 609:-0.184357 610:-0.296287 611:-0.310792 612:-0.234018 613:-0.377525 614:-0.127137 615:-0.571573 616:0.0540491 617:-0.123844 618:-0.238469 619:0.0350138 620:-0.0935041 621:-0.565791 622:-0.288435 623:-0.344658 624:-0.696262 625:-0.339442 626:-0.659628 627:-0.430278 628:-0.473693 629:-0.568575 630:-0.331565 631:-0.535994 632:-0.677648 633:-0.800985 634:-0.871396 635:-0.857277 636:-0.929667 637:-1 638:-1 
0 528.8991629800809 0 0 453.222302825721 313.4840398393573 1:-0.990151 2:-0.993049 3:-0.980292 4:-0.976078 5:-0.970931 6:-0.973728 7:-0.972347 8:-0.975529 9:-0.969331 10:-0.980461 11:-0.979142 12:-0.969526 13:-0.964451 14:-0.9734 15:-0.973661 16:-0.970006 17:-0.972362 18:-0.97057 19:-0.963803 20:-0.971928 21:-0.971599 22:-0.973166 23:-0.974956 24:-0.973287 25:-0.979314 26:-0.974897 27:-0.976613 28:-0.976178 29:-0.977908 30:-0.972675 31:-0.973789 32:-0.96416 33:-0.975111 34:-0.976948 35:-0.966058 36:-0.975551 37:-0.967188 38:-0.974634 39:-0.968775 40:-0.97747 41:-0.984081 42:-0.975246 43:-0.973691 44:-0.974835 45:-0.974484 46:-0.972622 47:-0.984714 48:-0.975837 49:-0.980162 50:-0.982092 51:-0.976658 52:-0.970203 53:-0.979735 54:-0.976765 55:-0.974642 56:-0.972921 57:-0.975422 58:-0.977508 59:-0.966449 60:-0.977608 61:-0.974765 62:-0.977883 63:-0.967961 64:-0.985107 65:-0.975563 66:-0.882808 67:-0.687194 68:-0.579337 69:-0.699561 70:-0.650625 71:-0.646113 72:-0.66396 73:-0.695002 74:-0.625614 75:-0.652606 76:-0.61804 77:-0.638155 78:-0.596712 79:-0.576609 80:-0.594722 81:-0.467921 82:-0.482882 83:-0.435378 84:-0.432088 85:-0.490334 86:-0.42427 87:-0.399199 88:-0.365351 89:-0.360726 90:-0.397736 91:-0.390886 92:-0.427768 93:-0.415798 94:-0.417525 95:-0.411681 96:-0.451032 97:-0.475639 98:-0.414679 99:-0.488985 100:-0.468983 101:-0.467117 102:-0.443002 103:-0.464204 104:-0.505057 105:-0.45947 106:-0.48181 107:-0.51245 108:-0.465396 109:-0.502676 110:-0.500632 111:-0.560755 112:-0.522906 113:-0.478914 114:-0.556004 115:-0.564986 116:-0.605166 117:-0.581022 118:-0.573715 119:-0.574162 120:-0.609395 121:-0.650357 122:-0.609859 123:-0.601412 124:-0.59715 125:-0.567101 126:-0.569549 127:-0.571877 128:-0.658434 129:-0.917718 130:-0.558571 131:-0.648968 132:-0.551523 133:-0.480059 134:-0.483843 135:-0.387567 136:-0.339955 137:-0.32155 138:-0.215672 139:-0.195821 140:-0.251224 141:-0.157078 142:-0.174598 143:-0.0818854 144:-0.0826137 145:-0.0911277 146:-0.0183678 147:-0.0092986 148:0.00484568 149:0.0228247 150:-0.0456643 151:0.0187332 152:0.0127247 153:0.000838781 154:0.0570889 155:0.0304728 156:-0.0241232 157:-0.123815 158:-0.13761 159:-0.0361806 160:-0.0599759 161:-0.134008 162:-0.0440538 163:-0.19847 164:-0.209164 165:-0.101546 166:-0.184353 167:-0.185579 168:-0.183615 169:-0.231655 170:-0.238529 171:-0.309781 172:-0.228874 173:-0.25067 174:-0.265249 175:-0.252303 176:-0.212196 177:-0.216575 178:-0.295932 179:-0.205129 180:-0.268179 181:-0.299903 182:-0.194604 183:-0.289499 184:-0.225402 185:-0.234806 186:-0.214784 187:-0.352464 188:-0.248421 189:-0.243663 190:-0.356982 191:-0.228733 192:-0.373171 193:-1 194:-0.981948 195:-0.98899 196:-0.971666 197:-0.971227 198:-0.948621 199:-0.965874 200:-0.961201 201:-0.947304 202:-0.94711 203:-0.947317 204:-0.943968 205:-0.933705 206:-0.94878 207:-0.944137 208:-0.953356 209:-0.942609 210:-0.933078 211:-0.919768 212:-0.94775 213:-0.92821 214:-0.939048 215:-0.943213 216:-0.946514 217:-0.949971 218:-0.960604 219:-0.969173 220:-0.971989 221:-0.963634 222:-0.99081 223:-0.979266 224:-0.983887 225:-0.984768 226:-0.99016 227:-0.993638 228:-0.993482 229:-1 230:-0.997595 231:-1 232:-1 233:-1 234:-1 235:-1 236:-1 237:-1 238:-1 239:-1 240:-1 241:-1 242:-1 243:-1 244:-1 245:-1 246:-1 247:-1 248:-1 249:-1 250:-1 251:-1 252:-1 253:-1 254:-1 255:-1 256:-1 257:-1 258:-0.973519 259:-0.992735 260:-0.963605 261:-0.974829 262:-0.972645 263:-0.931498 264:-0.940674 265:-0.899575 266:-0.888925 267:-0.884584 268:-0.813445 269:-0.732681 270:-0.690939 271:-0.639626 272:-0.661775 273:-0.532515 274:-0.347812 275:-0.310687 276:-0.169068 277:-0.199287 278:-0.208989 279:-0.191511 280:-0.321932 281:-0.227661 282:-0.227304 283:-0.191105 284:-0.252292 285:-0.28865 286:-0.185079 287:-0.176766 288:-0.143045 289:-0.1792 290:-0.166227 291:-0.247804 292:-0.295671 293:-0.285076 294:-0.414444 295:-0.408746 296:-0.562843 297:-0.53742 298:-0.554135 299:-0.592388 300:-0.599966 301:-0.621565 302:-0.675049 303:-0.716055 304:-0.679815 305:-0.717707 306:-0.714815 307:-0.718214 308:-0.757 309:-0.747359 310:-0.769722 311:-0.69144 312:-0.72657 313:-0.781414 314:-0.693715 315:-0.811657 316:-0.830133 317:-0.815373 318:-0.882441 319:-0.816754 320:-1 321:-1 322:-1 323:-1 324:-1 325:-0.877893 326:-0.772952 327:-0.614959 328:-0.749075 329:-0.550982 330:-0.517848 331:-0.419098 332:-0.431169 333:-0.147886 334:-0.304992 335:-0.285468 336:-0.277393 337:-0.306157 338:-0.347815 339:-0.358555 340:-0.452282 341:-0.319405 342:-0.284945 343:-0.252152 344:-0.220159 345:-0.14834 346:-0.129325 347:0.0202774 348:-0.130503 349:-0.088794 350:0.0599012 351:0.0886891 352:0.0228592 353:0.00904185 354:0.109634 355:-0.0133477 356:0.221899 357:0.103224 358:0.055432 359:0.164152 360:0.120278 361:0.167585 362:0.025449 363:-0.00760893 364:-0.143898 365:0.0455856 366:-0.0843516 367:-0.260103 368:-0.126081 369:-0.37048 370:-0.474525 371:-0.283912 372:-0.258707 373:-0.451658 374:-0.437333 375:-0.324798 376:-0.536352 377:-0.463623 378:-0.608024 379:-0.688651 380:-0.654648 381:-0.90249 382:-0.743912 383:-0.696359 384:-0.754735 385:-1 386:-0.91481 387:-0.605883 388:-0.630858 389:-0.580323 390:-0.563776 391:-0.567586 392:-0.602494 393:-0.638925 394:-0.612502 395:-0.694581 396:-0.725202 397:-0.768121 398:-0.780877 399:-0.797373 400:-0.836637 401:-0.836792 402:-0.8614 403:-0.882189 404:-0.882116 405:-0.904899 406:-0.881884 407:-0.917918 408:-0.910808 409:-0.915119 410:-0.927512 411:-0.929693 412:-0.935037 413:-0.943746 414:-0.952482 415:-0.966781 416:-0.975291 417:-0.991002 418:-0.985671 419:-0.990262 420:-0.996281 421:-0.997797 422:-1 423:-1 424:-1 425:-1 426:-1 427:-1 428:-1 429:-1 430:-1 431:-1 432:-1 433:-1 434:-1 435:-1 436:-1 437:-1 438:-1 439:-1 440:-1 441:-1 442:-1 443:-1 444:-1 445:-1 446:-1 447:-1 448:-1 453:-1 454:-0.983864 455:-0.944917 456:-0.782097 457:-0.762361 458:-0.515069 459:-0.123115 460:0.00287254 461:0.216235 462:0.500353 463:0.319124 464:0.308992 465:0.378989 466:0.107126 467:-0.211953 468:-0.360534 469:-0.0860352 470:-0.215179 471:-0.356957 472:-0.477177 473:-0.466848 474:-0.540797 475:-0.483747 476:-0.57538 477:-0.713195 478:-0.678846 479:-0.577264 480:-0.505592 481:-0.601852 482:-0.674953 483:-0.766681 484:-0.824137 485:-0.798103 486:-0.816892 487:-0.785333 488:-0.826716 489:-0.855637 490:-0.86854 491:-0.80138 492:-0.812862 493:-0.888155 494:-0.891818 495:-0.925603 496:-0.885836 497:-0.923257 498:-0.915576 499:-0.937141 500:-0.873036 501:-0.864048 502:-0.899054 503:-0.932463 504:-0.967515 505:-0.954571 506:-0.934404 507:-0.979619 508:-1 509:-0.952802 510:-0.739318 511:-0.932641 512:-0.899567 522:-1 523:-0.921688 524:-0.630989 525:-0.698676 526:-0.436778 527:-0.271856 528:-0.36574 529:-0.288898 530:-0.352422 531:-0.147827 532:-0.203234 533:-0.164391 534:-0.184487 535:-0.100644 536:-0.162945 537:-0.112255 538:-0.0383683 539:-0.140006 540:-0.13174 541:-0.0280812 542:-0.0107418 543:0.0803417 544:-0.00458314 545:0.00340107 546:-0.0763624 547:-0.0784538 548:-0.0885452 549:-0.155246 550:0.0479783 551:0.0832924 552:0.112477 553:0.0233206 554:0.151469 555:-0.123662 556:-0.130767 557:-0.250832 558:-0.197027 559:-0.360748 560:-0.282288 561:-0.312069 562:-0.481513 563:-0.457178 564:-0.546578 565:-0.53822 566:-0.787563 567:-0.783247 568:-0.83848 569:-0.675476 570:-0.916278 571:-0.916351 572:-0.95521 573:-0.878475 574:-0.965721 575:-0.884446 576:-1 585:-1 586:-1 587:-1 588:-0.859321 589:-0.798041 590:-0.633926 591:-0.486549 592:-0.493509 593:-0.417208 594:-0.385335 595:-0.480039 596:-0.494453 597:-0.57046 598:-0.515293 599:-0.502599 600:-0.393694 601:-0.424788 602:-0.36151 603:-0.0811152 604:-0.253204 605:-0.0572658 606:-0.125626 607:-0.276164 608:-0.566752 609:-0.0797975 610:-0.242119 611:-0.0895315 612:-0.096438 613:-0.370033 614:-0.108325 615:-0.541055 616:0.17248 617:0.0930568 618:-0.0442129 619:0.0762467 620:-0.178329 621:-0.62201 622:-0.420839 623:-0.353443 624:-0.725764 625:-0.504465 626:-0.705383 627:-0.503527 628:-0.640978 629:-0.615885 630:-0.540406 631:-0.673881 632:-0.625609 633:-0.729336 634:-0.706763 635:-0.677641 636:-0.87083 637:-1 638:-1 
336.1558357606123 0 0 0 160.2626799505912 0 1:-0.986722 2:-0.98632 3:-0.97591 4:-0.975474 5:-0.968681 6:-0.972367 7:-0.964296 8:-0.966539 9:-0.971525 10:-0.974779 11:-0.961479 12:-0.964503 13:-0.965338 14:-0.963911 15:-0.965883 16:-0.959931 17:-0.971208 18:-0.971803 19:-0.973097 20:-0.960557 21:-0.964089 22:-0.968957 23:-0.969248 24:-0.975346 25:-0.973546 26:-0.96898 27:-0.978419 28:-0.965906 29:-0.970313 30:-0.973559 31:-0.970753 32:-0.973587 33:-0.972373 34:-0.972329 35:-0.973074 36:-0.977367 37:-0.97624 38:-0.970334 39:-0.972403 40:-0.970658 41:-0.966651 42:-0.976662 43:-0.977792 44:-0.974719 45:-0.971752 46:-0.967546 47:-0.977482 48:-0.970401 49:-0.971463 50:-0.968894 51:-0.970438 52:-0.963905 53:-0.977756 54:-0.972457 55:-0.966244 56:-0.972596 57:-0.972624 58:-0.9732 59:-0.972594 60:-0.964164 61:-0.968294 62:-0.974995 63:-0.978442 64:-0.979161 65:-0.865062 66:-0.700366 67:-0.537971 68:-0.490987 69:-0.539658 70:-0.486988 71:-0.438551 72:-0.378262 73:-0.501714 74:-0.400698 75:-0.427413 76:-0.39143 77:-0.309031 78:-0.319833 79:-0.188482 80:-0.132741 81:-0.133949 82:-0.107011 83:-0.161919 84:-0.216549 85:-0.21751 86:-0.223466 87:-0.132295 88:-0.178924 89:-0.213774 90:-0.266963 91:-0.304313 92:-0.235428 93:-0.253696 94:-0.311116 95:-0.224121 96:-0.371469 97:-0.286585 98:-0.263596 99:-0.307822 100:-0.267119 101:-0.300019 102:-0.312835 103:-0.347426 104:-0.316379 105:-0.33748 106:-0.341643 107:-0.314451 108:-0.35226 109:-0.301906 110:-0.382397 111:-0.419389 112:-0.432044 113:-0.431568 114:-0.451615 115:-0.446865 116:-0.467429 117:-0.463666 118:-0.479566 119:-0.452307 120:-0.454071 121:-0.436781 122:-0.481486 123:-0.436802 124:-0.447812 125:-0.418978 126:-0.514378 127:-0.381896 128:-0.512122 129:-0.876276 130:-0.769257 131:-0.699508 132:-0.582108 133:-0.409211 134:-0.355429 135:-0.260265 136:-0.198099 137:-0.0558348 138:0.0618859 139:0.0333797 140:0.102521 141:0.169766 142:0.149177 143:0.230635 144:0.235802 145:0.219614 146:0.144052 147:0.0930116 148:0.129604 149:0.171895 150:0.127655 151:0.127677 152:0.151196 153:0.202374 154:0.124202 155:0.236857 156:0.125309 157:0.120238 158:-0.0040763 159:0.0446401 160:0.0323665 161:-0.123968 162:-0.0032786 163:-0.137459 164:-0.138588 165:-0.121831 166:-0.108444 167:-0.149578 168:-0.0576653 169:-0.160716 170:-0.17237 171:-0.21059 172:-0.0656221 173:-0.187504 174:-0.0976875 175:-0.289279 176:-0.145204 177:-0.139627 178:-0.150882 179:-0.0954983 180:-0.181166 181:-0.164224 182:-0.114625 183:-0.154361 184:-0.227947 185:-0.142291 186:-0.148176 187:-0.156374 188:-0.047973 189:-0.0503284 190:-0.224531 191:-0.0254307 192:-0.150288 193:-1 194:-0.910284 195:-0.967171 196:-0.97747 197:-0.96323 198:-0.948932 199:-0.954774 200:-0.927409 201:-0.923617 202:-0.923023 203:-0.929682 204:-0.923235 205:-0.927242 206:-0.936067 207:-0.925212 208:-0.929405 209:-0.918509 210:-0.925974 211:-0.921377 212:-0.921102 213:-0.924448 214:-0.941471 215:-0.942405 216:-0.954087 217:-0.965666 218:-0.958395 219:-0.975488 220:-0.973484 221:-0.988878 222:-0.986299 223:-0.996565 224:-0.998398 225:-0.996215 226:-1 227:-1 228:-1 229:-1 230:-1 231:-1 232:-1 233:-1 234:-1 235:-1 236:-1 237:-1 238:-1 239:-1 240:-1 241:-1 242:-1 243:-1 244:-1 245:-1 246:-1 247:-1 248:-1 249:-1 250:-1 251:-1 252:-1 253:-1 254:-1 255:-1 256:-1 257:-1 258:-1 259:-1 260:-0.975883 261:-0.98708 262:-0.92767 263:-0.932064 264:-0.932886 265:-0.894367 266:-0.901528 267:-0.873102 268:-0.814806 269:-0.676963 270:-0.652676 271:-0.656462 272:-0.643753 273:-0.61029 274:-0.416317 275:-0.367363 276:-0.302965 277:-0.243648 278:-0.310051 279:-0.239265 280:-0.250556 281:-0.267576 282:-0.288687 283:-0.334716 284:-0.280289 285:-0.381974 286:-0.337285 287:-0.238575 288:-0.257286 289:-0.380897 290:-0.387338 291:-0.335751 292:-0.38818 293:-0.450241 294:-0.35004 295:-0.421322 296:-0.409068 297:-0.428383 298:-0.466331 299:-0.351771 300:-0.323749 301:-0.390389 302:-0.378086 303:-0.428665 304:-0.479576 305:-0.535154 306:-0.489775 307:-0.51212 308:-0.491249 309:-0.349687 310:-0.403514 311:-0.297835 312:-0.184678 313:-0.130951 314:-0.202683 315:-0.567995 316:-0.662323 317:-0.921353 318:-0.82473 319:-1 320:-1 321:-1 322:-1 323:-1 324:-1 325:-1 326:-0.954865 327:-0.846916 328:-0.700714 329:-0.681215 330:-0.696486 331:-0.563755 332:-0.502462 333:-0.567701 334:-0.588625 335:-0.56492 336:-0.479146 337:-0.455284 338:-0.52144 339:-0.400848 340:-0.419305 341:-0.421035 342:-0.376032 343:-0.345175 344:-0.255042 345:-0.307671 346:-0.162026 347:-0.235914 348:-0.0880903 349:-0.102859 350:0.0352129 351:-0.0428779 352:0.127233 353:0.0365662 354:0.0524937 355:0.0977277 356:0.108466 357:0.103438 358:0.0755155 359:0.086971 360:0.0533018 361:0.0733732 362:-0.0830646 363:-0.17458 364:-0.243197 365:-0.102463 366:-0.194728 367:-0.298455 368:-0.286867 369:-0.276357 370:-0.355469 371:-0.245113 372:-0.412213 373:-0.344272 374:-0.353014 375:-0.315981 376:-0.19004 377:-0.513914 378:-0.415596 379:-0.491595 380:-0.577527 381:-0.838467 382:-0.898186 383:-0.899399 384:-0.75622 385:-1 386:-0.888385 387:-0.753698 388:-0.520421 389:-0.500909 390:-0.668275 391:-0.517832 392:-0.500524 393:-0.689315 394:-0.550951 395:-0.64953 396:-0.724352 397:-0.753999 398:-0.706134 399:-0.861315 400:-0.846716 401:-0.786077 402:-0.873857 403:-0.874757 404:-0.830086 405:-0.89675 406:-0.901197 407:-0.861195 408:-0.917105 409:-0.932423 410:-0.899448 411:-0.934075 412:-0.956334 413:-0.93096 414:-0.986046 415:-0.996148 416:-1 417:-1 418:-1 419:-1 420:-1 421:-1 422:-1 423:-1 424:-1 425:-1 426:-1 427:-1 428:-1 429:-1 430:-1 431:-1 432:-1 433:-1 434:-1 435:-1 436:-1 437:-1 438:-1 439:-1 440:-1 441:-1 442:-1 443:-1 444:-1 445:-1 446:-1 447:-1 448:-1 453:-1 454:-0.971131 455:-0.866169 456:-0.735641 457:-0.727462 458:-0.347983 459:0.0797711 460:0.121 461:0.352641 462:0.222037 463:0.114389 464:0.0524238 465:-0.00509281 466:-0.182607 467:-0.445219 468:-0.544827 469:-0.385734 470:-0.527812 471:-0.569131 472:-0.559893 473:-0.513172 474:-0.450678 475:-0.26121 476:-0.407853 477:-0.455505 478:-0.467166 479:-0.427676 480:-0.462574 481:-0.510124 482:-0.699567 483:-0.622995 484:-0.721718 485:-0.796562 486:-0.766776 487:-0.817207 488:-0.91621 489:-0.892838 490:-0.945172 491:-0.961045 492:-0.842222 493:-0.932269 494:-0.944057 495:-0.866298 496:-0.946041 497:-0.905737 498:-0.85909 499:-0.835995 500:-0.714766 501:-0.661324 502:-0.608696 503:-0.352819 504:-0.510463 505:-0.650059 506:-0.466709 507:-0.189707 508:-0.480013 509:-0.104414 510:-0.339706 511:0.0860873 512:-0.700524 522:-1 523:-0.571895 524:-0.459489 525:-0.743286 526:-0.726812 527:-0.480509 528:-0.656135 529:-0.703008 530:-0.665139 531:-0.713715 532:-0.724467 533:-0.630868 534:-0.740858 535:-0.662718 536:-0.649766 537:-0.66776 538:-0.730193 539:-0.541093 540:-0.536561 541:-0.556266 542:-0.0393753 543:-0.0316793 544:-0.409116 545:0.162035 546:-0.0783574 547:-0.245144 548:0.0922343 549:-0.069014 550:-0.144448 551:0.0344221 552:-0.126706 553:-0.131777 554:-0.111072 555:0.0412566 556:-0.0380081 557:-0.0731979 558:0.301097 559:0.17999 560:0.284584 561:0.418746 562:0.214573 563:0.26994 564:0.128181 565:0.483931 566:0.0663073 567:-0.203277 568:-0.112006 569:-0.672066 570:-0.611664 571:-0.645259 572:-0.65127 573:0.0799924 574:-0.250433 575:-0.376506 576:-0.953146 585:-1 586:1 587:0.797433 588:0.235892 589:0.0432161 590:0.0188003 591:0.255627 592:0.202203 593:0.555519 594:0.612708 595:0.2333 596:0.487356 597:0.311959 598:0.521817 599:0.215105 600:0.171428 601:0.00809109 602:0.113472 603:0.294056 604:0.0916788 605:-0.260771 606:-0.098172 607:-0.590312 608:-0.201261 609:-0.545956 610:-0.737648 611:-0.640926 612:-0.68173 613:-0.77127 614:-0.904523 615:-0.903115 616:-0.72342 617:-0.881532 618:-0.855931 619:-0.748487 620:-0.875945 621:-0.933313 622:-0.76782 623:-0.845247 624:-0.901175 625:-0.912402 626:-0.932984 627:-0.700207 628:-0.900004 629:-0.827973 630:-0.790896 631:-0.895294 632:-0.911073 633:-0.921623 634:-0.913216 635:-0.885569 636:-1 637:-1 638:-1 
0 62.29193524836288 0 0 417.610934089347 0 1:-0.997858 2:-0.994001 3:-0.976282 4:-0.975543 5:-0.968568 6:-0.971528 7:-0.967174 8:-0.965317 9:-0.967941 10:-0.963007 11:-0.96333 12:-0.959724 13:-0.960352 14:-0.96102 15:-0.951 16:-0.962246 17:-0.96745 18:-0.966634 19:-0.9541 20:-0.96078 21:-0.962065 22:-0.964034 23:-0.970692 24:-0.961551 25:-0.970591 26:-0.96814 27:-0.972627 28:-0.964423 29:-0.962048 30:-0.968376 31:-0.966161 32:-0.970183 33:-0.971398 34:-0.972316 35:-0.971903 36:-0.958988 37:-0.96579 38:-0.97107 39:-0.972557 40:-0.963393 41:-0.969256 42:-0.969956 43:-0.976688 44:-0.959392 45:-0.964877 46:-0.967793 47:-0.967372 48:-0.975054 49:-0.967471 50:-0.961413 51:-0.976103 52:-0.969016 53:-0.97008 54:-0.972815 55:-0.968554 56:-0.960285 57:-0.966177 58:-0.973591 59:-0.969745 60:-0.963701 61:-0.973905 62:-0.955531 63:-0.969013 64:-0.966149 65:-0.980018 66:-0.721883 67:-0.702755 68:-0.602529 69:-0.598033 70:-0.604646 71:-0.648388 72:-0.614997 73:-0.629422 74:-0.57875 75:-0.615055 76:-0.585371 77:-0.548974 78:-0.537428 79:-0.515559 80:-0.42094 81:-0.38333 82:-0.402308 83:-0.336931 84:-0.29156 85:-0.380464 86:-0.343757 87:-0.215252 88:-0.228511 89:-0.195856 90:-0.276163 91:-0.360027 92:-0.358466 93:-0.233403 94:-0.355195 95:-0.393236 96:-0.341898 97:-0.344773 98:-0.362729 99:-0.347724 100:-0.298282 101:-0.335488 102:-0.428665 103:-0.407556 104:-0.403444 105:-0.352856 106:-0.421946 107:-0.414549 108:-0.425734 109:-0.451111 110:-0.426278 111:-0.45662 112:-0.46267 113:-0.425727 114:-0.468141 115:-0.484292 116:-0.500764 117:-0.453061 118:-0.537663 119:-0.528817 120:-0.471859 121:-0.529176 122:-0.487166 123:-0.48662 124:-0.513785 125:-0.521333 126:-0.52444 127:-0.517134 128:-0.524768 129:-0.933457 130:-0.741103 131:-0.672218 132:-0.634922 133:-0.484376 134:-0.414955 135:-0.313285 136:-0.268175 137:-0.202254 138:-0.185409 139:-0.0932251 140:-0.133718 141:-0.159432 142:-0.0970254 143:-0.094697 144:-0.0717639 145:-0.0797278 146:-0.102501 147:-0.167978 148:0.0104436 149:-0.0804849 150:0.0205212 151:0.122342 152:0.107599 153:-0.0363598 154:0.057983 155:-0.00821252 156:-0.0725402 157:-0.207248 158:-0.196885 159:-0.210395 160:-0.199333 161:-0.259676 162:-0.179942 163:-0.356178 164:-0.312631 165:-0.387387 166:-0.294461 167:-0.295895 168:-0.297606 169:-0.207788 170:-0.267142 171:-0.319796 172:-0.243714 173:-0.267172 174:-0.305878 175:-0.292377 176:-0.283577 177:-0.282706 178:-0.307644 179:-0.239365 180:-0.210044 181:-0.30308 182:-0.289462 183:-0.281363 184:-0.408768 185:-0.323838 186:-0.327199 187:-0.300798 188:-0.339074 189:-0.310393 190:-0.407409 191:-0.348401 192:-0.386689 193:-1 194:-1 195:-0.965275 196:-0.940423 197:-0.956785 198:-0.927978 199:-0.919274 200:-0.925616 201:-0.886888 202:-0.898719 203:-0.916127 204:-0.891735 205:-0.90852 206:-0.911086 207:-0.88134 208:-0.891893 209:-0.892254 210:-0.891059 211:-0.910896 212:-0.915489 213:-0.921195 214:-0.93266 215:-0.937861 216:-0.946324 217:-0.961178 218:-0.972819 219:-0.98574 220:-0.992988 221:-0.991177 222:-0.99839 223:-0.992734 224:-0.996612 225:-1 226:-1 227:-1 228:-1 229:-1 230:-1 231:-1 232:-1 233:-1 234:-1 235:-1 236:-1 237:-1 238:-1 239:-1 240:-1 241:-1 242:-1 243:-1 244:-1 245:-1 246:-1 247:-1 248:-1 249:-1 250:-1 251:-1 252:-1 253:-1 254:-1 255:-1 256:-1 257:-1 258:-0.972159 259:-0.954174 260:-0.910718 261:-0.947514 262:-0.881239 263:-0.887384 264:-0.85272 265:-0.802424 266:-0.698441 267:-0.728794 268:-0.683809 269:-0.580127 270:-0.519957 271:-0.464408 272:-0.396736 273:-0.359881 274:-0.0440405 275:-0.100372 276:0.11213 277:-0.0357899 278:0.0607403 279:0.0171682 280:0.15201 281:0.0995126 282:-0.0022637 283:0.035179 284:-0.100817 285:-0.0880298 286:-0.0820479 287:-0.125483 288:-0.164517 289:-0.210502 290:-0.186034 291:-0.160522 292:-0.284402 293:-0.28549 294:-0.281258 295:-0.384734 296:-0.466864 297:-0.484097 298:-0.557654 299:-0.723098 300:-0.784747 301:-0.7359 302:-0.821914 303:-0.767006 304:-0.865351 305:-0.893689 306:-0.916971 307:-0.928326 308:-0.951079 309:-0.993189 310:-0.977991 311:-1 312:-0.988022 313:-0.986482 314:-0.953999 315:-0.984768 316:-0.980157 317:-0.861353 318:-0.907305 319:-1 320:-0.632188 321:-1 322:-1 323:-1 324:-0.914041 325:-0.871624 326:-0.809036 327:-0.676153 328:-0.65705 329:-0.370573 330:-0.35792 331:-0.389277 332:-0.318242 333:-0.0574791 334:-0.10511 335:-0.214945 336:-0.0895105 337:-0.249389 338:-0.17628 339:-0.187498 340:-0.218257 341:-0.152313 342:-0.0788246 343:-0.126401 344:-0.0461351 345:-0.0861521 346:-0.0169391 347:0.00134548 348:0.0654413 349:-0.0209278 350:0.130417 351:0.0704239 352:0.0526259 353:-0.0394142 354:-0.0533854 355:-0.146731 356:-0.160575 357:-0.058982 358:-0.21592 359:-0.217434 360:-0.240009 361:-0.212374 362:-0.410856 363:-0.270972 364:-0.415173 365:-0.415391 366:-0.324627 367:-0.600825 368:-0.551948 369:-0.787061 370:-0.95886 371:-0.878327 372:-0.921189 373:-0.990992 374:-0.942004 375:-0.959046 376:-0.985229 377:-0.950243 378:-0.95879 379:-0.976619 380:-0.916212 381:-0.965828 382:-0.946153 383:-1 384:-1 385:-1 386:-0.841229 387:-0.521631 388:-0.564234 389:-0.380283 390:-0.510567 391:-0.335051 392:-0.471752 393:-0.534788 394:-0.524276 395:-0.582401 396:-0.662223 397:-0.705335 398:-0.727894 399:-0.808513 400:-0.771221 401:-0.833882 402:-0.828301 403:-0.860704 404:-0.843862 405:-0.891557 406:-0.87705 407:-0.893399 408:-0.897298 409:-0.89833 410:-0.935096 411:-0.958161 412:-0.940054 413:-0.953201 414:-0.984104 415:-0.997672 416:-1 417:-1 418:-1 419:-1 420:-1 421:-1 422:-1 423:-1 424:-1 425:-1 426:-1 427:-1 428:-1 429:-1 430:-1 431:-1 432:-1 433:-1 434:-1 435:-1 436:-1 437:-1 438:-1 439:-1 440:-1 441:-1 442:-1 443:-1 444:-1 445:-1 446:-1 447:-1 448:-1 453:-1 454:-0.983035 455:-0.974262 456:-0.723744 457:-0.832948 458:-0.625467 459:-0.211956 460:-0.30008 461:0.0179745 462:0.417089 463:0.454513 464:0.515491 465:0.541593 466:0.482046 467:0.180101 468:-0.290285 469:-0.0808877 470:-0.251379 471:-0.363744 472:-0.461288 473:-0.40792 474:-0.370131 475:-0.287454 476:-0.247172 477:-0.463174 478:-0.529249 479:-0.30293 480:-0.433486 481:-0.513183 482:-0.738908 483:-0.760064 484:-0.879197 485:-0.88656 486:-0.936893 487:-0.952523 488:-0.980305 489:-0.960295 490:-0.979404 491:-0.9567 492:-0.985455 493:-0.976638 494:-0.976945 495:-0.954966 496:-0.951319 497:-0.96917 498:-0.97488 499:-0.833605 500:-0.656239 501:-0.820882 502:-0.772886 503:-0.819758 504:-0.904151 505:-0.865246 506:-0.575609 507:-0.914292 508:-0.963535 509:-0.995489 510:-1 511:-1 512:-1 522:-1 523:-0.670671 524:-0.612045 525:-0.465976 526:-0.265749 527:-0.253259 528:-0.292763 529:-0.568968 530:-0.48885 531:-0.582321 532:-0.662732 533:-0.672421 534:-0.584059 535:-0.518262 536:-0.370976 537:-0.269362 538:-0.300522 539:-0.141447 540:-0.261106 541:-0.108989 542:-0.108776 543:0.157754 544:-0.126082 545:-0.0312391 546:0.134803 547:0.0205552 548:-0.236878 549:-0.165328 550:-0.180618 551:-0.0915585 552:-0.0578945 553:-0.210298 554:-0.0550384 555:-0.0552874 556:-0.14642 557:-0.0678519 558:0.102071 559:-0.207231 560:-0.30948 561:-0.236118 562:-0.434419 563:-0.539679 564:-0.475946 565:-0.653222 566:-0.858549 567:-0.987101 568:-0.734668 569:-0.493908 570:-0.753543 571:-0.988274 572:-0.976455 573:-0.909814 574:-0.927922 575:-0.895869 576:-0.752203 585:-1 586:-0.951921 587:-0.832245 588:-0.38931 589:-0.620384 590:-0.625392 591:-0.610931 592:-0.477442 593:-0.432184 594:-0.40842 595:-0.387083 596:-0.43252 597:-0.474285 598:-0.265139 599:-0.315767 600:-0.0489644 601:-0.101365 602:0.226591 603:0.0787238 604:0.417658 605:0.117929 606:0.763922 607:-0.0725338 608:0.0726137 609:0.197196 610:-0.0273653 611:-0.117434 612:-0.281703 613:-0.501534 614:-0.220619 615:-0.703236 616:-0.469752 617:-0.214525 618:-0.654487 619:-0.545379 620:-0.746311 621:-0.881775 622:-0.839657 623:-0.631386 624:-0.884538 625:-0.800701 626:-0.92295 627:-0.643607 628:-0.892156 629:-0.769908 630:-0.803775 631:-0.89396 632:-0.89002 633:-0.911495 634:-0.925525 635:-0.936179 636:-1 637:-1 638:-1 
0 0 0 0 0 138.9371189170179 1:-0.993849 2:-0.996012 3:-0.991398 4:-0.986162 5:-0.987096 6:-0.98249 7:-0.987123 8:-0.984358 9:-0.984652 10:-0.978717 11:-0.97914 12:-0.981563 13:-0.979765 14:-0.978266 15:-0.974832 16:-0.977877 17:-0.981532 18:-0.980051 19:-0.980521 20:-0.978127 21:-0.976199 22:-0.975712 23:-0.970455 24:-0.981461 25:-0.977814 26:-0.981241 27:-0.977675 28:-0.982799 29:-0.980892 30:-0.980768 31:-0.982581 32:-0.978355 33:-0.983783 34:-0.984614 35:-0.985968 36:-0.972536 37:-0.992189 38:-0.983998 39:-0.985452 40:-0.982225 41:-0.984103 42:-0.984357 43:-0.983214 44:-0.974491 45:-0.977826 46:-0.97976 47:-0.986412 48:-0.982813 49:-0.981584 50:-0.984123 51:-0.98758 52:-0.981207 53:-0.989155 54:-0.979798 55:-0.980311 56:-0.985309 57:-0.983707 58:-0.98344 59:-0.986999 60:-0.985721 61:-0.975534 62:-0.980124 63:-0.983234 64:-0.988652 65:-0.942792 66:-0.82636 67:-0.579435 68:-0.531672 69:-0.572175 70:-0.591751 71:-0.629054 72:-0.636638 73:-0.622092 74:-0.560264 75:-0.500828 76:-0.487297 77:-0.510165 78:-0.517483 79:-0.430192 80:-0.398275 81:-0.390617 82:-0.300707 83:-0.339155 84:-0.320732 85:-0.38772 86:-0.389544 87:-0.262313 88:-0.237432 89:-0.210818 90:-0.238879 91:-0.293147 92:-0.255019 93:-0.282449 94:-0.232167 95:-0.286613 96:-0.307904 97:-0.237335 98:-0.244113 99:-0.244693 100:-0.223285 101:-0.205696 102:-0.244544 103:-0.212076 104:-0.210469 105:-0.28293 106:-0.274091 107:-0.278431 108:-0.247163 109:-0.30065 110:-0.279386 111:-0.307267 112:-0.278917 113:-0.349385 114:-0.356261 115:-0.358122 116:-0.396617 117:-0.358003 118:-0.363054 119:-0.397529 120:-0.388713 121:-0.403216 122:-0.384285 123:-0.406155 124:-0.380116 125:-0.420454 126:-0.391763 127:-0.393437 128:-0.468172 129:-0.981283 130:-0.964492 131:-0.935275 132:-0.913585 133:-0.866027 134:-0.848909 135:-0.819433 136:-0.801725 137:-0.771424 138:-0.738908 139:-0.712816 140:-0.6548 141:-0.640964 142:-0.620608 143:-0.624348 144:-0.543437 145:-0.549183 146:-0.533135 147:-0.548545 148:-0.549498 149:-0.527149 150:-0.501944 151:-0.42733 152:-0.511409 153:-0.461526 154:-0.437376 155:-0.456447 156:-0.490125 157:-0.497655 158:-0.536561 159:-0.444668 160:-0.463057 161:-0.426096 162:-0.475444 163:-0.57581 164:-0.436474 165:-0.523781 166:-0.489177 167:-0.498349 168:-0.485697 169:-0.505708 170:-0.475424 171:-0.533844 172:-0.488292 173:-0.499591 174:-0.537703 175:-0.492276 176:-0.502033 177:-0.513901 178:-0.471555 179:-0.505042 180:-0.519211 181:-0.569327 182:-0.548159 183:-0.473981 184:-0.537413 185:-0.485302 186:-0.487742 187:-0.512494 188:-0.491583 189:-0.501122 190:-0.495327 191:-0.542235 192:-0.612868 193:-1 194:-1 195:-0.975582 196:-0.981148 197:-0.972651 198:-0.969614 199:-0.949543 200:-0.934197 201:-0.93426 202:-0.914119 203:-0.936571 204:-0.939545 205:-0.928016 206:-0.948485 207:-0.916561 208:-0.929468 209:-0.915902 210:-0.940153 211:-0.934838 212:-0.944288 213:-0.963708 214:-0.962195 215:-0.967872 216:-0.98652 217:-0.981507 218:-0.989078 219:-0.990428 220:-0.998521 221:-0.998449 222:-1 223:-1 224:-1 225:-1 226:-1 227:-1 228:-1 229:-1 230:-1 231:-1 232:-1 233:-1 234:-1 235:-1 236:-1 237:-1 238:-1 239:-1 240:-1 241:-1 242:-1 243:-1 244:-1 245:-1 246:-1 247:-1 248:-1 249:-1 250:-1 251:-1 252:-1 253:-1 254:-1 255:-1 256:-1 257:-1 258:-1 259:-0.927496 260:-0.905829 261:-0.927924 262:-0.862384 263:-0.855346 264:-0.812262 265:-0.745324 266:-0.695128 267:-0.637094 268:-0.541475 269:-0.402492 270:-0.288726 271:-0.0772361 272:-0.0763391 273:0.132955 274:0.659505 275:0.824573 276:0.927816 277:0.86085 278:0.778195 279:0.963429 280:0.954986 281:0.738184 282:0.857463 283:0.639223 284:0.504093 285:0.262688 286:0.24402 287:0.0301764 288:-0.0332714 289:-0.218911 290:-0.309867 291:-0.457823 292:-0.47165 293:-0.468213 294:-0.469329 295:-0.558441 296:-0.566941 297:-0.521699 298:-0.627441 299:-0.680119 300:-0.703101 301:-0.775704 302:-0.823662 303:-0.846404 304:-0.928989 305:-0.967294 306:-0.995135 307:-0.99496 308:-1 309:-1 310:-1 311:-0.990996 312:-1 313:-0.971483 314:-0.967653 315:-0.967868 316:-0.97907 317:-1 318:-0.967409 319:-0.796796 320:-0.224093 321:-1 322:-1 323:-1 324:-1 325:-0.932297 326:-0.848934 327:-0.914605 328:-0.833048 329:-0.715473 330:-0.803956 331:-0.699388 332:-0.533222 333:-0.685026 334:-0.463106 335:-0.578839 336:-0.608522 337:-0.520513 338:-0.456378 339:-0.404386 340:-0.447843 341:-0.41186 342:-0.337361 343:-0.325374 344:-0.215981 345:-0.269782 346:-0.197683 347:-0.17574 348:-0.155501 349:-0.148429 350:-0.0624499 351:-0.0852032 352:-0.0679211 353:-0.24267 354:-0.261707 355:-0.36118 356:-0.426467 357:-0.515266 358:-0.582798 359:-0.534479 360:-0.622278 361:-0.602296 362:-0.594183 363:-0.442857 364:-0.654388 365:-0.467702 366:-0.601293 367:-0.719311 368:-0.784644 369:-0.927157 370:-0.981403 371:-1 372:-1 373:-1 374:-1 375:-1 376:-1 377:-1 378:-1 379:-1 380:-1 381:-1 382:-1 383:-0.887763 384:-1 385:-1 386:-0.894798 387:-0.600474 388:-0.632556 389:-0.541323 390:-0.540484 391:-0.476476 392:-0.430392 393:-0.581149 394:-0.51311 395:-0.598598 396:-0.60901 397:-0.654213 398:-0.678834 399:-0.714712 400:-0.733513 401:-0.80063 402:-0.810381 403:-0.820889 404:-0.834523 405:-0.88359 406:-0.8634 407:-0.914744 408:-0.904519 409:-0.91805 410:-0.935517 411:-0.962734 412:-0.946619 413:-0.984812 414:-0.991018 415:-0.99386 416:-0.993773 417:-0.993348 418:-1 419:-1 420:-1 421:-1 422:-1 423:-1 424:-1 425:-1 426:-1 427:-1 428:-1 429:-1 430:-1 431:-1 432:-1 433:-1 434:-1 435:-1 436:-1 437:-1 438:-1 439:-1 440:-1 441:-1 442:-1 443:-1 444:-1 445:-1 446:-1 447:-1 448:-1 453:-1 454:-0.992843 455:-0.938918 456:-0.850755 457:-0.683464 458:-0.472696 459:-0.182466 460:-0.0395248 461:0.420714 462:0.983927 463:1 464:1 465:0.975534 466:0.490839 467:0.159225 468:0.145016 469:0.654104 470:0.145563 471:-0.0332665 472:-0.271618 473:-0.380778 474:-0.287355 475:-0.32037 476:-0.376461 477:-0.558865 478:-0.61579 479:-0.541092 480:-0.577002 481:-0.69561 482:-0.807985 483:-0.860738 484:-0.90309 485:-0.907485 486:-0.946212 487:-0.94194 488:-0.946767 489:-0.948665 490:-0.954266 491:-0.892452 492:-0.86919 493:-0.894866 494:-0.838696 495:-0.825833 496:-0.861009 497:-0.853321 498:-0.815411 499:-0.700021 500:-0.670202 501:-0.809166 502:-0.670896 503:-0.75612 504:-0.883795 505:-0.7859 506:-0.781779 507:-0.87467 508:-0.987179 509:-0.990484 510:-0.916075 511:-0.917006 512:-0.955451 522:-1 523:-1 524:-1 525:-0.923625 526:-0.485358 527:-0.177691 528:-0.424541 529:-0.478582 530:-0.230439 531:-0.306131 532:-0.0429903 533:-0.148421 534:-0.220056 535:-0.442924 536:-0.398731 537:-0.441409 538:-0.365171 539:-0.430743 540:-0.458696 541:-0.358856 542:-0.278291 543:-0.359521 544:-0.281361 545:-0.359854 546:-0.347302 547:-0.497123 548:-0.527243 549:-0.5468 550:-0.629928 551:-0.549226 552:-0.500728 553:-0.518014 554:-0.506605 555:-0.489445 556:-0.509146 557:-0.522377 558:-0.361528 559:-0.351887 560:-0.386203 561:-0.428574 562:-0.616696 563:-0.517312 564:-0.740273 565:-0.672734 566:-0.701607 567:-0.854877 568:-0.714541 569:-0.736096 570:-0.696722 571:-0.826849 572:-1 573:-1 574:-1 575:-1 576:-1 585:-1 586:-1 587:-1 588:-1 589:-0.966067 590:-0.85386 591:-0.742172 592:-0.740131 593:-0.587727 594:-0.441181 595:-0.674575 596:-0.575664 597:-0.556978 598:-0.485573 599:-0.444845 600:-0.311481 601:0.0630974 602:0.128552 603:-0.0847056 604:0.0977094 605:-0.0816455 606:-0.0641214 607:-0.431442 608:-0.899264 609:-0.343075 610:-0.536317 611:-0.393295 612:-0.56054 613:-0.642181 614:-0.766118 615:-0.843492 616:-0.427858 617:-0.832369 618:-0.684899 619:-0.334007 620:-0.762406 621:-0.787278 622:-0.768794 623:-0.52685 624:-0.834977 625:-0.771347 626:-0.939861 627:-0.508655 628:-0.897188 629:-0.659488 630:-0.574095 631:-0.844658 632:-0.812259 633:-0.892469 634:-0.9251 635:-1 636:-1 637:-1 638:-1 
953.575271422167 521.0160414444034 936.5237411746492 0 1327.973433917035 1171.290261839485 1:-0.997438 2:-0.995231 3:-0.990693 4:-0.985539 5:-0.981968 6:-0.981726 7:-0.978724 8:-0.972176 9:-0.979453 10:-0.976805 11:-0.972787 12:-0.974527 13:-0.97626 14:-0.971777 15:-0.959745 16:-0.97208 17:-0.977188 18:-0.971769 19:-0.970287 20:-0.972165 21:-0.965436 22:-0.973289 23:-0.976266 24:-0.965344 25:-0.971957 26:-0.969248 27:-0.974451 28:-0.975327 29:-0.972388 30:-0.971629 31:-0.97649 32:-0.971114 33:-0.967114 34:-0.978793 35:-0.973124 36:-0.974634 37:-0.974831 38:-0.971558 39:-0.978797 40:-0.978075 41:-0.975788 42:-0.972151 43:-0.976614 44:-0.976135 45:-0.963639 46:-0.975195 47:-0.973503 48:-0.97631 49:-0.976615 50:-0.970531 51:-0.965976 52:-0.973011 53:-0.973086 54:-0.981345 55:-0.974934 56:-0.968315 57:-0.969016 58:-0.969806 59:-0.972438 60:-0.966749 61:-0.971126 62:-0.97339 63:-0.97663 64:-0.972389 65:-0.842018 66:-0.54805 67:-0.411412 68:-0.380599 69:-0.389583 70:-0.454035 71:-0.462748 72:-0.382996 73:-0.498999 74:-0.410971 75:-0.44914 76:-0.447026 77:-0.401592 78:-0.346599 79:-0.28815 80:-0.223133 81:-0.216528 82:-0.167459 83:-0.145407 84:-0.168476 85:-0.205875 86:-0.254678 87:-0.148207 88:-0.227293 89:-0.137347 90:-0.254636 91:-0.26235 92:-0.191861 93:-0.234258 94:-0.330403 95:-0.266672 96:-0.294918 97:-0.234252 98:-0.304966 99:-0.1749 100:-0.241899 101:-0.246771 102:-0.231607 103:-0.295747 104:-0.231876 105:-0.19847 106:-0.235338 107:-0.253385 108:-0.219825 109:-0.27305 110:-0.246257 111:-0.298131 112:-0.271066 113:-0.28005 114:-0.269732 115:-0.36716 116:-0.319335 117:-0.294523 118:-0.328291 119:-0.358212 120:-0.332571 121:-0.347642 122:-0.404444 123:-0.354731 124:-0.429226 125:-0.350589 126:-0.362909 127:-0.317475 128:-0.404689 129:-0.98636 130:-0.906764 131:-0.879091 132:-0.852352 133:-0.781046 134:-0.745426 135:-0.694306 136:-0.659124 137:-0.555166 138:-0.602542 139:-0.501492 140:-0.493878 141:-0.44312 142:-0.342986 143:-0.403832 144:-0.317544 145:-0.35371 146:-0.30195 147:-0.413274 148:-0.3373 149:-0.378016 150:-0.419076 151:-0.433703 152:-0.421917 153:-0.354205 154:-0.3027 155:-0.34331 156:-0.423932 157:-0.357168 158:-0.439529 159:-0.411546 160:-0.476191 161:-0.403628 162:-0.401902 163:-0.378924 164:-0.438608 165:-0.470477 166:-0.420106 167:-0.541582 168:-0.445554 169:-0.410063 170:-0.513635 171:-0.552647 172:-0.416892 173:-0.453304 174:-0.46386 175:-0.414234 176:-0.400996 177:-0.455014 178:-0.417502 179:-0.4959 180:-0.396645 181:-0.402154 182:-0.397422 183:-0.362969 184:-0.458412 185:-0.363896 186:-0.342766 187:-0.416842 188:-0.370468 189:-0.391142 190:-0.457001 191:-0.416033 192:-0.374856 193:-1 194:-1 195:-0.988137 196:-0.957259 197:-0.96014 198:-0.929878 199:-0.938716 200:-0.948358 201:-0.917197 202:-0.904342 203:-0.902688 204:-0.89557 205:-0.889876 206:-0.912725 207:-0.90787 208:-0.893773 209:-0.884054 210:-0.911611 211:-0.912334 212:-0.944785 213:-0.936299 214:-0.951022 215:-0.966285 216:-0.965946 217:-0.971764 218:-0.989388 219:-0.994685 220:-1 221:-1 222:-1 223:-1 224:-1 225:-1 226:-1 227:-1 228:-1 229:-1 230:-1 231:-1 232:-1 233:-1 234:-1 235:-1 236:-1 237:-1 238:-1 239:-1 240:-1 241:-1 242:-1 243:-1 244:-1 245:-1 246:-1 247:-1 248:-1 249:-1 250:-1 251:-1 252:-1 253:-1 254:-1 255:-1 256:-1 257:-1 258:-1 259:-0.906069 260:-0.882355 261:-0.87029 262:-0.871199 263:-0.812537 264:-0.812344 265:-0.71425 266:-0.664353 267:-0.606748 268:-0.501407 269:-0.437156 270:-0.372476 271:-0.269298 272:-0.171419 273:-0.0555526 274:0.358785 275:0.286244 276:0.619185 277:0.566412 278:0.458185 279:0.576752 280:0.578103 281:0.298746 282:0.192961 283:0.152803 284:0.122246 285:-0.114979 286:-0.141896 287:-0.19922 288:-0.220423 289:-0.250459 290:-0.268467 291:-0.320447 292:-0.231534 293:-0.394526 294:-0.301819 295:-0.356435 296:-0.384524 297:-0.376974 298:-0.3166 299:-0.368237 300:-0.572366 301:-0.634425 302:-0.780238 303:-0.89553 304:-0.975648 305:-0.977301 306:-0.990545 307:-1 308:-1 309:-1 310:-1 311:-0.991251 312:-0.975449 313:-1 314:-0.96857 315:-0.953169 316:-0.979663 317:-0.971581 318:-0.841666 319:-1 320:-1 321:-1 322:-1 323:-1 324:-1 325:-1 326:-0.951072 327:-0.709588 328:-0.83778 329:-0.7005 330:-0.619025 331:-0.485363 332:-0.448387 333:-0.426165 334:-0.32687 335:-0.389633 336:-0.268953 337:-0.301155 338:-0.382178 339:-0.308853 340:-0.377653 341:-0.326132 342:-0.110174 343:-0.184617 344:-0.0387656 345:-0.069737 346:-0.0651698 347:-0.0894763 348:-0.00498699 349:0.00959085 350:0.069405 351:0.100346 352:-0.0610453 353:-0.158065 354:-0.248472 355:-0.362141 356:-0.432272 357:-0.536482 358:-0.515701 359:-0.608491 360:-0.669686 361:-0.566339 362:-0.593363 363:-0.615238 364:-0.664184 365:-0.615933 366:-0.633255 367:-0.774471 368:-0.901186 369:-0.988204 370:-0.975907 371:-1 372:-0.991026 373:-0.990768 374:-1 375:-1 376:-0.984862 377:-0.983002 378:-1 379:-0.976038 380:-0.971376 381:-1 382:-1 383:-0.890944 384:-0.735732 385:-1 386:-0.926985 387:-0.553477 388:-0.615409 389:-0.474602 390:-0.537732 391:-0.430233 392:-0.522461 393:-0.515211 394:-0.549747 395:-0.546945 396:-0.655868 397:-0.648502 398:-0.719417 399:-0.77922 400:-0.782523 401:-0.835006 402:-0.806759 403:-0.861656 404:-0.842667 405:-0.877431 406:-0.867692 407:-0.921963 408:-0.888088 409:-0.915823 410:-0.918033 411:-0.959503 412:-0.958203 413:-0.966268 414:-0.984873 415:-0.997614 416:-0.999395 417:-0.998061 418:-1 419:-1 420:-1 421:-1 422:-1 423:-1 424:-1 425:-1 426:-1 427:-1 428:-1 429:-1 430:-1 431:-1 432:-1 433:-1 434:-1 435:-1 436:-1 437:-1 438:-1 439:-1 440:-1 441:-1 442:-1 443:-1 444:-1 445:-1 446:-1 447:-1 448:-1 453:-1 454:-1 455:-0.914272 456:-0.647823 457:-0.665164 458:-0.247528 459:0.190436 460:0.036999 461:0.14507 462:0.723204 463:0.44466 464:0.507636 465:0.698097 466:0.168134 467:-0.163125 468:-0.200627 469:0.0275968 470:-0.27081 471:-0.295071 472:-0.408095 473:-0.455315 474:-0.341333 475:-0.344729 476:-0.322037 477:-0.488618 478:-0.527526 479:-0.444782 480:-0.54809 481:-0.663606 482:-0.738144 483:-0.834463 484:-0.86573 485:-0.886736 486:-0.88698 487:-0.853322 488:-0.912952 489:-0.88055 490:-0.889461 491:-0.75092 492:-0.690875 493:-0.65842 494:-0.552645 495:-0.609718 496:-0.633553 497:-0.732437 498:-0.71938 499:-0.524688 500:-0.74139 501:-0.556835 502:-0.52795 503:-0.735044 504:-0.845312 505:-0.797213 506:-0.938383 507:-0.988022 508:-0.993771 509:-0.990754 510:-1 511:-1 512:-1 522:-1 523:-1 524:-0.811663 525:-0.661415 526:-0.334879 527:-0.234692 528:-0.538481 529:-0.615653 530:-0.482663 531:-0.312957 532:-0.288029 533:-0.543889 534:-0.611282 535:-0.549557 536:-0.583138 537:-0.596282 538:-0.612195 539:-0.524851 540:-0.549177 541:-0.377028 542:-0.272449 543:-0.171483 544:-0.229111 545:-0.279892 546:-0.412637 547:-0.207212 548:-0.368384 549:-0.393197 550:-0.405812 551:-0.34186 552:-0.350032 553:-0.322522 554:-0.265226 555:-0.348142 556:-0.248757 557:-0.289061 558:-0.14316 559:-0.100369 560:0.127166 561:-0.00891447 562:-0.108243 563:-0.315802 564:-0.449973 565:-0.524888 566:-0.759659 567:-0.792892 568:-0.260356 569:-0.440533 570:-0.837624 571:-0.981974 572:-0.911522 573:-0.876762 574:-0.981533 575:-0.94664 576:-0.644457 585:-1 586:-1 587:-1 588:-0.86798 589:-0.574678 590:-0.203235 591:-0.425893 592:-0.480739 593:-0.493851 594:-0.3718 595:-0.431264 596:-0.265889 597:-0.417606 598:-0.300661 599:-0.269172 600:-0.00784945 601:-0.17942 602:-0.0660426 603:-0.132761 604:-0.0332812 605:0.139229 606:-0.30911 607:-0.290491 608:-0.698828 609:-0.214175 610:-0.357983 611:-0.0144883 612:-0.491011 613:-0.54825 614:-0.502745 615:-0.810731 616:-0.55651 617:-0.7964 618:-0.808258 619:-0.604827 620:-0.838623 621:-0.883926 622:-0.881433 623:-0.710582 624:-0.871163 625:-0.844121 626:-0.924193 627:-0.654878 628:-0.880973 629:-0.731703 630:-0.757048 631:-0.874419 632:-0.839827 633:-0.897813 634:-0.909473 635:-0.990978 636:-1 637:-1 638:-1 
22.18660987397402 0 0 0 0 0 1:-0.668601 2:-0.590221 3:-0.437981 4:-0.377352 5:-0.304976 6:-0.318527 7:-0.320352 8:-0.365827 9:-0.336276 10:-0.357387 11:-0.428766 12:-0.445475 13:-0.426471 14:-0.480784 15:-0.470521 16:-0.518462 17:-0.59742 18:-0.554626 19:-0.556064 20:-0.554625 21:-0.647796 22:-0.644741 23:-0.587028 24:-0.582005 25:-0.676504 26:-0.659941 27:-0.596423 28:-0.699827 29:-0.678456 30:-0.691718 31:-0.699469 32:-0.681853 33:-0.727261 34:-0.732515 35:-0.732604 36:-0.713496 37:-0.724756 38:-0.726885 39:-0.766675 40:-0.788875 41:-0.780072 42:-0.72577 43:-0.779892 44:-0.781576 45:-0.749895 46:-0.793718 47:-0.805986 48:-0.800995 49:-0.81303 50:-0.80272 51:-0.821025 52:-0.80191 53:-0.802442 54:-0.824906 55:-0.797218 56:-0.798332 57:-0.796197 58:-0.792562 59:-0.800678 60:-0.789089 61:-0.805989 62:-0.775975 63:-0.804646 64:-0.803744 65:-0.948897 66:-0.914679 67:-0.89976 68:-0.938549 69:-0.887575 70:-0.905142 71:-0.925464 72:-0.911917 73:-0.916406 74:-0.92502 75:-0.916319 76:-0.875826 77:-0.899977 78:-0.882929 79:-0.906829 80:-0.84452 81:-0.873277 82:-0.856384 83:-0.832769 84:-0.861351 85:-0.845453 86:-0.851353 87:-0.789866 88:-0.82311 89:-0.827608 90:-0.831165 91:-0.858977 92:-0.839831 93:-0.824303 94:-0.841294 95:-0.852211 96:-0.859205 97:-0.865745 98:-0.836358 99:-0.857973 100:-0.843246 101:-0.849193 102:-0.905273 103:-0.855675 104:-0.873553 105:-0.867704 106:-0.876873 107:-0.887409 108:-0.854331 109:-0.866935 110:-0.884173 111:-0.879473 112:-0.882914 113:-0.899369 114:-0.879415 115:-0.920471 116:-0.905998 117:-0.903663 118:-0.926963 119:-0.926384 120:-0.890922 121:-0.926266 122:-0.921131 123:-0.923373 124:-0.922695 125:-0.923968 126:-0.93033 127:-0.909106 128:-0.897195 129:-0.613509 130:-0.592489 131:-0.258615 132:-0.28649 133:-0.11955 134:0.123 135:0.193796 136:0.221818 137:0.307784 138:0.402255 139:0.598606 140:0.465826 141:0.521695 142:0.750199 143:0.648201 144:0.761217 145:0.827558 146:0.631053 147:0.580083 148:0.646147 149:0.746072 150:0.696601 151:0.628563 152:0.626303 153:0.659228 154:0.697335 155:0.716596 156:0.696775 157:0.765885 158:0.450332 159:0.594282 160:0.636774 161:0.659586 162:0.566622 163:0.421214 164:0.362832 165:0.333724 166:0.434994 167:0.302782 168:0.33659 169:0.427714 170:0.385907 171:0.20575 172:0.34712 173:0.248385 174:0.225135 175:0.269677 176:0.335248 177:0.133196 178:0.116639 179:0.178982 180:0.0950551 181:0.0776993 182:0.203942 183:0.0709678 184:0.0667671 185:0.191844 186:0.13325 187:0.110217 188:0.184753 189:0.00699622 190:0.0565025 191:0.107288 192:-0.0580212 193:-1 194:-0.72819 195:-0.806602 196:-0.836465 197:-0.783386 198:-0.819494 199:-0.789474 200:-0.768044 201:-0.666649 202:-0.623158 203:-0.726145 204:-0.726381 205:-0.71926 206:-0.678666 207:-0.669564 208:-0.724667 209:-0.6811 210:-0.62485 211:-0.615756 212:-0.678511 213:-0.590684 214:-0.622795 215:-0.594301 216:-0.61717 217:-0.65027 218:-0.630812 219:-0.658071 220:-0.598331 221:-0.687613 222:-0.692511 223:-0.696485 224:-0.607783 225:-0.653596 226:-0.674047 227:-0.723254 228:-0.73012 229:-0.781392 230:-0.767665 231:-0.745201 232:-0.770418 233:-0.812902 234:-0.861795 235:-0.843887 236:-0.894103 237:-0.93416 238:-0.890213 239:-0.94994 240:-0.972467 241:-0.966372 242:-0.981012 243:-0.962929 244:-1 245:-1 246:-1 247:-1 248:-1 249:-1 250:-1 251:-1 252:-1 253:-1 254:-1 255:-1 256:-1 257:-1 258:-0.833867 259:-0.963539 260:-0.969556 261:-0.971655 262:-0.940812 263:-0.95887 264:-0.932653 265:-0.920872 266:-0.851175 267:-0.858655 268:-0.847091 269:-0.757646 270:-0.744724 271:-0.751306 272:-0.729749 273:-0.685431 274:-0.514443 275:-0.661994 276:-0.526768 277:-0.572479 278:-0.56789 279:-0.631423 280:-0.669895 281:-0.717222 282:-0.755995 283:-0.743834 284:-0.792616 285:-0.804153 286:-0.847289 287:-0.892403 288:-0.86606 289:-0.890439 290:-0.921538 291:-0.94555 292:-0.944302 293:-0.948319 294:-0.966435 295:-0.95458 296:-0.97806 297:-0.972548 298:-0.968482 299:-0.984263 300:-0.976287 301:-0.98772 302:-0.973975 303:-0.986966 304:-0.990547 305:-0.994713 306:-0.994495 307:-0.994297 308:-0.993513 309:-0.983744 310:-0.991244 311:-0.979623 312:-1 313:-1 314:-0.9634 315:-1 316:-1 317:-1 318:-0.963124 319:-1 320:-1 321:-1 322:-1 323:-1 324:-1 325:-0.84679 326:-1 327:-0.903376 328:-0.716642 329:-0.785374 330:-0.677351 331:-0.546481 332:-0.329099 333:-0.621336 334:-0.480694 335:-0.345767 336:-0.356332 337:-0.0789512 338:-0.269562 339:-0.287282 340:-0.208639 341:-0.172966 342:0.048833 343:-0.0728325 344:0.0165592 345:0.090632 346:0.146309 347:0.177326 348:0.275312 349:0.161286 350:0.525905 351:0.473745 352:0.46176 353:0.509248 354:0.615052 355:0.533493 356:0.541254 357:0.745534 358:0.374407 359:0.633317 360:0.662072 361:0.679995 362:0.46363 363:0.505675 364:0.584027 365:0.508709 366:0.40152 367:0.508587 368:0.455272 369:0.215718 370:-0.018023 371:0.234288 372:0.222735 373:0.193281 374:0.204339 375:0.270787 376:-0.100933 377:-0.188437 378:-0.262266 379:-0.553536 380:-0.200023 381:-0.469823 382:-0.550153 383:-0.619014 384:0.5387 385:-1 386:-0.825091 387:-0.434393 388:-0.454405 389:-0.579926 390:-0.220737 391:-0.39451 392:-0.352153 393:-0.293774 394:-0.394573 395:-0.231944 396:-0.51197 397:-0.522653 398:-0.538183 399:-0.662916 400:-0.482021 401:-0.702211 402:-0.538628 403:-0.640092 404:-0.719816 405:-0.48323 406:-0.731962 407:-0.549826 408:-0.679284 409:-0.73401 410:-0.517753 411:-0.758657 412:-0.478095 413:-0.697414 414:-0.645653 415:-0.501219 416:-0.811865 417:-0.379779 418:-0.704162 419:-0.636693 420:-0.420403 421:-0.856267 422:-0.283947 423:-0.746018 424:-0.431497 425:-0.453376 426:-0.814005 427:-0.167024 428:-0.782557 429:-0.300447 430:-0.554411 431:-0.74759 432:-0.123996 433:-0.840767 434:0.0280263 435:-0.583669 436:-0.572484 437:-0.325839 438:-0.810712 439:-0.306532 440:-0.842796 441:-0.614467 442:-0.862037 443:-0.969809 444:-1 445:-1 446:-1 447:-1 448:-1 453:-1 454:-1 455:-0.973122 456:-0.967834 457:-0.932956 458:-0.88973 459:-0.554233 460:-0.464499 461:0.0185928 462:0.265873 463:0.49662 464:0.192399 465:0.266628 466:-0.061195 467:-0.591667 468:-0.65911 469:-0.589215 470:-0.7221 471:-0.7538 472:-0.790247 473:-0.819459 474:-0.820811 475:-0.765995 476:-0.846624 477:-0.841149 478:-0.872913 479:-0.817983 480:-0.830393 481:-0.892164 482:-0.882792 483:-0.927212 484:-0.946527 485:-0.944171 486:-0.956637 487:-0.955656 488:-0.972087 489:-0.976307 490:-0.976067 491:-0.979163 492:-0.970763 493:-0.992565 494:-0.971568 495:-1 496:-0.974957 497:-0.991389 498:-0.983011 499:-0.984508 500:-0.989089 501:-0.976248 502:-0.989867 503:-0.993482 504:-0.99737 505:-1 506:-0.991558 507:-1 508:-1 509:-1 510:-1 511:-1 512:-1 522:-1 523:0.0808562 524:-0.159275 525:0.269264 526:0.164622 527:0.261131 528:-0.459117 529:-0.253079 530:-0.445656 531:-0.297143 532:-0.391856 533:-0.376059 534:-0.328615 535:-0.416872 536:-0.27275 537:-0.305536 538:-0.225313 539:-0.337919 540:-0.330904 541:-0.340668 542:-0.138479 543:-0.179261 544:-0.150004 545:-0.115736 546:-0.281931 547:-0.0630901 548:-0.137671 549:-0.11427 550:-0.0935973 551:-0.182858 552:-0.0813168 553:-0.144893 554:-0.00408735 555:-0.182306 556:-0.165467 557:-0.246852 558:-0.0929182 559:-0.00148866 560:-0.232389 561:-0.153001 562:-0.279193 563:-0.312483 564:-0.182415 565:-0.202771 566:-0.200353 567:-0.173839 568:-0.0753522 569:-0.205982 570:-0.0545673 571:-0.223322 572:-0.0258801 573:-0.183783 574:-0.526884 575:0.0977699 576:-0.290239 585:-1 586:-0.813513 587:-0.685387 588:-0.646974 589:-0.462478 590:-0.604983 591:-0.41897 592:-0.423777 593:-0.164742 594:-0.189068 595:-0.280868 596:-0.377388 597:-0.3775 598:0.166754 599:-0.155033 600:-0.0704265 601:-0.280519 602:-0.206157 603:0.387537 604:-0.273643 605:-0.119784 606:-0.13504 607:-0.27942 608:-0.517768 609:-0.317811 610:-0.419604 611:-0.253257 612:-0.574358 613:-0.733974 614:-0.565054 615:-0.770679 616:-0.578115 617:-0.434629 618:-0.663274 619:-0.326814 620:-0.658085 621:-0.837562 622:-0.660878 623:-0.694291 624:-0.739894 625:-0.732935 626:-0.720454 627:-0.307849 628:-0.247562 629:-0.209812 630:-0.367836 631:-0.635808 632:-0.557874 633:-0.545405 634:-0.466704 635:-0.477338 636:-0.338478 637:-0.43497 638:-0.941398 
178.7265813417097 0 0 5.574376163717618 0 0 1:-0.695038 2:-0.653501 3:-0.461894 4:-0.414766 5:-0.414117 6:-0.392168 7:-0.401695 8:-0.40961 9:-0.416213 10:-0.476294 11:-0.490764 12:-0.490503 13:-0.482024 14:-0.5436 15:-0.549844 16:-0.552455 17:-0.589492 18:-0.605571 19:-0.615706 20:-0.594407 21:-0.658343 22:-0.673495 23:-0.65147 24:-0.665522 25:-0.682377 26:-0.709288 27:-0.694609 28:-0.737242 29:-0.718703 30:-0.71828 31:-0.730566 32:-0.699472 33:-0.707644 34:-0.787805 35:-0.785883 36:-0.786075 37:-0.812585 38:-0.779048 39:-0.765708 40:-0.8082 41:-0.792182 42:-0.778364 43:-0.832294 44:-0.823823 45:-0.794622 46:-0.803797 47:-0.837763 48:-0.844178 49:-0.844122 50:-0.799083 51:-0.81823 52:-0.844238 53:-0.845485 54:-0.814567 55:-0.818845 56:-0.822387 57:-0.83984 58:-0.831843 59:-0.825743 60:-0.842182 61:-0.823637 62:-0.844334 63:-0.826742 64:-0.812409 65:-0.98349 66:-0.933425 67:-0.949165 68:-0.918726 69:-0.888602 70:-0.884667 71:-0.885493 72:-0.927021 73:-0.908652 74:-0.910062 75:-0.905662 76:-0.889 77:-0.888974 78:-0.907861 79:-0.897818 80:-0.900893 81:-0.838341 82:-0.825666 83:-0.841055 84:-0.849312 85:-0.86227 86:-0.813788 87:-0.805766 88:-0.806689 89:-0.803966 90:-0.781497 91:-0.831803 92:-0.831576 93:-0.823097 94:-0.835914 95:-0.7986 96:-0.825133 97:-0.833998 98:-0.818752 99:-0.843515 100:-0.85031 101:-0.859523 102:-0.855511 103:-0.860146 104:-0.845667 105:-0.881525 106:-0.890419 107:-0.857252 108:-0.877329 109:-0.877909 110:-0.891283 111:-0.884495 112:-0.874088 113:-0.883993 114:-0.872297 115:-0.893101 116:-0.897753 117:-0.891435 118:-0.905767 119:-0.906084 120:-0.925891 121:-0.907571 122:-0.902257 123:-0.903689 124:-0.919558 125:-0.92505 126:-0.928734 127:-0.925691 128:-0.927028 129:-0.263615 130:-0.573034 131:-0.443875 132:-0.264727 133:-0.076866 134:0.0285526 135:0.145551 136:0.230192 137:0.263421 138:0.456408 139:0.498813 140:0.645529 141:0.582232 142:0.634297 143:0.570192 144:0.791957 145:0.886374 146:0.691554 147:0.768576 148:0.729276 149:0.831321 150:0.631143 151:0.760986 152:0.707151 153:0.883961 154:0.670502 155:0.912985 156:0.725846 157:0.646128 158:0.528892 159:0.496976 160:0.703815 161:0.516756 162:0.535443 163:0.4124 164:0.536804 165:0.368007 166:0.324959 167:0.300981 168:0.386122 169:0.368896 170:0.441928 171:0.216743 172:0.380099 173:0.14819 174:0.318141 175:0.219277 176:0.27009 177:0.13412 178:0.343831 179:0.255892 180:0.190064 181:0.306351 182:0.247055 183:0.340096 184:0.0612236 185:0.121392 186:0.191819 187:0.053431 188:0.194956 189:0.218602 190:0.0364529 191:0.2781 192:0.131447 193:-1 194:-0.912183 195:-0.78577 196:-0.813927 197:-0.805043 198:-0.783389 199:-0.761362 200:-0.730767 201:-0.692921 202:-0.719742 203:-0.721751 204:-0.716378 205:-0.682542 206:-0.72621 207:-0.710226 208:-0.671252 209:-0.73328 210:-0.666578 211:-0.657803 212:-0.688396 213:-0.67902 214:-0.713546 215:-0.66597 216:-0.620072 217:-0.72621 218:-0.712534 219:-0.703076 220:-0.683678 221:-0.710827 222:-0.666575 223:-0.66169 224:-0.709984 225:-0.736029 226:-0.777413 227:-0.77561 228:-0.793906 229:-0.815994 230:-0.827451 231:-0.814776 232:-0.903251 233:-0.901085 234:-0.899533 235:-0.910158 236:-0.928152 237:-0.941986 238:-0.966747 239:-0.993935 240:-1 241:-1 242:-1 243:-1 244:-1 245:-1 246:-1 247:-1 248:-1 249:-1 250:-1 251:-1 252:-1 253:-1 254:-1 255:-1 256:-1 257:-1 258:-0.967795 259:-0.955825 260:-0.955738 261:-0.958149 262:-0.950675 263:-0.969171 264:-0.921998 265:-0.902307 266:-0.891988 267:-0.86354 268:-0.820609 269:-0.727497 270:-0.799792 271:-0.762938 272:-0.733966 273:-0.669887 274:-0.519501 275:-0.505369 276:-0.537736 277:-0.606344 278:-0.545185 279:-0.54771 280:-0.597582 281:-0.719758 282:-0.678357 283:-0.707711 284:-0.73199 285:-0.766609 286:-0.810154 287:-0.857472 288:-0.852147 289:-0.915046 290:-0.938437 291:-0.950743 292:-0.956812 293:-0.96422 294:-0.974696 295:-0.977988 296:-0.97519 297:-0.992398 298:-0.988544 299:-0.977121 300:-0.980847 301:-0.996032 302:-1 303:-0.991578 304:-0.986257 305:-0.989752 306:-1 307:-1 308:-1 309:-1 310:-0.991514 311:-1 312:-1 313:-1 314:-1 315:-1 316:-1 317:-1 318:-1 319:-1 320:-1 321:-1 322:-1 323:-0.848449 324:-0.701701 325:-1 326:-1 327:-0.719042 328:-0.877936 329:-0.869983 330:-0.589544 331:-0.466231 332:-0.488084 333:-0.525033 334:-0.31622 335:-0.334571 336:-0.282208 337:-0.284595 338:-0.350578 339:-0.205814 340:-0.224894 341:-0.179756 342:0.049246 343:-0.00750517 344:0.191957 345:0.185229 346:0.275108 347:0.223614 348:0.432998 349:0.299814 350:0.471535 351:0.476912 352:0.548348 353:0.661128 354:0.603948 355:0.71084 356:0.651112 357:0.696078 358:0.55889 359:0.647445 360:0.57414 361:0.628336 362:0.525255 363:0.51492 364:0.463351 365:0.473873 366:0.393409 367:0.189891 368:0.318678 369:0.17168 370:-0.007427 371:0.0292028 372:0.154753 373:-0.166423 374:0.194142 375:-0.0525297 376:-0.248186 377:-0.386062 378:-0.261118 379:-0.594308 380:-0.773848 381:-0.841885 382:-0.937712 383:-0.87691 384:-0.701723 385:-1 386:-0.835178 387:-0.54847 388:-0.486736 389:-0.62935 390:-0.201718 391:-0.49064 392:-0.285782 393:-0.403745 394:-0.447127 395:-0.316092 396:-0.598122 397:-0.433399 398:-0.64546 399:-0.626607 400:-0.550493 401:-0.743789 402:-0.527227 403:-0.723004 404:-0.617552 405:-0.668601 406:-0.766753 407:-0.53476 408:-0.821095 409:-0.545493 410:-0.731658 411:-0.731124 412:-0.543592 413:-0.828077 414:-0.459541 415:-0.750871 416:-0.622324 417:-0.564457 418:-0.8495 419:-0.406263 420:-0.800982 421:-0.510616 422:-0.652984 423:-0.717279 424:-0.447871 425:-0.846014 426:-0.353359 427:-0.724865 428:-0.43359 429:-0.41474 430:-0.738192 431:-0.175366 432:-0.758359 433:-0.332794 434:-0.584826 435:-0.593609 436:-0.449523 437:-0.767423 438:-0.43859 439:-0.630321 440:-0.699493 441:-0.781131 442:-0.887847 443:-0.985368 444:-1 445:-1 446:-1 447:-1 448:-1 453:-0.565923 454:-1 455:-0.988835 456:-0.949338 457:-0.911076 458:-0.795784 459:-0.498011 460:-0.281462 461:0.172161 462:0.56821 463:0.530186 464:0.280758 465:0.345523 466:-0.0837504 467:-0.508732 468:-0.6518 469:-0.55929 470:-0.696163 471:-0.704956 472:-0.77078 473:-0.7746 474:-0.78043 475:-0.760864 476:-0.800483 477:-0.839466 478:-0.850533 479:-0.785698 480:-0.810836 481:-0.862418 482:-0.878084 483:-0.908518 484:-0.924553 485:-0.952652 486:-0.943222 487:-0.960203 488:-0.96369 489:-0.964442 490:-0.980564 491:-0.948297 492:-0.985831 493:-0.973877 494:-0.979554 495:-0.991775 496:-0.988349 497:-0.996965 498:-0.994188 499:-0.991809 500:-0.989424 501:-0.989536 502:-0.980358 503:-0.98947 504:-0.998726 505:-0.990134 506:-1 507:-0.988734 508:-0.99297 509:-0.994782 510:-1 511:-1 512:-1 522:1 523:1 524:-0.126082 525:-0.408439 526:-0.408196 527:-0.348078 528:-0.47575 529:-0.360554 530:-0.406272 531:-0.340498 532:-0.361788 533:-0.318693 534:-0.395347 535:-0.300872 536:-0.375571 537:-0.343906 538:-0.322467 539:-0.49166 540:-0.334849 541:-0.234554 542:-0.250055 543:-0.0817866 544:-0.155124 545:-0.105277 546:-0.0947732 547:-0.153916 548:-0.112787 549:-0.112968 550:0.0319657 551:-0.0941009 552:-0.0510897 553:-0.0172274 554:-0.151633 555:-0.0343333 556:-0.149289 557:-0.102837 558:-0.105111 559:-0.200369 560:-0.0595234 561:-0.307515 562:-0.0911723 563:-0.336738 564:-0.229466 565:-0.109056 566:-0.229246 567:0.0444654 568:0.0374007 569:0.144533 570:-0.232971 571:-0.0708735 572:-0.064912 573:-0.347977 574:-0.364258 575:-0.457955 576:-0.828016 585:-1 586:-0.916576 587:-0.574934 588:-0.514337 589:-0.579484 590:-0.32033 591:-0.361436 592:-0.223151 593:-0.178206 594:-0.150795 595:0.0299581 596:-0.27357 597:-0.315665 598:0.146054 599:-0.027824 600:-0.181815 601:-0.158812 602:-0.265861 603:0.250593 604:-0.166234 605:-0.239742 606:-0.130816 607:-0.381047 608:-0.575088 609:-0.45406 610:-0.542333 611:-0.448912 612:-0.67227 613:-0.702163 614:-0.520018 615:-0.846882 616:-0.670404 617:-0.490902 618:-0.553202 619:-0.353356 620:-0.483923 621:-0.829915 622:-0.591482 623:-0.647319 624:-0.766859 625:-0.59352 626:-0.784309 627:-0.487111 628:-0.551384 629:-0.577674 630:-0.530287 631:-0.593852 632:-0.576492 633:-0.47126 634:-0.435019 635:-0.165017 636:0.0323009 637:-0.321952 638:-0.8438 
661.3526097868876 0 1166.76364642226 445.2328608749116 0 0 1:-0.802506 2:-0.7604 3:-0.610209 4:-0.460864 5:-0.461651 6:-0.475205 7:-0.467878 8:-0.416603 9:-0.458743 10:-0.457612 11:-0.511669 12:-0.487974 13:-0.53242 14:-0.516098 15:-0.504911 16:-0.568513 17:-0.587911 18:-0.588287 19:-0.590466 20:-0.61168 21:-0.598493 22:-0.622659 23:-0.680166 24:-0.665922 25:-0.686138 26:-0.661307 27:-0.654397 28:-0.694632 29:-0.707805 30:-0.718724 31:-0.727449 32:-0.719018 33:-0.761872 34:-0.740887 35:-0.722703 36:-0.728211 37:-0.736297 38:-0.792257 39:-0.753903 40:-0.79427 41:-0.793444 42:-0.754366 43:-0.80117 44:-0.800954 45:-0.75518 46:-0.753521 47:-0.813521 48:-0.794245 49:-0.7869 50:-0.795006 51:-0.81083 52:-0.785461 53:-0.813487 54:-0.802046 55:-0.789654 56:-0.792216 57:-0.81458 58:-0.795261 59:-0.768408 60:-0.791079 61:-0.781826 62:-0.796145 63:-0.801161 64:-0.814354 65:-0.973934 66:-0.869675 67:-0.777682 68:-0.707852 69:-0.78515 70:-0.726235 71:-0.792833 72:-0.803365 73:-0.827597 74:-0.781277 75:-0.842666 76:-0.806986 77:-0.769521 78:-0.792488 79:-0.759948 80:-0.678891 81:-0.69449 82:-0.713224 83:-0.691312 84:-0.681382 85:-0.72509 86:-0.690674 87:-0.649099 88:-0.634784 89:-0.597304 90:-0.628043 91:-0.651713 92:-0.632838 93:-0.667976 94:-0.650932 95:-0.66521 96:-0.673878 97:-0.689987 98:-0.691672 99:-0.664824 100:-0.664492 101:-0.672108 102:-0.720943 103:-0.682998 104:-0.693618 105:-0.753018 106:-0.690516 107:-0.737865 108:-0.726805 109:-0.731231 110:-0.73052 111:-0.712241 112:-0.739733 113:-0.756574 114:-0.766742 115:-0.751504 116:-0.751929 117:-0.781293 118:-0.767148 119:-0.779435 120:-0.782035 121:-0.781318 122:-0.760947 123:-0.765262 124:-0.780772 125:-0.772775 126:-0.767664 127:-0.758884 128:-0.786909 129:-0.950811 130:-0.852572 131:-0.764363 132:-0.734802 133:-0.575172 134:-0.562162 135:-0.422748 136:-0.417404 137:-0.32545 138:-0.235565 139:-0.1234 140:-0.0872417 141:0.00335335 142:0.0924247 143:0.356218 144:0.375237 145:0.286176 146:0.335857 147:0.192896 148:0.289836 149:0.22681 150:0.164326 151:0.253009 152:0.276168 153:0.246212 154:0.278037 155:0.196542 156:0.219047 157:0.160342 158:0.0606417 159:0.0849855 160:-0.033922 161:0.162171 162:0.128756 163:-0.0775102 164:-0.0312983 165:0.0346973 166:0.129415 167:-0.0124878 168:-0.0401537 169:-0.111168 170:-0.0999677 171:-0.0867117 172:0.0772056 173:-0.0093603 174:-0.0569167 175:-0.139264 176:-0.0893873 177:-0.0415767 178:0.0820162 179:0.0159837 180:-0.1421 181:0.000666208 182:-0.0498439 183:0.0547316 184:-0.081126 185:0.0213302 186:-0.0834158 187:0.0109131 188:0.0111899 189:0.035306 190:0.0360178 191:0.0775393 192:0.0981273 193:-1 194:-0.950484 195:-0.924503 196:-0.891196 197:-0.830882 198:-0.751029 199:-0.773789 200:-0.733945 201:-0.704897 202:-0.699495 203:-0.680024 204:-0.642774 205:-0.621165 206:-0.671643 207:-0.587225 208:-0.656891 209:-0.661269 210:-0.609194 211:-0.545913 212:-0.603126 213:-0.565638 214:-0.555118 215:-0.575631 216:-0.548211 217:-0.513182 218:-0.576206 219:-0.56369 220:-0.579257 221:-0.539619 222:-0.521065 223:-0.52133 224:-0.642009 225:-0.566534 226:-0.603237 227:-0.604434 228:-0.612644 229:-0.685599 230:-0.716369 231:-0.686684 232:-0.781792 233:-0.814087 234:-0.844217 235:-0.840029 236:-0.907402 237:-0.91495 238:-0.955 239:-0.99316 240:-0.984953 241:-0.981622 242:-1 243:-1 244:-1 245:-1 246:-1 247:-1 248:-1 249:-1 250:-1 251:-1 252:-1 253:-1 254:-1 255:-1 256:-1 257:-1 258:-0.963682 259:-0.910331 260:-0.894626 261:-0.921502 262:-0.896925 263:-0.892111 264:-0.900932 265:-0.830102 266:-0.790589 267:-0.838012 268:-0.732019 269:-0.683747 270:-0.680507 271:-0.624831 272:-0.584604 273:-0.537247 274:-0.432159 275:-0.377006 276:-0.373634 277:-0.470402 278:-0.439134 279:-0.489951 280:-0.42716 281:-0.520745 282:-0.56616 283:-0.507347 284:-0.492675 285:-0.435005 286:-0.470218 287:-0.525653 288:-0.556732 289:-0.540944 290:-0.612034 291:-0.646876 292:-0.699662 293:-0.725627 294:-0.767642 295:-0.838653 296:-0.79216 297:-0.837112 298:-0.87512 299:-0.870996 300:-0.822884 301:-0.870249 302:-0.938367 303:-0.867028 304:-0.834686 305:-0.924881 306:-0.891691 307:-0.869104 308:-0.907821 309:-0.866737 310:-0.856447 311:-0.91091 312:-0.875002 313:-0.894195 314:-0.899987 315:-0.900653 316:-0.922345 317:-0.927655 318:-0.959694 319:-0.623031 320:-0.520198 321:-1 322:-1 323:-1 324:-0.887869 325:-0.916268 326:-0.875446 327:-0.947194 328:-0.931174 329:-0.882704 330:-0.7355 331:-0.752145 332:-0.781566 333:-0.707842 334:-0.710837 335:-0.664523 336:-0.583923 337:-0.565587 338:-0.56779 339:-0.538947 340:-0.440039 341:-0.457616 342:-0.309395 343:-0.381364 344:-0.334156 345:-0.209284 346:-0.142276 347:-0.135637 348:-0.0912568 349:-0.0293434 350:-0.058941 351:0.0682901 352:0.199368 353:0.185557 354:0.252233 355:0.204738 356:0.334408 357:0.389309 358:0.30592 359:0.557872 360:0.546781 361:0.694185 362:0.667758 363:0.480598 364:0.412168 365:0.551294 366:0.413563 367:0.395251 368:0.78301 369:0.381364 370:0.326321 371:0.468158 372:0.359333 373:0.269034 374:0.52821 375:0.46024 376:0.252469 377:0.189963 378:-0.0861215 379:-0.207003 380:-0.380633 381:-0.509654 382:-0.719031 383:-0.583571 384:0.00910744 385:-1 386:-0.872546 387:-0.398016 388:-0.516063 389:-0.397836 390:-0.278918 391:-0.353078 392:-0.299072 393:-0.391684 394:-0.259772 395:-0.346656 396:-0.314779 397:-0.340456 398:-0.484768 399:-0.447336 400:-0.556236 401:-0.526029 402:-0.564412 403:-0.55369 404:-0.521333 405:-0.587152 406:-0.507613 407:-0.584861 408:-0.566841 409:-0.572007 410:-0.606169 411:-0.510007 412:-0.586578 413:-0.550522 414:-0.591212 415:-0.55049 416:-0.517871 417:-0.592754 418:-0.53997 419:-0.591319 420:-0.491964 421:-0.541777 422:-0.581937 423:-0.498122 424:-0.573261 425:-0.387807 426:-0.547738 427:-0.489663 428:-0.439242 429:-0.456709 430:-0.420292 431:-0.464863 432:-0.385002 433:-0.483217 434:-0.489518 435:-0.522346 436:-0.546356 437:-0.583686 438:-0.573792 439:-0.606797 440:-0.76135 441:-0.92174 442:-0.995136 443:-1 444:-1 445:-1 446:-1 447:-1 448:-1 453:-1 454:-1 455:-0.983213 456:-0.982421 457:-0.976858 458:-0.941888 459:-0.816934 460:-0.703506 461:-0.435227 462:-0.0723851 463:0.0199303 464:0.176445 465:0.314358 466:-0.0470796 467:-0.307165 468:-0.435945 469:-0.449324 470:-0.57592 471:-0.649727 472:-0.685651 473:-0.690926 474:-0.679937 475:-0.647847 476:-0.654122 477:-0.719396 478:-0.723875 479:-0.686319 480:-0.61653 481:-0.672857 482:-0.805229 483:-0.815528 484:-0.851292 485:-0.873378 486:-0.882754 487:-0.852797 488:-0.902049 489:-0.881375 490:-0.916571 491:-0.910719 492:-0.891148 493:-0.888259 494:-0.939851 495:-0.922703 496:-0.915693 497:-0.931545 498:-0.91917 499:-0.890702 500:-0.821106 501:-0.84423 502:-0.878171 503:-0.888377 504:-0.958322 505:-0.971074 506:-0.956173 507:-0.966967 508:-0.96036 509:-0.841119 510:-0.665553 511:-0.651014 512:-0.972452 522:-1 523:-1 524:-0.933411 525:-0.563134 526:-0.209031 527:-0.344469 528:-0.506705 529:-0.685509 530:-0.712259 531:-0.654018 532:-0.615036 533:-0.641742 534:-0.677775 535:-0.660139 536:-0.627203 537:-0.607671 538:-0.596132 539:-0.615961 540:-0.534942 541:-0.474052 542:-0.386353 543:-0.453633 544:-0.334008 545:-0.423082 546:-0.319447 547:-0.385558 548:-0.299388 549:-0.281278 550:-0.307889 551:-0.252781 552:-0.172702 553:-0.233177 554:-0.187412 555:-0.200798 556:-0.119285 557:-0.117088 558:-0.121845 559:0.0162568 560:0.035157 561:-0.0530037 562:-0.0685856 563:-0.0905044 564:-0.1393 565:0.357089 566:0.116827 567:0.362939 568:0.204493 569:0.0533302 570:-0.379968 571:-0.755263 572:-0.815718 573:-0.911766 574:-0.694423 575:-0.456652 576:-1 585:-1 586:-1 587:-1 588:-0.222039 589:-0.0809392 590:0.0944768 591:0.0363268 592:-0.0669202 593:0.0783253 594:-0.153917 595:-0.373336 596:-0.530667 597:-0.543409 598:-0.589166 599:-0.508314 600:-0.568678 601:-0.424933 602:-0.418882 603:-0.421494 604:-0.378769 605:-0.363193 606:-0.579424 607:-0.607054 608:-0.654993 609:-0.581135 610:-0.670261 611:-0.576142 612:-0.645635 613:-0.799358 614:-0.621964 615:-0.880243 616:-0.600485 617:-0.625232 618:-0.732326 619:-0.481637 620:-0.651951 621:-0.80949 622:-0.798779 623:-0.414831 624:-0.83334 625:-0.594063 626:-0.792949 627:-0.470421 628:-0.672648 629:-0.591122 630:-0.567956 631:-0.66648 632:-0.588478 633:-0.643412 634:-0.633987 635:-0.474649 636:-0.461318 637:-0.826812 638:-1 
253.0895821270787 0 0 0 0 0 1:-0.928355 2:-0.895563 3:-0.706568 4:-0.572166 5:-0.449422 6:-0.349728 7:-0.380968 8:-0.360935 9:-0.405663 10:-0.376134 11:-0.417266 12:-0.46962 13:-0.452119 14:-0.469755 15:-0.506071 16:-0.540235 17:-0.578181 18:-0.556949 19:-0.589111 20:-0.577841 21:-0.611093 22:-0.650728 23:-0.654031 24:-0.622304 25:-0.637879 26:-0.691023 27:-0.656028 28:-0.712361 29:-0.707577 30:-0.761095 31:-0.720739 32:-0.729281 33:-0.717534 34:-0.739941 35:-0.744859 36:-0.757652 37:-0.749557 38:-0.766645 39:-0.778829 40:-0.774449 41:-0.761422 42:-0.756496 43:-0.778209 44:-0.792004 45:-0.778739 46:-0.76866 47:-0.81098 48:-0.824507 49:-0.822517 50:-0.816169 51:-0.808392 52:-0.787236 53:-0.805519 54:-0.810315 55:-0.790422 56:-0.80987 57:-0.819513 58:-0.775366 59:-0.802887 60:-0.800952 61:-0.787177 62:-0.805884 63:-0.796627 64:-0.798243 65:-0.889754 66:-0.914478 67:-0.934334 68:-0.907022 69:-0.903539 70:-0.882912 71:-0.923831 72:-0.881498 73:-0.916354 74:-0.90724 75:-0.920006 76:-0.894196 77:-0.898784 78:-0.915441 79:-0.904209 80:-0.919282 81:-0.929041 82:-0.896109 83:-0.896739 84:-0.877191 85:-0.856754 86:-0.85862 87:-0.874053 88:-0.838871 89:-0.829569 90:-0.821553 91:-0.86074 92:-0.847202 93:-0.87647 94:-0.865687 95:-0.854647 96:-0.85569 97:-0.851607 98:-0.862463 99:-0.876183 100:-0.858372 101:-0.861167 102:-0.888581 103:-0.877959 104:-0.874548 105:-0.881775 106:-0.909669 107:-0.909574 108:-0.897879 109:-0.902864 110:-0.916176 111:-0.886013 112:-0.898293 113:-0.899876 114:-0.90062 115:-0.92713 116:-0.911482 117:-0.921191 118:-0.939277 119:-0.931881 120:-0.925829 121:-0.93324 122:-0.933354 123:-0.929261 124:-0.933982 125:-0.93012 126:-0.932037 127:-0.932111 128:-0.934258 129:-0.264469 130:0.492812 131:0.372007 132:0.411387 133:0.541892 134:0.507519 135:0.752192 136:0.662201 137:0.808007 138:0.757453 139:0.795417 140:0.818107 141:0.813169 142:0.754044 143:0.734444 144:0.736774 145:0.6333 146:0.69867 147:0.545665 148:0.513309 149:0.611087 150:0.491405 151:0.483313 152:0.431584 153:0.410144 154:0.436185 155:0.210248 156:0.488948 157:0.330313 158:0.198431 159:0.210802 160:0.249154 161:0.162675 162:0.197856 163:0.0757806 164:0.0844364 165:-0.0414837 166:-0.0479017 167:-0.07359 168:-0.0723841 169:-0.14304 170:-0.174857 171:-0.153642 172:-0.124267 173:-0.0921347 174:-0.160817 175:-0.147082 176:-0.207883 177:-0.237657 178:-0.331843 179:-0.185501 180:-0.318782 181:-0.344328 182:-0.202486 183:-0.258077 184:-0.365291 185:-0.246376 186:-0.209915 187:-0.351912 188:-0.194893 189:-0.288351 190:-0.273597 191:-0.182189 192:-0.344684 193:-1 194:-0.924174 195:-0.907511 196:-0.912725 197:-0.867633 198:-0.750622 199:-0.725263 200:-0.737972 201:-0.618802 202:-0.555691 203:-0.591146 204:-0.527173 205:-0.416005 206:-0.499674 207:-0.490808 208:-0.489425 209:-0.490615 210:-0.413631 211:-0.444659 212:-0.442895 213:-0.488566 214:-0.487965 215:-0.433708 216:-0.474098 217:-0.472988 218:-0.598377 219:-0.594281 220:-0.604079 221:-0.651417 222:-0.674038 223:-0.733892 224:-0.733792 225:-0.738751 226:-0.826405 227:-0.833716 228:-0.77794 229:-0.88445 230:-0.932661 231:-0.881532 232:-0.936882 233:-0.947806 234:-0.932529 235:-0.945562 236:-0.935008 237:-0.939889 238:-0.961716 239:-0.97207 240:-0.984638 241:-0.981238 242:-1 243:-1 244:-1 245:-1 246:-1 247:-1 248:-1 249:-1 250:-1 251:-1 252:-1 253:-1 254:-1 255:-1 256:-1 257:-1 258:-0.814618 259:-0.9288 260:-0.898086 261:-0.868788 262:-0.859677 263:-0.80604 264:-0.853416 265:-0.746613 266:-0.677945 267:-0.701331 268:-0.630427 269:-0.658351 270:-0.602073 271:-0.529839 272:-0.568856 273:-0.477432 274:-0.344514 275:-0.445337 276:-0.496687 277:-0.511016 278:-0.638367 279:-0.630221 280:-0.68481 281:-0.801456 282:-0.785808 283:-0.808229 284:-0.842051 285:-0.928348 286:-0.918502 287:-0.963981 288:-0.983393 289:-0.983699 290:-0.991662 291:-0.995949 292:-1 293:-1 294:-1 295:-1 296:-1 297:-0.995624 298:-0.995604 299:-0.99122 300:-1 301:-1 302:-1 303:-1 304:-1 305:-0.994101 306:-1 307:-1 308:-1 309:-1 310:-1 311:-1 312:-1 313:-1 314:-1 315:-1 316:-1 317:-1 318:-1 319:-1 320:-1 321:-1 322:-1 323:-1 324:-0.656577 325:-0.829037 326:-0.554952 327:-0.299169 328:-0.473017 329:-0.191706 330:-0.189921 331:-0.421636 332:-0.28322 333:-0.366191 334:0.13709 335:0.0545016 336:-0.0268903 337:0.203763 338:0.348238 339:0.363372 340:0.226985 341:0.274838 342:0.480582 343:0.495808 344:0.754628 345:0.569403 346:0.832845 347:0.697578 348:0.61199 349:0.656916 350:0.848536 351:0.850608 352:0.821504 353:0.589365 354:0.735606 355:0.425984 356:0.452813 357:0.437769 358:0.295917 359:0.1212 360:0.176382 361:0.0321745 362:-0.167377 363:-0.157026 364:-0.243261 365:-0.314614 366:-0.335504 367:-0.50248 368:-0.501503 369:-0.509484 370:-0.538218 371:-0.513891 372:-0.685135 373:-0.568147 374:-0.675613 375:-0.836381 376:-0.744271 377:-0.823298 378:-0.753036 379:-0.844313 380:-0.888416 381:-1 382:-1 383:-1 384:-0.656602 385:-1 386:-0.704525 387:-0.102427 388:-0.304098 389:-0.049187 390:-0.0701172 391:-0.0273847 392:-0.0138935 393:-0.14206 394:0.0405659 395:-0.152001 396:-0.0706762 397:-0.264488 398:-0.203221 399:-0.417117 400:-0.207407 401:-0.474702 402:-0.311221 403:-0.516155 404:-0.345282 405:-0.534482 406:-0.322123 407:-0.548105 408:-0.399395 409:-0.544142 410:-0.450164 411:-0.601919 412:-0.519046 413:-0.569209 414:-0.598548 415:-0.589159 416:-0.661118 417:-0.564926 418:-0.749221 419:-0.656407 420:-0.79483 421:-0.669972 422:-0.837357 423:-0.663371 424:-0.875163 425:-0.609383 426:-0.899235 427:-0.684977 428:-0.842664 429:-0.677483 430:-0.834994 431:-0.728055 432:-0.846866 433:-0.712973 434:-0.876651 435:-0.782541 436:-0.923393 437:-0.851245 438:-0.873268 439:-0.937127 440:-0.965891 441:-0.932397 442:-0.950339 443:-0.941043 444:-0.937785 445:-0.981139 446:-0.910161 447:-0.735953 448:-1 453:-1 454:-1 455:-0.987146 456:-0.968594 457:-0.980312 458:-0.949463 459:-0.810234 460:-0.743627 461:-0.142371 462:0.371673 463:0.260386 464:0.217019 465:-0.0338871 466:-0.472574 467:-0.696677 468:-0.81562 469:-0.767487 470:-0.814239 471:-0.86189 472:-0.876009 473:-0.87392 474:-0.887019 475:-0.877009 476:-0.912624 477:-0.921032 478:-0.931688 479:-0.919006 480:-0.923518 481:-0.947202 482:-0.965974 483:-0.977686 484:-0.987915 485:-0.977417 486:-0.989813 487:-0.979841 488:-0.990984 489:-0.992324 490:-0.987729 491:-0.99721 492:-0.997961 493:-0.996889 494:-1 495:-0.996844 496:-1 497:-1 498:-1 499:-1 500:-1 501:-1 502:-1 503:-1 504:-1 505:-1 506:-1 507:-1 508:-1 509:-1 510:-1 511:-1 512:-1 522:-1 523:-1 524:-0.986404 525:-0.86138 526:-0.804434 527:-0.831129 528:-0.884671 529:-0.656236 530:-0.655405 531:-0.55779 532:-0.502026 533:-0.473415 534:-0.490644 535:-0.243371 536:-0.323401 537:-0.111876 538:-0.324294 539:-0.189438 540:-0.253375 541:-0.0572838 542:-0.0386532 543:0.266586 544:-0.0781311 545:0.466059 546:0.100481 547:0.466206 548:0.00855843 549:0.4182 550:0.0598626 551:0.594208 552:-0.0146501 553:0.27619 554:-0.0201698 555:0.264337 556:-0.29355 557:0.138731 558:-0.258937 559:0.117864 560:-0.250979 561:-0.1234 562:-0.277469 563:-0.283011 564:-0.108702 565:-0.290261 566:-0.0234241 567:-0.101017 568:0.173129 569:-0.0533976 570:0.430082 571:-0.547145 572:0.410994 573:-0.549609 574:0.0798687 575:-0.37596 576:0.386005 585:-1 586:-1 587:-1 588:-1 589:-0.982863 590:-0.989749 591:-0.989149 592:-0.968248 593:-0.92614 594:-0.775358 595:-0.834545 596:-0.810522 597:-0.780644 598:-0.793203 599:-0.683447 600:-0.568745 601:-0.508256 602:-0.422994 603:-0.371098 604:-0.395172 605:-0.30767 606:-0.134175 607:-0.465123 608:-0.178162 609:-0.157667 610:-0.405409 611:-0.40063 612:-0.414067 613:-0.518282 614:-0.315842 615:-0.634643 616:-0.377045 617:-0.22259 618:-0.244498 619:-0.311598 620:0.0135427 621:-0.559419 622:-0.113429 623:-0.382634 624:-0.589655 625:-0.0337991 626:-0.38844 627:-0.206472 628:0.046769 629:-0.324619 630:-0.0831142 631:-0.147991 632:0.119682 633:-0.1645 634:0.0402512 635:0.506411 636:0.424673 637:-0.272758 638:-0.95913 
563.9114866130395 0 0 0 0 0 1:-0.930304 2:-0.911939 3:-0.842968 4:-0.801192 5:-0.808158 6:-0.815383 7:-0.799838 8:-0.797508 9:-0.809473 10:-0.810719 11:-0.804769 12:-0.802587 13:-0.791581 14:-0.825713 15:-0.816077 16:-0.815637 17:-0.84534 18:-0.829948 19:-0.847581 20:-0.85527 21:-0.884442 22:-0.855353 23:-0.889297 24:-0.868506 25:-0.87967 26:-0.88262 27:-0.884658 28:-0.879798 29:-0.878187 30:-0.885868 31:-0.86809 32:-0.895337 33:-0.897662 34:-0.899574 35:-0.888227 36:-0.890729 37:-0.902686 38:-0.899291 39:-0.881437 40:-0.914785 41:-0.907656 42:-0.925868 43:-0.908952 44:-0.920747 45:-0.907281 46:-0.924342 47:-0.92438 48:-0.913024 49:-0.903289 50:-0.920505 51:-0.922703 52:-0.919112 53:-0.920834 54:-0.933121 55:-0.92168 56:-0.910693 57:-0.930136 58:-0.926259 59:-0.899585 60:-0.923102 61:-0.921707 62:-0.926282 63:-0.905888 64:-0.947667 65:-0.960358 66:-0.806597 67:-0.726265 68:-0.625056 69:-0.689778 70:-0.647641 71:-0.723565 72:-0.712718 73:-0.713948 74:-0.691711 75:-0.727724 76:-0.668859 77:-0.698069 78:-0.707318 79:-0.655249 80:-0.594397 81:-0.585896 82:-0.45949 83:-0.49865 84:-0.45077 85:-0.459767 86:-0.502096 87:-0.413755 88:-0.398749 89:-0.319459 90:-0.34561 91:-0.390065 92:-0.341781 93:-0.412536 94:-0.304454 95:-0.418648 96:-0.384293 97:-0.361887 98:-0.353733 99:-0.344891 100:-0.319341 101:-0.326389 102:-0.401027 103:-0.384178 104:-0.351241 105:-0.407569 106:-0.419725 107:-0.436753 108:-0.440216 109:-0.465259 110:-0.399157 111:-0.433108 112:-0.434309 113:-0.517176 114:-0.490086 115:-0.468938 116:-0.499504 117:-0.488951 118:-0.504063 119:-0.512594 120:-0.491007 121:-0.518365 122:-0.547241 123:-0.53592 124:-0.562534 125:-0.508425 126:-0.538419 127:-0.51302 128:-0.559617 129:-0.979465 130:-0.943881 131:-0.875725 132:-0.877802 133:-0.829702 134:-0.803145 135:-0.77656 136:-0.761309 137:-0.675676 138:-0.633196 139:-0.568055 140:-0.545421 141:-0.481898 142:-0.340904 143:-0.26769 144:-0.225222 145:-0.0885505 146:-0.075688 147:-0.159574 148:0.00490677 149:-0.0417388 150:-0.078628 151:-0.053283 152:0.00710406 153:-0.161442 154:-0.0567645 155:-0.0485907 156:-0.0502429 157:-0.0531651 158:-0.181076 159:-0.0396165 160:-0.0374304 161:-0.104002 162:-0.0308171 163:-0.111094 164:-0.167685 165:-0.063169 166:-0.132523 167:-0.164559 168:-0.156161 169:-0.147143 170:-0.121559 171:-0.246798 172:-0.142743 173:-0.100524 174:-0.181816 175:-0.232887 176:-0.134964 177:-0.117895 178:-0.146978 179:-0.0327088 180:-0.13624 181:-0.119266 182:-0.0780156 183:-0.0163169 184:-0.0888749 185:-0.0777033 186:-0.0678167 187:-0.137215 188:-0.13632 189:-0.116091 190:-0.188097 191:-0.0544235 192:-0.117812 193:-1 194:-0.956072 195:-0.97321 196:-0.951738 197:-0.934987 198:-0.908318 199:-0.89274 200:-0.897259 201:-0.863759 202:-0.875898 203:-0.87913 204:-0.867341 205:-0.87061 206:-0.831888 207:-0.832164 208:-0.854257 209:-0.824189 210:-0.848976 211:-0.815768 212:-0.841075 213:-0.83302 214:-0.821518 215:-0.802598 216:-0.804778 217:-0.830439 218:-0.827746 219:-0.82297 220:-0.839337 221:-0.836632 222:-0.845329 223:-0.815006 224:-0.85493 225:-0.856375 226:-0.89225 227:-0.870985 228:-0.883692 229:-0.854963 230:-0.912226 231:-0.924506 232:-0.922568 233:-0.876303 234:-0.92043 235:-0.943233 236:-0.953792 237:-0.976784 238:-0.960079 239:-0.987865 240:-0.966628 241:-1 242:-0.990794 243:-1 244:-1 245:-1 246:-1 247:-1 248:-1 249:-1 250:-1 251:-1 252:-1 253:-1 254:-1 255:-1 256:-1 257:-1 258:-0.967781 259:-0.938129 260:-0.936039 261:-0.972852 262:-0.94813 263:-0.944331 264:-0.972822 265:-0.917103 266:-0.956585 267:-0.861509 268:-0.816919 269:-0.750789 270:-0.690112 271:-0.665181 272:-0.643771 273:-0.5459 274:-0.36784 275:-0.264163 276:-0.136024 277:-0.122534 278:-0.148903 279:-0.150772 280:-0.0991216 281:-0.0634065 282:0.0568279 283:0.106771 284:0.216137 285:0.13321 286:0.25867 287:0.314597 288:0.363709 289:0.420048 290:0.286138 291:0.256598 292:-0.0278518 293:-0.00131442 294:-0.200783 295:-0.354047 296:-0.450399 297:-0.49804 298:-0.511016 299:-0.671926 300:-0.624431 301:-0.678494 302:-0.671939 303:-0.696664 304:-0.71127 305:-0.759069 306:-0.717082 307:-0.83964 308:-0.723222 309:-0.810844 310:-0.830199 311:-0.802413 312:-0.875248 313:-0.812274 314:-0.92902 315:-0.911866 316:-0.93111 317:-0.96791 318:-0.964243 319:-0.888526 320:-1 321:-1 322:-1 323:-1 324:-1 325:-1 326:-0.944752 327:-0.953154 328:-1 329:-0.895942 330:-0.863123 331:-0.890059 332:-0.90311 333:-0.913605 334:-0.895489 335:-0.812034 336:-0.791952 337:-0.700257 338:-0.781658 339:-0.783738 340:-0.785947 341:-0.731441 342:-0.673247 343:-0.750867 344:-0.645583 345:-0.683091 346:-0.544943 347:-0.580493 348:-0.372566 349:-0.515413 350:-0.36641 351:-0.358238 352:-0.248051 353:-0.27388 354:-0.074251 355:-0.082254 356:-0.00104171 357:0.164973 358:0.150426 359:0.403504 360:0.496536 361:0.648427 362:0.470253 363:0.545879 364:0.300784 365:0.462943 366:0.568987 367:0.356226 368:0.489891 369:0.405283 370:0.237844 371:0.540069 372:0.895014 373:0.845079 374:0.89266 375:0.832562 376:1 377:0.708248 378:0.883767 379:0.785801 380:0.551424 381:-0.0509038 382:0.55786 383:0.847145 384:-0.403188 385:-1 386:-0.967021 387:-0.621334 388:-0.673237 389:-0.584607 390:-0.642635 391:-0.528446 392:-0.585829 393:-0.555094 394:-0.538431 395:-0.543866 396:-0.536392 397:-0.590053 398:-0.594693 399:-0.631987 400:-0.647761 401:-0.687511 402:-0.706625 403:-0.720392 404:-0.725715 405:-0.742332 406:-0.74199 407:-0.783096 408:-0.743506 409:-0.771365 410:-0.765464 411:-0.795566 412:-0.750375 413:-0.797055 414:-0.78714 415:-0.772994 416:-0.775894 417:-0.754765 418:-0.778907 419:-0.758295 420:-0.744785 421:-0.780219 422:-0.760019 423:-0.739741 424:-0.770862 425:-0.70234 426:-0.768678 427:-0.65255 428:-0.738088 429:-0.71617 430:-0.728521 431:-0.710937 432:-0.720552 433:-0.691195 434:-0.726672 435:-0.750907 436:-0.751877 437:-0.719311 438:-0.812783 439:-0.785662 440:-0.745942 441:-0.871827 442:-0.874853 443:-0.809709 444:-0.936926 445:-0.934442 446:-1 447:-1 448:-1 453:-1 454:-1 455:-0.992554 456:-0.964911 457:-0.955519 458:-0.961812 459:-0.842592 460:-0.750122 461:-0.606718 462:-0.378368 463:-0.232247 464:-0.0883545 465:0.162128 466:-0.0878672 467:-0.2553 468:-0.260959 469:0.483615 470:0.810137 471:0.148247 472:-0.180099 473:-0.378579 474:-0.269667 475:-0.317638 476:-0.369883 477:-0.483881 478:-0.54314 479:-0.374145 480:-0.393966 481:-0.478244 482:-0.577731 483:-0.648652 484:-0.726308 485:-0.709021 486:-0.709353 487:-0.706972 488:-0.737176 489:-0.762848 490:-0.843821 491:-0.757538 492:-0.765229 493:-0.767497 494:-0.829248 495:-0.782395 496:-0.804765 497:-0.856528 498:-0.819762 499:-0.853873 500:-0.66778 501:-0.763404 502:-0.729803 503:-0.759812 504:-0.906927 505:-0.883535 506:-0.879265 507:-0.878272 508:-0.85582 509:-0.827729 510:-0.795379 511:-0.908941 512:-0.828929 522:-1 523:-1 524:-0.97637 525:-0.858593 526:-0.572401 527:-0.0651785 528:-0.512271 529:-0.602641 530:-0.695646 531:-0.618147 532:-0.70303 533:-0.712809 534:-0.717831 535:-0.707433 536:-0.665779 537:-0.668975 538:-0.72377 539:-0.748799 540:-0.713863 541:-0.636703 542:-0.546673 543:-0.652877 544:-0.587895 545:-0.530291 546:-0.563718 547:-0.556834 548:-0.624394 549:-0.502763 550:-0.489986 551:-0.399261 552:-0.484125 553:-0.455779 554:-0.455942 555:-0.49937 556:-0.38611 557:-0.470392 558:-0.315194 559:-0.453985 560:-0.336229 561:-0.470227 562:-0.422485 563:-0.454832 564:-0.422766 565:-0.46774 566:-0.444303 567:-0.457642 568:-0.355183 569:-0.368261 570:-0.511067 571:-0.667542 572:-0.609456 573:-0.73908 574:-0.906162 575:-0.839325 576:-1 585:-1 586:-1 587:-1 588:-1 589:-1 590:-0.9614 591:-0.785482 592:-0.730975 593:-0.416247 594:-0.329142 595:-0.559085 596:-0.483332 597:-0.552053 598:-0.567199 599:-0.603103 600:-0.485209 601:-0.494197 602:-0.578631 603:-0.497885 604:-0.512718 605:-0.567128 606:-0.666979 607:-0.723264 608:-0.889475 609:-0.605986 610:-0.68045 611:-0.644306 612:-0.699129 613:-0.823648 614:-0.756095 615:-0.878935 616:-0.640286 617:-0.755952 618:-0.718887 619:-0.545987 620:-0.782344 621:-0.860884 622:-0.779211 623:-0.563299 624:-0.866381 625:-0.759245 626:-0.88765 627:-0.570244 628:-0.788796 629:-0.663081 630:-0.71779 631:-0.792749 632:-0.716983 633:-0.813307 634:-0.709371 635:-0.694388 636:-0.781905 637:-0.875348 638:-1 
66.59617190921733 0 0 102.773428719924 0 0 1:-0.698082 2:-0.650233 3:-0.409748 4:-0.361631 5:-0.30592 6:-0.320008 7:-0.294889 8:-0.298625 9:-0.361082 10:-0.337765 11:-0.365025 12:-0.347127 13:-0.390462 14:-0.433705 15:-0.419328 16:-0.432106 17:-0.547866 18:-0.495503 19:-0.547813 20:-0.540794 21:-0.564682 22:-0.518622 23:-0.622906 24:-0.587233 25:-0.583482 26:-0.64989 27:-0.626668 28:-0.654472 29:-0.64096 30:-0.651593 31:-0.677981 32:-0.68946 33:-0.688557 34:-0.725339 35:-0.716413 36:-0.689675 37:-0.705166 38:-0.671919 39:-0.725725 40:-0.729355 41:-0.760752 42:-0.723168 43:-0.734736 44:-0.757454 45:-0.708137 46:-0.737176 47:-0.774731 48:-0.798423 49:-0.780922 50:-0.83959 51:-0.751601 52:-0.772575 53:-0.813474 54:-0.775719 55:-0.765955 56:-0.777049 57:-0.780218 58:-0.774795 59:-0.788804 60:-0.759579 61:-0.812669 62:-0.777175 63:-0.78714 64:-0.771639 65:-0.835104 66:-0.965079 67:-0.95385 68:-0.929968 69:-0.922687 70:-0.927165 71:-0.916347 72:-0.912022 73:-0.90689 74:-0.924038 75:-0.892296 76:-0.929 77:-0.935857 78:-0.920226 79:-0.900176 80:-0.91724 81:-0.91038 82:-0.873285 83:-0.885566 84:-0.856968 85:-0.858647 86:-0.855667 87:-0.850375 88:-0.844429 89:-0.833074 90:-0.86292 91:-0.871958 92:-0.870686 93:-0.893493 94:-0.880092 95:-0.864542 96:-0.858139 97:-0.885521 98:-0.86997 99:-0.907491 100:-0.880033 101:-0.887835 102:-0.910857 103:-0.881339 104:-0.883164 105:-0.90177 106:-0.906166 107:-0.904107 108:-0.903741 109:-0.921453 110:-0.922446 111:-0.927471 112:-0.928801 113:-0.913318 114:-0.929686 115:-0.940534 116:-0.919805 117:-0.93935 118:-0.93479 119:-0.915852 120:-0.920736 121:-0.933609 122:-0.948685 123:-0.932951 124:-0.940634 125:-0.936519 126:-0.933283 127:-0.929442 128:-0.942097 129:-0.743743 130:-0.618019 131:-0.351778 132:-0.266791 133:0.146996 134:0.303928 135:0.284242 136:0.31631 137:0.523793 138:0.582949 139:0.670079 140:0.594863 141:0.67582 142:0.696907 143:0.611042 144:0.716293 145:0.758383 146:0.535605 147:0.794093 148:0.699828 149:0.764403 150:0.595857 151:0.498329 152:0.633218 153:0.713295 154:0.685097 155:0.693102 156:0.692863 157:0.536437 158:0.45396 159:0.399054 160:0.463747 161:0.596623 162:0.440359 163:0.255079 164:0.248858 165:0.370733 166:0.362831 167:0.276887 168:0.208081 169:0.241401 170:0.0428995 171:0.0769308 172:0.163192 173:0.0721065 174:0.0984769 175:0.0975497 176:0.0976117 177:0.0973049 178:-0.00981539 179:-0.0227302 180:-0.062827 181:-0.0247919 182:0.0731113 183:-0.0744799 184:-0.045448 185:0.025601 186:0.0192504 187:-0.0870137 188:0.0051092 189:0.0768713 190:-0.0365266 191:-0.0786403 192:-0.144343 193:-1 194:-0.809332 195:-0.680222 196:-0.820445 197:-0.793784 198:-0.778415 199:-0.710902 200:-0.716763 201:-0.669537 202:-0.678298 203:-0.656204 204:-0.606132 205:-0.584256 206:-0.583258 207:-0.629736 208:-0.650111 209:-0.576502 210:-0.556812 211:-0.528559 212:-0.576824 213:-0.520531 214:-0.589463 215:-0.528746 216:-0.595578 217:-0.545517 218:-0.572528 219:-0.570218 220:-0.568554 221:-0.564201 222:-0.577372 223:-0.593955 224:-0.578796 225:-0.600319 226:-0.693405 227:-0.678006 228:-0.69882 229:-0.730633 230:-0.730136 231:-0.776581 232:-0.793442 233:-0.82998 234:-0.80459 235:-0.871669 236:-0.894146 237:-0.87404 238:-0.913361 239:-0.986832 240:-0.971029 241:-0.964616 242:-1 243:-1 244:-1 245:-1 246:-1 247:-1 248:-1 249:-1 250:-1 251:-1 252:-1 253:-1 254:-1 255:-1 256:-1 257:-1 258:-0.930078 259:-0.952044 260:-0.957289 261:-0.947221 262:-0.945076 263:-0.930734 264:-0.916684 265:-0.829937 266:-0.848957 267:-0.851277 268:-0.78443 269:-0.703617 270:-0.706791 271:-0.703721 272:-0.682316 273:-0.649099 274:-0.539112 275:-0.592045 276:-0.634326 277:-0.640128 278:-0.683863 279:-0.708245 280:-0.742181 281:-0.779351 282:-0.81172 283:-0.819169 284:-0.871844 285:-0.885141 286:-0.905686 287:-0.898107 288:-0.925619 289:-0.961573 290:-0.948893 291:-0.965624 292:-0.972651 293:-0.996116 294:-0.984303 295:-0.988052 296:-0.980762 297:-0.983494 298:-0.987564 299:-0.99586 300:-0.991683 301:-0.991386 302:-0.986308 303:-1 304:-1 305:-0.988875 306:-0.994208 307:-0.994 308:-0.993174 309:-1 310:-1 311:-1 312:-0.984959 313:-1 314:-1 315:-1 316:-1 317:-1 318:-1 319:-1 320:-1 321:-1 322:-1 323:-1 324:-1 325:-0.919395 326:-0.940049 327:-0.796663 328:-0.701849 329:-0.661251 330:-0.745378 331:-0.488718 332:-0.444269 333:-0.554692 334:-0.597918 335:-0.252121 336:-0.27175 337:-0.0839667 338:-0.214095 339:-0.14294 340:-0.246206 341:-0.174308 342:-0.00721147 343:0.132296 344:0.0696305 345:0.209395 346:0.380196 347:0.223867 348:0.48044 349:0.57752 350:0.508509 351:0.449465 352:0.493201 353:0.555555 354:0.653328 355:0.668182 356:0.651595 357:0.671776 358:0.520888 359:0.672016 360:0.658906 361:0.578306 362:0.368931 363:0.507536 364:0.0417036 365:0.386691 366:0.303805 367:0.0989365 368:0.146658 369:0.0551473 370:-0.0700857 371:0.0981919 372:-0.0763039 373:-0.10639 374:0.0778629 375:-0.211435 376:-0.258034 377:-0.416826 378:-0.689499 379:-0.67703 380:-0.684346 381:-0.78544 382:-0.864762 383:-0.599124 384:-0.676193 385:-1 386:-0.713713 387:-0.304373 388:-0.348406 389:-0.317734 390:-0.0804217 391:-0.346783 392:-0.0294281 393:-0.323736 394:0.0138462 395:-0.327961 396:-0.195919 397:-0.499349 398:-0.371103 399:-0.478712 400:-0.512437 401:-0.493511 402:-0.607135 403:-0.452691 404:-0.665692 405:-0.450938 406:-0.681942 407:-0.442473 408:-0.704851 409:-0.426866 410:-0.677141 411:-0.568587 412:-0.574868 413:-0.662242 414:-0.443227 415:-0.71493 416:-0.454322 417:-0.721219 418:-0.378291 419:-0.711149 420:-0.456923 421:-0.647112 422:-0.527557 423:-0.598554 424:-0.596405 425:-0.470172 426:-0.712115 427:-0.433645 428:-0.660382 429:-0.372397 430:-0.744828 431:-0.473403 432:-0.72083 433:-0.520561 434:-0.706313 435:-0.596108 436:-0.858811 437:-0.911831 438:-1 439:-1 440:-1 441:-1 442:-1 443:-1 444:-1 445:-1 446:-1 447:-1 448:-1 453:-1 454:-0.995739 455:-0.99596 456:-0.92808 457:-0.938737 458:-0.896404 459:-0.628564 460:-0.404582 461:-0.0178674 462:0.522545 463:0.366598 464:0.242593 465:0.121876 466:-0.46742 467:-0.697121 468:-0.801078 469:-0.737685 470:-0.757032 471:-0.818381 472:-0.902465 473:-0.872307 474:-0.884267 475:-0.84745 476:-0.907417 477:-0.893059 478:-0.926616 479:-0.893078 480:-0.926659 481:-0.907375 482:-0.946859 483:-0.957919 484:-0.969375 485:-0.975768 486:-0.969582 487:-0.979263 488:-0.983769 489:-0.983112 490:-0.985026 491:-0.978952 492:-0.984618 493:-0.990221 494:-0.98842 495:-0.997024 496:-0.990514 497:-0.999176 498:-0.997897 499:-0.997036 500:-1 501:-0.990912 502:-0.997335 503:-1 504:-1 505:-1 506:-1 507:-1 508:-1 509:-1 510:-1 511:-1 512:-1 522:-1 523:-0.89661 524:1 525:-0.0907027 526:-0.060109 527:0.203123 528:-0.347504 529:-0.415915 530:-0.39807 531:-0.457137 532:-0.189773 533:-0.370492 534:-0.233527 535:-0.31187 536:-0.263264 537:-0.195385 538:-0.296448 539:-0.313368 540:-0.299582 541:-0.230879 542:-0.123573 543:-0.11574 544:-0.162667 545:0.0193861 546:-0.144019 547:-0.0406235 548:-0.109632 549:0.0300758 550:-0.0892603 551:0.0649193 552:0.0445554 553:-0.0166819 554:-0.132156 555:-0.0456485 556:-0.067394 557:-0.119815 558:-0.0148822 559:-0.0148063 560:0.0454471 561:-0.241444 562:0.0637416 563:-0.273208 564:0.292387 565:-0.0282164 566:0.224698 567:-0.568055 568:0.31278 569:-0.614398 570:-0.0788985 571:-0.48463 572:-0.517078 573:-0.990562 574:-1 575:-1 576:-1 585:-1 586:-1 587:-0.899685 588:-0.832245 589:-0.773766 590:-0.813123 591:-0.708387 592:-0.635718 593:-0.432883 594:-0.230266 595:-0.188718 596:-0.328453 597:-0.417396 598:0.167244 599:-0.010709 600:0.0016492 601:-0.0134747 602:0.118828 603:0.568351 604:0.177588 605:-0.0340226 606:-0.0196166 607:-0.175437 608:0.0424996 609:-0.358668 610:-0.021849 611:0.179973 612:-0.227746 613:-0.326944 614:-0.349361 615:-0.662189 616:-0.416411 617:-0.570145 618:-0.640011 619:-0.629976 620:-0.626502 621:-0.744246 622:-0.602395 623:0.0481742 624:-0.72803 625:-0.506041 626:-0.76198 627:-0.326922 628:-0.559865 629:-0.752336 630:-0.656732 631:-0.795821 632:-0.729235 633:-0.76787 634:-0.632433 635:-0.389252 636:-0.209973 637:-0.587919 638:-1 
